//Numpy array shape [784, 32]
//Min -0.544811308384
//Max 0.703856408596
//Number of zeros 0

#ifndef W2_H_
#define W2_H_

#ifndef __SYNTHESIS__
model_default_t w2[25088];
#else
model_default_t w2[25088] = {-0.0337402262, -0.0750045851, -0.0425136015, -0.0564488769, 0.0726750419, -0.0418726727, -0.0774772689, 0.0081571639, -0.0085132793, 0.0084173158, 0.0358767286, -0.0398426428, -0.0315592363, 0.0045386776, -0.0298160389, 0.0016777143, 0.0735341385, -0.0706061274, 0.0786853358, 0.0638718829, -0.0107303336, 0.0562277511, -0.0222448111, 0.0437260047, 0.0176855996, -0.0782742724, -0.0322466753, -0.0613913275, 0.0607112870, 0.0686133578, 0.0530207530, 0.0190569982, -0.0832846388, -0.0474505126, -0.0185581446, 0.0194945931, -0.0059750080, 0.0350448564, -0.0465239994, -0.0313444100, -0.0811182633, 0.0413959697, -0.0690637156, -0.0275670514, 0.0701515749, -0.0783092305, -0.0832786039, -0.0163975954, 0.0429912731, 0.0189960599, 0.0009100959, -0.0389145985, 0.0791128650, -0.0185991749, 0.0818324909, 0.0186754316, 0.0686579868, -0.0789544508, -0.0157638639, -0.0471208096, 0.0367711857, -0.0480531268, 0.0241329744, -0.0843895078, -0.0612269118, -0.0363844223, 0.0285104141, -0.0561259165, 0.0571807548, -0.0665023178, -0.0196767673, 0.0678834692, -0.0107853711, -0.0852479339, 0.0429751351, 0.0333703309, 0.0088587254, -0.0773427710, 0.0489326790, -0.0440818146, 0.0218402594, 0.0622076467, -0.0338451080, -0.0564864725, -0.0412263088, 0.0038198158, -0.0090459958, -0.0745123252, -0.0122004002, -0.0517691299, -0.0180378333, 0.0497958288, 0.0535847172, -0.0551846251, -0.0833958536, -0.0592332557, -0.0496457331, -0.0507562421, -0.0813008696, -0.0221773013, 0.0501123294, -0.0454399660, -0.0578117892, -0.0630177706, 0.0196222216, -0.0364577547, -0.0274013951, -0.0535195842, 0.0422186479, 0.0674077794, -0.0291739479, -0.0275440551, -0.0618094504, -0.0764778554, 0.0634182915, -0.0462338775, 0.0059644803, -0.0115556046, 0.0386846215, -0.0515378453, 0.0798952356, 0.0117711127, 0.0176701918, 0.0442381874, -0.0348787270, 0.0167192891, 0.0095864832, 0.0222110972, -0.0182281286, 0.0201149285, 0.0578864887, -0.0696435124, -0.0753894225, -0.0770526230, 0.0490462109, -0.0579189360, 0.0434909388, 0.0552582219, -0.0666675270, -0.0784258842, 0.0403105989, -0.0242439881, 0.0117538124, -0.0256940946, 0.0164431483, -0.0511673763, 0.0228861049, -0.0648910329, 0.0367162749, 0.0827600434, 0.0569032058, -0.0662782341, 0.0773000792, 0.0054049045, -0.0524452627, 0.0214323550, 0.0508275703, 0.0555483028, 0.0311500877, 0.0802934691, 0.0569883808, -0.0849039629, -0.0815729424, -0.0315459073, -0.0109086707, 0.0718985721, -0.0814012364, 0.0620974228, -0.0125827417, -0.0381480828, 0.0138752311, -0.0759990960, 0.0338035226, -0.0401657037, -0.0651506484, -0.0261285380, 0.0024599284, -0.0053807572, -0.0756613165, 0.0175552741, 0.0606527105, 0.0745122805, -0.0739655644, -0.0014160499, 0.0706593022, -0.0667302534, -0.0333318934, 0.0122641623, 0.0203365684, -0.0820146427, 0.0649839863, 0.0276357457, 0.0562698469, -0.0755172670, -0.0334258974, -0.0027025044, 0.0675507858, 0.0806515440, 0.0114969090, 0.0631346032, 0.0852862075, -0.0284861624, -0.0853060633, -0.0310978517, -0.0788563192, 0.0496068671, 0.0207164213, -0.0213414356, -0.0382243805, 0.0843470022, -0.0740475878, -0.0058764294, 0.0444855019, 0.0713521764, -0.0116679445, -0.0482006706, -0.0775629953, -0.0397555530, 0.0813593045, -0.0608616397, -0.0344395824, -0.0077752471, 0.0023211315, 0.0088340119, 0.0374451876, 0.0826455578, -0.0642857403, -0.0757310092, 0.0431477651, -0.0260577165, -0.0441449285, 0.0680266246, 0.0212398097, 0.0213819221, 0.0618990734, -0.0137719214, 0.0674039498, 0.0407496467, 0.0306356922, -0.0567627773, -0.0249748491, -0.0832182989, -0.0119306743, -0.0626507550, -0.0466750003, 0.0070093870, 0.0225146487, 0.0704350099, 0.0801611468, 0.0277404189, 0.0594719276, 0.0635934994, 0.0753728524, -0.0776299089, 0.0605150536, 0.0696211830, -0.0649769977, -0.0143658072, 0.0595869794, -0.0288753211, -0.0596864820, -0.0349911675, -0.0792372525, -0.0059834495, 0.0414969698, -0.0825587064, -0.0623500794, -0.0445695333, -0.0399298184, 0.0522977188, 0.0057698339, -0.0230051875, -0.0235592276, -0.0678065792, 0.0822053477, 0.0735288635, -0.0545675382, 0.0812537298, -0.0673503503, -0.0125129521, 0.0630289242, -0.0692849457, -0.0029958338, 0.0020169020, 0.0509839728, 0.0180653334, -0.0737105906, 0.0081238002, -0.0710809082, 0.0147098228, -0.0520269535, -0.0087114275, 0.0358082205, 0.0055621788, 0.0786710307, -0.0010903925, 0.0545916334, 0.0396844670, -0.0673490018, 0.0112012029, -0.0600466877, -0.0797652453, 0.0604867116, 0.0391337425, 0.0023526400, 0.0018126070, -0.0506552048, -0.0557654873, -0.0494632050, -0.0209561884, -0.0250290036, 0.0525994673, -0.0064216927, -0.0653787702, -0.0134141892, 0.0122110248, 0.0787527636, 0.0076361224, 0.0585517809, 0.0151193216, 0.0295471400, 0.0036382303, -0.0446970835, 0.0760925487, 0.0720948651, 0.0023356080, -0.0078355148, -0.0813665986, -0.0218963176, -0.0230308920, -0.0551159307, -0.0161147937, -0.0104242265, 0.0409512594, -0.0136521012, -0.0150537789, 0.0438388959, 0.0584612265, 0.0360707268, 0.0322147608, -0.0190091208, 0.0444567278, -0.0700988322, 0.0567178950, 0.0546392128, 0.0854414031, 0.0766914710, 0.0399976298, 0.0277043134, -0.0130162239, -0.0674623251, 0.0438667759, -0.0370834097, -0.0219685659, -0.0389674902, -0.0549175814, -0.0471921787, -0.0103415027, 0.0040589795, -0.0783512443, 0.0629327968, -0.0712053329, -0.0642740875, -0.0741442069, 0.0423305854, -0.0078994632, -0.0139869750, 0.0432491973, 0.0110887438, 0.0353061110, 0.0239916220, 0.0083360523, 0.0321180001, -0.0330938622, -0.0595579706, 0.0704013780, 0.0716076270, 0.0524804518, 0.0376308039, -0.0393358916, 0.0175225213, -0.0410806425, -0.0364508033, -0.0798667744, 0.0316068344, -0.0261473041, 0.0292554237, -0.0142553775, -0.0491037294, -0.0158760007, -0.0459800921, 0.0082621556, 0.0669757500, -0.0765206441, -0.0018911643, 0.0135454973, 0.0669499859, 0.0254336055, 0.0309572108, -0.0814778954, 0.0736890882, -0.0076588555, -0.0671912804, -0.0150765665, -0.0214353167, 0.0515999869, 0.0267039593, -0.0418932140, -0.0169357602, -0.0604372509, 0.0331633389, 0.0238808896, 0.0559140332, 0.0287929270, 0.0681256130, 0.0245194845, -0.0581063554, -0.0455183908, -0.0132816071, 0.0147929769, -0.0035057873, -0.0591107868, 0.0293576587, 0.0145712653, 0.0178004913, -0.0469762385, -0.0697433949, 0.0312733427, -0.0427077264, 0.0315793343, -0.0172018763, 0.0685059279, -0.0646693110, -0.0104860757, 0.0218471531, -0.0313327201, 0.0532896630, 0.0002048015, 0.0622082576, -0.0338745192, -0.0100630345, 0.0106139071, 0.0535407662, 0.0763662457, -0.0162129011, 0.0186590422, 0.0286607686, 0.0754192546, 0.0173445586, 0.0542079173, -0.0105302595, -0.0595660694, -0.0753944889, 0.0664905310, 0.0842072293, -0.0093621612, -0.0080276746, -0.0456224233, -0.0812582746, 0.0417647436, -0.0343361609, 0.0326562263, 0.0264381133, 0.0353957042, 0.0165132657, -0.0104975319, 0.0797200650, -0.0397793949, -0.0132324947, -0.0232818574, 0.0185066629, -0.0820171311, -0.0216573551, -0.0826156586, 0.0200108606, 0.0714918673, 0.0722445250, -0.0360051543, -0.0520859510, 0.0007064694, -0.0286852326, -0.0656721815, -0.0776258707, -0.0441435017, 0.0744890645, 0.0534646511, 0.0534554943, -0.0706091449, 0.0693554208, 0.0065754605, -0.0305406619, 0.0108439270, -0.0400873236, 0.0121808844, -0.0603343360, -0.0339023881, -0.0716688931, 0.0210396741, 0.0498211123, -0.0130955968, -0.0156925526, 0.0705258697, -0.0204270724, 0.0341132917, 0.0555875897, -0.0343159884, -0.0145866824, 0.0195388310, -0.0134677310, 0.0160163939, 0.0077942573, -0.0790304020, -0.0773833692, 0.0855008885, -0.0282551460, -0.0760491788, -0.0022934154, -0.0441779643, 0.0625919178, 0.0751328692, -0.0237704590, -0.0285016410, -0.0350799374, 0.0651125088, 0.0130342543, -0.0501871146, -0.0553198010, -0.0285654888, -0.0278387778, 0.0831464007, 0.0338665918, 0.0564093813, 0.0072836205, -0.0311411135, 0.0132193789, -0.0628607348, 0.0357357264, -0.0285272151, 0.0050954372, 0.0478898957, 0.0040274709, -0.0311746188, -0.0682365820, 0.0695047155, -0.0536822602, -0.0267290659, 0.0160583630, -0.0833014622, 0.0828062966, 0.0106593296, 0.0628407374, 0.0208882093, -0.0088296384, 0.0489365831, 0.0300869495, -0.0675261691, 0.0318739116, 0.0779261515, -0.0456078127, -0.0583110750, 0.0576268658, -0.0778645426, -0.0214893520, -0.0803600326, 0.0790954158, -0.0668735504, 0.0807166621, 0.0179695711, -0.0313410573, 0.0001527369, 0.0295504257, -0.0820303857, -0.0756689981, 0.0611915663, -0.0420488417, 0.0332814604, 0.0424761400, 0.0401791558, -0.0539275892, 0.0736209974, 0.0155277774, -0.0826084241, 0.0531909242, -0.0398296006, 0.0317449123, 0.0112700239, -0.0236089490, -0.0771271214, -0.0485425405, 0.0155427232, -0.0578790493, -0.0817222297, 0.0211819559, -0.0059573874, 0.0183767825, 0.0834214464, -0.0013130531, -0.0107806474, 0.0085758418, 0.0687336400, -0.0232265368, 0.0413353965, 0.0803353712, -0.0479381084, 0.0602315292, -0.0257753432, 0.0132944062, 0.0303025693, -0.0622763187, -0.0287407152, 0.0417207554, -0.0033491924, -0.0084459782, -0.0718315169, -0.0418040641, 0.0171754584, -0.0275935270, -0.0237605013, 0.0104213580, 0.0686756447, 0.0850145295, -0.0284142196, 0.0161182284, 0.0025921836, 0.0109045580, 0.0728558376, 0.0038217381, 0.0184662864, -0.0183107853, 0.0678602234, 0.0369350240, -0.0003044158, 0.0589448735, 0.0475970134, -0.0498742983, 0.0335814953, -0.0300084613, 0.0606156364, 0.0812500939, 0.0187198371, -0.0542208217, 0.0687221512, -0.0599873401, -0.0725600496, 0.0778724924, -0.0448225290, 0.0632440671, 0.0331543162, -0.0588638894, -0.0120031685, -0.0108853057, 0.0642055199, 0.0592537746, -0.0283967815, -0.0111991614, 0.0693842843, 0.0459712967, 0.0732286945, 0.0425603017, 0.0505250916, -0.0565315709, -0.0536066554, -0.0827673152, -0.0651614890, 0.0409535244, -0.0132136717, 0.0305339620, -0.0575433746, -0.0773988888, -0.0215547979, 0.0430239663, -0.0441864282, -0.0144850984, 0.0576393679, -0.0403023325, 0.0104714930, 0.0056310743, -0.0812682211, -0.0427583195, 0.0740927979, -0.0215953365, -0.0773319528, -0.0561045334, 0.0375719070, -0.0693293661, -0.0018079877, 0.0179963112, -0.0311785042, -0.0752995536, 0.0380212516, -0.0319045410, 0.0501429215, -0.0512172580, -0.0627939254, 0.0794110522, 0.0647390708, 0.0548749194, 0.0040570349, -0.0463080890, -0.0715508386, 0.0793764219, 0.0569433644, 0.0429950580, 0.0330329165, -0.0276338644, -0.0129095688, -0.0591220781, -0.0794319063, 0.0644629672, 0.0575139597, 0.0333123505, -0.0683457404, 0.0389845595, 0.0699923560, 0.0516655818, -0.0763438866, -0.0583287813, 0.0454946384, 0.0650852695, 0.0504522547, -0.0145528540, 0.0761779025, 0.0376222804, 0.0244770497, 0.0167046487, 0.0249330401, 0.0445651785, -0.0770324245, 0.0803176090, 0.0191422105, -0.0323793180, 0.0448897704, 0.0213439316, -0.0146716982, -0.0489693955, 0.0140883625, 0.0845723227, -0.0106930658, -0.0096875578, -0.0242110118, -0.0215648711, 0.0711332187, -0.0677385628, 0.0591948554, 0.0528198853, 0.0448879972, 0.0001278371, 0.0026398376, -0.0626208186, 0.0792957470, 0.0173428953, 0.0723457709, -0.0661437660, 0.0379434973, 0.0274617076, 0.0521583632, 0.0342087075, -0.0802025050, 0.0304078013, 0.0772586688, 0.0406458750, -0.0266123898, 0.0153672695, 0.0208181515, 0.0197497979, 0.0092041120, 0.0571188107, -0.0586863905, -0.0394080617, -0.0211988986, 0.0390164107, 0.0172859579, 0.0405996367, 0.0725438520, 0.0544876531, -0.0007598698, -0.0762298852, 0.0148539320, 0.0766587928, -0.0215456560, 0.0684959814, -0.0787202418, 0.0505857840, 0.0198135823, 0.0233438686, 0.0749697909, 0.0709904358, 0.0493573472, 0.0180332139, -0.0093715116, 0.0201487467, 0.0643064305, 0.0802597478, 0.0412659869, 0.0359174162, -0.0647197068, 0.0096574202, -0.0527121611, -0.0177150667, -0.0267423540, -0.0178966671, 0.0749209002, -0.0430114157, 0.0403667763, 0.0497068986, 0.0264371634, -0.0686180964, 0.0019637123, 0.0177730620, -0.0722663030, -0.0846007541, 0.0262570679, -0.0193586349, 0.0110021234, -0.0730885491, 0.0685881898, -0.0731935352, -0.0820562020, 0.0055774301, 0.0615228638, -0.0431589410, -0.0462960079, 0.0106874406, -0.0749733672, 0.0724370703, -0.0481228195, -0.0824506357, -0.0461485423, 0.0629508719, -0.0742517486, -0.0674320459, -0.0774919689, -0.0281077214, -0.0289068036, -0.0067087710, -0.0148582309, 0.0622734502, 0.0477810130, -0.0190899149, -0.0534608290, 0.0722626224, 0.0722538307, -0.0364484526, -0.0291024558, -0.0451418906, -0.0370258205, 0.0551398322, 0.0544144288, -0.0120779350, -0.0053143129, 0.0059458986, -0.0694682896, -0.0475444533, -0.0779540315, -0.0720762536, -0.0214563385, -0.0681428462, 0.0002590269, -0.0494634323, 0.0374530405, 0.0681286231, 0.0324850529, -0.0800682902, 0.0236873552, -0.0170709044, 0.0158427805, -0.0505183525, 0.0205176994, 0.0420522615, 0.0238770992, -0.0029159188, -0.0416165888, -0.0576185510, 0.0779738352, 0.0838534012, 0.0692571774, -0.0117530376, 0.0553944483, -0.0025413632, 0.0553113744, -0.0701951012, 0.0402985141, 0.0132661760, -0.0556315780, -0.0517962798, -0.0093628243, -0.0235189758, -0.0396071896, 0.0514441058, -0.0216311738, 0.0771810189, -0.0217420235, -0.0427515320, -0.0720001385, -0.0393394306, 0.0022008792, -0.0675615147, 0.0369273797, 0.0060033649, -0.0557061769, 0.0222916082, -0.0625211149, 0.0078780800, -0.0477776006, 0.0329252630, 0.0580578819, -0.0109536648, -0.0837997124, 0.0504112616, 0.0386911854, 0.0367870331, -0.0792657733, 0.0779192820, 0.0489612743, -0.0363803953, -0.0636721477, 0.0395403728, 0.0528292283, -0.0472058170, -0.0754023865, -0.0677512139, 0.0327525437, -0.0853776336, 0.0275021419, 0.0327197984, 0.0352330059, -0.0738462731, -0.0375171974, 0.0821621940, -0.0253631845, -0.0497878790, -0.0513574667, -0.0425032154, 0.0459684655, -0.0450767353, -0.0811369941, -0.0341553055, -0.0334159397, 0.0584758744, -0.0831590518, 0.0312902331, -0.0583656840, -0.0817782655, -0.0403715149, 0.0675275549, 0.0082015097, -0.0497333556, -0.0280384347, -0.0577485338, 0.0172061250, -0.0437054969, 0.0461295769, -0.0597191118, 0.0078856871, -0.0731450617, -0.0831248835, 0.0505065694, 0.0833829269, 0.0090291947, -0.0846309289, 0.0174595937, 0.0566893145, -0.0589755550, 0.0207154155, -0.0754638016, 0.0196576566, 0.0784724131, -0.0093361586, 0.0422205254, 0.0133213326, 0.0347914249, -0.0001817271, -0.0760025680, 0.0429851636, 0.0815973356, 0.0249506235, 0.0330867469, -0.0618002936, 0.0776297227, -0.0566920564, -0.0449309051, -0.0442074463, -0.0324072652, 0.0763195083, 0.0338610336, -0.0068668649, 0.0181225166, -0.0402259342, 0.0812829211, -0.0836630985, 0.0354212150, 0.0413599387, -0.0519777238, -0.0375930853, 0.0772476420, 0.0463426039, -0.0091207027, 0.0591403320, 0.0725899711, -0.0183574036, -0.0568186715, -0.0231342316, 0.0161227062, -0.0669315904, -0.0372569822, 0.0283421129, 0.0202764794, 0.0566099510, -0.0392930210, -0.0262539200, 0.0401488915, -0.0078273788, -0.0162712708, -0.0721988380, -0.0412413776, -0.0839753225, 0.0771333948, -0.0326022618, 0.0070588216, -0.0174731463, -0.0474965125, -0.0495787971, -0.0020866990, -0.0366342925, -0.0830060542, -0.0183221642, 0.0685612336, -0.0463117957, -0.0434529632, 0.0457392596, 0.0598702393, 0.0637995079, 0.0719668791, 0.0757515877, -0.0453939699, 0.0175740793, -0.0693226755, 0.0705097616, 0.0577159040, -0.0468732268, 0.0697662160, 0.0492580570, 0.0578568988, -0.0065392177, 0.0458682440, 0.0151350219, -0.0402749516, 0.0817530826, -0.0330439098, 0.0422274396, -0.0388637409, -0.0148475468, -0.0805845559, -0.0308279470, 0.0020872448, 0.0243626647, -0.0514647141, 0.0258147661, -0.0569137223, -0.0292111076, 0.0649418831, 0.0620104671, 0.0809106976, -0.0569621846, -0.0353739709, 0.0540407225, 0.0147417262, -0.0466501340, -0.0299519133, -0.0054612942, 0.0197551847, -0.0535718948, 0.0456639081, -0.0473375246, -0.0565298907, -0.0187804140, 0.0550159849, -0.0186304208, 0.0152129065, 0.0593346767, -0.0571181513, -0.0776371881, 0.0655338317, -0.0226208661, 0.0403259397, 0.0819845572, -0.0710697472, 0.0056489990, 0.0603634268, -0.0800332204, -0.0292748939, 0.0191226397, 0.0537057817, 0.0627517626, 0.0554776937, 0.0159423500, -0.0645612478, -0.0508492365, -0.0343491957, 0.0020847984, 0.0460567512, -0.0171645023, 0.0511352532, 0.0625441596, -0.0330532454, 0.0669753179, 0.0032957280, -0.0783491656, 0.0743873939, 0.0108836461, 0.0393744148, -0.0558528155, 0.0050696321, 0.0029432911, -0.0372035243, -0.0015063949, -0.0501664951, 0.0033912198, 0.0257377960, -0.0256727617, 0.0019818859, 0.0298859477, 0.0583271496, -0.0087384665, 0.0704893842, -0.0357719697, 0.0090181027, 0.0457066111, -0.0008928773, -0.0387679748, -0.0468725786, -0.0535618365, 0.0438386947, -0.0009511448, -0.0715736598, 0.0657197163, 0.0612489358, -0.0188613441, 0.0539196767, -0.0284888111, -0.0289735366, -0.0239625461, -0.0305203311, 0.0654857308, 0.0382950678, -0.0014151023, -0.0083025219, 0.0046447450, 0.0064290874, 0.0171988979, -0.0085054096, -0.0142325414, 0.0666859969, -0.0418389328, -0.0253266748, -0.0181457754, -0.0281700417, 0.0670677349, 0.0774381459, 0.0258114003, -0.0534427017, -0.0080738068, -0.0334751867, 0.0662410632, -0.0736140013, -0.0301305484, 0.0469895154, -0.0639194399, -0.0782102272, -0.0806752518, 0.0764988586, -0.0749990866, 0.0667492598, -0.0268342867, 0.0854237154, 0.0643838421, 0.0309423544, 0.0072309705, 0.0467230678, 0.0779752955, 0.0817745402, 0.0567898043, -0.0666964203, 0.0685418248, 0.0643233582, 0.0814887732, -0.0563674793, -0.0338128246, 0.0506975576, -0.0577332228, 0.0697912797, -0.0604319684, 0.0647246540, 0.0817489401, 0.0708422810, -0.0345693901, -0.0730036274, -0.0062878150, -0.0827651545, -0.0336698778, -0.0264273044, -0.0258284155, -0.0561903901, 0.0324219353, 0.0420906730, 0.0161490850, -0.0361205824, -0.0797565728, -0.0354128741, -0.0030321926, 0.0492082350, -0.0571495369, -0.0136415986, -0.0748937503, -0.0695939213, -0.0002724376, -0.0166398939, -0.0783020929, 0.0808993280, 0.0241818707, -0.0431998074, -0.0118563380, 0.0571353361, 0.0095275585, 0.0863171592, 0.0769007578, -0.0015341541, -0.0683973357, 0.0692324340, -0.0610956475, -0.0075850636, 0.0042101257, -0.0764101669, -0.0421195813, -0.0716585815, 0.0684196800, -0.0039197691, 0.0056410595, 0.0624772795, -0.0140706142, 0.0204521827, 0.0218140613, 0.0447415337, 0.0455439724, 0.0596202053, 0.0422620550, 0.0864241421, 0.0078314543, -0.0114084044, 0.0059935623, 0.0079950364, 0.0325741135, -0.0298588686, 0.0765741318, -0.0784812048, 0.0206564385, 0.0795109123, 0.0192089956, -0.0500412136, -0.0826959088, 0.0698943436, -0.0671953186, -0.0470193923, -0.0557580553, 0.0569664687, -0.0074550593, 0.0906740427, -0.0876999199, -0.0510763936, -0.0576828718, -0.0403653048, 0.0175212603, -0.0291240923, 0.0817294866, 0.0796133950, 0.0506847538, 0.0448864624, -0.0573679060, 0.0360242501, 0.0323248245, 0.0632886365, -0.0223243330, 0.0262234695, -0.0749645084, 0.0831174254, 0.0626005083, -0.0548886508, 0.0700667351, 0.0186666120, -0.0658517852, 0.0734761134, 0.0616112612, 0.0000923196, 0.0297191963, 0.0077329194, -0.0477152914, 0.0633184910, -0.0180369131, 0.0419901535, -0.0847961828, 0.0570139661, 0.0152539099, 0.0120524485, 0.0604029261, 0.0351346657, -0.0401966460, 0.0447984077, 0.0212031510, -0.0017450020, -0.0684465915, 0.0588552989, 0.0438838825, 0.0398163050, -0.0452743694, -0.0012973743, 0.0455554686, -0.0238608439, -0.0520403981, -0.0717173740, 0.0749592483, -0.0139617268, -0.0279668104, 0.0396012105, 0.0344715901, -0.0665186718, 0.0516669899, 0.0835410133, 0.0750515535, -0.0047945674, -0.0239302553, -0.0743942633, 0.0445980206, -0.0027901186, 0.0795850605, 0.0221667290, -0.0437322110, 0.0705823675, 0.0857089534, -0.0541627929, -0.0340431556, 0.0463452525, 0.0690886527, 0.0331232995, 0.0616131723, -0.0701682642, -0.0233876202, -0.0349309780, -0.0704282150, 0.0277319178, -0.0700199530, 0.0852934048, -0.0624747537, -0.0385949388, -0.0715273246, 0.0292012449, 0.0264205448, -0.0511364192, 0.0033508898, 0.0774709284, -0.0266131032, -0.0176006369, 0.0223965570, 0.0800232440, -0.0256472435, 0.0803744495, 0.0431225449, 0.0238734931, -0.0629699901, -0.0677747726, -0.0651710406, 0.0291965865, 0.0392256640, 0.0365804471, 0.0320122428, 0.0851353556, 0.0556135066, -0.0443055071, -0.0331090353, -0.0819892809, 0.0296857581, 0.0821827203, 0.0712489784, 0.0595515408, -0.0179598872, -0.0199998263, 0.0739672929, -0.0290507954, -0.0197140034, -0.0069074221, -0.0007776786, -0.0563524887, -0.0601938963, -0.0088826017, 0.0752613470, 0.0868619233, 0.0694091469, -0.0767477229, 0.0708088577, -0.0756867379, 0.0084891710, -0.0283134412, -0.0265873745, -0.0533328280, -0.0163670406, 0.0473339781, -0.0333616398, -0.0353793800, -0.0067597264, 0.0821891204, 0.0752763525, 0.0444651879, -0.0576147512, 0.0707691237, -0.0082220780, -0.0801219717, 0.0207823627, 0.0765139833, 0.0708471239, 0.0234964211, -0.0104884338, 0.0515368767, 0.0368080214, 0.0379596911, 0.0212563463, 0.0430970900, 0.0011800759, 0.0573993474, -0.0424888059, 0.0885811523, 0.0029057534, -0.0465528369, 0.0752065256, 0.0029566819, 0.0392773189, -0.0803531259, -0.0108926082, -0.0369741879, -0.0041584359, 0.0798595324, -0.0136993788, 0.0195836369, -0.0328252837, -0.0317478962, -0.0597389713, 0.0083089368, -0.0796293393, -0.0109072682, 0.0369284302, -0.0517586917, -0.0707761794, -0.0098319240, -0.0117859915, 0.0001958657, 0.0683551952, 0.0411322117, -0.0377047658, 0.0398988687, 0.0291962773, 0.0503806137, 0.0485035777, 0.0579573996, 0.0313807167, 0.0745623931, 0.0107155368, 0.0288090855, -0.0676923320, 0.0241667330, -0.0207908843, -0.0698015839, 0.0142799420, 0.0758983418, -0.0743445680, -0.0470132157, -0.0311529767, -0.0512801111, 0.0565454252, 0.0381729677, -0.0534623489, -0.0052942107, 0.0269430149, -0.0015717609, 0.0647833794, -0.0203415956, -0.0134034641, -0.0525022037, 0.0395768248, 0.0564483814, 0.0084846132, -0.0416682474, 0.0123258121, -0.0339778215, 0.0522000827, 0.0839426219, -0.0579714365, 0.0693419427, 0.0771676078, -0.0184426978, 0.0495328903, -0.0272387862, -0.0292969607, 0.0090655396, -0.0223540291, 0.0393233970, 0.0182325579, 0.0384005047, 0.0074324482, 0.0390365645, 0.0279989932, 0.0732774436, -0.0323542282, 0.0219462998, -0.0156522337, -0.0852343962, -0.0368922278, -0.0312831849, -0.0528359003, 0.0627623647, 0.0301833618, -0.0276721325, -0.0261556208, -0.0837125853, -0.0185207129, 0.0607840046, 0.0256695710, 0.0573985092, -0.0685915425, -0.0598664023, 0.0462840647, 0.0104521681, -0.0472848788, -0.0824241266, -0.0365513116, -0.0224974900, 0.0690562502, 0.0727363899, -0.0855677500, -0.0481765233, 0.0648718625, -0.0669950843, 0.0682114884, -0.0222079139, -0.0040894640, 0.0856436193, -0.0073176278, 0.0569239482, 0.0250954702, 0.0525630154, -0.0063072704, 0.0768355802, 0.0081751496, 0.0439317413, 0.0254726764, 0.0272053666, 0.0480110273, -0.0247239806, 0.0061799972, -0.0021346286, -0.0106148301, -0.0587299243, -0.0571065433, -0.0081615075, 0.0501009449, 0.0647332743, 0.0232512653, 0.0650151446, 0.0077110068, -0.0236289240, -0.0277525112, -0.0483773462, -0.0041887988, 0.0457315966, -0.0314588323, 0.0695903599, -0.0034301279, -0.0016540309, 0.0234282427, 0.0485643148, 0.0149410358, 0.0394742787, -0.0517252721, -0.0653046295, 0.0428338274, -0.0549706891, -0.0648287833, -0.0526330359, 0.0721124560, 0.0139526119, -0.0677804425, -0.0338994525, -0.0134724556, 0.0465264469, -0.0305025131, 0.0033424017, -0.0028295000, -0.0259752963, 0.0749643967, -0.0139304921, -0.0441096462, 0.0753319487, 0.0123616597, 0.0791764483, -0.0661055744, 0.0371819027, 0.0676718503, -0.0219154656, -0.0030436751, -0.0658757687, -0.0089584095, 0.0417490862, -0.0290969294, 0.0206001457, 0.0622119009, 0.0611921400, 0.0572416522, 0.0350578688, -0.0204164144, -0.0699586049, 0.0487553589, -0.0001915956, 0.0343404487, -0.0643280074, -0.0200240109, 0.0145122129, -0.0639422908, 0.0340555348, -0.0509621426, 0.0555126145, -0.0014299930, -0.0445224643, -0.0457282402, 0.0429055579, 0.0469997451, 0.0420646705, -0.0586455651, -0.0366813466, 0.0253611766, -0.0536727570, 0.0482331999, 0.0168033075, 0.0836559385, -0.0072213057, -0.0800055414, -0.0565941185, -0.0799292997, -0.0733812228, 0.0722013339, -0.0755727217, -0.0647434741, 0.0755433738, 0.0553340577, 0.0113995569, 0.0051914505, -0.0442960411, 0.0042244238, -0.0168897882, -0.0009934725, -0.0043925601, -0.0198390838, -0.0132020153, -0.0156864338, 0.0265197009, -0.0404962972, 0.0381758399, -0.0271478128, 0.0182727650, -0.0408033393, 0.0747082010, 0.0315499976, -0.0043685213, -0.0584147498, -0.0557265580, -0.0712584481, 0.0462178960, -0.0017024279, 0.0823081210, -0.0210424215, -0.0269555449, 0.0192492381, -0.0662276521, -0.0020163506, 0.0061335713, -0.0224147588, 0.0069273636, -0.0296981782, -0.0802762508, 0.0209213346, 0.0020131841, 0.0528476909, -0.0362007320, 0.0676901713, -0.0675854161, -0.0588175803, -0.0382836908, -0.0741109848, -0.0120184049, -0.0284746736, 0.0822854415, -0.0332262181, 0.0289842635, -0.0397656299, -0.0348714478, 0.0759485289, -0.0413156301, -0.0421161018, -0.0101294592, -0.0021008104, 0.0490669534, -0.0789548755, 0.0478359535, 0.0558512434, -0.0139432251, 0.0240566134, -0.0219329894, -0.0011453032, 0.0147617757, -0.0831661820, -0.0395785049, -0.0133264661, -0.0820908174, -0.0587489307, 0.0675489828, -0.0427667014, 0.0524226353, 0.0433244184, 0.0516755506, -0.0247754343, -0.0808898211, 0.0756402984, 0.0740578994, 0.0062073395, 0.0664152130, -0.0690429211, 0.0312489793, 0.0713068321, 0.0161189213, 0.0827674344, 0.0193100423, -0.0805507153, 0.0608235672, -0.0231562108, 0.0767203644, 0.0388782918, -0.0352470502, 0.0198961943, -0.0551705584, 0.0219300091, -0.0580600835, -0.0501695946, 0.0471511111, 0.0148574710, -0.0051668659, -0.0579288527, 0.0309894979, 0.0756367818, 0.0353748426, 0.0323361382, -0.0778993815, 0.0578077808, -0.0568977296, 0.0814057067, 0.0736244395, -0.0719389319, -0.0471869260, 0.0314393491, -0.0595975295, 0.0740545616, 0.0089827850, 0.0742043778, -0.0220872015, -0.0721832216, 0.0754649416, -0.0122655556, -0.0562156066, -0.0677501336, -0.0440054759, -0.0458652265, 0.0426265374, -0.0604422241, -0.0209434479, -0.0733907819, -0.0271467008, 0.0557788834, -0.0632805526, 0.0488288626, 0.0360544696, 0.0138850436, -0.0072125793, -0.0554754212, -0.0362034701, -0.0639161691, -0.0579851344, 0.0028832927, -0.0526888333, 0.0658750311, 0.0555729046, 0.0330846608, 0.0405433252, -0.0722170174, 0.0494989827, -0.0123671815, -0.0799973458, 0.0270734653, 0.0685533956, 0.0064315274, -0.0680372566, -0.0000089929, -0.0660548806, 0.0290373638, 0.0319791809, -0.0565877706, -0.0053786114, 0.0508495048, -0.0572129339, -0.0033079758, 0.0698242858, 0.0823949799, -0.0469873063, -0.0585912652, 0.0491502210, 0.0067143515, 0.0073597357, 0.0307656750, 0.0259440914, -0.0260887109, -0.0242419429, -0.0324489102, -0.0176291764, 0.0340657383, -0.0159862787, -0.0323011987, -0.0786651447, 0.0373581797, 0.0607615635, 0.0103923902, -0.0707652718, 0.0421609357, 0.0246905312, -0.0765143260, 0.0710884854, 0.0682973489, -0.0113643110, 0.0066152588, -0.0155095607, -0.0559087992, -0.0303368568, 0.0544358715, -0.0101037174, 0.0639534816, 0.0563582703, -0.0799879283, -0.0816249773, -0.0340764932, 0.0108211264, -0.0663326979, -0.0344477817, 0.0147290230, -0.0152285798, -0.0362965986, -0.0043053180, 0.0195843540, -0.0820007026, 0.0559811890, -0.0093842819, -0.0161369741, -0.0403769873, 0.0603110231, 0.0417062119, -0.0105225248, -0.0540654063, 0.0730459839, 0.0847661570, 0.0139253745, 0.0820835680, 0.0780654773, 0.0496010631, 0.0447632335, 0.0062825289, 0.0090194987, -0.0528203622, -0.0722681880, 0.0691677779, -0.0230097733, -0.0671118349, -0.0157085471, 0.0027412311, 0.0337036848, 0.0713590980, -0.0105873216, -0.0474825539, 0.0054072817, 0.0136857191, -0.0190903377, -0.0737047866, 0.0461987033, 0.0322104730, -0.0413975418, 0.0054004905, -0.0572908781, -0.0128334686, -0.0643371865, -0.0402389020, 0.0652260408, -0.0477836020, -0.0697793961, -0.0324451625, -0.0149918515, 0.0180683248, 0.0235463921, -0.0715346485, -0.0237071496, -0.0341494642, -0.0851645172, 0.0211915951, -0.0073998743, -0.0345822871, -0.0440987982, -0.0664906949, 0.0445422009, -0.0150066828, -0.0417992510, 0.0523343273, -0.0008714178, 0.0626622438, -0.0823526010, -0.0667944029, 0.0194472708, -0.0155159933, 0.0158725847, 0.0630006343, -0.0373214558, 0.0410158411, 0.0475540832, 0.0355493687, -0.0568072535, -0.0143644195, 0.0104309730, 0.0418951996, 0.0511736497, 0.0698270947, -0.0514401272, -0.0038726195, 0.0034904645, -0.0188663900, 0.0258270092, -0.0367445573, -0.0472931042, -0.0794496909, -0.0166824721, -0.0732242391, -0.0027814992, 0.0290999021, 0.0229640137, -0.0729200691, 0.0414262936, 0.0783011019, 0.0277198162, -0.0804958493, -0.0109817870, -0.0092552304, 0.0342991054, 0.0019317522, 0.0364631824, 0.0412562005, 0.0287063736, -0.0166480765, 0.0587458275, -0.0541091710, 0.0028133981, -0.0337048657, 0.0077777295, 0.0221222714, -0.0207774993, -0.0169301555, 0.0543982945, 0.0412969515, 0.0509126186, -0.0482284091, -0.0195367914, 0.0417013578, 0.0659673512, -0.0752789155, -0.0542648733, -0.0472010598, 0.0371498242, -0.0804625526, 0.0619025528, -0.0408971496, 0.0297613274, -0.0210339613, -0.0341536775, 0.0486128889, -0.0403769724, -0.0285917018, 0.0367379449, -0.0180029497, -0.0762500465, 0.0250433311, 0.0061379704, -0.0719609857, 0.0395125076, 0.0039891819, -0.0274692494, -0.0163358655, -0.0125458082, -0.0683671907, -0.0241360739, 0.0784106031, -0.0160799176, 0.0688543096, 0.0253478065, 0.0076796226, 0.0329015441, -0.0723426417, 0.0021414571, -0.0769874230, 0.0321092866, 0.0548659004, -0.0045930464, -0.0141910110, 0.0061182305, 0.0798242614, -0.0778971612, -0.0034703885, -0.0672237203, -0.0674629360, -0.0667944252, 0.0451287478, 0.0167586673, -0.0615298524, -0.0301891845, -0.0416248813, -0.0564932115, -0.0055704429, 0.0225043446, -0.0441329144, -0.0293147601, -0.0380179994, 0.0228061546, 0.0546103679, -0.0117900120, -0.0247270688, -0.0855295956, -0.0114784939, 0.0051413905, 0.0441912711, -0.0481957346, 0.0614106879, -0.0775892884, -0.0094912844, 0.0438515134, 0.0418100767, 0.0321867168, 0.0592530072, 0.0087412558, -0.0685364455, -0.0044344310, -0.0481964499, 0.0055751307, -0.0058288607, -0.0538817346, 0.0197141673, -0.0298420954, -0.0534775145, -0.0210684687, -0.0698604211, 0.0746590421, 0.0210180506, -0.0713149011, -0.0030221518, 0.0551787615, 0.0083026765, -0.0487921089, 0.0610115379, -0.0821136534, -0.0344407484, -0.0342568979, -0.0118333241, -0.0653386638, -0.0401334874, -0.0762515962, -0.0655107275, -0.0146258995, -0.0544402674, -0.0459451824, 0.0041241953, 0.0135304946, -0.0363533199, -0.0057201711, 0.0434857383, -0.0493363030, -0.0966825187, -0.0247439481, 0.0210572798, -0.0718842149, 0.0792405158, -0.0592311732, 0.0263204724, 0.0074214255, -0.0388213582, -0.0482988246, 0.0603317395, -0.0698985383, -0.0579031147, -0.0460258126, 0.1046260148, -0.0397263318, 0.0137625923, -0.0655742809, 0.0141976848, 0.0556079000, 0.0650956556, 0.0770135447, -0.0215715654, -0.0136938589, -0.0148784500, -0.0868287235, -0.0894585475, 0.0495944321, 0.0291441027, -0.0019865502, 0.0662935451, -0.0478335395, 0.0052599325, -0.0625448823, 0.0268589612, 0.0965236947, 0.0322478078, 0.0894052163, 0.0632371008, -0.0829897523, -0.0690810680, 0.0085787745, 0.0444903634, 0.0644981116, 0.0227334760, -0.0046147937, 0.0036563799, -0.0578648895, 0.0598513111, 0.0613869131, 0.0057170931, 0.0156753827, -0.0406347290, -0.0692890808, -0.0307517108, 0.0257486124, -0.0148387589, -0.0853537694, -0.0047142371, 0.0802978650, -0.0326219834, 0.0812072381, 0.0549859442, 0.0488863736, -0.0705558807, -0.0722835734, -0.0214598738, 0.0419627652, 0.0349549204, -0.0160628017, 0.0603740662, 0.0417718962, 0.0986448452, -0.0453682914, 0.0290496480, 0.0871611685, 0.0678146929, -0.0644744635, -0.0140029676, 0.0421024412, 0.0464043655, -0.0297616366, 0.0353800170, -0.0222857613, -0.0582301244, 0.0310727097, -0.0328345336, -0.0294993035, 0.0112918718, -0.0082957223, 0.0600360483, 0.0604038499, -0.0130278906, 0.0151906135, -0.0029748434, 0.0916874707, -0.0552201308, 0.0207922887, 0.0685172677, -0.0460825041, -0.0664330423, 0.0101201218, -0.0941069126, 0.0253022984, -0.0240676124, 0.0187846851, -0.0408625603, 0.0483133122, 0.0067935153, 0.0481756292, 0.0603580661, 0.0515881702, -0.0472703837, -0.0435882248, 0.0656097159, -0.0279800948, 0.0311815254, -0.1057357192, 0.0218701046, 0.0338684432, 0.0031893821, -0.0134640606, -0.0008202777, 0.0612917282, 0.0545369983, 0.1323563010, -0.0023624725, 0.0412126444, -0.0693211630, -0.0532800332, -0.0632329285, 0.0421624295, 0.0102387127, 0.1370493919, -0.0411369130, -0.0074977386, 0.0619510598, -0.0845382661, 0.0482766218, 0.0634288564, 0.0991605148, -0.0195319690, 0.0405765548, 0.0565832816, 0.0317047350, 0.0746292472, -0.0087625477, -0.0914120525, 0.1037644073, -0.0520729385, 0.0346695073, -0.0872033089, -0.1027116403, -0.0432009473, -0.0759843588, -0.0056137405, -0.0004063314, 0.1285997629, -0.0464399569, -0.0512249954, 0.0101330681, -0.0108747622, 0.0330778696, -0.0408655368, 0.0400626808, -0.0202513020, -0.1396636218, 0.0322906785, -0.0270108152, 0.0166338813, 0.0655785352, -0.0645357296, 0.1137403846, 0.0045651738, 0.1407080442, 0.0459231287, 0.0883983150, -0.0476244204, 0.0513835400, -0.0342884921, 0.1077751368, 0.0206264127, 0.1159553975, 0.0043661860, -0.0240748990, 0.0227348972, -0.0843619257, 0.1216887161, -0.0595263056, 0.0218406413, 0.0538717546, -0.0280404072, -0.1249218881, -0.0120686507, -0.0713696107, 0.0047664847, 0.0685860366, 0.0866151750, -0.1056475416, -0.0385978036, -0.0232387464, 0.0139170727, 0.0967607573, -0.0073336791, 0.0815835595, 0.0357138067, 0.0546722114, 0.1534633487, 0.0482814834, -0.0412384942, -0.0657974631, -0.0141174505, -0.0131010208, -0.0432480276, -0.0536999479, -0.0809340775, -0.0317603536, -0.0422060601, -0.0714236647, -0.0231620278, 0.0693561509, 0.0725960806, 0.0110768331, 0.0928488672, -0.0160071477, 0.0414604358, -0.0257260762, 0.0618728846, -0.0431201532, -0.0001029825, 0.0046955305, -0.0248741359, 0.0115886200, 0.0111491829, 0.0088996915, -0.0862056687, 0.0977673605, 0.0347465575, 0.1778798699, 0.1244338304, 0.0266798995, -0.0217260458, -0.0332639739, 0.0000812396, 0.0050082132, 0.0876386091, -0.0216292087, -0.0725363269, 0.0951403007, -0.0181682929, -0.0639442801, 0.0820731223, -0.0015254603, 0.1100874990, -0.0334922187, -0.0392689109, 0.0326013379, -0.0398010649, -0.0620043352, -0.0136057874, 0.0419218577, 0.0886204168, -0.0341910794, -0.0738097504, -0.0072445604, -0.0645531118, 0.0828539133, -0.0972602516, -0.0220780950, -0.0204675011, 0.1823186874, 0.0741099641, 0.0004596936, -0.1304304302, -0.0366277210, -0.0459516197, 0.0087220101, 0.0676922053, 0.0455969237, 0.0310082659, 0.0445754156, 0.0366957225, -0.0532594547, 0.0739900619, 0.1070104539, 0.0084004188, 0.0076505938, -0.0161154307, 0.0704216734, -0.0392554551, -0.0540051796, 0.0677285194, -0.0426500849, 0.0568966158, -0.0583681874, 0.0152475266, 0.0371991992, -0.0869677067, 0.0418850556, 0.0047612088, -0.0523359887, 0.0650193021, 0.0728442147, -0.0463885032, 0.0809366331, -0.0441020951, -0.1059763804, 0.0049709547, 0.0144057740, -0.0255627874, 0.0313972123, 0.0069154338, 0.0728416741, -0.0640299544, 0.0410556979, -0.0155872004, 0.0599548332, -0.0393852517, -0.0818955600, -0.0266235229, -0.0607248954, -0.0329423212, -0.0843393728, 0.1091036499, 0.0315218531, -0.0446258634, 0.0472561792, 0.0122948429, 0.0186527986, 0.0538956746, 0.0119278152, 0.0262179710, -0.0520808920, 0.0420923159, 0.1446990222, -0.0707070455, -0.0129155265, -0.0179644693, -0.0761276335, 0.0937961787, 0.0842193887, 0.0291083753, 0.0652945191, -0.0695403144, 0.0380890556, 0.0664312094, 0.0072490652, -0.0683530495, -0.0438893810, -0.0465874970, 0.0705021918, 0.0430428386, 0.0913579389, 0.0432856977, -0.0463530011, -0.0265561789, -0.0408205353, 0.0815202296, -0.0228001531, -0.0244098492, -0.0005793379, 0.0495947897, 0.0189483948, 0.0337931029, -0.0302585922, 0.0875239894, 0.0200245790, -0.0446493439, 0.0021596961, -0.0555431210, -0.0237117428, -0.0398333818, 0.0709721223, 0.0284434129, 0.0625450835, 0.0627336428, -0.0449269935, -0.0499510728, 0.0193175245, -0.0657981038, 0.0084155574, 0.0190937929, 0.0449468605, 0.0653538629, 0.0411406495, -0.0804737955, -0.0359025374, 0.0514679104, 0.0733010024, -0.0747882426, 0.0047653820, 0.0473852679, 0.0004154163, 0.0463887937, -0.0250294954, -0.0374998935, 0.0803191885, 0.0575329475, 0.0823898092, 0.0462499484, 0.0754201412, -0.0106131081, -0.0547196567, -0.0579572767, -0.0371978469, 0.0251927022, -0.0677604303, 0.0397496186, -0.0454187542, -0.0101730060, 0.0406812131, 0.0282459669, 0.0556490831, 0.0251930021, -0.0470122881, 0.0119873546, -0.0348547362, 0.0700856373, -0.0683526844, -0.0005979955, -0.0219324250, 0.0349146575, -0.0062697614, -0.0735766441, 0.0210970379, 0.0494667068, -0.0303586386, 0.0323330015, 0.0372169167, -0.0219358355, 0.0382321216, 0.0600091070, 0.0373271592, -0.0228060652, 0.0153650455, -0.0306847543, 0.0671634525, 0.0754230469, -0.0561927781, -0.0486012362, -0.0806005597, 0.0801392198, -0.0855940878, 0.0028099762, -0.0032644037, 0.0805835351, -0.0695043281, 0.0643617883, 0.0539113469, -0.0682188794, 0.0334988683, -0.0422140621, -0.0212166905, -0.0567010455, -0.0071818987, -0.0566988550, 0.0127504356, 0.0586291030, -0.0410468765, -0.0422598943, -0.0475064963, -0.0019175701, 0.0080825174, 0.0508608259, 0.0215149019, -0.0808170065, -0.0368704461, -0.0684608668, -0.0510952994, 0.0596035831, -0.0533215441, 0.0678916946, -0.0621165186, -0.0264664497, -0.0138755022, -0.0097371759, -0.0659607276, 0.0427239425, -0.0370306484, 0.0704678223, 0.0473482721, -0.0784315914, 0.0098868981, -0.0549647845, -0.0256759133, 0.0356272236, -0.0618396513, 0.0546002537, -0.0389342308, -0.0509770326, -0.0185147170, 0.0541083030, -0.0375710577, 0.0259131957, -0.0369891115, 0.0334204733, 0.0688913986, -0.0371948071, 0.0236098561, -0.0811752304, -0.0687810928, -0.0627711862, 0.0204557739, -0.0071635377, -0.0069697923, 0.0379265174, 0.0097748432, 0.0336040594, 0.0048835254, 0.0649305806, -0.0779367685, 0.0377837680, -0.0643435046, -0.0103540504, 0.0513040423, 0.0172038861, -0.0700325891, -0.0142254960, -0.0756239742, 0.0658916011, -0.0397211909, 0.0193442684, -0.0606684387, 0.0175827574, 0.0204927679, -0.0666502789, -0.0215930417, -0.0708358437, 0.0013769229, -0.0439099483, -0.0513303764, 0.0358099155, -0.0492883325, 0.0721394345, 0.0418039188, -0.0846729428, 0.0838752761, -0.0455593802, -0.0665963888, 0.0279827639, 0.0673152730, 0.0445534214, 0.0269692838, 0.0483257249, -0.0710688457, -0.0329904146, 0.0375980288, -0.0249175429, -0.0075112283, -0.0801990330, 0.0021291822, -0.0160962492, -0.0443856791, 0.0435897782, 0.0426485315, -0.0683217347, -0.0030742213, 0.0065830797, 0.0514923111, 0.0624325350, 0.0167507082, -0.0609090887, -0.0184066072, -0.0398111194, -0.0254687592, -0.0577260032, -0.0330824740, 0.0453632995, -0.0425326526, -0.0200011134, -0.0832491666, -0.0451236330, -0.0504813679, 0.0312376320, 0.0640506968, -0.0463088453, 0.0780004635, -0.0735826641, -0.0409236141, 0.0096409619, 0.0731695369, 0.0036534443, 0.0234852582, -0.0206717700, 0.0854211673, -0.0847743452, 0.0420926884, -0.0661777109, 0.0423116907, 0.0729670748, -0.0285882428, -0.0403049700, 0.0823407844, -0.0640605837, -0.0219744369, 0.0354955271, -0.0772246867, 0.0495341942, 0.0710635260, -0.0345320329, -0.0046023652, -0.0100948662, -0.0742001459, -0.0023083761, -0.0501398481, -0.0233177021, 0.0611258522, -0.0834223926, 0.0038621351, -0.0804657042, -0.0732030421, -0.0235957205, 0.0104566887, 0.0077013969, 0.0745054558, -0.0621235967, -0.0107626170, -0.0652802065, 0.0856618509, -0.0720746219, 0.0187312663, -0.0767097920, -0.0444637351, -0.0770090818, 0.0379080698, 0.0055450425, 0.0546193197, -0.0537306927, 0.0702768341, -0.0758378729, 0.0242549255, -0.0773553625, 0.0524134710, -0.0454080515, -0.0805190653, -0.0298177153, -0.0641656891, -0.0455787815, -0.0211506113, 0.0045241043, -0.0245437808, 0.0727715865, 0.0814538971, -0.0057834461, -0.0811190233, -0.0793583840, 0.0082781315, 0.0320034698, -0.0189992860, 0.0168971494, 0.0264326259, 0.0806994215, 0.0769948885, 0.0569213405, 0.0470931754, 0.0750203207, 0.0834999159, -0.0535782203, 0.0388069227, 0.0475123003, 0.0637037680, -0.0434023514, -0.0421695635, 0.0811999366, -0.0461541340, -0.0345750377, 0.0231504627, 0.0435619727, 0.0784761980, 0.0637325794, -0.0313101560, -0.0366855711, 0.0699384734, -0.0521531627, 0.0160049163, -0.0464738198, 0.0627054721, -0.0155304661, -0.0381168984, -0.0394196995, 0.0668923855, -0.0221728254, -0.0599248782, -0.0706272572, 0.0157832485, -0.0705735236, 0.0424316898, -0.0783666670, 0.0621849746, 0.0634195283, -0.0815320462, 0.0411213413, 0.0503911898, -0.0642135069, -0.0085403519, -0.0351525880, -0.0641918033, 0.0681996569, 0.0271197595, 0.0448350906, -0.0771096721, 0.0101089347, -0.0152028045, 0.0602195635, 0.0554373041, 0.0156524014, 0.0417374484, 0.0326971859, -0.0508590415, 0.0136149516, 0.0359413698, 0.0204143357, 0.0714346170, -0.0144373635, 0.0601298399, 0.0542255081, 0.0159512311, -0.0793120563, -0.0855293125, -0.0280872323, -0.0085839508, 0.0060906885, 0.0405401438, 0.0094848741, 0.0713226721, 0.0755400583, 0.0331425592, -0.0609372780, -0.0833057091, 0.0072256192, 0.0165045038, 0.0747361407, -0.0505388305, -0.0056019323, 0.0315816812, -0.0476855263, 0.0113651603, -0.0772057101, 0.0564827360, -0.0757747516, -0.0086295903, -0.0027240005, 0.0259295814, -0.0806188583, 0.0343219824, 0.0726406947, -0.0770468563, 0.0117190406, 0.0315639488, -0.0716910809, -0.0609445013, -0.0097946506, -0.0262393653, 0.0288529899, 0.0648555607, 0.0203862395, 0.0522198752, 0.0119165080, -0.0754008442, 0.0178007726, 0.0817631856, 0.0682561919, -0.0555487052, 0.0007946981, -0.0051446483, 0.0123546440, -0.0552950613, -0.0829713419, 0.0726623684, -0.0566050448, -0.0444045663, 0.0478372723, -0.0392572023, -0.0821431354, 0.0060804044, -0.0463975370, 0.0450802892, -0.0482322127, -0.0332949869, -0.0748838857, 0.0859664381, 0.0468076430, 0.0580033809, 0.0445735864, -0.0357333161, -0.0375518724, -0.0722890720, 0.0466562770, -0.0604121312, -0.0842997655, -0.0553934015, 0.0119255483, 0.0741354153, -0.0870314837, 0.0797726065, -0.0095881289, 0.0152704408, -0.0207009427, -0.0285364706, -0.0182380825, 0.0046051084, 0.0726555809, 0.0525750369, -0.0683260709, -0.0605518110, -0.0610805154, 0.0832463279, 0.0238879062, 0.0801662505, -0.0042411899, 0.0291005578, 0.0687208101, -0.0651156232, 0.0011548711, -0.0388676189, -0.0590818636, -0.0339231640, 0.0680077150, 0.0717789233, -0.0468817167, -0.0798412785, -0.0284513291, -0.0093861325, -0.0362354666, -0.0547715239, 0.0528374687, -0.0056868824, 0.0546648279, -0.0357930325, -0.0458139069, -0.0594406389, -0.0334424824, -0.0091788583, -0.0857225507, -0.0247411747, -0.0146372914, -0.0688934624, -0.0117897419, -0.0028309168, -0.0236183144, 0.0559524558, -0.0337894186, -0.0670439824, -0.0497108102, -0.0424608886, -0.0548951477, -0.0161398314, 0.0239601880, 0.0343416668, 0.0361315496, -0.0510338694, 0.0372734368, -0.0525319204, 0.0211424846, -0.0114600565, -0.0596533753, -0.0681934953, -0.0613990687, -0.0493918434, 0.0082987025, 0.0922916383, -0.0317939222, -0.0778334364, 0.0063356073, -0.0331959501, -0.0909939781, 0.0141410939, -0.0261366423, -0.0842306241, 0.0583094694, 0.0080407457, 0.0111512057, 0.0740925223, 0.0432642363, 0.0826561078, 0.0586433709, -0.0472244658, -0.0674544573, -0.0079332534, 0.0039033836, 0.0087290080, 0.0612283535, -0.0846377835, 0.0629199669, 0.0382680148, -0.0478403829, 0.0845688358, 0.0700185448, -0.0690051690, 0.0220267177, 0.0233273450, 0.0156102916, -0.0685856268, -0.0053528189, -0.0760112181, -0.0368641429, -0.0260420330, -0.0508276150, 0.0878091604, 0.0408073924, -0.0335761830, -0.0205974523, -0.0321734808, -0.0071971510, -0.0351687185, 0.0477968082, -0.0766600221, 0.0871406049, -0.0685823336, -0.0626987219, 0.0018070245, 0.0275734644, -0.0423747115, 0.0162764359, -0.0174976606, 0.0610097721, -0.0729505867, -0.0831222758, 0.0294635352, 0.0427309908, 0.0429503657, -0.0993599743, -0.0366822518, 0.0040484257, -0.0474419892, -0.0286764055, -0.0551190525, -0.0214211550, 0.0093552778, -0.0074283611, 0.0809245631, 0.0429182351, -0.0822625235, 0.0817590058, -0.0370070226, 0.0427456386, 0.0603453629, -0.0402697846, -0.0661855862, -0.0089272577, -0.0561623871, 0.0482198149, 0.0730623230, 0.1096240431, -0.0169394780, 0.0090309726, 0.0145584457, 0.0513553582, 0.0437588803, -0.1021601334, -0.0338328704, 0.0388870277, -0.0133075397, -0.1778614074, -0.0950740948, -0.0213595331, 0.0491565913, 0.0738841146, -0.0264474805, -0.0215961691, 0.0264169239, -0.0951750502, 0.0607317425, 0.0801646337, -0.1062677130, 0.0976236165, 0.0091756340, 0.0449539274, -0.0330896750, -0.0391371027, 0.0282194875, 0.1142199710, -0.0473083742, -0.0488940850, 0.1548628509, 0.0769186914, -0.0177973937, -0.0466371886, -0.0484616645, 0.0283466969, 0.0126079693, -0.1143456846, 0.1119293422, 0.0544965304, -0.0591287911, -0.0363778435, -0.0028637026, 0.0938195884, -0.0048259920, 0.0045303386, 0.0285455175, 0.0225238986, -0.0385125540, -0.1228206158, 0.0280704293, 0.1101007387, -0.0549976863, 0.1425025314, -0.0383733660, 0.0981011167, -0.0025107029, -0.0817811489, 0.0240611378, 0.1034073606, 0.0217243657, -0.0817304254, 0.1068457514, 0.2210410237, -0.0299482197, -0.0630280003, -0.0314749330, -0.0371459275, 0.0491131768, -0.1212459505, 0.0747611448, 0.0664201751, 0.0039006993, -0.0672125295, 0.0141122034, 0.0399900116, -0.1205877364, 0.0698801726, -0.0861281827, 0.1108854711, 0.0537169278, -0.1687042713, 0.0321541503, 0.1483635157, -0.0227969680, 0.0678553954, -0.0773031190, -0.0166571606, -0.0563134924, 0.0075185960, -0.0755233616, 0.0465889201, 0.0486005880, -0.0282574147, 0.1109288260, 0.2009622455, 0.0545834787, -0.0276526585, -0.0653015971, -0.0490029044, 0.0252624955, -0.1200359464, -0.0355501734, 0.1204712018, -0.0002571991, -0.0810303763, -0.0263866149, 0.1087180674, -0.1369689405, 0.0818760693, -0.0527902544, 0.0164422095, -0.0899878964, -0.0379502177, -0.0587359071, 0.0029368903, 0.0149384765, 0.0622222535, -0.0824277177, 0.0677641630, -0.0452815220, 0.0449851006, -0.0614626817, 0.1307629049, -0.0134869618, 0.0134190544, 0.2094617337, 0.2310072184, 0.2045710981, -0.1820793301, -0.0077541536, -0.0056038541, -0.0402970910, -0.0525983199, 0.0213308744, 0.1243152767, 0.0157584213, -0.0555693917, 0.0279780589, 0.1119597554, -0.0142394044, 0.1430929899, -0.0351623632, 0.0836329535, -0.0616927445, -0.1188454852, -0.1385122985, 0.0946364701, -0.0588287823, -0.0032846979, -0.1029270366, 0.0648654178, 0.0724982545, -0.0214217100, -0.0198479500, 0.0519886911, -0.0101171099, 0.0312004611, 0.2528788745, 0.2411143035, 0.2549294531, -0.2143202275, -0.1100470796, -0.0276253335, 0.1093631387, -0.0263811294, 0.0845650807, 0.0692887008, 0.0585059598, 0.0838316903, -0.1074023992, 0.0406136476, 0.0709632486, 0.0911146775, -0.0566243418, -0.0458556190, 0.1016098559, -0.0201688223, -0.0933504775, -0.0525016412, 0.0005207509, -0.0025150338, -0.0528143197, -0.0749664381, 0.0731209442, -0.0215540174, -0.0597194172, 0.0265122280, 0.0931099579, -0.0176421888, 0.3361478746, 0.1299159676, 0.1316265762, -0.1560325474, -0.1279864162, -0.1170437858, 0.0614903942, 0.0660279766, -0.0648661628, 0.0305634011, 0.0781742558, 0.0175048411, -0.0390215665, -0.0853369609, -0.0283075068, 0.1735030115, -0.1049508229, 0.0302644502, 0.0946353227, -0.0089939563, -0.1095739529, -0.0342111886, -0.0062188534, -0.0260592680, 0.0335359834, 0.0098844832, -0.0190583076, -0.0080186306, 0.0453039296, 0.0517748483, 0.0011055926, 0.0454467013, 0.3055124879, 0.1207629517, 0.1663611531, -0.2599014938, -0.0580093451, 0.0309763514, 0.0592791103, 0.0844723061, 0.0060173222, -0.0285275392, -0.0255097505, -0.0446674377, -0.0201099906, -0.1063508913, 0.0115468977, 0.0591774657, -0.0429038852, -0.0550600961, 0.0344312005, 0.1250337958, -0.1115465388, 0.0173378326, -0.0185759626, 0.0095567601, 0.0054373643, -0.0452802591, -0.0005084684, -0.0978804603, -0.0247351564, -0.0292403959, 0.1117150411, 0.0314942747, 0.2731610835, 0.0498077832, 0.1016181186, -0.1422704011, -0.1612703949, -0.0078423573, -0.0258359239, 0.0710428655, 0.0211705156, -0.0025758778, 0.0402558371, 0.0010439946, 0.0289646573, -0.1240283772, 0.0077242693, -0.0256017838, -0.0233521666, -0.0386767797, 0.1651625931, 0.0826039985, -0.0816940889, 0.0469108932, -0.0863195881, 0.0077661569, -0.0127871176, -0.0339938290, -0.0205126312, -0.0370962024, 0.1046498641, 0.0284653641, 0.0014735928, 0.0803485215, 0.1268402040, -0.0921615809, 0.0010970484, -0.0506576151, -0.0299736857, 0.0244244915, -0.0163670909, 0.0483475663, -0.0040758168, -0.0720735043, 0.0618605539, -0.0689526871, -0.0265979581, -0.0109921116, -0.0100633465, -0.0510916524, -0.0559461825, -0.0582103208, 0.0841192827, 0.0364360474, -0.0689246505, -0.0014368613, 0.0382556692, -0.0452087261, -0.0114953555, -0.0220493264, -0.0229668971, -0.0497986004, 0.0561942942, 0.0186664313, -0.0394921042, -0.0008978394, 0.1911011934, -0.0108247995, 0.1171316504, -0.0150114540, -0.1052680761, -0.0756510198, 0.0719555914, -0.0213892367, 0.0627048239, -0.0323688798, 0.0352963917, 0.0003026013, 0.0172026455, -0.1310863495, 0.0128871184, 0.0093696145, 0.0064179832, -0.0101301959, 0.0852044672, 0.0957206190, 0.0533994772, 0.0445094146, -0.0044676526, 0.0849368796, -0.0247808751, 0.0024098994, -0.0482698195, 0.0333593339, 0.0800987780, 0.0336742066, -0.0068024676, 0.0032122044, 0.0793446079, -0.0020777097, 0.0718419701, -0.0165683348, -0.0653874204, -0.0002786573, -0.0579723567, 0.0015304615, 0.0565681905, 0.0125286104, 0.0230022371, 0.0250641741, 0.0660671666, -0.0945239812, -0.0207333602, 0.0187917463, 0.0111670932, 0.0605237782, 0.0357355587, -0.0040336903, -0.0129078710, 0.0331298299, 0.0454204977, -0.0610391051, 0.0622373447, 0.0430542529, -0.0353054106, 0.0398322307, -0.0065587005, -0.0317590125, -0.0712120980, -0.0052242908, 0.0260220785, -0.0311528593, -0.0230456162, -0.0789331794, -0.0433554091, -0.0272044260, 0.0070260619, -0.0265424456, -0.0117437895, -0.0796028823, -0.0244551953, -0.0544870719, -0.0902690142, -0.0094226357, -0.0363659263, -0.0663314313, -0.0339816548, 0.0765870586, 0.0344886519, 0.0847731382, 0.0328166336, -0.0391711406, 0.0102227498, 0.0112789227, -0.0199318677, 0.0865965039, -0.0269126464, -0.0166865215, -0.0547388420, 0.0184216090, -0.0172629692, 0.0176707897, -0.0199858658, 0.0670778155, 0.0822101459, 0.0686096027, 0.0354551412, -0.0032518914, 0.0270962622, 0.0579439141, 0.0643744245, -0.0591033250, -0.0104775755, 0.0271901507, -0.0392118506, -0.0029912309, 0.0285300519, -0.0174945965, 0.0200692825, 0.0292676352, -0.0105740717, -0.0235725604, 0.0275948569, -0.0576525144, -0.0709125549, -0.0011635923, -0.0639793277, -0.0556577966, 0.0659754500, -0.0387494378, -0.0523333438, -0.0200876426, 0.0040958235, 0.0855051726, -0.0445705988, -0.0426085517, 0.0423274636, -0.0748129860, 0.0385118388, 0.0282335524, 0.0801439956, -0.0277272258, 0.0108482335, 0.0519784614, 0.0290086288, 0.0425754897, 0.0141370529, -0.0547397956, 0.0289324820, 0.0709916130, -0.0296460725, 0.0130273402, -0.0296572465, 0.0709583089, 0.0595952868, 0.0717746839, 0.0494979545, -0.0366804786, 0.0750807300, 0.0616238266, -0.0794368386, 0.0784969404, -0.0820708349, 0.0253411904, -0.0357530229, 0.0668450594, -0.0288066715, -0.0228787027, 0.0376324914, -0.0242614672, 0.0703292862, -0.0053495071, -0.0523711666, 0.0147141619, 0.0821571425, 0.0176963210, -0.0423346497, 0.0812888071, -0.0782595202, 0.0147643900, -0.0634576604, 0.0791521892, 0.0078268992, 0.0785976946, -0.0112231066, 0.0038902746, -0.0202120524, -0.0418664776, 0.0838881433, -0.0369928814, -0.0798647106, 0.0586608909, -0.0097147673, 0.0196039397, -0.0631650835, 0.0148654915, 0.0592666306, 0.0414507315, -0.0270088054, 0.0078055239, 0.0088405926, -0.0154820727, -0.0500437692, -0.0614102632, 0.0554545745, 0.0817766041, 0.0641197935, -0.0055096373, -0.0375943743, -0.0700981542, 0.0638059303, 0.0305169672, 0.0802079514, 0.0225735083, 0.0785490349, -0.0083693340, 0.0029843673, -0.0751152039, -0.0375472903, -0.0693593398, 0.0521019474, -0.0574807376, -0.0765770897, -0.0635555312, 0.0250039175, 0.0845384225, -0.0778273195, -0.0793457106, -0.0152192712, -0.0647391677, 0.0087113678, 0.0003441572, -0.0043193921, -0.0418664776, -0.0646496266, -0.0603237897, 0.0118999258, 0.0081379041, -0.0295715667, -0.0060654506, -0.0683498830, 0.0047312006, 0.0344988108, 0.0280578583, -0.0709351599, 0.0501216576, -0.0446640477, -0.0211365074, -0.0256914385, 0.0314731300, -0.0256680697, -0.0366292000, 0.0513254330, -0.0237471126, 0.0607107207, 0.0614911392, 0.0447071418, -0.0596070960, 0.0024970397, 0.0840768293, 0.0789051130, -0.0110911950, 0.0257137194, -0.0558459125, -0.0624194071, 0.0219080895, 0.0216687694, -0.0729643330, -0.0376650877, -0.0450191833, 0.0228649527, -0.0639154315, 0.0463044047, -0.0584926456, -0.0590759404, 0.0121282348, -0.0069247559, 0.0532305129, -0.0811910927, -0.0687075108, -0.0394633189, 0.0435099155, -0.0016149853, 0.0785826445, 0.0621366426, -0.0420235582, 0.0742693171, 0.0663222447, -0.0689586699, -0.0829194263, -0.0597592741, -0.0117361033, -0.0680652037, 0.0612570830, 0.0591638908, -0.0064233555, 0.0131042367, 0.0644856244, 0.0298521146, 0.0739741400, -0.0063854959, -0.0281719919, -0.0056432332, -0.0332590230, 0.0013076155, -0.0847383663, 0.0033210963, -0.0552968159, -0.0177600086, -0.0814704448, 0.0537490696, 0.0058187298, -0.0098803900, 0.0037062000, 0.0722035021, 0.0566748045, -0.0848156512, -0.0743099749, 0.0760214627, 0.0202098005, -0.0058702924, -0.0475163423, -0.0569477566, -0.0726718530, 0.0372617468, -0.0157699902, 0.0667922646, 0.0710609704, 0.0227706190, -0.0176042244, 0.0345430970, 0.0261628944, 0.0560149960, -0.0013366301, 0.0809088573, -0.0852449983, 0.0322366580, 0.0599170811, -0.0390047580, -0.0109167043, 0.0416726060, -0.0499049351, -0.0674547628, -0.0279871747, -0.0413584597, 0.0363549590, -0.0415138900, -0.0293384735, -0.0352373980, -0.0313261449, -0.0353635699, 0.0210076552, -0.0707038566, -0.0742072016, -0.0278257728, 0.0235373378, 0.0107172215, -0.0392195433, 0.0216869228, 0.0525896549, 0.0643709004, 0.0075253905, -0.0276422091, 0.0496814512, -0.0237349086, -0.0483452864, 0.0452285595, 0.0705583468, 0.0584296174, 0.0611856729, -0.0822332874, 0.0255725980, 0.0620775223, 0.0838900432, -0.0307916291, 0.0217895042, 0.0358562618, -0.0404035896, 0.0140614770, 0.0695140511, -0.0011721767, -0.0669337958, -0.0781500041, -0.0050207465, -0.0363399200, -0.0748317689, 0.0432084389, -0.0724361762, -0.0318637528, 0.0328917243, 0.0773998350, -0.0269714594, 0.0602179319, -0.0612757728, 0.0356989317, -0.0180682894, 0.0228638537, 0.0606383272, -0.0173283499, 0.0888233110, -0.0273965765, 0.0659311488, 0.0345880799, -0.0545746759, -0.0106122065, 0.0420574769, -0.0727789626, -0.0631993413, 0.0124736652, 0.0417640470, -0.0570297390, -0.0250568911, -0.0778066292, -0.0567073412, -0.0535643771, 0.0514828786, 0.0260775127, 0.0003117761, 0.0634766221, 0.0094644148, 0.0533350892, -0.0027992197, 0.0800404325, 0.0753253549, -0.0560484342, -0.0365477651, 0.0617808960, -0.0644465536, 0.0127516724, -0.0904205516, -0.0226220693, -0.0636762530, -0.0620678216, -0.0486023910, 0.0552282892, 0.0028291657, -0.0644030645, 0.0226579066, 0.0427186862, -0.0195983239, -0.0216919333, -0.0654795691, 0.0191408843, 0.0364429541, 0.0638309196, 0.0281276144, 0.0706174374, -0.0266824048, -0.0494513735, -0.0309514441, -0.0594713800, 0.0479065329, 0.0122106848, -0.0645831600, 0.0472923592, 0.0614208430, -0.0962219685, 0.0035993143, -0.0912272185, 0.0174014308, 0.0743849725, -0.0385007262, -0.0750648081, 0.0163709763, -0.0057560857, -0.0585438050, 0.0110261953, 0.0583739169, 0.0410508141, -0.0562956743, 0.0000376898, -0.0493427105, -0.1075813770, -0.0406176224, 0.0271650366, -0.0373553783, 0.0424414389, -0.0560132079, -0.0143878395, 0.0797387585, 0.0814414173, 0.0680508465, -0.0885229036, 0.0277077742, -0.0144658973, -0.0135555537, -0.0208277050, 0.0535174459, -0.0937454104, -0.0491417497, -0.0060801571, -0.0697549880, -0.0098256785, -0.0188487545, 0.0332614779, 0.0062127993, 0.0651848167, -0.0842505917, -0.0592736490, 0.0586650074, 0.0240375660, 0.0535617284, -0.1006324515, -0.0368160903, -0.1478196084, 0.0105750738, 0.1190908626, 0.1577002257, 0.0201916378, 0.1066213399, 0.0519194454, 0.0005047543, -0.0667427406, 0.0681379586, -0.0182189774, 0.0046547521, -0.0658190176, -0.1058299243, -0.0131894602, -0.0559357442, -0.1274461448, -0.0937985703, -0.0321319848, -0.0047398764, 0.0214440469, -0.0704604909, -0.0495617837, 0.1446586698, 0.0039942828, -0.0742029846, -0.0826897323, -0.0466305874, 0.0554332435, 0.0208294056, -0.1176253557, -0.0267692860, -0.1303209215, -0.0659314469, 0.2120877802, 0.0867443383, -0.1296388507, 0.0198967122, 0.0481891297, 0.0806645975, 0.0407266989, 0.0152596077, -0.0625224710, 0.0879134759, 0.0520855449, -0.0883638188, 0.1283189058, 0.1042155772, -0.0478524640, -0.0049817022, -0.0377452821, 0.0217311885, 0.0459004864, -0.0775990933, -0.0467089750, 0.0840396583, -0.0691435114, -0.2045776546, -0.1436702162, 0.0151963662, -0.0238899458, -0.0045118784, -0.0883477107, -0.1506269127, -0.0775304437, 0.0044899569, 0.1389432102, 0.2298899740, -0.1647703499, 0.1026389971, -0.0660650805, -0.0139767565, -0.0762158260, 0.0540843382, -0.0487427786, 0.0302301459, -0.0360761583, -0.1097468138, 0.1296664774, 0.0747192428, -0.0523151308, -0.0551919602, 0.0559506528, -0.0466194414, 0.0022250507, -0.1040714309, -0.0038024960, 0.1041566133, -0.0260012504, -0.0810801238, -0.1038711816, 0.0716171414, 0.0134367561, 0.1238948032, -0.0658508390, 0.0373211503, -0.0313805342, -0.1666074693, 0.1619105935, 0.3100536168, -0.0894315615, 0.1735904813, 0.0481942594, 0.0691118762, 0.0502942614, 0.1163504794, -0.0646447837, 0.0535366796, -0.0036531617, -0.1760908365, 0.0579665415, 0.2407608181, -0.0629654750, -0.0016707518, 0.0013429067, 0.0003503039, 0.0638480857, -0.1843568534, -0.0489145480, 0.0867713243, 0.0022740979, -0.0038328557, 0.0644186437, 0.1775422990, -0.1167153195, 0.0506793447, -0.0045489138, 0.0431111529, -0.0502499677, -0.1710627675, 0.1292179525, 0.3339656293, -0.0585218146, 0.2685445547, -0.0051697385, 0.0149789313, -0.0916481093, 0.0500316881, -0.0600755326, 0.0366240293, -0.0522184819, -0.0853983462, 0.0704649240, 0.3388948143, 0.0254446957, 0.0886115581, 0.0428700671, -0.0735618025, 0.0134661756, -0.1549464017, -0.0040058806, 0.2665632665, 0.0508179814, 0.0035558136, 0.0622675195, 0.0942518711, -0.0931820422, 0.2373393029, 0.0371180587, 0.0834790915, 0.0178976730, -0.1092804000, 0.0933544561, 0.2901536226, -0.0588901900, 0.2792072296, -0.0548268594, 0.0191073585, 0.0060924301, 0.0174662471, -0.0097355973, 0.0466098748, 0.0507660024, -0.1819312125, 0.0343506560, 0.5306465030, 0.0950350091, -0.0319960825, -0.1063193008, 0.1006428078, 0.0542581156, -0.0929604843, -0.0314027779, 0.1466382891, 0.0961088911, 0.1397981942, 0.0390066318, -0.0099693090, -0.1388638169, 0.3215398788, -0.0263063125, 0.2449710518, 0.0133623630, -0.0683480799, -0.1338672787, 0.0860509202, -0.0667017922, 0.1462358385, 0.0238069277, 0.0079158228, -0.1038882509, 0.0772248209, -0.0323855989, 0.1165227965, 0.1382654309, -0.1679528356, 0.0116384756, 0.5112280250, 0.2273726463, -0.1651613116, -0.0502747148, 0.0507320873, 0.0498820059, -0.0268390737, 0.0450910404, 0.2379903942, 0.1875791848, 0.2568843663, -0.0206140708, -0.0016097713, -0.0255468711, 0.3047311306, -0.0253467113, 0.1452502161, 0.1630550772, 0.0043782927, -0.2454190105, 0.0285052229, -0.0916209668, 0.0191048235, 0.1453122348, -0.0017128544, 0.0087489178, 0.1964734346, 0.0042097466, 0.1330955625, 0.0820974335, -0.0701446980, 0.1713483930, 0.4659496546, 0.1484427601, -0.2515122592, -0.0532295555, 0.0480125472, 0.0910255238, 0.0875809193, 0.0351971164, 0.1303679496, 0.1713222265, 0.1928573847, 0.1062531024, -0.1396240592, 0.1289035231, 0.2709616125, -0.1061173156, 0.1262523234, 0.1864209622, 0.0286965389, -0.4068228304, -0.0806718320, -0.1907745451, 0.0397641733, 0.1216564626, -0.1382535547, 0.0360114910, 0.1772373468, 0.0548644476, 0.0571295433, -0.0252310578, 0.0210708100, 0.2333078831, 0.4211549461, 0.1621931195, -0.3065429330, -0.1321565211, 0.0523432717, -0.0090329917, 0.1735289544, -0.0225011352, 0.0839235857, 0.1600698084, 0.2607939839, 0.1023456231, -0.1645138264, 0.1556446403, 0.3116953373, -0.1055422574, 0.1249778792, 0.3212607801, 0.2604173720, -0.2846841812, -0.1369125247, -0.0822152942, 0.0315612815, 0.2771085501, 0.0082983999, 0.0789621621, -0.0173949581, -0.0368343182, 0.0237586442, 0.0046623657, 0.0040165139, 0.2632108927, 0.1429543197, 0.1568812132, -0.1902158260, -0.0921949968, -0.0125774443, 0.0308571979, 0.1443825960, -0.0859451592, 0.0357291028, 0.1228296831, 0.0956915542, -0.0734608620, -0.2761789858, 0.0985054225, 0.2082364261, -0.0866225660, 0.0408767164, 0.2384043783, 0.2761297226, -0.1271751672, -0.0599535927, -0.1196631044, -0.0664807856, 0.2080119401, -0.0797539428, 0.0359601453, 0.0171895381, 0.0539340302, -0.0492516421, 0.0456943288, 0.1174660251, 0.3378364742, -0.0157031231, 0.1026291251, -0.1244014874, -0.1149644628, -0.0592543334, -0.1315178275, 0.0767754167, -0.0008123778, -0.0639905334, 0.0923283696, 0.1034928411, -0.0387451798, -0.2987840474, -0.0244707298, 0.1047876552, -0.1534529924, -0.0519810058, 0.2002746165, 0.2428899854, -0.0863424912, -0.1056182086, -0.0446054228, -0.0639319569, 0.1880071610, -0.0195717607, 0.0007894326, -0.0569729544, 0.1054805070, 0.0444149934, 0.1263603866, 0.1258819997, 0.2654626369, 0.0375345238, 0.0829386041, -0.0947369710, -0.0038223853, -0.0854377151, -0.1449549943, 0.1587042361, -0.0029987926, -0.0978064835, -0.0646702722, -0.0736687928, -0.0578257628, -0.1741125733, -0.0462609716, -0.0330924690, -0.1077416241, -0.0118199838, 0.1168366671, 0.2161525339, -0.0114004808, 0.0169225745, -0.0413221382, -0.0232004654, 0.1565161943, -0.0533573329, -0.0658841059, -0.1416381896, 0.1276360899, -0.1096658260, 0.1006126478, 0.0352514610, 0.2695106566, -0.1166191474, 0.0681402907, 0.0071950732, 0.0302848648, -0.0169727858, 0.0057026981, 0.0340660699, -0.1028234810, -0.0069589475, 0.0241878666, -0.1278333962, 0.0024712689, -0.1710954458, -0.0621934421, 0.0936600789, -0.0488897040, 0.0698268190, 0.1322889775, 0.0743877515, -0.0111828540, -0.0057958220, 0.0723058730, 0.0083620064, 0.1440990567, 0.0465206765, -0.0562899113, -0.0844629928, 0.0298708845, -0.0724567845, 0.0132983252, 0.0279753339, 0.0608218983, -0.0436377265, 0.0087291859, 0.0394947119, -0.1027641445, 0.0091131795, -0.0440422893, 0.1375512332, 0.0184434876, -0.0072039040, 0.0096270842, -0.0029486066, -0.1100920886, -0.1342614889, -0.0667401105, -0.0291094985, -0.0349591933, -0.0072386721, 0.0372765139, -0.0309647638, -0.0323363282, 0.0276001077, 0.0279629230, 0.0858983323, 0.1162068993, 0.1200695857, -0.0732559413, -0.0786012113, 0.1335290372, 0.0259782039, 0.0780505538, 0.0367431529, 0.1044620946, -0.0967855752, -0.0007471205, -0.0469902754, -0.0325699039, -0.0762792006, -0.0625071079, 0.0000216093, -0.0730589479, -0.0792701393, 0.0038564282, -0.0261713956, 0.0226436686, -0.0850337893, -0.0608649366, -0.0400803238, -0.0250341538, 0.0800129473, 0.0802782327, -0.0499137901, 0.0726902783, 0.1079569682, 0.0608141534, -0.0603885464, 0.0240174271, 0.0983484834, 0.0207693689, -0.0560245104, 0.0019246144, -0.0564050227, 0.0436730571, 0.0203325711, 0.0381376892, 0.0562933534, 0.0023654527, -0.0101229437, -0.0126207909, 0.0311968476, 0.0045545371, 0.0198108964, 0.0344468541, 0.0285430886, -0.0823567361, 0.0339656211, -0.0739410445, -0.0079251761, 0.0372565426, 0.0280739218, -0.0327366553, -0.0525384508, -0.0004459088, 0.0720354021, -0.0650882572, 0.0246277098, -0.0021201433, 0.0793161765, 0.0111204013, -0.0313411430, -0.0902368799, -0.0954636708, 0.0450052433, 0.0215762742, -0.0159155782, 0.0129787689, 0.0420878381, -0.0017156814, 0.0431358479, 0.0613830164, 0.0054714424, 0.0684366077, 0.0475713201, -0.0446223877, -0.0679504275, 0.0012544724, -0.0178171638, -0.0002392390, -0.0286792424, 0.0134743797, 0.0022198118, -0.0099145807, 0.0226232708, 0.0161323640, -0.0818333998, -0.0047115353, -0.0184898470, 0.0771578774, 0.0803904682, -0.0332173705, 0.0379108004, 0.0493165739, 0.0543775223, -0.0483552031, -0.0030645088, -0.0285085868, -0.0107898107, -0.0123874350, 0.0464382470, -0.0740253553, 0.0346969143, -0.0746968910, 0.0629378930, 0.0492135473, -0.0087096868, -0.0247649383, -0.0593534894, 0.0634811968, 0.0550370514, 0.0097351139, -0.0708455592, 0.0785318315, -0.0830724835, 0.0644704029, -0.0483596139, 0.0503255017, 0.0327153951, -0.0478718877, -0.0671509802, 0.0849461034, -0.0781112164, 0.0477550440, -0.0104849581, 0.0000189209, 0.0312668160, 0.0711396486, 0.0202136561, 0.0565965883, 0.0200778767, -0.0228182226, 0.0422601514, -0.0771973655, 0.0567065105, -0.0346057601, 0.0425727889, 0.0079872040, 0.0205826648, -0.0364639387, 0.0500932857, 0.0795394629, 0.0074572386, -0.0493605733, -0.0367471427, -0.0395910703, 0.0724367797, -0.0816476643, 0.0396272913, 0.0742003396, -0.0206375755, 0.0750866160, 0.0105415378, 0.0778052732, -0.0769970417, 0.0086727785, 0.0026664971, 0.0383651443, 0.0572437830, -0.0590421706, 0.0590712279, 0.0179152749, 0.0097076437, 0.0160621163, 0.0066449610, 0.0075338129, 0.0270431060, -0.0261605773, 0.0486480445, -0.0717095435, -0.0695157871, -0.0097118989, 0.0030852184, -0.0074235648, -0.0515814722, -0.0771948323, -0.0751152858, 0.0822976306, -0.0658756867, -0.0465120599, 0.0159757510, 0.0609467104, -0.0392285399, 0.0238548964, -0.0505306385, -0.0126138851, -0.0521539934, 0.0827885643, 0.0019736439, -0.0764243528, 0.0690141246, -0.0658740476, -0.0398327708, 0.0420005694, 0.0075668767, -0.0813729614, -0.0491184331, 0.0000066236, -0.0626192465, 0.0314598158, 0.0366848484, -0.0558689125, 0.0097929463, 0.0568279698, -0.0202820003, 0.0802392885, -0.0106851161, 0.0016588420, -0.0620176569, -0.0269045979, 0.0217142180, 0.0259504691, 0.0406624749, 0.0744417533, -0.0195338652, 0.0126813278, -0.0101650506, -0.0571069717, 0.0351127908, -0.0673357546, 0.0600181893, -0.0711231455, -0.0781448334, 0.0553479567, 0.0437988266, 0.0530362651, 0.0719242468, -0.0510616153, 0.0424961671, 0.0643151328, -0.0790108517, 0.0216205642, 0.0705608651, 0.0287607536, 0.0369240269, -0.0412483290, 0.0495976880, -0.0417104214, -0.0041446225, 0.0735768750, -0.0790686682, -0.0721813217, 0.0269940663, -0.0254657324, 0.0182821099, 0.0811639577, 0.0436570086, -0.0339427590, -0.0089509171, 0.0672869086, -0.0200233720, 0.0392989516, -0.0019035659, 0.0610391870, -0.0436408222, 0.0332938805, -0.0141788451, -0.0645264015, -0.0240655672, 0.0483615510, 0.0074299402, 0.0359022468, 0.0279466305, 0.0048456821, 0.0771957934, -0.0615809895, -0.0826907456, 0.0363600142, -0.0728440359, 0.0420832820, 0.0850931853, -0.0479357168, -0.0587159209, 0.0545143969, -0.0468354747, 0.0237590335, 0.0254607145, -0.0263124797, -0.0034025547, -0.0384792313, -0.0177617222, -0.0271620862, -0.0438757576, 0.0080912830, -0.0248940624, -0.0552406684, 0.0599476174, 0.0257789586, -0.0621486567, -0.0322053507, 0.0696417540, -0.0235444847, 0.0592520684, -0.0529493466, -0.0037474057, 0.0041562482, 0.0774346888, 0.0781389773, 0.0817988738, 0.0214485507, -0.0852359384, 0.0335155427, -0.0447835922, 0.0564749874, 0.0332601443, 0.0472533405, -0.0492399782, 0.0446101613, -0.0761101097, 0.0327660255, -0.0201850384, -0.0112495013, -0.0346327126, 0.0457599498, 0.0592522360, 0.0614066273, -0.0566723831, 0.0359873734, -0.0209782720, 0.0482521169, 0.0622523986, 0.0564487986, -0.0180144832, 0.0334738754, 0.0562998541, -0.0774228722, -0.0063472586, 0.0014957860, -0.0842546299, 0.0147372037, -0.0011666089, 0.0367904007, 0.0139996158, -0.0640351698, -0.0644680485, -0.0557271875, -0.0594536141, 0.0370073617, 0.0922209099, -0.0682239309, -0.0972298607, 0.0322062559, -0.0859062672, -0.0216065049, 0.1301298141, 0.0675687566, 0.0471842438, -0.0293867085, 0.0591642708, 0.0150103383, 0.0339668132, -0.0406711064, 0.0136964824, 0.0748927742, -0.0544577390, -0.0557133406, 0.0073789293, -0.0701029599, -0.0820243806, -0.0549324751, 0.0397654697, 0.0537480377, -0.0067893546, -0.0077582193, 0.0020093524, -0.0097660115, -0.0224955566, -0.0475566797, -0.0347974524, -0.0922079608, -0.0295039471, -0.0412344821, -0.0724669620, -0.0107324049, -0.1489130110, 0.0248021428, 0.0403523855, 0.0551308692, 0.0168408751, 0.0333091132, -0.0050411895, -0.0545763411, -0.0086245006, 0.0696211457, -0.0153232580, -0.0337779932, 0.0048609055, -0.0694321841, -0.0628414154, 0.0622195974, -0.0959104300, -0.0816158429, 0.0282995217, 0.0460020080, -0.0679665953, -0.0646774173, -0.0700107068, 0.0089338599, -0.0270287171, -0.0463757217, -0.0632944703, -0.0483985953, 0.0372199155, -0.0327003337, -0.1198572665, -0.1793177426, -0.1063045040, 0.0139886765, 0.1866080016, 0.0339039974, -0.1134887859, 0.0524779074, -0.0523255281, 0.0514746830, 0.1077958867, -0.0009862392, -0.1372045726, -0.0394102782, -0.0525683351, -0.1012386456, 0.0867874473, -0.0591527484, -0.1761016697, 0.0083225984, 0.0595938899, 0.0085333521, -0.0493581258, -0.0056053260, -0.1380473673, 0.0211614221, -0.0136136198, -0.0470017716, -0.1647052616, -0.1089961827, 0.0974823460, 0.0082569495, 0.0095216865, -0.0707030445, -0.1091564372, -0.0813442543, 0.1617531031, 0.1283752322, -0.0859306306, 0.0921400040, 0.0355391800, 0.0075923321, 0.0038830999, 0.0327923000, -0.0267072562, -0.0167162959, -0.0063301600, -0.0852370933, -0.0221646074, 0.0997593105, -0.1536987573, -0.0012498896, 0.0015528729, 0.0306311231, -0.0224649440, -0.0526200607, -0.1485470235, 0.0213396214, -0.0173651092, -0.1476946920, -0.0469176844, 0.0639993772, 0.0840690136, -0.1066402644, -0.0017066844, -0.0363112241, -0.0949646086, 0.0067644208, 0.2376433760, 0.3067143559, -0.0716801509, 0.1828641444, 0.1102290601, 0.1052445918, 0.0363271199, 0.0696928203, -0.0650528222, 0.0342595130, 0.0012701822, -0.1237712428, 0.0348420069, 0.1540989578, -0.1039868891, 0.0185020138, 0.0433121361, 0.0413610712, -0.0397166647, -0.2114787251, -0.0940969065, 0.0647181273, 0.0224189907, 0.0164613854, -0.0848008096, -0.0165277682, -0.0077270628, 0.0008635923, -0.0883496404, -0.0496114492, -0.0080101648, -0.0523131564, 0.3149364293, 0.3592559099, -0.0138378087, 0.2901789844, 0.1352509409, 0.0519803353, 0.0073549072, 0.0938614979, -0.0393781215, -0.0157566071, -0.0694020838, -0.1789898276, -0.0043583214, 0.1433360875, -0.1170635149, 0.1352631748, 0.0510041229, 0.0229531471, -0.0707382113, -0.1766543239, -0.0777951553, 0.0368734933, -0.0575154684, 0.0291922372, 0.0850679651, 0.0543172807, 0.0323957093, 0.0684230179, -0.0378291123, 0.1469652355, 0.0491104014, -0.0487437807, 0.2416336834, 0.4228784442, -0.1058213785, 0.3026914001, 0.0894223899, 0.0849765688, -0.0270165056, -0.0341196470, -0.0066230791, 0.0901808664, -0.0982347652, -0.1214992926, -0.0940857381, 0.3354287446, 0.0355336927, 0.1146321967, 0.0770617127, 0.0232018624, 0.0795631558, -0.2307240218, -0.0044429423, 0.1264079660, -0.0044424403, 0.1428923458, 0.1015336886, 0.0663292184, -0.0761938617, 0.1982113570, 0.0054108133, 0.2306487709, 0.0327192619, -0.1479160637, 0.2428464442, 0.2944310606, -0.0110660056, 0.2403842807, 0.0598136745, -0.0697915927, -0.0601793155, -0.0011324583, -0.0507531315, -0.0037137349, -0.0385486521, -0.1426502168, -0.1141344160, 0.4090122879, 0.0748335421, 0.1349042505, 0.1985432655, 0.0327018015, 0.1314255744, -0.1888289601, 0.0026835476, 0.1343523711, 0.0649068132, 0.3443716168, 0.1765732467, 0.1185175031, -0.0377108417, 0.1939862669, 0.1178743541, 0.2398437709, -0.0897137672, -0.1125381365, 0.1127309501, 0.1885272861, 0.0559838116, 0.2264996916, 0.1759433150, 0.0389294699, 0.0549706854, 0.0332378596, -0.0756412446, -0.0056226891, -0.0177873448, -0.2409977019, -0.1236246973, 0.6040580273, 0.2107445300, 0.0612525903, 0.1066289991, 0.0928889364, 0.1983731091, -0.0435552374, 0.0463357493, -0.0126211215, 0.2960296571, 0.2262278497, 0.1743796170, 0.1571526676, -0.0611489192, 0.2252984196, 0.1109116301, 0.2917213738, 0.0026081479, -0.1087959111, -0.0689659715, 0.0893001482, 0.0984829366, 0.2361694425, 0.1735452712, -0.0215144344, 0.0278752334, 0.2192805409, 0.0918151960, 0.0604072213, -0.1099411100, -0.2403450757, -0.2427803576, 0.6694721580, 0.2014920264, -0.1289691180, 0.0315103382, 0.1909839511, 0.1757102013, 0.0545288958, 0.1372565031, -0.0264013838, 0.4115746617, 0.3101722896, 0.3146958649, 0.0435591973, 0.0845282748, 0.2494622022, 0.0218530539, 0.2012718171, 0.1185934916, 0.0150528299, -0.2541427016, -0.0664757341, -0.0636663511, 0.1889832616, 0.2840307057, -0.0329473093, 0.0264045466, 0.2576436400, 0.1024260446, -0.0130836824, -0.1539177597, -0.0715907142, -0.0787059069, 0.5224275589, 0.1211454570, -0.2921574116, -0.1390381902, 0.1994847208, 0.1107876748, 0.1028066799, 0.1731156111, 0.0195510108, 0.4685242176, 0.4100543261, 0.2407252938, -0.0087746754, 0.2422478348, 0.3162992597, 0.1031025350, 0.0886273533, 0.2967602313, 0.0828731507, -0.3186157346, -0.0111923059, -0.1915932298, 0.0809830949, 0.3661912680, -0.1269376725, 0.1643403471, 0.1638700515, 0.1204908043, -0.0075223190, -0.1838003546, -0.0461254679, 0.0990177020, 0.1915465295, 0.1234664470, -0.1819029003, -0.0820888653, 0.0421174094, -0.0096675297, 0.2424643934, 0.0558494143, 0.0740837678, 0.3123047948, 0.4699864686, 0.2367051989, -0.1156167537, 0.3110133410, 0.2666827738, 0.0969586447, -0.0187630020, 0.3345300555, 0.1635706425, -0.3110313118, -0.1285670996, -0.2115169317, -0.0465213619, 0.2494698316, 0.0198058728, 0.0796583742, 0.0774570331, 0.1426699609, 0.0563922673, -0.1509090066, -0.0245029796, 0.2349656224, 0.1541226208, 0.0023798791, -0.0181808993, -0.1051779613, -0.0077747055, -0.1350871772, 0.2382992208, 0.0024975326, -0.0637334809, 0.2591741681, 0.3566097021, 0.1410823315, -0.3691430390, 0.1319963187, 0.1328742057, 0.0240811668, 0.0314265639, 0.3824858367, 0.3521098197, -0.2226780802, -0.0962127447, -0.1756920218, -0.0671732873, 0.3803502917, -0.0375913903, 0.1253592670, 0.0232590642, 0.1279249489, 0.0601702780, 0.0610932745, 0.0044692247, 0.3383949101, 0.0182763394, 0.1321685165, 0.1017360315, -0.0472145453, 0.0094320625, -0.1676267534, 0.2264341563, 0.0178164225, -0.0394363552, 0.0670845956, 0.1784128249, 0.0564867407, -0.2851078808, 0.0860903487, 0.0802119374, -0.0471710488, 0.0983571112, 0.3568907976, 0.3567674160, -0.0390486941, -0.1017828360, -0.0787202045, -0.0222198125, 0.2676299810, -0.0934434012, 0.0311596580, -0.1590600163, 0.0297181923, -0.0465605780, 0.1272275001, 0.0053108106, 0.3396620452, -0.1378683150, 0.0130055202, 0.1903311759, -0.0677699074, 0.0019420380, -0.2141596824, 0.1586331576, -0.1107732654, -0.2341468185, -0.0464423075, 0.0726404041, -0.0131058339, -0.2088761777, 0.0017508618, 0.1603610665, -0.0097707091, 0.1929557025, 0.2697775960, 0.3905473351, -0.0186085142, -0.0807026327, 0.0006919338, -0.0303379800, 0.2889257669, -0.0029902295, 0.0069568246, -0.0836865455, 0.0429474637, -0.0177348182, 0.0608396195, -0.0462449826, 0.2931815684, -0.0829238072, 0.0719452426, 0.1008603647, 0.0153343985, 0.0079328949, -0.1223906428, 0.1983278990, -0.1050055698, -0.1775112003, -0.1570805460, 0.0097268140, -0.0723238885, -0.2596737146, -0.0253360327, 0.0099822627, -0.1301337630, 0.2325037867, 0.1925866157, 0.2495035529, -0.0183224063, -0.0770915672, 0.1308148354, 0.0532499552, 0.2542615533, -0.0179893877, -0.1387886703, -0.0945618004, 0.0829581320, -0.0936864093, 0.0536792986, 0.0322437882, 0.0864683390, -0.1804643273, 0.0449356809, 0.0579432361, 0.0408050194, -0.0295493249, -0.0710380003, 0.1160254925, -0.0314958021, -0.2134916335, -0.1225107536, -0.0727703869, -0.1302514076, -0.1653957069, -0.0102968020, -0.0264515858, -0.0318562277, 0.1604029238, 0.1322149932, 0.1452839971, 0.0615504198, 0.0808882043, 0.0542179793, 0.0706538111, 0.1796055287, 0.0184622742, -0.1726810038, -0.1654638797, 0.1735923588, -0.0984628722, 0.0246997848, -0.0164056662, 0.0387223214, -0.0358833335, 0.0544142388, 0.0001627391, -0.0175928716, -0.1456086934, -0.0183071494, 0.0622988790, -0.0827684551, -0.0356991552, -0.0021329178, -0.0819991678, -0.0380035676, -0.1531079113, -0.0838263184, -0.0178372152, -0.1342850477, 0.0225669146, 0.1261385530, -0.0040945187, 0.0630079731, -0.0129527375, 0.1070465893, 0.1241068617, 0.0626545176, 0.0994946361, -0.0512892790, -0.0622342527, 0.0697689205, 0.0189136434, 0.0119302189, 0.0044002137, 0.0124997413, 0.0438359603, -0.0184971634, 0.0648580864, 0.0743919387, -0.1223921850, -0.0704147145, 0.0299281627, 0.0446944125, -0.0577490702, -0.0401952825, -0.0638952032, -0.0517142341, -0.0009924275, 0.0389045849, -0.0279780161, -0.0749435946, 0.1031240523, -0.0385863483, 0.0129883476, 0.0052025970, -0.0040511838, 0.1169911847, 0.0188900735, 0.0227956809, -0.0538589619, -0.0236126035, -0.1256097853, -0.0053424030, -0.0800582096, 0.0553151779, 0.0088751819, -0.0185267422, -0.0000462746, 0.0453183837, 0.0427771546, -0.0596625544, 0.0137214279, -0.0453362763, -0.0386922024, 0.0464184992, -0.0444540754, -0.0375791080, 0.0710559189, -0.0703791156, -0.0715175495, 0.0509435907, -0.0887714624, 0.0571749285, -0.0171745252, -0.0007755537, 0.0620857663, 0.0113360947, 0.0502158664, -0.0432592332, 0.0390939526, 0.0283727907, 0.0652071610, -0.0873437524, 0.0696191415, 0.0204588789, -0.0807896629, 0.0755047724, -0.0341284536, -0.0409467854, 0.0419787727, 0.0365322605, -0.0292783435, -0.0299027786, 0.0080369860, 0.0091571119, -0.0046770945, 0.0543067344, 0.0278664734, 0.0791872293, -0.0276800599, -0.0863833949, -0.0292916466, -0.0198210161, -0.0690203235, -0.0661705807, -0.0596846640, 0.0622267835, -0.0529390462, 0.0150930397, 0.0781559646, 0.0154322572, 0.0139987879, -0.0710608810, -0.0227661692, -0.0383827426, -0.0155886961, 0.0417813025, 0.0164341405, 0.0527803265, -0.0231150817, 0.0666495562, -0.0176709332, -0.0481245853, -0.0497984737, -0.0735694692, -0.0532046668, -0.0331003517, 0.0034555648, 0.0468412116, 0.0193422139, 0.0783060789, -0.0292983595, 0.0679645836, 0.0560953990, 0.0558205396, 0.0355247334, 0.0598883480, -0.0128902802, -0.0574008487, 0.0830717385, -0.0071074138, -0.0046904981, -0.0806170851, -0.0767433494, -0.0133524919, 0.0063239983, 0.0761000514, -0.0369375981, -0.0248925202, 0.0063088681, -0.0388009138, 0.0070805103, 0.0755591094, 0.0208054800, 0.0814903900, 0.0382199697, -0.0718060136, -0.0255340990, -0.0682711676, -0.0584227443, 0.0313033983, -0.0754759684, 0.0557004884, 0.0029783323, 0.0171316490, 0.0706836805, -0.0615603998, 0.0177097246, -0.0789684355, 0.0659514740, 0.0306640491, -0.0356601439, -0.0851487592, 0.0452221707, 0.0550034866, -0.0006387383, -0.0818731040, 0.0742201433, -0.0189585015, 0.0854495391, -0.0254016407, 0.0085200518, 0.0783510432, -0.0779623315, 0.0849832222, -0.0745399892, 0.0573834404, 0.0005512759, -0.0164333507, 0.0435008183, -0.0737754181, 0.0816887543, -0.0576990657, 0.0172086693, 0.0008203335, -0.0788437575, -0.0059852730, -0.0228635687, -0.0724402666, 0.0651972070, -0.0291176252, 0.0258174445, 0.0840568841, 0.0076773120, -0.0011495576, -0.0380203053, 0.0153607382, -0.0025187070, 0.0252281502, 0.0515915118, -0.0743452609, 0.0758394599, -0.0819870606, 0.0002245739, 0.0199579205, 0.0406431891, 0.0665205568, -0.0711956397, -0.0114500616, -0.0630489662, 0.0320228934, -0.0282642189, 0.0545606874, -0.0647389516, -0.0204510521, 0.0373214111, 0.0666122884, -0.0577856861, -0.0146534024, 0.0022039989, 0.0094096977, 0.0381321833, -0.0123773441, 0.0363113247, 0.0369750932, -0.0492696688, 0.0746368244, -0.0249318443, -0.0236238595, 0.0788553581, 0.0426704399, -0.0799331591, 0.0002372736, 0.0291024204, -0.0331258625, -0.0107974755, -0.0242119860, 0.0009952621, 0.0319716446, -0.0323435888, -0.0760243237, -0.0326614343, -0.0345874168, -0.0229174402, 0.0325630754, 0.0720187873, -0.0105615426, -0.0190494582, -0.0361240804, 0.0611495227, 0.0234310757, -0.0863066018, 0.0677331463, 0.0562656820, -0.0193089526, 0.0438029952, 0.0597554184, -0.0314037651, -0.0168000739, 0.0730832219, 0.0791606009, -0.0120571265, 0.0169841386, 0.0619921125, 0.0083844643, -0.0393149070, 0.0121620111, 0.0240447987, 0.0259806849, 0.0219848361, -0.0363562629, 0.0770218223, 0.0263931416, 0.0674607828, 0.0621186122, -0.0099548539, 0.0490244254, -0.0551105626, -0.1010488719, 0.0759703815, -0.0685497299, 0.0465032235, -0.0246086046, -0.0025350503, 0.0680267885, 0.0246916823, 0.0043589640, -0.0643048659, -0.1197051406, 0.0273459069, 0.0987991691, 0.0260944534, 0.0047485256, 0.0051537878, 0.0610259995, 0.0506731197, 0.0631121844, 0.0125761395, 0.0656523481, 0.0073048468, -0.0118946033, 0.0198728759, -0.0696725398, -0.0023524694, -0.0316203348, -0.0486677475, -0.0256650038, 0.0564000942, 0.0890966877, -0.0606942363, -0.0332423113, -0.0162931178, 0.0289682895, -0.0697192550, -0.1041460782, -0.0067236680, 0.1081486121, -0.0162950624, -0.0894373879, -0.0076579335, -0.0733241886, 0.0516316444, 0.0340948403, 0.0229386259, -0.0916439444, 0.0768651739, -0.0486414507, 0.0305202454, -0.0070315734, 0.0697935298, -0.0472581498, 0.0688338801, -0.0676473603, -0.0842745379, -0.0800324902, -0.0157321990, 0.0033985274, 0.0511144921, 0.0244775936, -0.0858949497, 0.0595094413, -0.0294138659, -0.1212995648, 0.1095645577, 0.1119806617, -0.0575613789, -0.0951471701, -0.0992166176, 0.1347098202, 0.0086457152, -0.0585253239, -0.1703672409, -0.1997334361, -0.0766866729, 0.1627762914, 0.1046079248, 0.0230509005, -0.0432353020, -0.0560763516, 0.1160254404, 0.1012277678, 0.0248645078, -0.1003362834, -0.0694830045, -0.0998460278, -0.0695614442, 0.0064072525, -0.0713201016, -0.0964429751, 0.0575979911, -0.0769599602, 0.0470588095, 0.0029494660, 0.0301162675, -0.0441163778, 0.0588527247, 0.0267180521, 0.0041017104, -0.1007943377, -0.0030327800, 0.1532190144, -0.0555418655, -0.0443951637, -0.0893157870, -0.2126195431, -0.1127462983, 0.3067234159, 0.1465978920, -0.1072016284, -0.0585650168, 0.0279012267, 0.0642391443, 0.0409501269, 0.0726965740, -0.1374147236, -0.0239589177, -0.0489453562, -0.0278626774, -0.0159229748, -0.0686345845, -0.1360645294, 0.0159169883, -0.0015453052, 0.0537848324, 0.0266939420, -0.0578063875, -0.0376568139, 0.0225252323, -0.0286671240, 0.0154790925, -0.1150207072, -0.0150397513, 0.1261707544, -0.1938011348, 0.0839677453, -0.1595495641, -0.2999911904, 0.0074705109, 0.3342214227, 0.1180667281, 0.0195531268, 0.1021780968, 0.0747792721, 0.0186478533, 0.0056991368, 0.2064228356, -0.1973789334, -0.0067909588, -0.0298826043, -0.0870044082, 0.0143185873, 0.0998414531, -0.1366015673, 0.0658943355, 0.0754569471, -0.0196610335, -0.0545361079, -0.1069006622, 0.0516586713, 0.0758502036, -0.0778461844, 0.0678931102, -0.1008783653, -0.0062821279, 0.1017215252, -0.0189463086, 0.0105717145, 0.0183423143, -0.1609312892, 0.0915641636, 0.2394391298, 0.1870129108, 0.0410202630, 0.1242739186, 0.2213632464, 0.1324619204, 0.0280155912, 0.1274698228, -0.2057666779, -0.0097409068, -0.0841652825, -0.1224844158, -0.0211202204, 0.1023201421, -0.2240975350, 0.1427998543, 0.1661347151, 0.0753754154, -0.1225619689, -0.0721891373, 0.1397720128, 0.1311103404, -0.1495347321, 0.1278001368, 0.0952705145, 0.0869854465, 0.1676897109, 0.0147755453, 0.0978863463, 0.1498638093, -0.1039406359, 0.0560401939, 0.1875602603, 0.3109884262, 0.0744311437, 0.2606736422, 0.2115336657, 0.0930022374, 0.0322128721, 0.0495563447, -0.2302965075, 0.0228226613, -0.0690702423, -0.1684267223, -0.1709823012, 0.1980815232, -0.1583824605, 0.1774967909, 0.2415894270, 0.1153708771, -0.0875509977, -0.1370036602, 0.1485694051, 0.0280345045, -0.0427509993, 0.2759409845, 0.0771903619, 0.1666094661, -0.0032244720, 0.1775746495, 0.1212684810, 0.1577295214, 0.0067165256, -0.0129943322, 0.3707982898, 0.2456163466, 0.1067549437, 0.1555418372, 0.1455195695, -0.0833133608, 0.0954770520, -0.1172071546, -0.1969003677, -0.0640888065, 0.0294497181, -0.2430664748, -0.1234610230, 0.2337812185, 0.0195111558, 0.1761567891, 0.1844386756, 0.0468710326, -0.0786866918, -0.1418463588, 0.2292064279, 0.0542880408, 0.0138160754, 0.4584447145, 0.1557419151, 0.0798940137, -0.0938595012, 0.1694114059, 0.0947604552, 0.1762098819, -0.0123418337, 0.0136934416, 0.3287695944, 0.0033176353, 0.2589044571, 0.1698116809, 0.1593666971, -0.0793068483, 0.1078280583, -0.1083389819, -0.1438865662, 0.0149850510, 0.0026565352, -0.2037341446, -0.2386720031, 0.3964669108, 0.1707512885, 0.0442641117, 0.1789896041, 0.0039544245, 0.0724820197, 0.0091994870, 0.2539060712, 0.0745373890, 0.1424799860, 0.4336089492, 0.1876423061, 0.1639459878, 0.0063480642, 0.1100218669, 0.1787168086, 0.0124299172, -0.1093738228, 0.0842046663, 0.1816455126, -0.0047091069, 0.3654992878, 0.1708044857, 0.1202140152, -0.0986701176, 0.1847980171, -0.0020830319, -0.0333475284, -0.0314264782, 0.0219272524, -0.0662347153, -0.1893051118, 0.5041013360, 0.1697418541, -0.1239151359, 0.1396699846, 0.1730133146, 0.0162228756, 0.0863061920, 0.3824686110, -0.0681696385, 0.2751264274, 0.2790363729, 0.2115410119, 0.2806710899, 0.0159460679, 0.0997499451, 0.0534526557, 0.0065155076, -0.1132427752, 0.1164403036, 0.1619554162, -0.0263226330, 0.3358029723, 0.0752325356, 0.2885133326, 0.1108025536, 0.1805422455, 0.2575824261, 0.1108928546, 0.0544653013, -0.2577373981, -0.1004056707, -0.1324293166, 0.3589814305, 0.0648992062, -0.3198785186, 0.0077299061, 0.2122208625, 0.0985108390, 0.3139684200, 0.3388176262, -0.0686890259, 0.4912503362, 0.2069320530, 0.3455831110, 0.2931703329, 0.1651690155, 0.0771947727, 0.1405390948, 0.0952322036, 0.0950897187, 0.0761488453, 0.0234850850, 0.0214451402, 0.1145626530, 0.1871297508, 0.3461623490, 0.0729006305, 0.1225371808, 0.2022947222, 0.2642408609, -0.0361165516, -0.4081655443, 0.0318071954, -0.1559443623, 0.1546531320, -0.0322899036, -0.4132091105, -0.0531591624, 0.2582890689, 0.1493687332, 0.2326004207, 0.2769457698, 0.0328591913, 0.4489250481, 0.3652710915, 0.2896516025, 0.2007854879, 0.4041516185, 0.0642233267, 0.1230238602, 0.1307600588, 0.3483677804, 0.1679180264, -0.1938057095, 0.1371922940, -0.1186034307, 0.1382015049, 0.2872773409, 0.1234016716, 0.1014455557, 0.3064776957, 0.2816524208, 0.0317881443, -0.4982663691, 0.1287538856, 0.0103324167, -0.0670909733, -0.0340687707, -0.1953240633, -0.1792923808, 0.1817127019, 0.0688438267, 0.2845011353, 0.2234084755, 0.0360183269, 0.4207268059, 0.4742678702, 0.2088464797, 0.0280644335, 0.2852875888, -0.0572369769, 0.1296865195, -0.0712598488, 0.3054639101, 0.1337710619, -0.2023477405, 0.1456169635, -0.2121047974, -0.0836369172, 0.3540346920, 0.1771364957, 0.0900706798, 0.1498463154, 0.2975096107, 0.0786748230, -0.3309149444, 0.0735124126, 0.2718293071, -0.0938865840, 0.0022806546, 0.0759800225, -0.0861084908, 0.0379933603, -0.0284504220, 0.2875332534, 0.0520005263, 0.0164209623, 0.3375258744, 0.5168255568, 0.0951457098, -0.2224073559, 0.1537417918, -0.0902525187, 0.1583636552, -0.1252230108, 0.3766625524, 0.1603146642, -0.0080267489, 0.0103787752, -0.1252272576, -0.0701763704, 0.2475259304, -0.0023509951, 0.1943406761, 0.0122002065, 0.2627321780, 0.1263676882, -0.0970804170, -0.0385774598, 0.3547409475, -0.1776131541, 0.0019230004, 0.2985265255, -0.0210755914, -0.0186299086, -0.1229111329, 0.2579798102, -0.0888841227, -0.0619830042, 0.0506470948, 0.2973267734, 0.0083140070, -0.3646614850, 0.0821861178, 0.0146241570, 0.0905146897, -0.1134997234, 0.3676874042, 0.3326112330, 0.0101573868, -0.0709260553, -0.0548831783, -0.0985059962, 0.3764546514, 0.0583743863, 0.1041070223, 0.0298831016, 0.1788806617, 0.0681261569, 0.1330749691, -0.1267276406, 0.2129567266, -0.1331819594, 0.0300541464, 0.2536051273, 0.0657988414, -0.0706932694, -0.1173345298, 0.1508900821, -0.0728468820, -0.1435173154, -0.0778710991, 0.0599570759, 0.0381459370, -0.3622015119, -0.0994067937, 0.0460022613, 0.0142142046, 0.1082146615, 0.2059466839, 0.4084252119, 0.1260793805, -0.1295948327, 0.0193694327, 0.0084540993, 0.3805778623, -0.0238873847, -0.0167231411, 0.0068863798, 0.0635546893, -0.0121586313, 0.1395956576, -0.1307925284, 0.1974290460, -0.2886178195, 0.0112046292, 0.2491405308, -0.0310522579, 0.0162837841, -0.0475921333, 0.1395303011, 0.0001399629, -0.1894290298, -0.1789567471, -0.0764639378, -0.0474289171, -0.1880348623, -0.0747857243, 0.0361620747, -0.0572616830, 0.1597174555, 0.1574980617, 0.3078229427, 0.1408231854, -0.0239695050, 0.1127016097, 0.0664152876, 0.3846624792, -0.0143362796, -0.0521338172, -0.1316668987, 0.0703392178, -0.1370908320, 0.0275995918, 0.0254390668, 0.0319098793, -0.1141630337, -0.0539195463, 0.2217990607, -0.0178213194, -0.0012096391, 0.0181575604, 0.1122105569, -0.0971831158, -0.1879782677, -0.2452527583, -0.0063234195, 0.0621414632, -0.1286806166, -0.0373985730, 0.0371854790, -0.0216910280, 0.1495710313, 0.1124140024, 0.1166521013, 0.0699466169, -0.0165986959, 0.1691520810, 0.1219556183, 0.1989908218, 0.1458285600, -0.1717183739, -0.1171190068, 0.1395242214, -0.1118928269, 0.0502454080, -0.0648225397, -0.0606524721, -0.1944587827, 0.1065364778, 0.0629408360, 0.0913259611, -0.0790798590, -0.0240150932, 0.1055355519, 0.0323821194, -0.1402487308, -0.1471819282, -0.1212697178, -0.0414749496, -0.1333323717, -0.1415391266, -0.0099133579, -0.0556350350, 0.0356296077, 0.0911425054, 0.0156022059, 0.0786981955, 0.1075812876, 0.0964748412, 0.0560739227, 0.1312776506, 0.0807468593, -0.1024483442, -0.0961339325, 0.0794037804, -0.0347596444, 0.0545435250, 0.0183758624, -0.0192098580, -0.1386375278, -0.0067639044, -0.0308725759, 0.0615549646, -0.0340183191, -0.0032375616, -0.0268709157, 0.0688016489, -0.0186874997, -0.1173728779, -0.0891672671, 0.0015501530, -0.0319451690, -0.0396452881, -0.0078124632, 0.0007259724, -0.0252466630, 0.1269250363, 0.0500886291, -0.0329154357, 0.1259287447, 0.0396308377, 0.1429119855, 0.0526125208, 0.0918856636, -0.0154060703, -0.1276249588, 0.1484981030, -0.0726723149, 0.1150694564, 0.0757586062, 0.0318830647, -0.0187830925, -0.0213550329, 0.0746881142, 0.0228806771, -0.0438871086, 0.0148118874, -0.0481831655, 0.0666113794, 0.0212490559, -0.0449129753, -0.0765805095, -0.0693437383, -0.0566714294, 0.0245764367, -0.0358272754, -0.0599927828, 0.0257080551, 0.0927485451, -0.0005464081, -0.0395301618, -0.0334561467, -0.0265148822, 0.0219772644, 0.0054681366, 0.0648063794, -0.0472033136, -0.0538784340, -0.0090777054, -0.0558107235, 0.0883709118, -0.0031929256, 0.0307418182, -0.0104943588, 0.0382241271, -0.0489200726, -0.0075505865, 0.0573899522, 0.0537227094, -0.0984344855, 0.0146192126, 0.0522563234, -0.0454752669, -0.0218791682, 0.0319696032, -0.0485766381, 0.0141815282, 0.0665982813, -0.0249565430, 0.0115103601, -0.0749138445, -0.0094661107, -0.0454759821, -0.0430890657, 0.0037792749, 0.0646992326, -0.0196535494, -0.0507848337, 0.0724386126, -0.0405979604, 0.0364118628, 0.0337072983, 0.0163013339, 0.0885292143, 0.0633881241, 0.0101427408, 0.0651624575, -0.0630061403, -0.0603109002, 0.0772905275, -0.0188645460, -0.0595628321, 0.0700969622, 0.0227125492, -0.0434059538, 0.0106770340, -0.0290589333, -0.0749416351, -0.0617500991, -0.0032073709, -0.0370131172, 0.0480294973, 0.0255946703, 0.0818067640, -0.0711556301, -0.0152444337, -0.0790585652, -0.0583397262, 0.0160585959, 0.0736862272, 0.0667099655, -0.0440288521, 0.0641651899, 0.0172564816, 0.0523192286, -0.0793372318, 0.0741424933, 0.0666933954, -0.0526202805, 0.0734589398, -0.0188244916, 0.0848616585, -0.0034053866, -0.0470734015, -0.0659838244, -0.0056563714, 0.0197607670, -0.0070082424, -0.0559143648, -0.0393085815, 0.0365860127, 0.0746785477, -0.0355364941, 0.0769333169, -0.0746662021, -0.0443887450, -0.0165345147, 0.0335458890, 0.0336305350, 0.0220378079, -0.0470578223, -0.0445083678, -0.0325513370, 0.0306264516, -0.0766470954, -0.0438814685, -0.0184992626, -0.0123491650, 0.0157348197, 0.0018662572, 0.0510309190, -0.0552737415, 0.0468451902, -0.0397485159, 0.0613208078, -0.0023167632, -0.0676106289, 0.0556463413, 0.0156189892, 0.0096876752, 0.0255619735, 0.0371651612, -0.0295020100, -0.0073521947, 0.0158641394, -0.0073667965, 0.0374391675, 0.0150173074, -0.0057033137, 0.0619772673, -0.0217079241, -0.0406215303, -0.0243259016, 0.0552372448, 0.0519670881, 0.0768884569, 0.0438113287, 0.0705925003, 0.0103297774, -0.0042246329, 0.0854691193, 0.0190570243, 0.0415275581, 0.0203137081, -0.0224820152, 0.0307169333, 0.0245447196, -0.0189671982, -0.0132763525, 0.0672804192, -0.0208232310, -0.0669767410, -0.0628022999, -0.0250450596, 0.0179518238, -0.0039627142, -0.0532987267, -0.0197606906, -0.0715827346, 0.0089497343, -0.0187148415, 0.0720801353, 0.0076055150, 0.0493672378, -0.0800354257, 0.0075055463, -0.0258766394, -0.0310950745, -0.0621574260, 0.0072963978, 0.0344260260, 0.0014478005, -0.0713522136, -0.0220919885, -0.0584801212, 0.0705909356, -0.0210078023, -0.0067556733, 0.0436313152, 0.0038600517, 0.0709760115, -0.0107824337, 0.0613616072, -0.0636878982, 0.0656286553, 0.0312719867, -0.0226428285, -0.0499052182, -0.0451349914, 0.0448471606, -0.0387750827, 0.0494731404, -0.0346682854, -0.0465382822, -0.0081434399, 0.0845247805, 0.0156671107, -0.0473789796, 0.0937106684, -0.0394187458, 0.0008069736, -0.0279260296, 0.0809307024, 0.0534820035, -0.0602498390, 0.0512522869, 0.0308524687, -0.0039752307, -0.0622037500, -0.0176953934, -0.0772059560, 0.0145691009, -0.0621248670, -0.0481131189, -0.0270552784, 0.0326777175, 0.0094554257, -0.0108009521, 0.0859640613, -0.0342244729, -0.0391448215, -0.0873886868, -0.1000823826, -0.0521226861, 0.0906690136, 0.0279365014, -0.0815450922, 0.0784942582, 0.0035589531, 0.0805727243, 0.0485539399, -0.0577718392, -0.0530020185, 0.0268540084, 0.0317304581, -0.0344177373, 0.0447832085, -0.0793678686, 0.0628857836, -0.0204669926, 0.0339457169, -0.0458244868, -0.0407288410, -0.0556556471, -0.0717470869, 0.1201799810, 0.0288206637, 0.0667823404, -0.1318219751, 0.0167394187, 0.1001086459, -0.0716231614, -0.0241990257, -0.0911025628, -0.1615870446, 0.0152278775, 0.1539578289, -0.0401765071, -0.0423717834, -0.0817839652, -0.0561268032, 0.0235821344, 0.0575740747, 0.0422228649, -0.1334634870, -0.0737123564, 0.0618279986, -0.1069499552, -0.1094858274, 0.0129150283, 0.0018097347, -0.0629812777, 0.0567841753, 0.0609842874, 0.0110034784, -0.0322868973, -0.0280217025, 0.0427964404, -0.0356484167, 0.0638930798, -0.1641316712, 0.0191438925, 0.0506701805, -0.1007598341, 0.0983963385, -0.1548293531, -0.2448287159, 0.0711472556, 0.2015512437, -0.0130826961, -0.0303865708, -0.0174273066, -0.0371159948, 0.0772204474, 0.0170198642, 0.0792764351, -0.1339478046, -0.0773659647, -0.0516964421, -0.0119528640, 0.0230654292, -0.0411544889, -0.0497720502, 0.0142452372, -0.0863997862, 0.0217666123, 0.0010574803, 0.0274625067, -0.1430617869, 0.0939273164, -0.0946931168, -0.0058855028, -0.1956075281, 0.0482046343, 0.1966648400, -0.2220308334, 0.1307999045, -0.1750787050, -0.3032758832, 0.0038343107, 0.1469316334, 0.0158335287, -0.0246120561, 0.0665662512, 0.1558012813, 0.1185209900, 0.0250093192, 0.1344629377, -0.1105999202, -0.0130650904, -0.0356294140, -0.1532395035, -0.0167987403, -0.0177792162, -0.1374532729, 0.1720540076, -0.0453870818, 0.1231438369, 0.0396383367, 0.0033086061, 0.0161549691, 0.0921243355, -0.0866910815, 0.0547097549, -0.0792360976, 0.1220417544, 0.1815455854, -0.1061696261, 0.1329780072, -0.0715292469, -0.2009466439, -0.0592789799, 0.2063555419, 0.0983527079, 0.0262998473, 0.1710500717, 0.1303716600, 0.0196277816, -0.0177757572, 0.1808441132, -0.2052582949, -0.0077639231, 0.0429232121, -0.1020211950, 0.0744756907, -0.0364238694, -0.2553072274, 0.1855879128, -0.0207503475, 0.0677888617, -0.1597121507, -0.0310542509, 0.1773542911, 0.1683935672, -0.1206785515, 0.2311794609, 0.0663863495, 0.1474150121, 0.0762572810, -0.0797984004, 0.2046328336, 0.1444408596, -0.0229176041, 0.0879860744, 0.0987295210, 0.1127500758, 0.0338113345, 0.1416598707, 0.2476243377, 0.0363813788, -0.1036252752, -0.0090377675, -0.2157678157, -0.0787015036, 0.0055844137, -0.0848019421, -0.0080537889, -0.0172848105, -0.1982984543, 0.2728095055, 0.1365714967, 0.1356063038, -0.2407860607, -0.0248521119, 0.3360559642, 0.1355009824, -0.1765292585, 0.4017532170, 0.0078634219, 0.1471688300, 0.0026832675, -0.0026968240, 0.2010557055, 0.2357825041, -0.0471678674, 0.0709144101, 0.1992724538, 0.0593790188, 0.1596014947, 0.2137172520, 0.0988903940, -0.1419643760, 0.0207242258, -0.1425986886, -0.1876273602, -0.1301517040, 0.0655591041, -0.0968875214, -0.0213887766, 0.0161677767, -0.0455928557, 0.2992416620, 0.1113830432, 0.0065468196, -0.2072498202, 0.0173544325, 0.3568655849, 0.2830823660, -0.1635834128, 0.4562044144, 0.1042009816, 0.2370137423, -0.0445498526, 0.0718242303, 0.1339156181, 0.0838467106, -0.0582122691, 0.1448095888, 0.1291638911, -0.1604956090, 0.2597951293, 0.0967299193, 0.0642817020, -0.1638958901, 0.0545779988, -0.2225772887, -0.2890366018, -0.0031059314, 0.0065263524, -0.0229223426, -0.1225303635, 0.1205856502, 0.0696952045, 0.1592470258, 0.1402549893, 0.0242837835, -0.1666107476, 0.1133541912, 0.2633967102, 0.1036043763, 0.0155990180, 0.4925546944, 0.0746758878, 0.1806606203, -0.1917497069, 0.0110204872, 0.1010566503, 0.0133930575, -0.1475349665, 0.0843997374, 0.2880735993, -0.2327528298, 0.4226498902, 0.0361879058, 0.0383961797, 0.0150272883, 0.1586133540, -0.0473615229, -0.1011672318, -0.0026367377, 0.0879553780, -0.1332129389, -0.1271051168, 0.1196721792, 0.2701030374, -0.0329760574, 0.0172667988, 0.0529883131, -0.1202597469, 0.2052676678, 0.1999337077, 0.0281570498, 0.0826819912, 0.3513753414, 0.1173492372, 0.3168077171, -0.2369265854, 0.0267370176, 0.0360560901, -0.0433663093, -0.1347299516, 0.0878653750, 0.4051705599, -0.2268398255, 0.5008037090, -0.0267791841, 0.0946771726, 0.1080387086, 0.1168961823, 0.0112781329, -0.0608163029, 0.0368281640, -0.0303365923, -0.0049795713, -0.1201835647, 0.1975038052, 0.2336451262, -0.2150889635, 0.0182787795, 0.2007928938, -0.0002936457, 0.3451993465, 0.2268776298, -0.0184335522, 0.3254538178, 0.1175422817, 0.2262201756, 0.3813629150, -0.1141437814, 0.0486026146, 0.0157213192, -0.1912807673, 0.0609913096, 0.2620607615, 0.3909890652, -0.1706596911, 0.3337510824, 0.0919739380, 0.1519192010, 0.1353606135, 0.1760798395, 0.1664094329, 0.2086719722, -0.0205948520, -0.0639084578, 0.1535019726, -0.1764008850, 0.0330825709, 0.1786753088, -0.3228887320, -0.0492822602, 0.2300696224, 0.1710150838, 0.4638380110, 0.3180436790, 0.0716266781, 0.3706840575, 0.0263274163, 0.2895016670, 0.4905737340, 0.0406358689, -0.0643585250, -0.0774345100, -0.0654089153, 0.2307642996, 0.1973240674, 0.4127018154, -0.0204884727, 0.0978683010, 0.1073633283, 0.1978850365, 0.1558018327, 0.0144103356, 0.2166516632, 0.3230260611, -0.1104898453, -0.2187244445, 0.2309008688, -0.1218256429, -0.0989792496, -0.0572101511, -0.2940734625, -0.0380647629, 0.3120273650, 0.1299184263, 0.3814043701, 0.1651592702, 0.2552492023, 0.5296403766, 0.1933377087, 0.0813806653, 0.4669344723, 0.2533942461, -0.1054326892, 0.1034884304, -0.1615549773, 0.3276073039, 0.1091087684, 0.2398354560, 0.2668867409, -0.1157609597, 0.0941838920, 0.1664353460, 0.2239214927, -0.0774519667, 0.1742574126, 0.3764030039, 0.0157278124, -0.1927663237, 0.2642470300, -0.1240946352, -0.2811138630, -0.0256111771, -0.1461533606, -0.1286229491, 0.1955530345, 0.1296852380, 0.2305658907, 0.1082955897, 0.3573724627, 0.5251646638, 0.3400534689, 0.0028161118, 0.2153099626, 0.1958658546, -0.2672635615, 0.2519230545, -0.1686021537, 0.3464981318, 0.1243956685, 0.0565876216, 0.3612938225, -0.2162624151, 0.0257289056, 0.1817968488, 0.1669383049, 0.1481529027, 0.2297033072, 0.4092572033, 0.0246053357, -0.1329600960, 0.1865119487, 0.0996365994, -0.2659301758, 0.0986173600, 0.1769861430, -0.0111727780, 0.0284878910, -0.0219116211, 0.2475626767, 0.0289012473, 0.2671028972, 0.2745635211, 0.4740192592, -0.0713275895, -0.0406318307, 0.0262186155, -0.2541212738, 0.2341379523, -0.1718429923, 0.3140786886, 0.0960441083, 0.0629460588, 0.2180183977, -0.1574834436, -0.1812434942, 0.1999937445, 0.0821456015, 0.1573836058, 0.2322194725, 0.4261025190, 0.0922434106, -0.0837347582, -0.0775824562, 0.1916892529, -0.2833369970, 0.1571272165, 0.3954562545, 0.0333930179, -0.0770962536, 0.0077468101, 0.1683223844, 0.0217176862, 0.0615628026, 0.0580988452, 0.3535903394, -0.1357558966, -0.3020169437, 0.0322509967, -0.0216327067, 0.2097204924, -0.1199669763, 0.2920553684, 0.3070071936, 0.2301177680, -0.0181412995, 