//Numpy array shape [32, 784]
//Min -0.674609243870
//Max 0.642668783665
//Number of zeros 0

#ifndef W4_H_
#define W4_H_

#ifndef __SYNTHESIS__
model_default_t w4[25088];
#else
model_default_t w4[25088] = {-0.0573780946, -0.0334152952, 0.0658523962, -0.0631401464, 0.0160841793, 0.0069139479, 0.0517356507, -0.0739272162, 0.0670683309, -0.0326195285, -0.0488090143, -0.0227949433, -0.0576613136, -0.0459620245, 0.0104045244, 0.0113269752, 0.0632446706, 0.0392067283, -0.0079352548, 0.0649695545, -0.0225541815, -0.0170794968, 0.0796018466, -0.0686861500, 0.0570435151, -0.0712635592, -0.0776102245, 0.0417571962, -0.0649252832, -0.0760452747, 0.0465981960, 0.0466637202, -0.0224879105, -0.0844540223, 0.0256142598, 0.0265184045, 0.0760968998, 0.0685223043, 0.0574879944, -0.0450988971, 0.0800320357, -0.0178592652, 0.0429994911, 0.0712174103, -0.0036879049, -0.0075630271, 0.0794929266, -0.0554700494, 0.0203887634, -0.0832746178, 0.0772983879, -0.0878748745, 0.0351356976, -0.0480927117, 0.0142852031, 0.0308233462, -0.0575295612, 0.0718295425, 0.0267868824, -0.0078747952, 0.0548629649, -0.0452355742, -0.0272449870, 0.0763085857, 0.0006643354, -0.0445464924, 0.0299062282, -0.0318678655, 0.0092565296, 0.0978813544, 0.0481360704, 0.0673528686, 0.0060836999, 0.0330589712, -0.0178797655, -0.0025007860, -0.0037718336, 0.0616369285, 0.0630471334, 0.0629134998, 0.0589456335, 0.0598417930, 0.0469397828, 0.0299593303, 0.0622340888, 0.0082909036, 0.0449531227, 0.0380164757, -0.0530515611, -0.0704804435, 0.0809474364, 0.0546424873, -0.0452153534, -0.0066113914, -0.0174822975, 0.0191867091, 0.0318309516, -0.0044407165, 0.0127056828, 0.0271288659, -0.0710913911, -0.0478656031, -0.0311434828, -0.0489651300, -0.0083931088, 0.0132541023, -0.0692397654, 0.0302936342, -0.0513045341, -0.0086226705, -0.0486665033, -0.0684104115, -0.0536828004, -0.0668397546, -0.0803065225, 0.0008363555, -0.0109080775, 0.0469838977, 0.0020735702, -0.1107527837, -0.0123158656, -0.1353681833, -0.1522046775, -0.1238311902, -0.1646058112, -0.1552217901, -0.1143233925, -0.0854783282, -0.0450597294, -0.0719623715, -0.1341646761, -0.1510494202, -0.1502526999, -0.0458313227, -0.1292831451, -0.0390495919, -0.0162804481, 0.0444209799, -0.0472298525, 0.0292576607, 0.0561603047, 0.0055470346, 0.0401033796, -0.0832821876, -0.0898318589, -0.0276415031, -0.0585120544, -0.0572154857, -0.1369492263, -0.1779841483, -0.0956582054, -0.1013883725, -0.0662916452, -0.0084896451, 0.0485559441, 0.1434075981, 0.0863697529, 0.0797072202, -0.0746265873, -0.0983677059, -0.1833378375, -0.1740747094, -0.1126141399, -0.0443352237, 0.0269006435, 0.0314336978, -0.0327986404, 0.0587114133, 0.0721311495, -0.0469500124, 0.0123097170, -0.0359894671, -0.0708232671, -0.1088074148, -0.0638150498, -0.0580807179, -0.1256987602, 0.0262273978, 0.0968330428, 0.1497006416, 0.1459358633, 0.1675354540, 0.2419708669, 0.2866779864, 0.2239785641, 0.1209222004, -0.0047240346, -0.0905473009, -0.1178357527, -0.0609795749, -0.1417870820, -0.1002978310, -0.0037676508, 0.0759685338, 0.0708527490, 0.0817183778, -0.0022853445, 0.0142853698, 0.0378603116, 0.0219943877, -0.0571675263, -0.1263311058, -0.1488108486, -0.1269702315, 0.0075356835, 0.1483524293, 0.2145814747, 0.2792384326, 0.2039450854, 0.1071031243, 0.0864546001, 0.1594647914, 0.1439824402, 0.0905000493, -0.0397281051, -0.0970769301, -0.0768891796, -0.0791935548, -0.0085688587, 0.0697081313, -0.0278358851, 0.0584127270, 0.0205873977, 0.0706847832, 0.0485520922, 0.0148725137, 0.0768780485, -0.0432982668, -0.0656721219, -0.0653264672, -0.1728110909, -0.0942348987, -0.0425999574, 0.1383117884, 0.2275591791, 0.1252453327, -0.1144394130, -0.2105442584, -0.1955341250, -0.0752113909, 0.0798603669, 0.0631573424, -0.0470143035, -0.0650707036, 0.0010121657, 0.0618543774, 0.0594344921, 0.0252651889, 0.0501258597, 0.0709675550, 0.0306333322, -0.0283200163, 0.0583152026, 0.0062020291, -0.0688456073, -0.0587027594, -0.0111855492, -0.1533676386, -0.1749102324, -0.0966948196, -0.0417659692, 0.0527065024, 0.0330237113, -0.1244593486, -0.3139643669, -0.4405003786, -0.3481750786, -0.0939486548, 0.0515653789, 0.0679332837, 0.0049274340, -0.0226241257, 0.1017333046, 0.0808777884, 0.0098517435, 0.0419114232, -0.0326056182, 0.0684255585, -0.0407985784, -0.0377177186, 0.0572947487, 0.0553939119, 0.0631479993, -0.1037179530, -0.0220543183, -0.1040482000, -0.1497589350, -0.1550968289, -0.0388849452, 0.0356524177, 0.0208448544, -0.1453284174, -0.3211144209, -0.2696833909, -0.0976034552, 0.0414719209, 0.1086204126, 0.0975246206, 0.0794542655, 0.1232470721, 0.1039891541, 0.0120263891, 0.0393107980, 0.0132520394, 0.0023421694, 0.0520203561, -0.0201592539, -0.0264338069, -0.0860769600, -0.0377358012, -0.0844494328, 0.0553195402, -0.0739663541, -0.1379203647, -0.1604736745, -0.1296588778, 0.0230097827, 0.0571312420, 0.1525037587, 0.0706862435, -0.0064829364, 0.0415841267, 0.1315078735, 0.0840163380, 0.0683177710, 0.0340711996, 0.0619141795, 0.1216919422, 0.1208537072, -0.0238079578, -0.0223445985, 0.0268370211, -0.0519983508, 0.0023206959, -0.0768219233, -0.0421624109, -0.0523460060, -0.0456754230, 0.0271446425, -0.0587310567, -0.0842221826, -0.0703525394, -0.1523419917, -0.0914833173, 0.0184312724, 0.1943214834, 0.2644953728, 0.2714436650, 0.2274328768, 0.1287160069, 0.0661065280, -0.0807580873, -0.1149847060, -0.0311220363, 0.0568525270, 0.1439422071, 0.0536629669, 0.0304804444, -0.0124693885, 0.0143112643, -0.0487299040, 0.0306349527, 0.0684906393, -0.0135938562, 0.0220971312, 0.0093235411, 0.0409401134, 0.0637670234, -0.0702038333, -0.1142910272, -0.1609897912, -0.1737743318, 0.0487026647, 0.2908473611, 0.3727534711, 0.3505958915, 0.1518584937, 0.0072605247, -0.2182927132, -0.3036259115, -0.2801176310, -0.1504584402, -0.0381713733, -0.0319207422, -0.0825176015, -0.1170151234, -0.0533958673, -0.0063930885, 0.0675130114, -0.0583386235, -0.0615284704, 0.0663327873, 0.0483012013, -0.0806533024, 0.0162330400, -0.0497716740, -0.0488063432, -0.1168758646, -0.1545253694, -0.1226462051, -0.0464823022, 0.2314081639, 0.3332441151, 0.2276842892, 0.0111185303, -0.2425535172, -0.3694823980, -0.4009284079, -0.2789341807, -0.1911888719, -0.1737337410, -0.1856293380, -0.1967838407, -0.2012325525, -0.0379571244, -0.0556828417, 0.0326009430, -0.0188397374, 0.0332952924, -0.0540311486, -0.0362678245, 0.0632174313, 0.0736881196, 0.0356318019, -0.0943095237, -0.0560878403, -0.0539945140, -0.0993575826, -0.0390887111, 0.0912546217, 0.1020297855, 0.0223384611, -0.2125385404, -0.3567896485, -0.4076305330, -0.3577169478, -0.2120291293, -0.1829391718, -0.2492149770, -0.2460385710, -0.2794145942, -0.2246982008, -0.1088464037, 0.0064615486, 0.0431788191, -0.0657187924, -0.0215915926, 0.0587663390, 0.0577332117, -0.0752627328, 0.0747599229, -0.0491530411, 0.0268053077, -0.0645902678, -0.0623828806, -0.0743104964, -0.1091651097, -0.0227491148, -0.0253365058, -0.1177225634, -0.2500773668, -0.3077760935, -0.2579065263, -0.2351381630, -0.2000304461, -0.1574508399, -0.1483684927, -0.1644159704, -0.2314646244, -0.1802792400, -0.1230486780, 0.0543581024, -0.0067803329, -0.0000727247, -0.0752570480, 0.0090247262, 0.0203581378, -0.0330056101, -0.0813928694, 0.0462578312, 0.0189279169, -0.0430868529, 0.0196979139, 0.0103780152, -0.0573171861, 0.0544778556, 0.0003076587, -0.0038366406, -0.0962027088, -0.0876551792, -0.1043532863, -0.1055070385, -0.1609286219, -0.0584094562, -0.0079174228, -0.0256485716, -0.1636693478, -0.1503927857, -0.0102283545, 0.0656634942, 0.0745073929, 0.0071398676, 0.0251240674, -0.0112980064, 0.0225548856, -0.0239397120, -0.0475390144, -0.0593167096, 0.0528737158, 0.0239054672, 0.0637430847, 0.0185101517, -0.0125580728, 0.0143107763, 0.0974232033, 0.0831816345, 0.0601371266, 0.0345097445, 0.0546620116, -0.0339650661, -0.1058561280, 0.0350228138, 0.0969088525, 0.0674398839, -0.0483791158, -0.0574905947, -0.0098823523, 0.0812603906, 0.0557126999, 0.0276401509, -0.0510598458, -0.0711020380, -0.0739904493, -0.0371523872, 0.0501809791, 0.0631933883, -0.0356516987, 0.0477647260, 0.0815567747, 0.0337621979, -0.0472339354, -0.0421817601, 0.0273268856, 0.1131893173, 0.1101308018, 0.1037933901, 0.0766284913, -0.0751581043, -0.0541668199, 0.0907444581, 0.1712048799, 0.0648448020, -0.0163673013, -0.0238185730, -0.0304238498, -0.0137719065, 0.0325800702, -0.0388319716, -0.0663669705, 0.0400754213, -0.0219883136, 0.0650779083, 0.0264342092, -0.0024013352, 0.0183298960, 0.0266716331, 0.1363121420, 0.0238031112, -0.0615785047, -0.1604748815, -0.1122446880, -0.0899526179, 0.0144096250, 0.0510378927, -0.0519870371, -0.1605124921, -0.0734635219, 0.0852312893, 0.1175524592, 0.0638226867, 0.0284724813, 0.0246115662, 0.0336110219, -0.0310625564, -0.0316664353, -0.0142721133, 0.0767561719, 0.0140400622, 0.0590656437, 0.0516028777, -0.0635851100, 0.0196383912, 0.1016987413, 0.1017739475, 0.1450751424, 0.0749552399, -0.0856000036, -0.2716263235, -0.3052796721, -0.2644077539, -0.2242393643, -0.1728334874, -0.2087206990, -0.2781769931, -0.2548945844, -0.0298549831, -0.0161442272, 0.0047830157, -0.0602863878, -0.0095344335, -0.0492101796, 0.0239983182, -0.0299731549, 0.0127702029, 0.0469371676, 0.0515083633, -0.0602829605, 0.0010384807, -0.0352969766, 0.1048647985, 0.0986136124, 0.1192166880, 0.1484191865, 0.0810987800, 0.0235863291, -0.2236359864, -0.3710236549, -0.4123789370, -0.3188759387, -0.3180591166, -0.3816157579, -0.3555720150, -0.2496739626, -0.1078803763, 0.0062381779, -0.0140900416, 0.0164073408, -0.0189233404, 0.0358816236, -0.0494122356, 0.0518491790, 0.0355967022, 0.0573448576, -0.0209513213, 0.0640802905, 0.0447397977, 0.0061598839, 0.0364125296, 0.0697821155, 0.1303516775, 0.1082205251, 0.1392922401, 0.0459439419, 0.0104197217, -0.1694301516, -0.2027771175, -0.2435909659, -0.2501308620, -0.2808710337, -0.2489139587, -0.1917327046, -0.0605278984, 0.0708411708, 0.1130785719, 0.0824111626, -0.0387087353, 0.0837928578, 0.0133526223, 0.0596909635, 0.0129425703, 0.0011408174, -0.0642609298, 0.0409148261, -0.0336643271, 0.0127150333, 0.0199880209, -0.0428265557, -0.0340176746, 0.0924867690, 0.0539381467, 0.0793796033, 0.0464510806, 0.0595283136, 0.0417959429, -0.0232042484, -0.0990836546, -0.1504733711, -0.1199182495, -0.0427658744, 0.0385370292, 0.1088329181, 0.0997866839, 0.0959025845, -0.0230990853, 0.0110613462, 0.0176753104, 0.0551341400, -0.0402334481, -0.0314496234, 0.0195647925, -0.0816550404, -0.0239048265, 0.0444311462, -0.0128388768, 0.0033000652, 0.0683224350, 0.0098211141, -0.0243717618, -0.0510780774, 0.0247023329, 0.0609783530, 0.0793047026, 0.0506820790, 0.0274712425, -0.0620993935, 0.0095962677, 0.0310711619, 0.0285856854, 0.1608060598, -0.0093072029, 0.0663162619, 0.0048415065, 0.0441308171, -0.0620029867, -0.0185864754, 0.0081123430, 0.0424882099, -0.0718791038, -0.0741241500, 0.0480301566, 0.0534059219, -0.0612695962, 0.0196650233, 0.0283505488, -0.0288432427, 0.0285999067, -0.0342069604, -0.0092400750, -0.0153156947, -0.0878096670, -0.0635418668, -0.0711886957, -0.0136738988, -0.0624983609, -0.0296602417, 0.0250584595, -0.0318181179, -0.0235064626, -0.0684512258, 0.0021264707, -0.0048679463, -0.0351863652, -0.0760411844, 0.0140884435, 0.0288915094, -0.0075332113, -0.0688258037, 0.0707170069, -0.0402231663, 0.0080142161, 0.0153482184, -0.0074033835, -0.0608904436, -0.0033827825, 0.0682585016, 0.0652057976, -0.0798880607, 0.0540298969, -0.0255352557, 0.0487341918, 0.0459400825, -0.0229869597, -0.0839384347, -0.0346377045, -0.0657368600, -0.0307767037, -0.0079113245, 0.0279063564, -0.0001777045, 0.0191916693, 0.0305641200, -0.0231228657, 0.0755809322, -0.0638082325, -0.0316114500, 0.0472393371, 0.0203015767, 0.0632869899, 0.0472405627, -0.0508846417, -0.0846267492, -0.0054429621, 0.0246020164, -0.0970755443, -0.0942292362, -0.0715107173, -0.0720942467, -0.0415598638, -0.0124221686, -0.0028304206, 0.0221685562, 0.0207256190, -0.0154661816, -0.0633485466, 0.0321763344, -0.0040946691, -0.0877842680, -0.0945967436, 0.0350481495, -0.0385033973, 0.0133874472, 0.0581630245, -0.0750351474, 0.0111654513, -0.0913631096, 0.0232472904, 0.0291822739, 0.0516219325, 0.0063572903, 0.0480709895, 0.0029076128, 0.0531345829, 0.0291612595, -0.0377385728, -0.0148596223, -0.0506713055, -0.0113501241, -0.0525301509, -0.0576916300, -0.0000830523, -0.0221593436, -0.0634467453, -0.0860397443, -0.0607172363, 0.0505400635, 0.0075202715, 0.0116249863, -0.0917566940, -0.0433545224, -0.0799729154, 0.0482823960, -0.0965777338, 0.0323506817, -0.0914667249, -0.0372326188, -0.0032635240, -0.0843747109, 0.0160822663, 0.0661121234, 0.0865658447, 0.0607833117, -0.0158216171, 0.0219424758, -0.0065817940, 0.0478112251, -0.0391995795, -0.0344335027, -0.0654337257, -0.1017403007, -0.0379709527, -0.0457992479, -0.1131086573, 0.0359275453, 0.0344280787, -0.0222629718, -0.0144258849, 0.0255133640, -0.0397200324, -0.0681900382, -0.0922209173, 0.0315541737, 0.0103628580, 0.0514185168, 0.0633766204, 0.0195204131, -0.0140605150, 0.0520918220, 0.1129371896, 0.1099531204, 0.1248774752, 0.1530570239, 0.1601871997, 0.1740634888, 0.1256060898, 0.0928470567, -0.0079773087, -0.0130503569, -0.0404741429, -0.0771142393, -0.0684572607, -0.0126090832, 0.0315376706, -0.0157823116, -0.0393412448, -0.0483858623, 0.0414573662, -0.0467011705, 0.0241835080, -0.0049369391, -0.0919602737, 0.0662325621, 0.0228661709, 0.0591064617, 0.0921457112, 0.1254383773, 0.0889074430, 0.0690905377, 0.0615031570, 0.0948747694, 0.1134721786, 0.1423877180, 0.1214745715, 0.0800158903, 0.0361890420, -0.0274854265, -0.0846935436, -0.1508620679, -0.1575091332, -0.1443345845, -0.1138915867, -0.1038599983, -0.0623624548, 0.0369058177, 0.0630145967, -0.0874791741, 0.0243422464, 0.0341753028, -0.0355239362, 0.0574696548, 0.1094941050, 0.1097937077, 0.1037444025, 0.0624371581, 0.0514163226, 0.0478751846, 0.0402158201, 0.0503521934, 0.0258682631, -0.0158441179, -0.0501814969, -0.0320250615, -0.0383970737, -0.0485734753, -0.1123684049, -0.1693264842, -0.2061290592, -0.2566913366, -0.2078226209, -0.1464488953, -0.0574767999, 0.0459359959, -0.0745744258, 0.0053096707, 0.0650405809, 0.0588247739, -0.0295707546, 0.1200398728, 0.1512716264, 0.1451057345, 0.1037553176, 0.1075963527, 0.0965541154, 0.1246079057, 0.0930211022, 0.0478534102, -0.0308791716, -0.1306974739, -0.0991960093, -0.0175260287, 0.0262515321, -0.0000273957, -0.0750044882, -0.1737882793, -0.2322500646, -0.2375561446, -0.1859089285, -0.1710846722, -0.1135691702, -0.1053593084, -0.0655603781, -0.0526743345, 0.0617954843, -0.0174994450, 0.0909192190, 0.0909015387, 0.1755191982, 0.2018138021, 0.1633006334, 0.1323257983, 0.1960507482, 0.1923003495, 0.1817756295, 0.0821258426, -0.0289772358, -0.0601007864, 0.0402404964, 0.2243434936, 0.2931418419, 0.1899580657, 0.0234465748, -0.1206408441, -0.1514093578, -0.1322614253, -0.1329830885, -0.1021626815, -0.0835520625, 0.0041860971, -0.0550065115, 0.0504525304, 0.0087539796, 0.0439396575, 0.1092049852, 0.1756141782, 0.2413550615, 0.2009471655, 0.2020468116, 0.1793383956, 0.2203778327, 0.2403621674, 0.1918763965, 0.0908372849, -0.0059943376, 0.0742690265, 0.2679353952, 0.5019705296, 0.5401779413, 0.3541944325, 0.1257294267, -0.0635494888, -0.1070098281, -0.0842656642, -0.0600050017, -0.0055891308, -0.0055207149, -0.0133872898, 0.0493851267, -0.0991377085, 0.0663345829, 0.0453710407, 0.1047963873, 0.1741112620, 0.1835346222, 0.1474024653, 0.0872769728, 0.1188651621, 0.1701228768, 0.1801627278, 0.0817234144, -0.0077241194, 0.0052680206, 0.1625027806, 0.4314528406, 0.6426687837, 0.5942177176, 0.3598695993, 0.1060080379, -0.0468703508, -0.0694737583, -0.0408358350, 0.0154218217, 0.0009080561, -0.0209185779, -0.0728000998, 0.0696917176, -0.0674458966, 0.0630903840, -0.0178058352, 0.0730383545, 0.0497436225, 0.0821568072, 0.0303599481, -0.0010505617, 0.0162827987, 0.0544202290, 0.0096282456, -0.0712118521, -0.1489488780, -0.0329245552, 0.1868708581, 0.4704959691, 0.5902514458, 0.4162744582, 0.1449654847, 0.0058226199, -0.0460500382, -0.0387341455, -0.0179661419, -0.0117005743, -0.0299847387, -0.0200196113, -0.0135480780, -0.0469656400, -0.0439833775, -0.0214420129, 0.0005920550, -0.0593585409, 0.0160922315, 0.0464780778, -0.0451370031, -0.1027850211, -0.0844868869, -0.0560748614, -0.1422839165, -0.2348975241, -0.2152978182, -0.0428510532, 0.1892947108, 0.3947486579, 0.3756308854, 0.1603742391, -0.0167175550, -0.0495883562, -0.0437999815, -0.0144958682, -0.0208714716, 0.0289777089, -0.0234461408, -0.0349158533, -0.0207279064, 0.0076328958, -0.0040839901, -0.0152774639, 0.0612110794, -0.0113907997, -0.0186008140, 0.0041825930, -0.0721269250, -0.1297846884, -0.1133032367, -0.1544859111, -0.2410803437, -0.2918847799, -0.1811818928, 0.0083135450, 0.1930441260, 0.2805323899, 0.1836030483, -0.0152411452, -0.0817260668, -0.0085511375, 0.0511021838, 0.0452163927, 0.0232132040, 0.0426635146, -0.0206787139, -0.0271199234, -0.0091289785, -0.0776805356, -0.0341732129, 0.0395615362, 0.0708887950, 0.0644473508, 0.0794420242, 0.0001458468, -0.0867296085, -0.1503654569, -0.1517368555, -0.1425566077, -0.1772218049, -0.1454903185, -0.0086052734, 0.1561714560, 0.2328027487, 0.1864909977, 0.0595370531, -0.0470257849, -0.0153696463, 0.0904016420, 0.1050652489, 0.0687176585, 0.0646305084, 0.0441311225, -0.0235112868, -0.0307198949, -0.0157719590, -0.0582132451, 0.0118421195, 0.0368243791, -0.0039729658, 0.0134987449, 0.0340637453, -0.0357970782, -0.0766393617, -0.1355715692, -0.1262206584, -0.0765834525, -0.0150927221, 0.1175432056, 0.2834537923, 0.3429431021, 0.2791941464, 0.1447998285, 0.0235343706, 0.0161903892, 0.0747689530, 0.1369462162, 0.1121013984, 0.1018609926, 0.0618743859, 0.0585484765, 0.0261868481, -0.0507234521, 0.0011653686, -0.0923963860, 0.0289439689, -0.1011499688, -0.0310611501, -0.0477326475, 0.0445395857, -0.0163235720, -0.0979475677, -0.1516327709, -0.1152248755, -0.0486853048, 0.1094943509, 0.2954775989, 0.4108078182, 0.3636679351, 0.2198952734, 0.0793912113, 0.0047548250, 0.0332160294, 0.0972690880, 0.1223121583, 0.0789120793, 0.0667217001, 0.0519355349, 0.0386781730, 0.0322585069, 0.0482373908, -0.0004810380, 0.0356550589, -0.0923305750, -0.0689153075, -0.0636161193, 0.0680773184, 0.0605096482, 0.0064751320, -0.0382620320, -0.1448238343, -0.1639312357, -0.1114199981, 0.0257085823, 0.1831113696, 0.2355350107, 0.1593926847, 0.0230918974, -0.0542507358, -0.0114342105, 0.0334126130, 0.0670001283, 0.0563943423, 0.0529743619, 0.0738056749, 0.0635161027, 0.0881578326, 0.1057832837, 0.0928297192, 0.0707956031, 0.0276834089, 0.0496095307, -0.0118395062, 0.0906263143, 0.0730832592, 0.0469058082, 0.1010820195, 0.0072379196, -0.1265956461, -0.1925717294, -0.2312228680, -0.1629593819, -0.0554547049, -0.0205650106, -0.0821340606, -0.1398127824, -0.0933182687, -0.0154045699, 0.0017425487, 0.0090093976, 0.0382507481, 0.0794100314, 0.1524172425, 0.1425859779, 0.1296815127, 0.1630626768, 0.0656957999, 0.0063367845, -0.0107927453, -0.0566062443, -0.0560867451, -0.0111600207, 0.1303419918, 0.1683569402, 0.1749253571, 0.0817850679, -0.0831340402, -0.1861637533, -0.2386411130, -0.1962593049, -0.0996233895, -0.0537777729, -0.0786233395, -0.0604538806, 0.0090181874, 0.0440871045, 0.0032637545, -0.0109244175, 0.0393975750, 0.1389473379, 0.2030046582, 0.2112993598, 0.1962785274, 0.1859095395, 0.1196712479, 0.0326892696, -0.0410309769, -0.0588944964, -0.0259617306, 0.0658451319, 0.0842069089, 0.2203973234, 0.2905765474, 0.2310969979, 0.0678833798, -0.0690138489, -0.1009941474, -0.0391370580, 0.0627143532, 0.0957627296, 0.1030356511, 0.1286627054, 0.1493314356, 0.0697848350, -0.0194724090, -0.0172279347, 0.0791308507, 0.1772783846, 0.2412675768, 0.2231498212, 0.1936043203, 0.1987085938, 0.1539265513, 0.0437141061, -0.0400844105, 0.0473215058, -0.0461653322, -0.0031557984, 0.0848216563, 0.2776979208, 0.3609384596, 0.3549120426, 0.2463202029, 0.1144774333, 0.0788787827, 0.1409505606, 0.2209745347, 0.2520529926, 0.2394348383, 0.2154703289, 0.1419403702, 0.0162569340, -0.0472791009, -0.0158096384, 0.0845633373, 0.1758998036, 0.2005393654, 0.2067013681, 0.2151807845, 0.1707493663, 0.1034014151, -0.0456140414, -0.0449996926, -0.0587763824, 0.0545238517, 0.1263525337, 0.1225359440, 0.1844674200, 0.3468261957, 0.4150806963, 0.3742211759, 0.2846518159, 0.2168766409, 0.2297553271, 0.2447987795, 0.2510935068, 0.1855418086, 0.1062842533, -0.0019352488, -0.0854547992, -0.1009757295, -0.0330104828, 0.0775857195, 0.1655262113, 0.1664734781, 0.1774848253, 0.1802573651, 0.1672981977, 0.1184578314, 0.0279090255, -0.0953301787, -0.0471486077, -0.0340893492, 0.1041090488, 0.1058033109, 0.1869789809, 0.2522505522, 0.3615913987, 0.3721359074, 0.3421115279, 0.2473611981, 0.1709092408, 0.0882667080, 0.0317376778, -0.0345434435, -0.1189316362, -0.1832653582, -0.1736724526, -0.1423282176, -0.0654622838, 0.0448978133, 0.0936330333, 0.1528834850, 0.1070690453, 0.1014267653, 0.0537606217, 0.0774138123, 0.0121625513, 0.0639830157, -0.0045975065, -0.0415638275, -0.0521430001, 0.0870473385, 0.0973773599, 0.1566777527, 0.2266837060, 0.2618962824, 0.2568314373, 0.1358101666, 0.0163401477, -0.1323060095, -0.1961541623, -0.2434009910, -0.2746855021, -0.2433585823, -0.1882477105, -0.1472630352, -0.0704281181, 0.0431702435, 0.0917690992, 0.1564104110, 0.0972181857, 0.0531800650, 0.0936645716, -0.0154584115, -0.0869732872, -0.0345953964, 0.0539640598, -0.0723501816, -0.0776075423, -0.0488449410, 0.0458112136, 0.1151670292, 0.1160575077, 0.1369709671, 0.1061964855, 0.0069787246, -0.1351957321, -0.2256253660, -0.2783969641, -0.2776714563, -0.2819136977, -0.2161945999, -0.1979411989, -0.1584479064, -0.1042789072, 0.0487635769, 0.1116296872, 0.0910466835, 0.0674426556, 0.0067569581, -0.0348083377, 0.0628128126, 0.0599637702, -0.0657807142, -0.0104568191, 0.0238488317, 0.0162213780, 0.0391917191, 0.0224196762, 0.0558021404, 0.0419094302, 0.0824162960, 0.0513130762, 0.0164190121, -0.0391462445, -0.0971057788, -0.1449853182, -0.1398503482, -0.1778421700, -0.1923371553, -0.1470270604, -0.1029899642, -0.0164090451, 0.0029169749, 0.1005223319, 0.0532859899, 0.0759246126, 0.0577307194, 0.0328926258, -0.0260536633, -0.0301094111, 0.0032445197, -0.0789575726, -0.0109027773, 0.0194268841, 0.0149314906, 0.0014918220, 0.0932293385, 0.0357724354, 0.0965752006, 0.1211554632, 0.0567151010, -0.0481662750, 0.0180361401, -0.0396666825, -0.0109406952, -0.1014583036, -0.0540879406, -0.0692944080, -0.0415436774, 0.0108882403, -0.0215370208, -0.0333011001, -0.0362713896, 0.0475010350, 0.0132056242, -0.0567980371, -0.0480780266, -0.0830181167, 0.0458651036, 0.0568338111, 0.0003292257, 0.0110487230, -0.0608447529, -0.0464217588, 0.0265762545, -0.0228585023, -0.0654583275, 0.0195989124, -0.0240652487, 0.0315179937, -0.0114827976, -0.0390242264, -0.0741695911, -0.0763424933, -0.0159292519, -0.0857410356, -0.0528429113, -0.0460782126, 0.0637682974, -0.0310480818, 0.0700645670, 0.0047314800, -0.0139483586, -0.0085995421, -0.0472771339, -0.0751071870, 0.0327327959, -0.0892620608, -0.1671889722, -0.0573327132, -0.0942558348, -0.1637904942, -0.1138474718, -0.0308769699, -0.1395211518, -0.1144481748, -0.0592633486, -0.1161790714, -0.1526230723, -0.1573380232, -0.0874327198, -0.0982495248, -0.1356340647, -0.0157188177, -0.0114854546, -0.0629566163, -0.1273341775, -0.1130829528, -0.0270253774, -0.0437169857, -0.0488411523, -0.1298855990, -0.0954352021, -0.1086853147, -0.0434437692, -0.0313811600, -0.0360401273, -0.0167173576, -0.0812324807, -0.0390007310, -0.0556561574, -0.0511198416, 0.0224318504, -0.0883167312, -0.1545887142, -0.0396162421, -0.1188467816, -0.1518801898, -0.1005598009, -0.1372094750, -0.1119077578, 0.0084581245, -0.0803453103, -0.0338172168, -0.0464110896, -0.1369755119, -0.0587994531, -0.0897655711, -0.1629100293, -0.1761579514, -0.1655336916, -0.0930861905, -0.0691426843, -0.1165457368, -0.0143070351, -0.0346253738, -0.0640286952, -0.1031119451, -0.0886200219, -0.1095200926, -0.0567906052, -0.0605816804, -0.1509988308, -0.1750054508, -0.0713929534, -0.1194376647, -0.1925178766, -0.1161596030, -0.1337273121, -0.0293490011, -0.0555041954, 0.0471778028, 0.0181168951, 0.0686260015, 0.0056747883, -0.0772392824, -0.0788070858, -0.1527376473, -0.0573240668, -0.0854310095, -0.0743889585, -0.1238320023, -0.0641697124, -0.1551169306, -0.1372703910, -0.0006562873, -0.1283719391, -0.1320355684, -0.0578136109, -0.0509054735, -0.0778659284, -0.1077603102, -0.0622899532, -0.0840524808, -0.1041493043, -0.0915733650, -0.0396883786, 0.0291238949, 0.0433834568, 0.0656461492, 0.0926051289, 0.1098408550, -0.0068790447, -0.0192743000, -0.1227749363, -0.0535010286, -0.1466191113, -0.0735676885, -0.1671834290, -0.1489247531, -0.0028475875, 0.0094606737, -0.0821017995, -0.0523486882, -0.0590802729, 0.0091995588, 0.0201418065, 0.0061452426, -0.0399640910, -0.0542122386, -0.0718954131, -0.0763399526, -0.0378671214, 0.0266571417, 0.1033260524, 0.1588466614, 0.1848420203, 0.1680391729, 0.1044349670, 0.0194660202, -0.0307386573, -0.0248621088, -0.0209916253, -0.0353279188, -0.1358559430, -0.1116316989, -0.0222539939, -0.1237811074, -0.1477476656, -0.0801773816, -0.0547554754, 0.0223173033, 0.0096416632, 0.0019055343, -0.0236649513, -0.0249555409, -0.0527140722, -0.0960699916, -0.1177573651, -0.0839977264, -0.0090483138, 0.0998565555, 0.1976315379, 0.2498627752, 0.2405353338, 0.1847770214, 0.0490044914, -0.0706723705, -0.1471581906, -0.1617078781, -0.1340155452, -0.1374502331, -0.0922253206, -0.0165947191, -0.0578531250, -0.0114517035, -0.0451069847, -0.1092218459, -0.0120214298, -0.0147282472, -0.0070591299, -0.0558736883, -0.0839826241, -0.1088163853, -0.1673839837, -0.1892879605, -0.1571617573, -0.0820033550, 0.0363783948, 0.1608555764, 0.2706876099, 0.3365329504, 0.3277852535, 0.2213060111, 0.0232943706, -0.1469244957, -0.2653475702, -0.2895348370, -0.2613821626, -0.2009682804, -0.1498375088, -0.0602656156, -0.0921773612, -0.1235398725, -0.0869097859, -0.0964214802, -0.0848882422, -0.0561251752, -0.0518655889, -0.0872518197, -0.1423127353, -0.1859158427, -0.2184344232, -0.2102318853, -0.1738888919, -0.0841124728, 0.0458195321, 0.1927811354, 0.2969990969, 0.3571642339, 0.3298546374, 0.2086705416, -0.0094873821, -0.2279544324, -0.3592153788, -0.3874654174, -0.3432436287, -0.2536226511, -0.1395341754, -0.1366190314, -0.1242914945, -0.0902062804, -0.0903407484, -0.0178075284, -0.0261321273, -0.0867814273, -0.0901876390, -0.1527686119, -0.1895591170, -0.2037238628, -0.2149311602, -0.2178720832, -0.1612462848, -0.0578453727, 0.0668129548, 0.1950910389, 0.2805301547, 0.2999930680, 0.2516917586, 0.1431063414, -0.0596187897, -0.2704693675, -0.4125099778, -0.4488994777, -0.3850283027, -0.2631923556, -0.1832112223, -0.0381409638, -0.1387065202, -0.1141225770, -0.0472915061, -0.0816540346, -0.1104323044, -0.1088811159, -0.1049533039, -0.1694761664, -0.1749091148, -0.1604165733, -0.1490069479, -0.1400575340, -0.1075268909, -0.0308380146, 0.0894150585, 0.1898723692, 0.2191863209, 0.1980999410, 0.1381741166, 0.0583852381, -0.0841643885, -0.2500989139, -0.3668614030, -0.3863529861, -0.3380565345, -0.2484893650, -0.1061400920, -0.1234456301, -0.1105089858, -0.0079381410, -0.0894426703, -0.0566742495, -0.1123041511, -0.0605025366, -0.1008414030, -0.1409657896, -0.1215887219, -0.0871276185, -0.0548986420, -0.0630177632, -0.0547649525, 0.0063847033, 0.1082819253, 0.1866314262, 0.1982948631, 0.1164827347, 0.0528613739, 0.0222032405, -0.0570039079, -0.1496180892, -0.2505387664, -0.3241553903, -0.2760521472, -0.1803495884, -0.1316473186, -0.1253243536, -0.0714628994, -0.1004904360, -0.0856101662, -0.1516774148, -0.0682340711, -0.0318723544, -0.1125395149, -0.1028379947, -0.0651234016, -0.0001498169, 0.0184449945, -0.0101409899, -0.0295829158, 0.0341902636, 0.1258703470, 0.2032118440, 0.1753014624, 0.0682189167, 0.0456638038, 0.0711715892, 0.0313160680, -0.0483553149, -0.1482299119, -0.2368834168, -0.2288481891, -0.1577158421, -0.0582078174, -0.1141168028, -0.0987540111, -0.0836086869, -0.0643675774, -0.1364749968, -0.0757592097, -0.0995809361, -0.1162613854, -0.0992232040, -0.0390922353, 0.0559600219, 0.0801896378, 0.0454069525, 0.0301992074, 0.0486677364, 0.1406549066, 0.1688706726, 0.1013914496, 0.0313024074, 0.0882934928, 0.1659198105, 0.1371313184, 0.0449077450, -0.0753692538, -0.2019207925, -0.2481385022, -0.1765432656, -0.0126225827, -0.0511741415, -0.0934124663, -0.1496924013, -0.1585162878, -0.0509197824, -0.0537529550, -0.0967444479, -0.1394181848, -0.1013504788, 0.0010718213, 0.1064086929, 0.1213739961, 0.0813785419, 0.0302525200, 0.0304612182, 0.0501171239, 0.0254860464, -0.0417325087, -0.0421481133, 0.0929947868, 0.1922567338, 0.1965222061, 0.1230308115, -0.0149707589, -0.1691316962, -0.1971804351, -0.1569267064, 0.0169832911, -0.1100714728, -0.0718785152, -0.0458234586, -0.1403535903, -0.0870225653, -0.0551610105, -0.1217124239, -0.1322416961, -0.1296743155, -0.0191083755, 0.1114746109, 0.1380858123, 0.0773480535, -0.0037087582, -0.0679514706, -0.0926307067, -0.1357874572, -0.1820937246, -0.1559693962, -0.0091667380, 0.1189856306, 0.1634864062, 0.1224606782, -0.0044455826, -0.1329092383, -0.1723121703, -0.1535901576, -0.0677670166, -0.0002493927, -0.1186144873, -0.0395049043, -0.1117464378, -0.0412415527, -0.0244115386, -0.1419674456, -0.1882227063, -0.1584687233, -0.0222913008, 0.1065263897, 0.1294881552, 0.0297307819, -0.1021467596, -0.1540799588, -0.1468112916, -0.1525375396, -0.2095663995, -0.1982738674, -0.1266343296, -0.0229163524, 0.0480118878, 0.0542591065, -0.0225541070, -0.1004744545, -0.1163246259, -0.1030301601, -0.0214528255, -0.0071259108, -0.0560271963, -0.0689122081, -0.1019422561, -0.1126765981, -0.0855082050, -0.1310368776, -0.1974445432, -0.1585910916, -0.0122464560, 0.1141156778, 0.0969523117, -0.0166136008, -0.1253789961, -0.1326651871, -0.0505303405, -0.0304544568, -0.1144097075, -0.2126378715, -0.2198525220, -0.1577255130, -0.0747272074, -0.0126266666, -0.0289751682, -0.0649427921, -0.0779550746, -0.0394387059, -0.0466533266, -0.0618929192, -0.0456832647, -0.1568810940, -0.1132292673, -0.0718566999, -0.0714260116, -0.1901635379, -0.1873085946, -0.1346690655, 0.0082661211, 0.1209992915, 0.0866025016, -0.0296010058, -0.0856965035, 0.0014513707, 0.1215433553, 0.1121974885, -0.0684484765, -0.2251095176, -0.2887076437, -0.2434426546, -0.1415499896, -0.0513847992, -0.0290042013, -0.0481621884, -0.0437105931, -0.0130608426, -0.0407468379, -0.0352779292, -0.1130920723, -0.1049301475, -0.0190847646, -0.0586290546, -0.1126808822, -0.1737289578, -0.1751067191, -0.1091501638, 0.0336856209, 0.1249703169, 0.1026495919, 0.0157174282, 0.0190904047, 0.1237004995, 0.1868556589, 0.0617164150, -0.1648096740, -0.3206671476, -0.3564255238, -0.2636798918, -0.1314400584, -0.0327761322, 0.0148558496, 0.0105118211, -0.0021451800, -0.0278764758, 0.0330771022, -0.1058498397, -0.1074096784, -0.1324360073, -0.1100096330, -0.1088975519, -0.0936466604, -0.1891087145, -0.1893776208, -0.1249119937, 0.0335849188, 0.1262478530, 0.1199857146, 0.0877989382, 0.0957392007, 0.1427596509, 0.0649382621, -0.1487177908, -0.3496977091, -0.4226451218, -0.3559966981, -0.2113663107, -0.0391790234, 0.0387058556, 0.0715379864, 0.0543628410, 0.0719171092, -0.0043040607, 0.0346565656, -0.0040541887, -0.1461024880, -0.0562328920, -0.0421924442, -0.0303516928, -0.1096155122, -0.1980891377, -0.2317459881, -0.1707296073, -0.0109238047, 0.1240871623, 0.1785423458, 0.1872374862, 0.1716884971, 0.0835494474, -0.1115147918, -0.3558445275, -0.4681580067, -0.3936879933, -0.2261143625, -0.0303200185, 0.1015949845, 0.1481470466, 0.1268743426, 0.0897224694, 0.0348286703, 0.0467729755, 0.0453874059, 0.0180009604, -0.0457198806, -0.1002201214, -0.1784520447, -0.1079898104, -0.1376576424, -0.2100408524, -0.2430691868, -0.2286382914, -0.0803881586, 0.0877541229, 0.2064282298, 0.2530775070, 0.2142568380, 0.0522437133, -0.1737936437, -0.3539658785, -0.3230965436, -0.1504265368, 0.0526426621, 0.2062393874, 0.2590732872, 0.2571883500, 0.1752048731, 0.1098251268, 0.0332977846, 0.0260171872, -0.0805977285, -0.1248263046, -0.0571740456, -0.0738385022, -0.0573632456, -0.1167919114, -0.0958257318, -0.2070334107, -0.2516655624, -0.2204496115, -0.1486605108, -0.0053334818, 0.1394786686, 0.2352687865, 0.2227312177, 0.0803761557, -0.0943927616, -0.1501787454, -0.0380998068, 0.1424250305, 0.2853741348, 0.3395881355, 0.3178562820, 0.2293818444, 0.1303783357, 0.0794335082, 0.0616399907, -0.0573279746, 0.0075187339, -0.1037315130, -0.1501157284, -0.0739229247, -0.0743560791, -0.1216822714, -0.0712244883, -0.1253705174, -0.2020689994, -0.2109729350, -0.1655979902, -0.0856322050, 0.0235246718, 0.1137351394, 0.1282050312, 0.0709066913, 0.0233219787, 0.0737454519, 0.2037859410, 0.3193380535, 0.3405285478, 0.2957623005, 0.2059723437, 0.1466676742, 0.0595826730, 0.0362510718, -0.0539782196, -0.0548686050, -0.0939476117, -0.1085987017, -0.0340979956, -0.1322419941, -0.1646628827, -0.0262257531, -0.0891975686, -0.0634956732, -0.1826767176, -0.1736421585, -0.1555287242, -0.1242186800, -0.0535497591, -0.0047854609, 0.0067180535, 0.0238873698, 0.0459691361, 0.1429923922, 0.2344606817, 0.2784278989, 0.2547620535, 0.1713226438, 0.0861621276, 0.0273889340, -0.0173257031, -0.0592389219, -0.0728974119, -0.1329907030, -0.1118206233, -0.0126935169, -0.0857271031, -0.0588273108, -0.1598258018, -0.0323271230, -0.0808484480, -0.0579533242, -0.0463291183, -0.0593140349, -0.0972971544, -0.0655093938, -0.0516433939, -0.0547821410, -0.0654526874, -0.1093795300, -0.0894898921, 0.0081253937, 0.0341329351, 0.0663534179, 0.0470911451, 0.0152256703, 0.0347437747, -0.0445878245, 0.0401340015, -0.0039645215, -0.1438082010, -0.0961182043, -0.1648335159, -0.0838956013, -0.1085240096, -0.0409808122, -0.0959845632, -0.0397113450, -0.0514523685, -0.0293395221, -0.0292173736, -0.0763353556, -0.1284735352, -0.1379763186, -0.1383602917, -0.1560529321, -0.1232971624, -0.1006016433, -0.0947861224, -0.0546502098, -0.0736674070, -0.0660970286, 0.0244216789, -0.0761541948, -0.0590264387, -0.0100093819, -0.0194389299, -0.0316792205, -0.1481050849, -0.0936079249, -0.0529904477, -0.0143456915, -0.1662870795, -0.1283458620, -0.0770040527, -0.0256842226, -0.0421441197, -0.0322771147, -0.0434861779, -0.0929567143, -0.0037201606, -0.1094626784, -0.0853003711, -0.0427135602, -0.1150714308, -0.1327032298, -0.1621003449, -0.1657815576, -0.0969389901, -0.1504665315, -0.0100733759, -0.0389498957, -0.0818954408, -0.1289863884, -0.1285010725, -0.1107465699, -0.1685020179, -0.0868940875, -0.1006396934, -0.1048581898, -0.0989804044, -0.0900703967, 0.0028620085, 0.0069031953, -0.0263695605, -0.0380535759, -0.0984710455, -0.0233225431, 0.0311595220, 0.0479873158, -0.0504900403, -0.0885796323, 0.0440525450, -0.0037623928, -0.0910702571, 0.0049355123, -0.0018072320, -0.0452923998, 0.0385644957, -0.0096673695, 0.0483576283, 0.0320018344, 0.0251476094, -0.0701237917, 0.0192073341, 0.0150264520, -0.0147599699, -0.0662554279, 0.0366393179, -0.0871706456, -0.0165629629, -0.1013996005, -0.0074213427, -0.0269100759, -0.0741285384, -0.1095433086, -0.0973986685, 0.0416827500, 0.0425641946, -0.0704915524, -0.0421305858, -0.0210275073, -0.0373324864, 0.0075530382, -0.0194849428, -0.0609835833, -0.0734481812, -0.0335533693, -0.0914399475, -0.0106004514, 0.0382592902, -0.0053484025, 0.0013283318, -0.0494829938, -0.0883924514, 0.0083555663, -0.1007808223, -0.0181438159, -0.0740902647, -0.0502003953, -0.0793070868, 0.0262580756, -0.0758586153, 0.0477962531, 0.0135497926, -0.0530455075, -0.0365343839, -0.0728752092, -0.1546544582, -0.1478726268, -0.1048959121, -0.0613479391, -0.0772864297, -0.1075028181, -0.1178969592, -0.1440967917, -0.1248039752, -0.1037976667, -0.0592946969, -0.0695957839, 0.0199251845, -0.0234108269, 0.0147774331, 0.0327650346, -0.0063251299, -0.0246474035, -0.0073367120, 0.0228253268, -0.0247960426, -0.0796602815, 0.0179536548, -0.0306164231, -0.0006577126, -0.1543324888, -0.0954096839, -0.1503869295, -0.2019010782, -0.1745216846, -0.0511189587, -0.0169092976, 0.0299376305, -0.0011997315, 0.0401144885, -0.0118859019, -0.0722032860, -0.1045288146, -0.0773118436, -0.0945137367, -0.0436728634, -0.0249874759, -0.0067900680, -0.0760572925, -0.0872582570, -0.0906827375, 0.0476691425, 0.0030798991, -0.0000501270, -0.0171754714, 0.0633839294, -0.0313956514, -0.0782320574, -0.1203238592, -0.1723887175, -0.1787840575, -0.1156805456, -0.0427408479, 0.0415304676, 0.0855539963, 0.1415175945, 0.1803197265, 0.1937156916, 0.1678061485, 0.1369293630, 0.0630083457, -0.0526434481, -0.0468185507, -0.0287369415, -0.0957914069, 0.0002769132, -0.0663294718, 0.0261724479, -0.0123609472, 0.0454725735, -0.1075781956, 0.0505945571, 0.0638824925, 0.0084733097, -0.0823594406, -0.0784139708, -0.1237549707, -0.1363614351, -0.0842148289, 0.0325191356, 0.1461801231, 0.1973428875, 0.2000566572, 0.2062606812, 0.2759402990, 0.3600719273, 0.3413590789, 0.2514226735, 0.1076378450, 0.0005647376, -0.0393938385, -0.0567112491, -0.0504610352, -0.0104963109, -0.0170636140, -0.0765914395, -0.0308991019, -0.0882087648, -0.0559840724, 0.0360088497, 0.0586476326, 0.0102568809, -0.0413181856, -0.0565191843, -0.0218873732, 0.0270220451, 0.1353041679, 0.2850313187, 0.3601237535, 0.3483239710, 0.2254862636, 0.1634369642, 0.2197399288, 0.3656724691, 0.4183287323, 0.3302780092, 0.1075041890, -0.0527147315, -0.0957878381, -0.0852802768, -0.0519935451, -0.0252973288, 0.0170929395, 0.0221897885, -0.0652543157, -0.0891870037, -0.0467840806, -0.0171957891, 0.0093655596, 0.0189378783, -0.0086389184, 0.0189240687, 0.0830034018, 0.2073432058, 0.3450523317, 0.4754238129, 0.4551991820, 0.2833964825, 0.0497915410, -0.0521633364, 0.0078545781, 0.2171956003, 0.3233311176, 0.2749083340, 0.1107029915, -0.0611363351, -0.1309065074, -0.1395965219, -0.1082809344, -0.1323157549, 0.0279320069, 0.0093092620, -0.0729391724, -0.0045666066, 0.0344940126, 0.0111084906, 0.0289336238, -0.0140500916, 0.0093561979, 0.0732196793, 0.1650667936, 0.3021208942, 0.4708664715, 0.4951635897, 0.3155839741, 0.0328632668, -0.2288910151, -0.3062776327, -0.1969721019, 0.0244619399, 0.1848829389, 0.2055509239, 0.0532212630, -0.0277333409, -0.0636584610, -0.1119442582, -0.0885660350, -0.0429870673, -0.0284786075, -0.0696459338, -0.0677480847, -0.0821150392, -0.0346188024, -0.0415560417, -0.0280722994, -0.0416041650, -0.0112009468, 0.0778445378, 0.1659841835, 0.3014632761, 0.3890199661, 0.2746107578, 0.0197094064, -0.2314525098, -0.4050803483, -0.4281779826, -0.2934514284, -0.1149748415, 0.0461787283, 0.0343930721, -0.0087870508, -0.0705835447, -0.1101638228, -0.0974088535, -0.0602986962, -0.1339528561, -0.0886467248, -0.0077645984, -0.0021453158, 0.0167228580, -0.0448810644, -0.0938591436, -0.0517538860, -0.0432741605, -0.0426184312, 0.0235193409, 0.1349152923, 0.2126716971, 0.1938864291, 0.0370109715, -0.1899056584, -0.3541837335, -0.4354513884, -0.4401400089, -0.3244902790, -0.1818943471, -0.0636484697, -0.0451787747, -0.0716572031, -0.0917162895, -0.0880661607, -0.0463048555, -0.0204930902, -0.0361116529, -0.0783047155, -0.1046571210, -0.0879081115, 0.0103791514, 0.0112435548, -0.0342248082, -0.0485903285, -0.0409472361, -0.0580150485, -0.0353280120, 0.0475378409, 0.0928843468, 0.0339241624, -0.0913502574, -0.2351344973, -0.2776648700, -0.3462084234, -0.3690801859, -0.2972083390, -0.1847815514, -0.1012585461, -0.0872492716, -0.0797010288, -0.0908499286, -0.0350173898, -0.0393431038, -0.0608584583, 0.0561953485, 0.0614502169, -0.0289488956, 0.0149286827, -0.1072179675, -0.0289183557, -0.1195325926, -0.0238711238, -0.0290142186, -0.0543598756, -0.0454106294, -0.0362050869, -0.0183916856, -0.0483068824, -0.1170238927, -0.1321917623, -0.1641698331, -0.2415110469, -0.2733649909, -0.1761665642, -0.0767921284, -0.0129050575, -0.0281813927, -0.0683799610, -0.0432616584, -0.0287773367, 0.0066491142, -0.0217740312, 0.0490470901, -0.0573099889, -0.0084946500, 0.0411163755, -0.1069582328, -0.0145100374, -0.1000103280, -0.0052243494, 0.0102473702, -0.0458193719, -0.0911235884, -0.0778621733, -0.1037816331, -0.1045953706, -0.0682302937, -0.0493951850, -0.0594441108, -0.1076422930, -0.1015026942, 0.0004526811, 0.1157062501, 0.1148858145, 0.0444150567, -0.0191822145, 0.0050540078, 0.0247256346, 0.0406731032, -0.0113933943, -0.0462914221, 0.0263326671, -0.0632826686, -0.0360827744, -0.0699830875, -0.0756232888, -0.1183403581, -0.0397335142, 0.0258236285, 0.0016795798, -0.0795914456, -0.1575791985, -0.1567740440, -0.1218671054, -0.0621019043, -0.0052657030, -0.0052386704, -0.0089104855, 0.0644965023, 0.1821375340, 0.2355190814, 0.1645468324, 0.0454130433, 0.0157862362, 0.0518557765, 0.0586651601, 0.0313307643, -0.0075421385, -0.0054341108, -0.0250219852, 0.0265231356, -0.0877063423, -0.0322766006, -0.0887282491, -0.0324733071, -0.0080936179, 0.0247398075, 0.0178295579, -0.0934563279, -0.1737777144, -0.2061707824, -0.1606128812, -0.0869369358, -0.0609977804, -0.0488814525, 0.0157027524, 0.1224275976, 0.2068153322, 0.1840529293, 0.0356532298, -0.0545547828, 0.0067483238, 0.0881481096, 0.1351025105, 0.0778278187, 0.0057537258, -0.1054642797, 0.0217241254, -0.0030370702, -0.0590881705, 0.0015371807, -0.0638958886, 0.0009220926, -0.0208741799, 0.0700519234, 0.0407954790, -0.0791790187, -0.1644249409, -0.2223412097, -0.1924605370, -0.1733955741, -0.1821257323, -0.1781839579, -0.0850053728, 0.0644089952, 0.0789474696, -0.0640875176, -0.2147938907, -0.1772776544, -0.0492606647, 0.1221691817, 0.1819591373, 0.0943528414, 0.0279514249, -0.0308828633, 0.0022170953, -0.0284993462, -0.0301564503, 0.0381036326, 0.0207481701, -0.0163449198, 0.0019135472, 0.0365657546, 0.0350913107, -0.0444447473, -0.1285161376, -0.1738227308, -0.1967269778, -0.2306416929, -0.2717805505, -0.2688978314, -0.1493505985, 0.0024393722, -0.0748602673, -0.2854811847, -0.4117734432, -0.2776519060, -0.0623409748, 0.1395402253, 0.2070153505, 0.1293131262, -0.0042862715, -0.0700866580, 0.0239011571, -0.0195065606, 0.0189045500, 0.0130079733, 0.0692333356, 0.0667352080, -0.0004491238, 0.0229473766, 0.0497461930, 0.0061696325, -0.0777934194, -0.1311858296, -0.1582986861, -0.2148799896, -0.2909748852, -0.2734571397, -0.1230840459, -0.0253949501, -0.1194300577, -0.3512152135, -0.4277207255, -0.2599350512, 0.0020891551, 0.1693649143, 0.2093104273, 0.1323428005, 0.0853452384, -0.0057661505, 0.0167811960, 0.0231133029, 0.0045746421, -0.0784350112, -0.0173998736, 0.0245032627, 0.0171128772, 0.0288196448, 0.1010179222, 0.0744356140, -0.0043112081, -0.0273152497, -0.0873608515, -0.1664638072, -0.2435382009, -0.2052913606, -0.0428765155, 0.0335694477, -0.0636478364, -0.2305845171, -0.2817041874, -0.1458094120, 0.0600055680, 0.1873641312, 0.1858565211, 0.1349506378, 0.0825736299, 0.0092164008, 0.0324177630, -0.0818702057, -0.1094456688, 0.0029229790, -0.0177720208, 0.0414812565, 0.0184847228, 0.0513901263, 0.1034079492, 0.1223659813, 0.0807148069, 0.0380226076, -0.0061070938, -0.0961163715, -0.1269493848, -0.0598361939, 0.0769061446, 0.1444208622, 0.0795686767, -0.0488122739, -0.1099322513, -0.0268933941, 0.0937208235, 0.1432943642, 0.1247701570, 0.1047387794, 0.0656475797, -0.0095982468, -0.0552277789, -0.0890086144, 0.0462058596, 0.0508591980, 0.0875176713, 0.0672887191, 0.0052675060, 0.0408840403, 0.1212264895, 0.1094684899, 0.1154205874, 0.0963545814, 0.0756532773, 0.0241218861, 0.0125288609, 0.1041803882, 0.2221809775, 0.2781829238, 0.2054909915, 0.1104034558, -0.0159991421, -0.0001930555, 0.0315513909, 0.0704571009, 0.1139105260, 0.0631483272, 0.0570669286, 0.0648604631, 0.0014215139, -0.0607981831, -0.0557402261, 0.0420760810, -0.0405523591, 0.0684513599, 0.0448513217, 0.0279077124, 0.0630018562, 0.0938391164, 0.1205745414, 0.1148072779, 0.1304799467, 0.1504897177, 0.1825976223, 0.2522379756, 0.3002398908, 0.3449617028, 0.2434625924, 0.0866340175, 0.0084210467, -0.0343696997, -0.0359512605, 0.0414578840, 0.0751045942, 0.0433818325, 0.1017232835, -0.0640132204, -0.0471195728, -0.0398355611, -0.0693414509, 0.0191104487, -0.0040631373, 0.0799577981, 0.0941748321, 0.0249633938, 0.0242198538, 0.0445912927, 0.0836552083, 0.1087545082, 0.1574742794, 0.2375428379, 0.2649785280, 0.2795877159, 0.2868693471, 0.2698626816, 0.1618673056, 0.0376188308, -0.0802046433, -0.0649064630, -0.0688514113, -0.0131427012, 0.0075360341, 0.0360829122, -0.0700397640, -0.0148941539, -0.0908437073, -0.0466496572, 0.0207865499, 0.0548049212, -0.0138885314, 0.0053416919, 0.0769030079, 0.0966991410, -0.0246521961, -0.0399760455, -0.0619534515, -0.0126016364, 0.0902177766, 0.1379464716, 0.1838474423, 0.1769939363, 0.1528798342, 0.1092752367, 0.0469250791, -0.0538995713, -0.0632288307, -0.0860112756, -0.0381582677, -0.0583619848, -0.0694147050, -0.0486558266, -0.0062306826, -0.0228731800, -0.0307445936, -0.0775435790, -0.0883635208, -0.0252922922, 0.0087085608, 0.0462306738, -0.0780706182, -0.0138258040, -0.0789968371, -0.0082630413, -0.0289723631, -0.0478322320, 0.0444703661, 0.0049718530, 0.0528984964, 0.0326633863, 0.0298048463, -0.0175463967, -0.0063246712, -0.0804380476, -0.1463526338, -0.1188966408, -0.1190114319, -0.0446873307, -0.0797430053, 0.0444307774, -0.0618789122, -0.0397295617, -0.0091044381, 0.0471525490, -0.0623465739, -0.0943812206, -0.0324280672, 0.0281017534, 0.0074529517, -0.0951109901, -0.0127541469, -0.1400794238, -0.0572978370, -0.1216929704, -0.0841959491, -0.0094951354, -0.0203095358, -0.0600905754, -0.1359680593, -0.0946680084, -0.1785876453, -0.2036676556, -0.1071155220, -0.1227108464, -0.1326770633, -0.1075157523, -0.0848023519, 0.0157884639, 0.0261272229, -0.0156617295, 0.0460075960, -0.0286286231, -0.0432260707, -0.0151839145, -0.0341851264, -0.0211080424, -0.0628063083, -0.0906686634, -0.1025328487, -0.0865457878, 0.0311499126, 0.0402566157, -0.0461136661, -0.0671579987, -0.0658968464, -0.0176571067, -0.0219635963, -0.0571537539, -0.1271095574, -0.0471777245, 0.0171719696, -0.1041686982, 0.0374711640, -0.0068015861, -0.0843370631, 0.0361623950, -0.0426740944, 0.0420610383, -0.0749903619, 0.0361220874, 0.0009724012, 0.0299708862, -0.0913672745, -0.0746667683, 0.0235089660, 0.0630443469, 0.0235239733, -0.0353668407, -0.0827463865, -0.0700267479, -0.0889579430, -0.0785874352, -0.0866206288, 0.0701859966, -0.0897299796, -0.0621494912, -0.0587963276, 0.0511542559, 0.0141858887, -0.0695816204, -0.0380227678, -0.0109180501, -0.0183740314, 0.0032652912, 0.0099132350, -0.0248724334, -0.0731716082, 0.0105799353, -0.0491216779, -0.0679012462, -0.0607286505, 0.0297499001, -0.0312338620, 0.0661575794, 0.0507324636, -0.0806853399, -0.0801625624, 0.0173657946, -0.0475012623, -0.0689015538, 0.0704360977, -0.0342898145, 0.0071411734, 0.0486406088, -0.0665545613, 0.0266614053, -0.0258747488, 0.0701587945, 0.0348990411, 0.0050069382, 0.0397704542, 0.0614921786, -0.0244104527, 0.0585856326, -0.0449667685, 0.0068519516, 0.0144853508, -0.0211966392, -0.0334965400, -0.0463622026, 0.0555442311, -0.0194688831, -0.0458554178, 0.0188968629, -0.0551895984, 0.0124287503, -0.0374050960, -0.0098217949, -0.0555799864, -0.0184482280, -0.0509668812, 0.0028374230, -0.0285729822, -0.0293847769, -0.0155456383, 0.0586729199, 0.0271456521, -0.0608934648, 0.0067818668, 0.0504337735, 0.0306283403, 0.0165966228, -0.0412185565, -0.0096167875, 0.0609964654, -0.0515649319, -0.0652264059, -0.0554731563, -0.0232481752, 0.0092656426, -0.0317931697, 0.0219895542, -0.0388892293, -0.1258612424, -0.0685099885, -0.0864113495, -0.0562940426, -0.0098125925, -0.1209359616, -0.0819929466, -0.0984593108, -0.0618004911, -0.0540936515, -0.0564768650, -0.0503913760, -0.1140525341, -0.0925753415, -0.0449552834, 0.0308258943, 0.0439740717, -0.0456009097, -0.0018018787, -0.0880077109, -0.0721455514, -0.0242200643, -0.0192377940, 0.0654973462, 0.0246469583, -0.0670341924, -0.0586220548, -0.1016612351, -0.0821188465, -0.0950817019, -0.0339035913, 0.0544928648, 0.0778930560, 0.0471764952, 0.0524714962, 0.0524138212, 0.0653757900, 0.0064209430, -0.0255250186, -0.0936429501, -0.1151250675, -0.1046449095, -0.1219476685, -0.0270899124, 0.0197595917, 0.0498355292, 0.0367552899, -0.0596167855, -0.0346750841, 0.0473323613, 0.0436503105, -0.0383480303, -0.0397340283, -0.0803123266, -0.1096567363, -0.1104911566, -0.0914671272, -0.0039657513, 0.0698786974, 0.1368269324, 0.1474739015, 0.1689601094, 0.1968760788, 0.2161560655, 0.1728332341, 0.1048096195, 0.0312322360, -0.0117520886, -0.0425697453, -0.0799321756, -0.0574652143, -0.0387892798, -0.0238253325, 0.0596299954, 0.0447958224, 0.0154629061, 0.0591725744, -0.0339719839, -0.0692130700, -0.0518785417, -0.0995081440, -0.1418002099, -0.1409054548, -0.1252123266, -0.0634415075, 0.0185641181, 0.0877040774, 0.1264250726, 0.1351658106, 0.1691668481, 0.2074952573, 0.1853868812, 0.0850504115, 0.0026965912, -0.0231986679, -0.0264241528, 0.0008158098, 0.0085373120, -0.0170116331, -0.0589750670, -0.1027504504, -0.0297638383, 0.0164425001, -0.0602885336, -0.0740822554, 0.0657736138, 0.0422665961, 0.0071609826, -0.1147004291, -0.1267226636, -0.1350263059, -0.1093693674, -0.0647008345, 0.0094694765, 0.0373032391, 0.0555995852, 0.0743978992, 0.1386876851, 0.1607495546, 0.0526650622, -0.0987327546, -0.2004496008, -0.2176089734, -0.1034375876, -0.0088697178, 0.0691062286, 0.0150765646, -0.0425501503, -0.0466941819, 0.0061801076, 0.0244908072, 0.0255094357, 0.0276826285, -0.0155296903, -0.0050741402, -0.0316312648, -0.0603324361, -0.0906338021, -0.1166354716, -0.0777843297, -0.0477939621, -0.0487820283, -0.0410319343, -0.0408236980, 0.0243115760, 0.0940668210, 0.1281947643, -0.0067740376, -0.2043804824, -0.3499344289, -0.3284125924, -0.1738605946, -0.0045674322, 0.1462216973, 0.1116436273, 0.0371368639, -0.0421056338, -0.0660446137, -0.0033397789, 0.0372892469, 0.0050242771, -0.0332158245, -0.0178407878, -0.0548674650, -0.0258706640, -0.0566423088, -0.1073757410, -0.0512774177, -0.0633116513, -0.0796134397, -0.0963322520, -0.0740964189, 0.0569146797, 0.1602274328, 0.1369364858, 0.0014725371, -0.2160563320, -0.3383312225, -0.2861410379, -0.1019447446, 0.1226793826, 0.2429407537, 0.1777067333, 0.0770693868, 0.0320593230, 0.0712582394, 0.0343239829, -0.0853418857, -0.0661631450, -0.0840056166, 0.0129265049, -0.0206056442, -0.0532173514, -0.0418369472, -0.0694530457, -0.0670448095, -0.0966623053, -0.0987155512, -0.0942503959, -0.0012213978, 0.1322135627, 0.2375159413, 0.1944161206, 0.0260289907, -0.1429860741, -0.2174044997, -0.1172656119, 0.1030730605, 0.2735754550, 0.2751817107, 0.1952767223, 0.1174140647, -0.0317208730, 0.0729161873, 0.0537646152, 0.0239332113, 0.0142671615, -0.0267854985, 0.0282543600, 0.0640826821, 0.0272041876, 0.0080778711, -0.0233179163, -0.0789813325, -0.1526242048, -0.1363826394, -0.0456984378, 0.0615604073, 0.1932838559, 0.2457848787, 0.2237234861, 0.0643188283, -0.0599504374, -0.0092891306, 0.1119273081, 0.2697364390, 0.3627703488, 0.2991666794, 0.1308566928, 0.0253968816, 0.0231628865, -0.0263104495, -0.0802959129, -0.0248917267, 0.0102459574, 0.0165978763, 0.0651813373, 0.0682719052, 0.0217210576, 0.0173818115, -0.0507228486, -0.1279195994, -0.1612420827, -0.0981964469, 0.0159695242, 0.1134599298, 0.1878905594, 0.2168097198, 0.1920062155, 0.1007617414, 0.1022586226, 0.1916950345, 0.3142464161, 0.3614204228, 0.3973100483, 0.2061088681, 0.1083704084, 0.0123649593, -0.0603253767, 0.0036541014, -0.0032884637, -0.0612657443, -0.0492000021, 0.0621683896, 0.0625260994, 0.1025791317, 0.0686729774, 0.0483105406, -0.0238607973, -0.1747592092, -0.1854695380, -0.0672073066, 0.0641013309, 0.1404331326, 0.1670418233, 0.1881677508, 0.1691308767, 0.1249485612, 0.1514964104, 0.2997772396, 0.4078959525, 0.4408048689, 0.3872866631, 0.1908132136, 0.0654484034, 0.0197781362, -0.0345937051, -0.0016107338, -0.0864083320, 0.0483637750, -0.0279475860, 0.0514671542, 0.0036055376, 0.0940966234, 0.1416992843, 0.0415558703, -0.0176749621, -0.1582642794, -0.1906557530, -0.0374421552, 0.0576063022, 0.1249996349, 0.1696940362, 0.1597175151, 0.1049139649, 0.0129925208, 0.0415676869, 0.2031544149, 0.3737664819, 0.4464489520, 0.3630470634, 0.1671407372, 0.0323550627, -0.0586737171, -0.0244589373, -0.0841324031, 0.0538387336, 0.0295541827, 0.0055706287, 0.0262837689, 0.0934190154, 0.0982482284, 0.1278488636, 0.0798549205, 0.0342630446, -0.0932345539, -0.1043311283, -0.0536330752, 0.0313845761, 0.1058123782, 0.1640832573, 0.1857629269, 0.0370937437, -0.1267489344, -0.1363149583, 0.0285897944, 0.2552369237, 0.3536095917, 0.3203399181, 0.2020736188, 0.0599787571, -0.0331954621, -0.0282328445, 0.0788561329, -0.0163724143, 0.0016936059, 0.0244757123, -0.0231559929, 0.0497790426, 0.0817507803, 0.1274747103, 0.1520719826, 0.1006813347, 0.0346173905, -0.0214015525, -0.0317524523, 0.0235381145, 0.1446405798, 0.2434855103, 0.2423496097, 0.0677316636, -0.1847756505, -0.2344686836, -0.1119223461, 0.1092056111, 0.2396165431, 0.2580821514, 0.1551703364, 0.0088881878, -0.0104070408, 0.0174482688, 0.0707744658, -0.0714254379, -0.0036695939, 0.0036009129, -0.0783873349, 0.0418110602, 0.1440208703, 0.2016677111, 0.1972229183, 0.1705824286, 0.0836589485, 0.0006882221, -0.0390575863, 0.0211230572, 0.1838755459, 0.3282907307, 0.3604758084, 0.1808003783, -0.0939819887, -0.2303000242, -0.1816791296, -0.0407282151, 0.1042222530, 0.1103872508, 0.0907385647, 0.0357025862, -0.0803527236, -0.0414050967, -0.0139412647, 0.0153169055, -0.0234463532, 0.0170505457, 0.0280012358, 0.0222475156, 0.1492386758, 0.2506338358, 0.2500938177, 0.1778942198, 0.0437305309, -0.0659383088, -0.0988724902, -0.0182086863, 0.1662874222, 0.3475698233, 0.3949998021, 0.2507307529, -0.0035007522, -0.1682987064, -0.2058360726, -0.1244643033, -0.0321310163, 0.0057935640, -0.0062045404, -0.0577224754, -0.0585454404, -0.0769121721, -0.0297049675, 0.0182848834, -0.0547614023, -0.0558652990, -0.0641807094, 0.0453735963, 0.1607068330, 0.2774452865, 0.2748669684, 0.1551322341, -0.0026344552, -0.1891924739, -0.2501060665, -0.1581157595, 0.0111583127, 0.1672086418, 0.2515554726, 0.1722325087, -0.0152528016, -0.1496110559, -0.2198059708, -0.1924664080, -0.1255712807, -0.0968460366, -0.0809933618, -0.0687748045, -0.0937180743, -0.0293594096, -0.0281449389, 0.0072009619, 0.0270716269, 0.0632814988, -0.0272586234, 0.1039784774, 0.1787334681, 0.2813183367, 0.2701430619, 0.1689155549, -0.0185378976, -0.2658354044, -0.4133793414, -0.3348964155, -0.2255411744, -0.0619531274, 0.0446235090, 0.0531660207, -0.0554873496, -0.1588373035, -0.2076346576, -0.1933975071, -0.1603195816, -0.1289822459, -0.1414897889, -0.0432762243, -0.1381359398, -0.0420344360, -0.0677849278, -0.0854913369, 0.0480754748, 0.0009971223, 0.0402536690, 0.0672027990, 0.1283338070, 0.2170503587, 0.2445815653, 0.1538804919, -0.0316264331, -0.2371165007, -0.4361281991, -0.4474759698, -0.3749323189, -0.1982602179, -0.0443817228, 0.0284576509, -0.0121287787, -0.0823024586, -0.1450355053, -0.1666927338, -0.1353316307, -0.0801969022, -0.0969566032, -0.0581596941, -0.0755583867, -0.0266468897, 0.0033860069, 0.0051545207, 0.0079499865, -0.0057196519, -0.0176963005, -0.0201940183, 0.0434013978, 0.1357960403, 0.2095584571, 0.1669243425, 0.0226512961, -0.1211242750, -0.2661075592, -0.3259841502, -0.2748792470, -0.0972623751, 0.0864375606, 0.1921446919, 0.1327243149, 0.0172358975, -0.0882147774, -0.1256061345, -0.1240312904, -0.1100297049, -0.0851306990, -0.1130262762, 0.0134301307, -0.0115748486, -0.0339503102, 0.0565627962, -0.0864234120, 0.0656820759, -0.0145691149, -0.0620643385, 0.0499197766, 0.0900861025, 0.1121701598, 0.1011058390, 0.0845791250, 0.0194213521, -0.0365521386, -0.0372055694, 0.0298248865, 0.1589309126, 0.3061328530, 0.3124633729, 0.1951206625, 0.0461175852, -0.0752965659, -0.1338504106, -0.1216043159, -0.0336423516, -0.0420057699, 0.0006454703, -0.0772252381, 0.0032295259, -0.0718597919, 0.0043607508, -0.0824446008, 0.0028964570, 0.0611393861, 0.0710665658, -0.0174286850, 0.0425694101, 0.0474725701, 0.1295793802, 0.1185025647, 0.1113621742, 0.0999695584, 0.1028797179, 0.1913962960, 0.2606103718, 0.3083358705, 0.2443616390, 0.1662150770, -0.0114699509, -0.1414203644, -0.0984054804, -0.1078216732, -0.0647353828, 0.0115338955, 0.0449670255, -0.0201921500, 0.0560870580, -0.0484992228, -0.0130430851, 0.0613952726, 0.0168396048, -0.0733496100, -0.0723467544, -0.0673775449, -0.0291361269, 0.0310087688, -0.0208763406, -0.0032154329, -0.0443943553, -0.0554398075, 0.0112227593, 0.0958397388, 0.1710934490, 0.1100187227, 0.0725842640, -0.0203998256, -0.0721074939, -0.0037076669, -0.0854269117, -0.0726168752, -0.0635384470, -0.0319836587, -0.0389343239, 0.0655104145, 0.0052123135, -0.0939474329, -0.0727718249, -0.0406418480, -0.0526517071, 0.0371581651, 0.0391654931, -0.0034243842, -0.0688474774, -0.0218014028, -0.0790870935, -0.0612643957, -0.0830568448, -0.0462861694, -0.0100655416, 0.0357216485, 0.1173927113, 0.0290197860, 0.0038202167, -0.0987711027, -0.1062500998, -0.0500779673, -0.0084940447, -0.0821534991, -0.0020926949, 0.0466375872, -0.0795557499, -0.0927175954, -0.0955701098, -0.0939367712, -0.0415357091, -0.0682385862, 0.0488844477, -0.0216779131, -0.0253776144, 0.0134655554, -0.0041826754, -0.0900048539, -0.0149157392, -0.0823830217, -0.0792315081, -0.0265084058, 0.0630752295, -0.0408421755, -0.0358945951, 0.0277231354, -0.0890298262, -0.0483062901, -0.0655155182, -0.0762826502, 0.0579550937, -0.0693664551, -0.0651684627, 0.0370092802, 0.0130961128, -0.0875268728, -0.0403182022, -0.0589305945, -0.0676705465, -0.1112012714, -0.0752768368, -0.0340688825, -0.0331133679, -0.1013631895, -0.1339499056, -0.0462897122, -0.1461888105, -0.0723712221, -0.1426178962, -0.1248269603, -0.0483739153, -0.0859790221, -0.0321179964, -0.0401893966, -0.0434604436, -0.1214931756, -0.1331948042, -0.1127973944, -0.0055871648, -0.1566611975, -0.0721148252, -0.0557378754, -0.1258886456, -0.1399145722, -0.0888966247, -0.0558292270, -0.1268711239, -0.0892075375, -0.0883692279, -0.1169096157, -0.1455281228, -0.1518651843, -0.1381212026, -0.0529271103, -0.1260381937, -0.1461944580, -0.1178854331, -0.0420053452, -0.0086356625, -0.0503760763, -0.0539252274, -0.0786876380, -0.0657779947, 0.0059388350, -0.0681956410, -0.0500973314, -0.0628760234, -0.0768864378, -0.1675977409, -0.0543570891, -0.0612935759, -0.0812690407, -0.0428448431, -0.1224443540, -0.0647938251, -0.0746580809, -0.1277352571, -0.1021913812, -0.1207329854, -0.1664664000, -0.1349235326, -0.0166747440, -0.0740730017, 0.0436582714, 0.0023946781, 0.0089321164, 0.0698189884, 0.1081228256, 0.0450003408, 0.1050443575, 0.0544056259, 0.0123242876, -0.0003402145, -0.0017692294, -0.0637429506, -0.1067786068, -0.0906140357, -0.0707938075, -0.1146054566, -0.1410635412, -0.1083068028, -0.1095986292, -0.0031460037, -0.0335216783, -0.1453322768, -0.0154626807, -0.0706629306, -0.1211464107, -0.0902570039, -0.0826645270, 0.0299365185, 0.0111758839, 0.0416082330, 0.0254623126, 0.0607433990, 0.0397325531, 0.0368831940, 0.0018993801, 0.0008516804, -0.0396610573, -0.0907280892, -0.1068986282, -0.1805752516, -0.1909057647, -0.1605639607, -0.1347735971, -0.1804431975, -0.1428070664, -0.0513762906, -0.1121133119, -0.1568025053, -0.1065546945, -0.0508978814, -0.1509889215, -0.1041681617, -0.0294392686, -0.0458955504, -0.0540012158, 0.0052268347, -0.0288284887, -0.0187485646, -0.0239047520, 0.0011064936, -0.0090224659, -0.0237626061, -0.0535120405, -0.0729859248, -0.1199372858, -0.1847675443, -0.2489326149, -0.3045443296, -0.3072931170, -0.2830007374, -0.2420981824, -0.2596038580, -0.1857189983, -0.1083500013, -0.0855824128, -0.1175733730, -0.1480508149, -0.0832450017, -0.1529868096, -0.0660896972, -0.0685860440, -0.0282452796, -0.0319656059, -0.0366112590, -0.0366627984, -0.0267051049, -0.0128534976, -0.0164570697, -0.0244993959, -0.0237884261, 0.0063391151, 0.0020424568, -0.0550502390, -0.1668957621, -0.3013232052, -0.3761738241, -0.3543174267, -0.3053967655, -0.2613274157, -0.2154645026, -0.2016893178, -0.1935887188, -0.0700946450, -0.1547638923, -0.1412550211, -0.1112568751, -0.0664632171, -0.0167072788, -0.0263965353, -0.0133315045, -0.0104056429, -0.0215870366, -0.0197659489, 0.0225146748, 0.0467798635, 0.0420876145, 0.0547829680, 0.0788839012, 0.1657667309, 0.2074386030, 0.1596606225, -0.0145634115, -0.2143408954, -0.3571307957, -0.3516807854, -0.2685565948, -0.2327715009, -0.2019231617, -0.1932948381, -0.1634612530, -0.0691709146, -0.1507319361, -0.0904150605, -0.1086633950, -0.0620214380, -0.0812985897, 0.0368331335, 0.0254361965, 0.0129691018, 0.0524917394, 0.0884822085, 0.1146083996, 0.1508521140, 0.1569981426, 0.1842620671, 0.2335834503, 0.3283683956, 0.3633095026, 0.3195014000, 0.1240329742, -0.1038155109, -0.2682746649, -0.2838574052, -0.2097473592, -0.1488783062, -0.1245265380, -0.1496976763, -0.1688218713, -0.1516016722, -0.1363736987, -0.0457168706, -0.0846435949, 0.0691184700, 0.0303068087, 0.0665616915, 0.0756212771, 0.1042752638, 0.1356980950, 0.2007803321, 0.2372103930, 0.2538886368, 0.2602489591, 0.2725125253, 0.3058402240, 0.3179555535, 0.3308619857, 0.2724711895, 0.1459663957, -0.0486350954, -0.2126222253, -0.2240699977, -0.1472404301, -0.0932235792, -0.0943911225, -0.1200469136, -0.1361223608, -0.1049794704, -0.0193920340, -0.0647058934, -0.0863079056, 0.0216939412, 0.0457370691, 0.0962889418, 0.1402189732, 0.1798844337, 0.2259581685, 0.2870719433, 0.2916001678, 0.2756849229, 0.2430705428, 0.2106365263, 0.1737314314, 0.1187862977, 0.0884728283, 0.0706580803, 0.0389722176, -0.0441876166, -0.0937702507, -0.0872174874, -0.0334682800, 0.0073029408, -0.0188833568, -0.0547188334, -0.0604008697, -0.0764710829, -0.0224401429, -0.0851227194, -0.0282541867, 0.0634865835, 0.0757604390, 0.1136941537, 0.1606698632, 0.2056694776, 0.2699307799, 0.2832202911, 0.2655821443, 0.2325035334, 0.1582957506, 0.0844023302, -0.0192579739, -0.1140193790, -0.1205662787, -0.0617513433, 0.0161824208, 0.0418329723, 0.0575670749, 0.0690104142, 0.0875769556, 0.0770725980, 0.0335139297, -0.0262895115, -0.0126417838, -0.1286647618, -0.0713900179, -0.1292706579, -0.1090065464, -0.0342174359, 0.0314445458, 0.0422265679, 0.1511997730, 0.2091924250, 0.2763528824, 0.2467333078, 0.1799918115, 0.1209178790, 0.0360304229, -0.0706066415, -0.2058363706, -0.2523398697, -0.1722701937, -0.0298625920, 0.1226103976, 0.2063412815, 0.2385708392, 0.1984750032, 0.1691205651, 0.1282110363, 0.0693256110, 0.0036377723, -0.0200820938, -0.0726576447, -0.0295865852, -0.0712864622, -0.1061070561, -0.0506221130, 0.0525969602, 0.0326489359, 0.1287151873, 0.2172693163, 0.2282203585, 0.1289748400, 0.0409765542, -0.0411422104, -0.1088307798, -0.1871746629, -0.2777849436, -0.2359400392, -0.1088598222, 0.0925751776, 0.2783830166, 0.3195701838, 0.3009964228, 0.2378842086, 0.1697214693, 0.1281693131, 0.0987677574, 0.0259114578, 0.0330153219, -0.1171129122, -0.1352804452, -0.0452706963, -0.0539419763, 0.0100203250, 0.0393107161, 0.0081636645, 0.1070756391, 0.1767598987, 0.1399381459, -0.0176501311, -0.1232706830, -0.1911395937, -0.2298655957, -0.2675943971, -0.2828664482, -0.1975324005, 0.0093543911, 0.2387998253, 0.3241938651, 0.3254384398, 0.2507721186, 0.1725785285, 0.0996797681, 0.0988594815, 0.0917180851, 0.0789874941, 0.0822281465, -0.0670809001, -0.0135225812, -0.1048934534, -0.0717682019, -0.1093892455, -0.0689763799, 0.0477553681, 0.1081492081, 0.1158336028, 0.0316122063, -0.0992283672, -0.2373774499, -0.2821901441, -0.3137113452, -0.3094858527, -0.2422519922, -0.0860002786, 0.1134171560, 0.2492468506, 0.2609689236, 0.2039981186, 0.1382341236, 0.0725106448, 0.0616836213, 0.0925707743, 0.1033994108, 0.0683683231, 0.0078398297, -0.0765946880, -0.0268801581, -0.1740772277, -0.1304935366, -0.0448785722, -0.1042605117, 0.0216603298, 0.0559024699, 0.0450278595, -0.0350053608, -0.1498753577, -0.2357029468, -0.2618013620, -0.2560289800, -0.2077995390, -0.1138540432, 0.0062460187, 0.1413418800, 0.1894911975, 0.1602904052, 0.1029249877, 0.0607553348, 0.0254025795, 0.0343490690, 0.0857035667, 0.1084825024, 0.0931451172, 0.0219295248, -0.1131142974, -0.1074530333, -0.1193232462, -0.0213925578, -0.0467144735, -0.1036927626, -0.0406683795, -0.0013621616, -0.0016294741, -0.0570058934, -0.0751102418, -0.0908350125, -0.0808146745, -0.0229371563, 0.0386024080, 0.0999007151, 0.1105126217, 0.1458652914, 0.1419747025, 0.1348818690, 0.0979763642, 0.0409772806, 0.0210480466, 0.0334031954, 0.0675732121, 0.1091084927, 0.0846052617, 0.0685878843, -0.0657469705, -0.0983955041, -0.0788870975, -0.0411059260, -0.1278332025, -0.0822042525, -0.0440209918, -0.0548694804, -0.0589151569, -0.0534987710, -0.0024780543, 0.0803994387, 0.1745280027, 0.2383329719, 0.2667923570, 0.2498340309, 0.1976366639, 0.1338616312, 0.1331276447, 0.1585985422, 0.1548357159, 0.0891187266, 0.0466808230, 0.0289512761, 0.0723511726, 0.0690281242, 0.0611809827, 0.0668064058, -0.1066021249, -0.0517237335, -0.1320373416, -0.0995601714, -0.1516190320, -0.1770432889, -0.0743288025, -0.1214237958, -0.1181260943, -0.0470106341, 0.0679942891, 0.2022110820, 0.3081972897, 0.3611114025, 0.3470237255, 0.3017098904, 0.2166310996, 0.1577373147, 0.1673158109, 0.2271303535, 0.2193867415, 0.1125794053, 0.0259056911, 0.0110781556, 0.0532387830, 0.0682977587, 0.0698352382, 0.0275859702, -0.0030635623, -0.0841159672, -0.0947363004, -0.0774456114, -0.1637291461, -0.1302598417, -0.1453211010, -0.1708541512, -0.1890555322, -0.0977680758, 0.0409822688, 0.1622277945, 0.2948804498, 0.3403623104, 0.3270908594, 0.2778407335, 0.2022012174, 0.1786290854, 0.2078254521, 0.2350218892, 0.1903691143, 0.0825143158, 0.0121849980, -0.0101963952, 0.0310611650, 0.0601844788, 0.0381142162, -0.0124944067, -0.0062372633, -0.0894341171, -0.1639807820, -0.1192362010, -0.0863733515, -0.1848196685, -0.1566649526, -0.2154202610, -0.2410220653, -0.1603242904, -0.0629689097, 0.0583613329, 0.1505107135, 0.2352432907, 0.2564490438, 0.2367345691, 0.2020767778, 0.1595024318, 0.1668355614, 0.1693578660, 0.1026826203, 0.0126730576, -0.0362602621, 0.0121317729, 0.0172728188, 0.0335945226, 0.0099404622, -0.0294855163, -0.0235234238, -0.0500385799, -0.1027846187, -0.0577787012, -0.0554485098, -0.1630745381, -0.1487957984, -0.2100933790, -0.2568048835, -0.2537414134, -0.1969336569, -0.0925080851, -0.0077688349, 0.0951264724, 0.1563112736, 0.1544180214, 0.1300585419, 0.0707219988, 0.0436850488, 0.0159750581, -0.0060474109, -0.0442782454, -0.0503415018, 0.0090376679, 0.0167350229, 0.0396298058, 0.0472363010, -0.0248358082, -0.0810917616, -0.1439940035, -0.1020345241, -0.1384272873, -0.1253497154, -0.1703438908, -0.1494007558, -0.1939164400, -0.2398348153, -0.2637370229, -0.2587627172, -0.1995560974, -0.1271345317, -0.0372226462, 0.0218766928, 0.0415746048, 0.0287897289, -0.0370555185, -0.0769335702, -0.0703162849, -0.0521085486, -0.0411122404, -0.0035617016, 0.0350351483, 0.0294557177, 0.0086920466, -0.0121547226, -0.0069607212, -0.1014690027, -0.0957048833, -0.1260230988, -0.1507739872, -0.0774033591, -0.1177902892, -0.1378637701, -0.1696479470, -0.1567695588, -0.1907879561, -0.1848183721, -0.1520868242, -0.1203107908, -0.0764560774, -0.0472449362, -0.0185008105, -0.0329402313, -0.1068058610, -0.1067481264, -0.0537313148, 0.0096962359, 0.0522998720, 0.0407754369, 0.0500068776, 0.0598697476, 0.0065335799, 0.0206498709, -0.1390791237, -0.1417449415, -0.0433450751, -0.1097464785, -0.1227408648, -0.1054569110, -0.1018506214, -0.1914193928, -0.1177574545, -0.1052596048, -0.0843519121, -0.0633711591, -0.0523178987, -0.0395309143, -0.0043955790, 0.0000558833, 0.0113026164, -0.0056214170, -0.0528675690, -0.0276628211, 0.0501880907, 0.1237374246, 0.1168171614, 0.0725148618, 0.0551995486, -0.0066398224, -0.0318979397, -0.0959198549, -0.1094870493, -0.0959200040, -0.0976928994, -0.1212967336, -0.1307995021, -0.1431258470, -0.0824738070, -0.1243680567, -0.0171808489, 0.0320453309, 0.0426155403, 0.0677840188, 0.0813465863, 0.0671698824, 0.0920602381, 0.1039988473, 0.1372910887, 0.1285282522, 0.0939445049, 0.0656215325, 0.1129379719, 0.0972707942, 0.1470107883, 0.0976918489, 0.0983746871, -0.0220501497, -0.0601374023, -0.1410002559, -0.1369865388, -0.1610207856, -0.0641906038, -0.1818594933, -0.0925133005, -0.0075858003, -0.0416525863, -0.0803345144, -0.0741706565, -0.0063736676, 0.0601975657, 0.0955949351, 0.1037753522, 0.1023771763, 0.0899543315, 0.0744611397, 0.0952999368, 0.0729408488, 0.0895128548, 0.0757705197, 0.1172980890, 0.1064473912, 0.0883145854, -0.0037600261, -0.0259252433, -0.1212501600, -0.0007810503, -0.0497336760, -0.0778722689, -0.1080706418, -0.1576347500, -0.1506896317, -0.0950113833, -0.0802353024, -0.1598326117, -0.1142240167, -0.0851622075, -0.0713614076, -0.0839637667, -0.0887079388, -0.0091760168, 0.0401191190, 0.0694972947, 0.0030109177, 0.0840652362, -0.0113817770, 0.0647602305, 0.0194952600, 0.0856200829, -0.0615822971, -0.0682664663, -0.0968749747, -0.0208381973, -0.0189528260, -0.0946099982, -0.0932323411, -0.1233497933, -0.1600805223, -0.1073514894, -0.0721298084, 0.0571418293, 0.0647488534, 0.0677750781, -0.0525116399, 0.0480080470, -0.0936504826, 0.0691301376, -0.0718557239, -0.0090804370, -0.0061234925, 0.0204144437, 0.0499521680, 0.0533841029, 0.0203783698, -0.0724581182, -0.0857942477, 0.0108397752, -0.0519651696, -0.0229772329, -0.0222403035, 0.0517834611, -0.0409526862, -0.0372474045, -0.0807362720, 0.0352886915, -0.0938277692, -0.0810245052, 0.0065081301, -0.0563986078, -0.0208146051, -0.0522091538, 0.0460827872, -0.0866418630, -0.0410621054, -0.0089401454, 0.0566829182, 0.0328715481, -0.0165573768, 0.0742285550, 0.0132073993, -0.0192739274, 0.0637250915, 0.0475773998, 0.0526969992, 0.0509437881, -0.0109555591, -0.0152471671, 0.0205848645, -0.0343538150, -0.0684002265, -0.0282049626, 0.0513354316, 0.0569200106, -0.0869609192, 0.0557717383, -0.0715551302, -0.0068521341, 0.0661291257, 0.0000257577, 0.0469399281, 0.0644545332, 0.0761729553, 0.0416188277, -0.0765227303, -0.0086345877, 0.0395093709, -0.0551403016, -0.0367863365, -0.0921373740, -0.0490683801, -0.0371978544, -0.0791118965, 0.0207788777, 0.0376918390, 0.1491384506, 0.0473369770, 0.1350842863, 0.0737480223, -0.0595236495, -0.0061671971, 0.0697363764, -0.0636912584, 0.0471744873, 0.0592438020, 0.0390422717, -0.0127174063, -0.0689468533, -0.0552198701, -0.0502150282, -0.0570124760, 0.0407035798, 0.0122441892, 0.0370769091, 0.0147872688, -0.0485030897, -0.0638808161, -0.1343673468, -0.1659967750, -0.1218208671, -0.0529899262, -0.0212234575, 0.0124795185, -0.0146841761, -0.0062722927, 0.0486263372, -0.0125942249, 0.0164080057, 0.0125954794, 0.0424334630, 0.0284264348, -0.0565617718, -0.0293489546, -0.0877170041, -0.0142563693, 0.0031062241, -0.0801612213, 0.0622075573, 0.0315111205, 0.0119960969, 0.0525425710, -0.0123069640, -0.0769290030, -0.1147142649, -0.2259219587, -0.2490634769, -0.1523219943, -0.0548060685, 0.0670937523, 0.0725991875, 0.0576405898, -0.0303755738, -0.0419910476, -0.0787686035, -0.0890553668, -0.0795364380, 0.0031582392, -0.0789371133, -0.0848012492, -0.0366547257, 0.0574356318, -0.0888711065, -0.0651059151, -0.0210434012, -0.0071070842, 0.0670097917, -0.0038953493, 0.0244444199, 0.0538558438, -0.0306375138, -0.0909391865, -0.0991650075, -0.1895574778, -0.1712251753, -0.1292323619, 0.0103570046, 0.1403106153, 0.1823074073, 0.0687260404, 0.0171816722, -0.0823726729, -0.1168812141, -0.1161017343, -0.1058037505, -0.0541530177, 0.0066021895, -0.0400237963, -0.0015953500, -0.0737075508, 0.0265725851, -0.0664086416, 0.0809788033, 0.0637330115, 0.0569398738, 0.1325807869, 0.1318656504, 0.1185271665, 0.0988765806, -0.0108051794, -0.1011795998, -0.1751380712, -0.1824588031, -0.1159512848, 0.0177052207, 0.1346561909, 0.1258156747, 0.0173761919, -0.0393237285, -0.1405565590, -0.1454085410, -0.1199735403, -0.0881732255, -0.1028885171, -0.1073452607, -0.0397859327, -0.0091849063, -0.0311587807, -0.0434406511, 0.0272392388, 0.0373315960, 0.0144892614, 0.1335512102, 0.1187409535, 0.1194697395, 0.0927761123, 0.0179836340, -0.1253526062, -0.2379303128, -0.3347588181, -0.3329678178, -0.2613427043, -0.0587867424, 0.0250359084, 0.0142040839, -0.1097330377, -0.1301731765, -0.1539198905, -0.1922268867, -0.1637697518, -0.1242823303, -0.1701997966, -0.1176256463, -0.0000922674, 0.0454314761, -0.0669166297, 0.0283393525, -0.0101525132, 0.0413242802, 0.1210816577, 0.0841483921, 0.1125336885, 0.0965226740, -0.0326206423, -0.1592136323, -0.2514834702, -0.3729749322, -0.4389649630, -0.3957934380, -0.2582334280, -0.1021252796, 0.0004308604, -0.1017048359, -0.2130436003, -0.1981870532, -0.1899009347, -0.1453457624, -0.1390852928, -0.1208705753, -0.1944082677, -0.1061186865, -0.0018466456, 0.0121095879, -0.0131533425, 0.0022626210, 0.0471925586, 0.0275682565, 0.0720785931, 0.0743863806, 0.0936023593, 0.0386101641, -0.1176447347, -0.2503766716, -0.3120038211, -0.3077094555, -0.2614963651, -0.1845887154, -0.0596445687, 0.0867463872, 0.0882939994, -0.1056014672, -0.2867621779, -0.3229134679, -0.2052235156, -0.1327272058, -0.1149659380, -0.1394657642, -0.0779438317, -0.0978540778, -0.0320814624, -0.0763375983, -0.0881909356, 0.0212143715, -0.0536068715, 0.0826589763, 0.0556792207, 0.1045015529, 0.0505251586, -0.0153470766, -0.1293320656, -0.2338473648, -0.1903159618, -0.1014665067, 0.0082406849, 0.0785264671, 0.1450671405, 0.1593702137, 0.0845138058, -0.1704467535, -0.3755621314, -0.3578469753, -0.2764374912, -0.1514253169, -0.0341706313, -0.0675201565, -0.0874089599, -0.0083703836, -0.0374116041, 0.0391105823, -0.0619132556, -0.0592016056, -0.0031644583, 0.0865184218, 0.0613537841, 0.0595670789, -0.0249430034, -0.1059230566, -0.1855383366, -0.1379596740, -0.0311763510, 0.1274275631, 0.2105059326, 0.2408291996, 0.1643332541, 0.0517997481, -0.0565813221, -0.2778654397, -0.4055712819, -0.3908430338, -0.2656536102, -0.1417203397, -0.0279003195, -0.0616578087, -0.0844566151, -0.0663909018, 0.0573643818, -0.0943902284, -0.0892288759, -0.0244732630, 0.0144871781, -0.0475883931, 0.0157937035, 0.0403092243, -0.0277061518, -0.0924097896, -0.1210670918, -0.0944944620, 0.0214971490, 0.1404369771, 0.2112464011, 0.1449112445, 0.0014407751, -0.0599759817, -0.1304920167, -0.2845587730, -0.3082104921, -0.2400501817, -0.1821704656, -0.0942619517, -0.0111943437, -0.0056010014, -0.0430929214, 0.0372783951, 0.0496895164, -0.0262716208, 0.0372294411, -0.0616604686, 0.0090983324, -0.0656397715, 0.0277204067, -0.0058637974, -0.0485798195, -0.1091152877, -0.0947125405, -0.1020321697, -0.0449441746, 0.0159378015, 0.0011583973, -0.0582316928, -0.0892487988, -0.0816893056, -0.0766554996, -0.0528786071, -0.0603139736, -0.0594177134, -0.1083455086, -0.0535939485, 0.0268799886, -0.0207586586, -0.0341469496, 0.0195092279, -0.0678650662, -0.0410886668, 0.0595789813, -0.0201884974, -0.0683977604, 0.0085955216, -0.0019743056, -0.0184636265, -0.0172898583, -0.0376457982, -0.1276853979, -0.1466712505, -0.1742536873, -0.1731495261, -0.2308409214, -0.2493814826, -0.1644861400, -0.0304550994, 0.1544363350, 0.2361398786, 0.2221710384, 0.1415659934, 0.0376880281, -0.0140672764, 0.0343345329, -0.0160408784, -0.0340983123, -0.0240948182, 0.0110737272, 0.0662458166, -0.0669868216, 0.0582385398, -0.0636398196, 0.0702306107, -0.0632555559, -0.0670967698, 0.0153627004, -0.0405928269, -0.1056133360, -0.1719815135, -0.2089837790, -0.2243456692, -0.3007652164, -0.2914644182, -0.1853859425, 0.0141557632, 0.2907783687, 0.4233887792, 0.3901390433, 0.2974996865, 0.1720609963, 0.0873901099, 0.0542367473, 0.0009446117, -0.0285187960, -0.0375945270, -0.0545222014, -0.0657730922, 0.0157063678, 0.0567258373, 0.0067991181, -0.0434684604, -0.0491216592, -0.0279326662, 0.0044288919, -0.0400379784, -0.1186611503, -0.1132760122, -0.0971830636, -0.1729775816, -0.2326634377, -0.3074159920, -0.2457800359, -0.0268877894, 0.2913612425, 0.4067899585, 0.4028177857, 0.3555595279, 0.2164342403, 0.1194778755, 0.0470059365, 0.0271436926, -0.0119301071, 0.0109263007, -0.0591001064, -0.0328879170, -0.0944179073, -0.0534032434, 0.0226544160, 0.0426338017, -0.0165690575, -0.0980250835, -0.0475456379, -0.0450014472, -0.0763900653, -0.0249543749, -0.0144570107, -0.0704561099, -0.1708598882, -0.2808247805, -0.2932625413, -0.0441092774, 0.1652293354, 0.2205458730, 0.2239711732, 0.2275882065, 0.1120274886, 0.0871573314, 0.0509942919, 0.0207334496, -0.0224773120, -0.0080272257, 0.0382172316, 0.0201637410, -0.0089326166, -0.0005410679, -0.0750898495, -0.0027577481, -0.0902995542, -0.1252035201, -0.1070521176, -0.1176869869, -0.0744286999, -0.0490471125, -0.0168722570, -0.0992701426, -0.1750485450, -0.2366743237, -0.1899415851, -0.0438799597, 0.0084677860, -0.0887444317, -0.1206318289, -0.0358430259, -0.0090881428, -0.0018402030, 0.0063570035, -0.0366386548, -0.0572299622, -0.0500063747, 0.0688852072, -0.0817681178, -0.0230811257, -0.0071215839, -0.0159031712, -0.0746322572, -0.0805421099, -0.1659602076, -0.1689675599, -0.1763475388, -0.1412979215, -0.0465182737, -0.0718067065, -0.1060040146, -0.1319101304, -0.0622890107, -0.0145050474, -0.0643764883, -0.2127180845, -0.3792566061, -0.3617712557, -0.2732434571, -0.1381483227, -0.0449423492, -0.0131824818, -0.0923449919, -0.0858391598, -0.0714478716, 0.0516222678, 0.0253306162, 0.0079807471, -0.0121091446, -0.0379147306, -0.0200403333, -0.1138290614, -0.1603574455, -0.1927080452, -0.2685771883, -0.2244818658, -0.1586895138, -0.0877154469, -0.0728888139, 0.0267584939, 0.0801534206, 0.0219332930, -0.1403082162, -0.4164735079, -0.5754503608, -0.5255059004, -0.3465410769, -0.1528493017, -0.0576183088, -0.0336892828, -0.0959738344, -0.0263647214, -0.0689848214, -0.0357012600, -0.0193639994, 0.0512603410, 0.0499994420, -0.0836850405, 0.0099486914, -0.0242658034, -0.1189119741, -0.1576874554, -0.2484938353, -0.2481985092, -0.2177648395, -0.0860115364, 0.0146246552, 0.1172754541, 0.1454287022, -0.0124329776, -0.2737567723, -0.4982252717, -0.5618464351, -0.5114205480, -0.2937797010, -0.1726461500, -0.0769976005, -0.0817518160, -0.0466881357, -0.1225712895, 0.0165135339, -0.0616382509, 0.0210857280, 0.0325533301, -0.0713509619, 0.0329063535, -0.0119171366, 0.0447596274, -0.0544780456, -0.1564739197, -0.1806574017, -0.1808608174, -0.1814112067, -0.0615656041, 0.0788019672, 0.1933705658, 0.1607981473, -0.0665815249, -0.3092315793, -0.4307105541, -0.4561227262, -0.3632812202, -0.1984964758, -0.1164937541, -0.0246283337, -0.0212404802, -0.0075042602, -0.0188973844, -0.0460538752, 0.0453135334, -0.0116876028, 0.0521248281, 0.0125146499, -0.0211878605, 0.0212388411, -0.0122614987, -0.0236553159, -0.0930066928, -0.1052527204, -0.0950015634, -0.0792629123, 0.0416128524, 0.1908554435, 0.2596380711, 0.1709569842, -0.0390132032, -0.2264580578, -0.3282593787, -0.3258063197, -0.2698591650, -0.1145138815, -0.0659551099, -0.0553470701, 0.0067462916, 0.0086790342, 0.0663037449, -0.0208528694, -0.0801975280, 0.0129419807, -0.0178933106, -0.0598010719, -0.0791120306, -0.0173201412, 0.0609047040, -0.0679612160, -0.0429024100, -0.1118980348, -0.0405850299, -0.0438738093, 0.1023466513, 0.2113917619, 0.2230598778, 0.1593057066, -0.0224350747, -0.1255778223, -0.2308720648, -0.2494424880, -0.1590368599, -0.1070170626, -0.0388623923, 0.0099420203, 0.0369548462, 0.0331131704, 0.0574214235, -0.0106953373, 0.0062809624, 0.0109372232, -0.0865416601, -0.0924319103, -0.0908307061, 0.0469642617, 0.0683903322, 0.0341328532, -0.0641291514, -0.0830066577, -0.0882121101, 0.0239913706, 0.1440010667, 0.1635428667, 0.1798770726, 0.0215150993, -0.0631487072, -0.2112650722, -0.2199404985, -0.2827765346, -0.2377016246, -0.1118959412, -0.1033108234, -0.0728857294, 0.0192017704, -0.0632061362, 0.0047631906, 0.0635209829, -0.0163435955, -0.0792108402, 0.0260067396, 0.0609328821, -0.0785182714, -0.0682869777, 0.0628381297, 0.0171457399, -0.0575821437, -0.0558093116, 0.0306612961, 0.0877856240, 0.1178347468, 0.1462879777, 0.0846877024, -0.0372514799, -0.0625596121, -0.2086642534, -0.1512718052, -0.1978377849, -0.0380169861, -0.0806005299, -0.0366705321, -0.0045283595, -0.0085351421, 0.0472132936, -0.0035169038, 0.0646702722, -0.0215117149, -0.0398084745, 0.0029501696, 0.0216257330, -0.0132400915, -0.0301143080, -0.0634414628, -0.0571012720, -0.0128724817, -0.0060771797, 0.0556790195, 0.0763992667, -0.0332981274, 0.0038607633, 0.1083368957, -0.0250551999, 0.0461331420, -0.0466122106, -0.0778894052, 0.0361176282, 0.0597289540, -0.0455857627, -0.0586289279, 0.0493442751, -0.0717442110, -0.0763068125, -0.0020335643, -0.0032398032, -0.0755970329, -0.0598348789, -0.1315860003, -0.1556523591, -0.1326542795, -0.1433165967, -0.0822053850, -0.0500156954, -0.0829437822, -0.1338546872, -0.0204830766, -0.0309260022, -0.1311928034, -0.1135983467, -0.0413855277, -0.1523362547, -0.0545095913, -0.0316927247, -0.1550312191, -0.0411689468, -0.0408712588, -0.0466203727, -0.0567126535, -0.1203217730, -0.1319804341, -0.1183319911, -0.1104938313, -0.0919554457, -0.0343151689, -0.0552986860, -0.0782459602, -0.1348980516, -0.1076914743, 0.0057437751, -0.0795530230, -0.0249948353, -0.1601889133, -0.1341412663, -0.0716489851, -0.1078888476, -0.1228772327, -0.1448638588, -0.1239483207, -0.0759523064, -0.0648411214, -0.1129150242, -0.0215530470, -0.0587390997, -0.1087303311, -0.1049746796, -0.1334556341, -0.0612920262, -0.1545513272, -0.0927945673, -0.1163278893, -0.0259654950, -0.0814779699, -0.1983842850, -0.0526146330, -0.1126129106, -0.1753445864, -0.0449064523, -0.1405577213, -0.0106374258, -0.0483295061, -0.0575393029, -0.1257043332, -0.0239856280, -0.1031544358, -0.0202686097, 0.0243499670, 0.0826018527, 0.1253607422, 0.0768199265, 0.1168777347, 0.0798414201, 0.0138039924, 0.0436519980, -0.0878428295, -0.0173422731, -0.0442195684, -0.0399902165, -0.0253885817, -0.0388888568, -0.1239400059, -0.0171027202, -0.1268130243, -0.0508354753, -0.0948579535, -0.1434406787, -0.1566831172, -0.1012518033, 0.0114293592, -0.0297444519, 0.0040234635, 0.0236465428, 0.0060969112, 0.0319180377, 0.1322140843, 0.1743608564, 0.1568405628, 0.2097911537, 0.1959937513, 0.1406941861, 0.1366556734, 0.0491374284, -0.0611125380, -0.0681087524, -0.0991736129, -0.0778704882, -0.1068324968, -0.0581677668, -0.1534979492, -0.0267163236, -0.0667534024, -0.1409434974, -0.0434858203, -0.0861878097, 0.0018590521, 0.0011474710, -0.0087105250, -0.0465933308, 0.0056528011, -0.0248323064, 0.0058049983, 0.0456301272, 0.1012291759, 0.1549709588, 0.1925666183, 0.2135362178, 0.2311837971, 0.2113715112, 0.1568367779, 0.0841607675, 0.0193367172, 0.0019811376, -0.0436761566, -0.0619578809, -0.0985756367, -0.0904289410, -0.1370081156, -0.1202063709, -0.0276877824, -0.0570016764, -0.0843094438, -0.0423634909, -0.1252789795, -0.0308797788, -0.0539714806, -0.0709102452, -0.0799482241, -0.0999027044, -0.0270575266, 0.0726526082, 0.0971485749, 0.1386464387, 0.1166419461, 0.1116000861, 0.1156212166, 0.0681943595, 0.0074211322, 0.0321726203, 0.0057597579, -0.0104739172, -0.1046452150, -0.1432149708, -0.1015241891, -0.1099122390, -0.0927934274, -0.0699760020, -0.0702477172, -0.0368774347, -0.1673864573, -0.0164249260, -0.1002202481, -0.1111317426, -0.0876402110, -0.1340820491, -0.1931251884, -0.1161773205, -0.0286198352, 0.0701319724, 0.0967951640, 0.0396643505, 0.0102145905, -0.0252093542, -0.0769639537, -0.1749034673, -0.1766918153, -0.0833988786, -0.0454144105, -0.0514478423, -0.1174909323, -0.1546038538, -0.1695331633, -0.1895590872, -0.0335727669, -0.0314570777, -0.1120379567, -0.0477243923, -0.1178814620, -0.0694526881, -0.1468171030, -0.1559816897, -0.2141887397, -0.2885940373, -0.2600483298, -0.2015171349, -0.0498050675, -0.0306373946, -0.0378749818, -0.0983006060, -0.1107289866, -0.1326594055, -0.2404273748, -0.3146605194, -0.2952806354, -0.1742934287, -0.0925273523, -0.1499861628, -0.1907742172, -0.2494302988, -0.2469244152, -0.1974842697, -0.0329390541, -0.1364601403, -0.1277282387, -0.0845774189, -0.1043530703, -0.1457550377, -0.1633987725, -0.1466706097, -0.2142752409, -0.3492338955, -0.2840562463, -0.2142064869, -0.1130026728, -0.1003061980, -0.1394099742, -0.1931733489, -0.2358888537, -0.2237187028, -0.2344080210, -0.2560390234, -0.2025420815, -0.1424234658, -0.1213794425, -0.2304567099, -0.2842047811, -0.2858941555, -0.2559882700, -0.2267356962, -0.1126003638, -0.0955994502, -0.0706797913, -0.1175005138, -0.0843020082, -0.0808264166, -0.2000835091, -0.1650931686, -0.2465152740, -0.3338034451, -0.3013574779, -0.2307740003, -0.1056395322, -0.0863795653, -0.1425421834, -0.1734563410, -0.2198120356, -0.2082568556, -0.0882808566, -0.0015069041, 0.0249302890, -0.0268479548, -0.1550098360, -0.2510086000, -0.3082472086, -0.3295992017, -0.2224919796, -0.1941172183, -0.0837856382, -0.1416817456, -0.1351749748, -0.1506711692, -0.1041910127, -0.1271589845, -0.1995125115, -0.2607125640, -0.2568295300, -0.3092562258, -0.3008995056, -0.2119431049, -0.0339178741, -0.0264478959, -0.0886776820, -0.2091105580, -0.2327043265, -0.1116814241, 0.0887719542, 0.2441551685, 0.1464434415, -0.0498611964, -0.2578457892, -0.3010621965, -0.3329443336, -0.3127726614, -0.2357507050, -0.1565037072, -0.0141574088, -0.0478522293, -0.1150429472, -0.1275776029, -0.0842326432, -0.1882965863, -0.1993933916, -0.2442053407, -0.2819948494, -0.3225757480, -0.3226028681, -0.1709834039, -0.0134472139, 0.0244965199, -0.1086281538, -0.2174723893, -0.2254955620, -0.0171258077, 0.2389626503, 0.2884887457, 0.1106493771, -0.2099117786, -0.4052338898, -0.3877045214, -0.3544867635, -0.3149228096, -0.1963375658, -0.0439285785, -0.0836754367, -0.1123166531, -0.0250640120, -0.0400224477, -0.1878791302, -0.0784453601, -0.1899130493, -0.2617356181, -0.2610056102, -0.3037965596, -0.2835097313, -0.0990790650, 0.0362145826, 0.0016209948, -0.1079166234, -0.2042790353, -0.1375398636, 0.1018536836, 0.2696200013, 0.2080795467, -0.1016870663, -0.3941068351, -0.5012171268, -0.3879224360, -0.3498125076, -0.2705217600, -0.1726139486, -0.1122330725, -0.1085580438, -0.0901619643, -0.0118161514, -0.0893611461, -0.1406922340, -0.1551056355, -0.1847571284, -0.2675533593, -0.2138968259, -0.2776893377, -0.2949918211, -0.1033114716, 0.0541661717, 0.0472034216, -0.0448694266, -0.1102719977, -0.0157678705, 0.1587012559, 0.2105132341, 0.0438364595, -0.2196933180, -0.4538015127, -0.4681790769, -0.3071696758, -0.2372359186, -0.2125650942, -0.1841592789, -0.0792300850, 0.0029920773, -0.0537824072, -0.0602561533, -0.0649862364, -0.0734483525, -0.1662371159, -0.2384252101, -0.1923590750, -0.2404424250, -0.2693897188, -0.2744086981, -0.1200685203, 0.0638244152, 0.0665508807, -0.0044632517, -0.0324069634, 0.0030409175, 0.0795407519, 0.0810104683, -0.0583737232, -0.2548027039, -0.3326505423, -0.2793030739, -0.2182838321, -0.1918774396, -0.1853148043, -0.1718245447, -0.0585607551, -0.0677778050, -0.1040081531, -0.1508812159, -0.0583147518, -0.0361506827, -0.1330440044, -0.1831044406, -0.1528885216, -0.1612243354, -0.2696061134, -0.2901241481, -0.1317597479, -0.0123466989, 0.0465200245, 0.0109382384, -0.0302825868, -0.0313545614, -0.0266107023, -0.0361936241, -0.1188959479, -0.1906948537, -0.1547552347, -0.1226903945, -0.1351052225, -0.1004255712, -0.1345055997, -0.1218778342, -0.1336028576, -0.0459099002, -0.1490261555, -0.1451859921, -0.1178796887, -0.1702587008, -0.1022222638, -0.1741376668, -0.0803800672, -0.1041459888, -0.2395621538, -0.2748718560, -0.1681433469, -0.0612420142, -0.0281832553, 0.0252547767, -0.0050897612, -0.0326874368, -0.0450545214, -0.1013641208, -0.1245094761, -0.1164453551, -0.0504622348, -0.0452266261, -0.0870492682, -0.1306343824, -0.1683068871, -0.1516794264, -0.0816399381, -0.0899921730, -0.0837780461, -0.1424718350, -0.0562924594, -0.0656542704, -0.0627631173, -0.1717704535, -0.1131704897, -0.1583809257, -0.2352678925, -0.2857134938, -0.1927137524, -0.0565202907, -0.0044014608, 0.0904143229, 0.0994520336, 0.0554783195, 0.0010376072, -0.0800733864, -0.1382559985, -0.1146727875, -0.0476214923, -0.0467550009, -0.1151216999, -0.1494600624, -0.1492815465, -0.1732455939, -0.0678744912, -0.1168073490, -0.0987659320, -0.0953387916, -0.0392476469, -0.0273959525, -0.1739637703, -0.1434678286, -0.1491329968, -0.2070711702, -0.2795102298, -0.2920434475, -0.2141230404, -0.0606584251, 0.0571919195, 0.2044503093, 0.2400371879, 0.1190100387, 0.0212835632, -0.0643896684, -0.1260162443, -0.1373203993, -0.0630380660, -0.0769125000, -0.1316250712, -0.1839974523, -0.1751201451, -0.1452262700, -0.0504875146, -0.0961440727, -0.0820216611, -0.0600638427, -0.1473491192, -0.0264599454, -0.1725361198, -0.1674537659, -0.1853956431, -0.2728525996, -0.3479700089, -0.3376410902, -0.2839222252, -0.1022935063, 0.1148891449, 0.2473544776, 0.2455022633, 0.1162794828, -0.0215726011, -0.0925334617, -0.1108090729, -0.0858035535, -0.0713497698, -0.0731455311, -0.1372717470, -0.1297224760, -0.1514913291, -0.0935946330, 0.0041865315, -0.1027374491, -0.1215612292, -0.0386695936, -0.0666020811, -0.0566327274, -0.0793016031, -0.1121984720, -0.1181720421, -0.2122961432, -0.3664911687, -0.3960766792, -0.3191745281, -0.1286782175, 0.1421466321, 0.2326330990, 0.1759982109, 0.0291548483, -0.0437121093, -0.1173412129, -0.0948485956, -0.0621345267, -0.0392790996, -0.0434962362, -0.0823619589, -0.0896625072, -0.0681472048, -0.0310651548, -0.0124205379, -0.0830454454, -0.0651225820, -0.1430268586, -0.1526325792, -0.0991538465, -0.0498615652, -0.0619389936, -0.0822094828, -0.1358373016, -0.2865493894, -0.3403468132, -0.2818481922, -0.1399928182, 0.0560558662, 0.1082025021, 0.0615732037, -0.0493264161, -0.0981491059, -0.0582334511, -0.0479697324, -0.0119203739, -0.0166115109, -0.0230857339, -0.0198401958, -0.0866732448, -0.0320294052, -0.0992856845, -0.0557301566, -0.0907320231, -0.0010424360, -0.0240365043, -0.1058103070, -0.0339661241, -0.0280177109, -0.0537602492, -0.0728066862, -0.0806610137, -0.1393339038, -0.2162439823, -0.2186785936, -0.1427207738, -0.0640402138, -0.0344438404, -0.0404332392, -0.0701162964, -0.0291947853, 0.0101306327, 0.0408776887, -0.0322691761, -0.0369351804, -0.0527939387, -0.0776078328, -0.0164880045, -0.0842674747, -0.0613017753, 0.0051029837, -0.1640213728, -0.1107312441, -0.0961796790, -0.0107470229, 0.0126384478, -0.1411074996, -0.1142147258, -0.0932060182, -0.0983099416, -0.1450853646, -0.1720025986, -0.2069582641, -0.1868335009, -0.1389635801, -0.0600819699, -0.0361537002, -0.0044012074, -0.0027147233, -0.0154114533, -0.0231955741, -0.0729683861, -0.1130497530, -0.0642713234, -0.0784649700, -0.0307117030, -0.0400701351, -0.0090368008, -0.0905558914, -0.1100221425, -0.1697719693, -0.0606141239, -0.1475727111, -0.1247130558, -0.0533329174, -0.1378646493, -0.1309251785, -0.1816592813, -0.1416833997, -0.1854425222, -0.2502990961, -0.2005183250, -0.1482907832, -0.0962847024, -0.0652532578, -0.0848172009, -0.0656451732, -0.0420720428, -0.0549561493, -0.1042371318, -0.0816565827, -0.1149540991, -0.0986521021, -0.1372941583, -0.0700989217, -0.0903677642, -0.1292036623, -0.0707607344, -0.1150950864, -0.0291940905, -0.0380731635, -0.0982781351, -0.1146432757, -0.1057107523, -0.0655804053, -0.1822841763, -0.2041604370, -0.2246021330, -0.1880643219, -0.1737253368, -0.1540272683, -0.1360780746, -0.1141189635, -0.1473332942, -0.0787355527, -0.0749866217, -0.0908717364, -0.0911821350, -0.1350413412, -0.1492499560, -0.1377697736, -0.1401746869, -0.0306369141, -0.0879059210, -0.0831042826, -0.0018009155, -0.1404587924, -0.0398171470, -0.1183216348, -0.0391768888, -0.0612947419, -0.0959270000, -0.0545514710, -0.1313175112, -0.1952250749, -0.2108311504, -0.1345036775, -0.0717231408, -0.0877744704, -0.1326281279, -0.1450278610, -0.1312572956, -0.1372281462, -0.0529627167, -0.1075324267, -0.0536133535, -0.1626353115, -0.0717411488, -0.0641720220, -0.1094367057, -0.1468952149, -0.0493843555, -0.0258793570, -0.0980948880, -0.0341672823, -0.1012830436, -0.0411389619, -0.1207353249, -0.0223114081, -0.1384592652, -0.0485075265, -0.1471695006, -0.1407286376, -0.1526198983, -0.1016009301, -0.0586648583, -0.1048173085, -0.0700226426, -0.0631815046, -0.1177264452, -0.1866286397, -0.0728192404, -0.1084819362, -0.1498421282, -0.0291500539, -0.0343729444, -0.1540927440, -0.0407438688, -0.0965506583, -0.0123726139, -0.1204278097, -0.1498682946, -0.1132030413, -0.1383143961, -0.1286607385, -0.1315267980, -0.0824430957, -0.1159271300, -0.1631930172, -0.0519717112, -0.1247984916, -0.0167023893, -0.1343824565, -0.1748308241, -0.0326314196, -0.1672054827, -0.0484761894, -0.0692904070, -0.1021852568, -0.0537145883, -0.1765466779, -0.1331611425, -0.1372873634, -0.1022478044, -0.1020777151, -0.2305029482, -0.1724868566, -0.0160142388, -0.1049450859, -0.1599472016, -0.0785164982, -0.0945378467, -0.0814015120, -0.1634648442, -0.1200056002, -0.0904124379, -0.1847214848, -0.0322790295, -0.1480218023, -0.0305959638, -0.0191190392, 0.0212674476, -0.0855704024, -0.1042804942, -0.1120597497, -0.1021257192, -0.0935860425, -0.0529816896, -0.0120247025, -0.1108090430, -0.0220430531, -0.0502316132, -0.0660199299, -0.1262601465, -0.1252962351, -0.1727261394, -0.2069322169, -0.1064515188, -0.0713153258, -0.1150766537, -0.0963457674, -0.0675999522, -0.1016531512, -0.0287859570, -0.1272510439, -0.0641795322, -0.1320425123, -0.1027970091, -0.1097432971, 0.0122182919, -0.0136961462, -0.0480662584, -0.0626461133, -0.1121162251, -0.0274167825, -0.0613100789, -0.1043463871, -0.1264660805, -0.1285089254, -0.0814454332, -0.0978849903, -0.1141337454, -0.1266825944, -0.0305403471, -0.2099107951, -0.1424715519, -0.1549940556, -0.1825011224, -0.0760938749, -0.0508815646, -0.1643485278, -0.0737326294, -0.1258666217, -0.0578862280, -0.1014686972, -0.0544735193, -0.1065328047, -0.1144375801, -0.1234769374, -0.1545320451, -0.1432282329, -0.1465382874, -0.1936342865, -0.1859758794, -0.1730241328, -0.1988632530, -0.1704291552, -0.0889715180, -0.1495745927, -0.1182217896, -0.0730895326, -0.1551726609, -0.1584048122, -0.1446512491, -0.1435259879, -0.0653263107, -0.1480264068, -0.1210884601, -0.1698372364, -0.1502605975, -0.1238235757, -0.1105888933, -0.1671448648, -0.1741292924, -0.1528145373, -0.1566559672, -0.1478943080, -0.1307641566, -0.1242532507, -0.1223291233, -0.1405754834, -0.1578071415, -0.1671545208, -0.1759590209, -0.1671140343, -0.1314971894, -0.1184429228, -0.1211982295, -0.1716040969, -0.1382427961, -0.0710740164, -0.0549726635, -0.1435128450, -0.1086061224, -0.0957019627, -0.0523879454, -0.1755200177, -0.1587612033, -0.0955826119, -0.1227629334, -0.1292815059, -0.1373228729, -0.1055592299, -0.1124963462, -0.0954200849, -0.0633811355, -0.0752144158, -0.0787117332, -0.0965121537, -0.1046360061, -0.1048786715, -0.0835141167, -0.0923014581, -0.1015261114, -0.1096972153, -0.1171245873, -0.0814624354, -0.0951074958, -0.1045277864, -0.0923055261, -0.0561386794, -0.0552466959, -0.1047845334, -0.0409305319, -0.1054215804, -0.1557075977, -0.1031555161, -0.0714353174, -0.0574487634, -0.0050040632, -0.0176017582, -0.0013323891, -0.0126127675, -0.0186970271, -0.0299871452, -0.1006236300, -0.1335420460, -0.1067983657, -0.0368785821, -0.0107716406, -0.0375897884, -0.0879752412, -0.1209829599, -0.0952665582, -0.0575905927, -0.0596544482, -0.0614481419, -0.0438180193, -0.1498173028, -0.1462658048, -0.0170532931, -0.0306939539, -0.0951897353, -0.1472659260, -0.0487863421, 0.0099585038, 0.0639840364, 0.0541474596, 0.0831872076, 0.0457548164, 0.0568566956, -0.0045230039, -0.0941182971, -0.2060184628, -0.2341222614, -0.1191492975, 0.0179807693, 0.0880567580, 0.0285339281, -0.0722960755, -0.1253780723, -0.1006794274, -0.0443040878, -0.0075231390, 0.0509483963, -0.0163170919, -0.0604988374, -0.0504046641, -0.1355773360, -0.0603192449, -0.1979655623, -0.0755583942, -0.0168272406, 0.0200117938, 0.0985981151, 0.0856474414, 0.0960407183, 0.0823060274, 0.0399799049, -0.0668072999, -0.2083521634, -0.2822692394, -0.2561599314, -0.0927864388, 0.0643194765, 0.1062305570, 0.0544363149, -0.0834784880, -0.1342227906, -0.1096587405, -0.0508513153, 0.0007357086, 0.0300688092, -0.0045128395, -0.1466761231, -0.1005270556, -0.1337353885, -0.0719359592, -0.1334774494, -0.0904140100, -0.0526441820, 0.0127038956, 0.0630792007, 0.0741953179, 0.1032683998, 0.0676140264, -0.0161649939, -0.1564917862, -0.2991001308, -0.2854697406, -0.1367297769, 0.0140213026, 0.1056972966, 0.0776363313, -0.0371174552, -0.1412109286, -0.1635941267, -0.1125889942, -0.0229248386, 0.0268373601, -0.0470228121, -0.0372053608, -0.1613432318, -0.1426620036, -0.1799360961, -0.0777550712, -0.1790333986, -0.1270565689, -0.0257040728, -0.0108734127, 0.0259634759, 0.0675989911, 0.0857498720, -0.0092616631, -0.1170849428, -0.2572473884, -0.2873272002, -0.1654487699, 0.0099184457, 0.1199986786, 0.0572061352, -0.0577599294, -0.1830583066, -0.2083377540, -0.1899766773, -0.1001605988, -0.0489203073, -0.0423992909, -0.0806130171, -0.0960066691, -0.1220292598, -0.0636668503, -0.0655051917, -0.1323340386, -0.1015975922, -0.1454171985, -0.0592027828, -0.0276503377, 0.0040137796, 0.0764669254, 0.0703414083, -0.0582642555, -0.2039866894, -0.2769273221, -0.2297782153, -0.0393990874, 0.1008623913, 0.0759904832, -0.0761019886, -0.2662779987, -0.3312380314, -0.2666815519, -0.1640864164, -0.0850791186, -0.0313642584, -0.0099621313, -0.0902969018, -0.1020572186, -0.1334403753, -0.0340818912, -0.1718264967, -0.1639019102, -0.1779879332, -0.1238556206, -0.0611787476, -0.0513549596, -0.0033592493, 0.0775611624, 0.0108924247, -0.1281129122, -0.2421077043, -0.2686296701, -0.1591482311, -0.0030655151, 0.0563154072, -0.0659336001, -0.3107761145, -0.4357415736, -0.3992080688, -0.2188547105, -0.0993829742, -0.0057768491, -0.0046673254, 0.0095469533, -0.0351884328, 0.0335810818, -0.1313128471, -0.1762155890, -0.1613783091, -0.0979368985, -0.1489358246, -0.1010738537, -0.0998631418, -0.0634644926, 0.0073207398, 0.0912572742, 0.0320963375, -0.1242855936, -0.2260535210, -0.1973573416, -0.0398316383, 0.0713313073, 0.0062156520, -0.2333908826, -0.4595557451, -0.5479190350, -0.3825725615, -0.1687034518, -0.0423774198, 0.0165706556, -0.0102174319, -0.0003864049, -0.0240868442, -0.0502827726, -0.0374191068, -0.0781774968, -0.0392201431, -0.1041228697, -0.0365582220, -0.1188535765, -0.0981874838, -0.0389208570, 0.0432231426, 0.1356362849, 0.0997250900, -0.0338856950, -0.0473787747, 0.0497878194, 0.1687979847, 0.2103555650, 0.0729647130, -0.1858779192, -0.4052693248, -0.4448598921, -0.3007759154, -0.1373740882, -0.0005271214, 0.0189239439, 0.0314559639, 0.0345313475, -0.0243690033, -0.1616901755, -0.1618997902, -0.0579774007, -0.1661174595, -0.1256255507, -0.0152178900, -0.1585822701, -0.1101662070, -0.0350279324, 0.0858053640, 0.2042514086, 0.1882636547, 0.1626168638, 0.2022315115, 0.3086155355, 0.3871414661, 0.3538224995, 0.2011211962, -0.0258683488, -0.2059188485, -0.2430644780, -0.1860294789, -0.0927985236, 0.0002985047, -0.0134017505, 0.0144834761, 0.0690216869, 0.0597777553, -0.0344736353, -0.1663729250, -0.1087057069, -0.1352011263, -0.0568305701, -0.1596262902, -0.1696949005, -0.1724500805, -0.1025202125, 0.0658824444, 0.1808972657, 0.2426881492, 0.2912507653, 0.3674341440, 0.4015963376, 0.4074977040, 0.3423162401, 0.2523001432, 0.1599895656, -0.0041328105, -0.0974211097, -0.0989202335, -0.0512635522, -0.0147394175, 0.0026110897, 0.0155180944, 0.0956219062, 0.0270300042, -0.1117063686, -0.1182481200, -0.1381686330, -0.0666937381, -0.1072642729, -0.2334853709, -0.2416464090, -0.2141248882, -0.1215213537, 0.0002237384, 0.1313199699, 0.1981665194, 0.2450336218, 0.3159298301, 0.2795472741, 0.2228750139, 0.1896794140, 0.2003937811, 0.1850591451, 0.0689016208, -0.0281050559, -0.0666439310, -0.0354665704, 0.0047588488, 0.0111363232, 0.0261168983, 0.1073376760, 0.0459051467, -0.1408237964, -0.1147099286, -0.1261509806, -0.1631770581, -0.1153373495, -0.1809155792, -0.2972807288, -0.2722022533, -0.1852151603, -0.0738732368, 0.0243616235, 0.0983128995, 0.1434569955, 0.1327126324, 0.0410485603, -0.0226451438, 0.0442572683, 0.1171917468, 0.0934152603, -0.0181069411, -0.0941371396, -0.1034441292, -0.0344280042, -0.0041177412, 0.0229260065, 0.0417517051, 0.0837636963, 0.0373350494, -0.1304569989, -0.0776404291, -0.1415418237, -0.1010813192, -0.1575330645, -0.2323531210, -0.3014441729, -0.2917706072, -0.2052241862, -0.1165740713, -0.0366848223, 0.0379135273, -0.0052387770, -0.0822599307, -0.1705789715, -0.1553013623, -0.0420691930, 0.0197893847, -0.0706150904, -0.1756057888, 