//Numpy array shape [128]
//Min -0.016487028450
//Max 0.216872572899
//Number of zeros 1

#ifndef B4_H_
#define B4_H_

#ifndef __SYNTHESIS__
model_default_t b4[128];
#else
model_default_t b4[128] = {0.0258601997, -0.0024149122, -0.0040897587, -0.0018890846, 0.0246177204, 0.0288753863, -0.0004533016, 0.0206508450, 0.0001196454, 0.0323408544, 0.1396698356, 0.0125750219, 0.1382151097, 0.0554787926, 0.0017279270, -0.0016265369, 0.0877224952, -0.0001502397, 0.0126085784, -0.0082657076, 0.0178056061, -0.0043777488, -0.0052420278, 0.1751133502, 0.0194741525, 0.0861058012, 0.0206285212, -0.0018690440, -0.0043468378, -0.0041556032, 0.1972809881, 0.0150967231, 0.0162888989, 0.0008609407, 0.0044416604, -0.0011720279, 0.0045916894, 0.0043113418, -0.0049211085, 0.0000000000, 0.1708395034, 0.1609469950, 0.0016504893, -0.0019728171, 0.0030400711, -0.0050564711, -0.0017203243, 0.0049191271, 0.0074062389, 0.0092784679, 0.1068660393, 0.0154168233, 0.0134745836, 0.0001997402, 0.0272955969, 0.0081930738, 0.0205225106, 0.0068616648, 0.1224809885, -0.0034207494, 0.0093103731, 0.0047367578, -0.0003185880, 0.0174915008, 0.0128475130, 0.1871973723, -0.0054960996, 0.0164805464, 0.0085249366, 0.0096403174, 0.0118431291, 0.0040194155, 0.0071465359, 0.2088600695, 0.0215679780, 0.0187635403, -0.0164870284, 0.0103757270, -0.0007351608, 0.0290479679, 0.0112156691, -0.0031301561, -0.0025916263, -0.0027969342, 0.0105666528, 0.1383633465, 0.0162830614, 0.0137027353, 0.0855558738, 0.2044420838, 0.0110469321, -0.0032436121, -0.0012309068, 0.0149311675, 0.0185301155, 0.0034465762, 0.1818809509, 0.2168725729, -0.0069949483, -0.0069202287, 0.0060413806, -0.0055429763, 0.1839949638, 0.0025656915, 0.0149604687, 0.0248842910, 0.0891593993, 0.0253142379, -0.0021675634, 0.0183235742, 0.0882458165, -0.0017754659, 0.1398825496, -0.0051175621, -0.0014279960, 0.0216978025, 0.0111084906, 0.0046861372, -0.0012638072, -0.0005152095, -0.0065068766, 0.1298823506, 0.0056181801, 0.0115154888, -0.0013076522, -0.0012916238, 0.0002401400, 0.0025832788};
#endif

#endif
