//Numpy array shape [128, 256]
//Min -0.263931930065
//Max 0.235871180892
//Number of zeros 0

#ifndef W6_H_
#define W6_H_

#ifndef __SYNTHESIS__
model_default_t w6[32768];
#else
model_default_t w6[32768] = {-0.0345311910, -0.0715267658, 0.1085833609, -0.1245984957, 0.0730255693, 0.0451160297, 0.0991071984, 0.0790430680, 0.0785221457, 0.1172066107, 0.0570563115, 0.0905547887, 0.0768049955, 0.1118192375, -0.0718594268, 0.0484673232, 0.1028194949, 0.0630455092, 0.0805804059, 0.0111397943, 0.0007471729, 0.0573661439, -0.0132011287, -0.0087410761, 0.1356032640, 0.0524122417, 0.0125492169, 0.0206449497, -0.0484842882, -0.0121903243, 0.0612082444, 0.0857849419, 0.0082036555, 0.0079007242, 0.0537843220, 0.0011774297, 0.0545605384, -0.1004430726, 0.1107760370, -0.0035756964, 0.1011479348, 0.0419904925, 0.0634640306, -0.0072494047, 0.1053427905, 0.0044046659, -0.0233332235, -0.0848794654, -0.1090875268, 0.0704546943, -0.0350085087, 0.0967667326, 0.1008151323, 0.0005563496, -0.0822924450, -0.0796507150, -0.0764831230, -0.0908614174, -0.0652249157, 0.0986946821, 0.0160273891, 0.0904934928, 0.1016678810, -0.1088070273, 0.0999844298, 0.0148297595, -0.0702011362, 0.1269760877, -0.1308361739, -0.1297803819, -0.0130253891, 0.1345689595, -0.0673806444, 0.0418550223, 0.0050416258, 0.0598181002, -0.0325980224, -0.0990960449, 0.0166942608, -0.0259621348, -0.1037528217, 0.0715124607, 0.0098612728, -0.0261078272, -0.0817695186, -0.0201405939, 0.0637003109, 0.1092339903, -0.0774454847, -0.0412998386, 0.0665897653, -0.0244653840, -0.0061002513, 0.0293168034, -0.0523708612, 0.1264805049, 0.0523850247, -0.1114228889, -0.0145472772, -0.0683777630, 0.0924032703, -0.0451266393, -0.0337825045, 0.1272404343, 0.0147248860, -0.0172923785, -0.0105709685, -0.0433310457, 0.0711616352, -0.0550906472, 0.0147522530, -0.0651034266, 0.0864688233, 0.1146143600, -0.0635036975, 0.0511138886, -0.0532509796, -0.0988193974, 0.0701072216, -0.0639513284, -0.0429026335, 0.0563448370, -0.0178161226, -0.0709926486, -0.0312195439, 0.1026339903, 0.0037888133, 0.1044640616, -0.0054246457, -0.0275720060, -0.1074825972, -0.1007641107, -0.0308134928, 0.0985874534, 0.0711021572, 0.1434520483, -0.1230330840, 0.0942711905, 0.0895575434, -0.1263753772, 0.0167627875, -0.0161429197, 0.0252685919, -0.0431003720, 0.0936447158, 0.0502569415, 0.0421847031, 0.0242696274, -0.0571422242, -0.1159164011, -0.0167936198, 0.1214697435, 0.0098539600, -0.0866052657, -0.0786224082, -0.0844270065, -0.0674313232, -0.0457512178, 0.0684044659, 0.0468643792, 0.0487181172, 0.1197725534, -0.1150591969, 0.0000449378, 0.0048189214, -0.0095643178, -0.0581993684, 0.0534062497, -0.0150079578, -0.0039031347, 0.0949941576, -0.0423965342, -0.0993440077, -0.0841034651, -0.1300267577, -0.0606659576, 0.1165241227, 0.1028241441, -0.1213921010, -0.0154305845, 0.0994310752, -0.0848594159, -0.0018926710, 0.1069182456, 0.0462211482, 0.0827207938, -0.0540330186, -0.1053483486, 0.0893093273, 0.0321925618, -0.0657206699, -0.0345226862, 0.0532041751, -0.0221249387, 0.0608834438, 0.1074917093, 0.0093820812, 0.0302569736, 0.0331944004, 0.0047841361, -0.1311051697, -0.0606057495, -0.0188621879, -0.1081602722, 0.0118795056, 0.0692838877, -0.0612258352, 0.0570662953, 0.1038958877, -0.0638237223, 0.1082544103, -0.0553388074, -0.0360631011, 0.0306100063, 0.0992654264, -0.0420812368, -0.0403237306, 0.0693719909, -0.1195254102, 0.0283147804, -0.0991659462, -0.0805354863, -0.0580855273, -0.0501642562, 0.0962173268, 0.0282595884, -0.0504551455, -0.0475050658, -0.0704968125, -0.1066502407, -0.0533628166, -0.1088946089, -0.0330273136, 0.1225641593, 0.0935947821, 0.0636316910, 0.0626917407, 0.0352822393, 0.0748673975, -0.0574259050, -0.0434084833, 0.1259425282, -0.0191010311, -0.0140680810, -0.0583304800, -0.1055371761, -0.0621639937, 0.0690715462, 0.0401130989, -0.0984276831, 0.0387292914, -0.1218927726, 0.0113719022, 0.1266653538, -0.0967395976, -0.0458477177, 0.0085975034, -0.0644311011, 0.1234638989, -0.0223663133, 0.0004489411, -0.1098077148, 0.0161889791, 0.0924616382, 0.0342956744, 0.0009258933, 0.0735002235, 0.0629172474, 0.0207247250, 0.1112486422, -0.0479691476, 0.0878956169, -0.0343291573, 0.0304469988, -0.0486288518, -0.0719944164, 0.0871078894, 0.0954509079, 0.0714990422, 0.0863393769, -0.1069446132, 0.0985111967, -0.0853218958, -0.0398830399, 0.0888094902, 0.0589006245, 0.0802529454, -0.0192943290, 0.1236230731, -0.0636781454, -0.0868643820, -0.0265584886, 0.0666922778, -0.0457342975, -0.0039540664, -0.1153651178, -0.0762761533, -0.0581775345, 0.0577507354, 0.0394146703, -0.0135965878, -0.0451519080, -0.0304114390, 0.0592140146, 0.0010405629, 0.0192935634, 0.0548408702, -0.1204705387, -0.0044659474, 0.0833545402, -0.1186638549, 0.0045527304, -0.1210593954, -0.0669390410, -0.1016712561, 0.0939602777, 0.0582957119, 0.1077579558, -0.1032315642, -0.0650240034, 0.0609641671, -0.0193487294, -0.0301290620, 0.0645182803, 0.1035301611, -0.0555485971, -0.1227993742, -0.0358206555, -0.0145246908, 0.0650411174, 0.0828461051, 0.1026936471, -0.1213429719, -0.0991487801, 0.0259317663, 0.0783165842, -0.0893695503, 0.0346515961, 0.0788968131, 0.0175096262, 0.0431094952, 0.1172869131, -0.1202726141, -0.0142551530, -0.1133688763, -0.0797420666, 0.0532186702, -0.0458675325, 0.0122338273, 0.0525573939, 0.1000804603, 0.0820804089, -0.0555786379, 0.0456667989, -0.0826475248, 0.0993140861, -0.1151303425, -0.0504141264, 0.0767380968, 0.0182829835, 0.1152440012, 0.0281096529, 0.0063949539, -0.0959450006, -0.0610629357, -0.1146444604, -0.0596433543, -0.0273106769, 0.1040151492, -0.0893936083, 0.0818710923, -0.0472188294, 0.0873442441, -0.0874107704, -0.0675521046, 0.0317628197, -0.0158527084, 0.1170412675, 0.0166188311, -0.0354892127, 0.0927230045, -0.0143437590, -0.1198248342, -0.1132788137, -0.0517698154, 0.0763261020, 0.0328912437, -0.0995597020, 0.1182364449, -0.0007432628, -0.0232199766, -0.0780435354, 0.0749853030, -0.1033300087, -0.0928743109, -0.1220973730, -0.0163611416, -0.0059790858, -0.0267371703, -0.0872881860, -0.1203219891, -0.0028481784, -0.0189896412, -0.0113316523, -0.1031766087, -0.0308553632, 0.1125845611, -0.0977919251, -0.0695678517, 0.0799157768, 0.0877495110, -0.1040879041, -0.0782120004, 0.1105165482, 0.0290474426, 0.0632125288, 0.0090616392, -0.0707093552, 0.0585027374, -0.0809266716, -0.0075487946, -0.0333062373, -0.0459330529, -0.0476909578, 0.0084195007, 0.1090183929, -0.0986565724, -0.1107368916, 0.0468300469, -0.0285864323, 0.0176486615, -0.0456214622, 0.0216544941, 0.0910882279, 0.0770132095, -0.0193152651, 0.1236007512, 0.0601212867, 0.1234922186, -0.0670654103, -0.0469578691, 0.1111333743, -0.0162998885, 0.0904035866, 0.0917118415, -0.1022151560, 0.0936421901, -0.0007620115, -0.0094350483, 0.1119286120, -0.0970001593, 0.1109610274, -0.0527185127, -0.0282693747, -0.0459836274, 0.1123050153, 0.1113234013, -0.0256779119, 0.1197129264, 0.1203908920, -0.0213354696, 0.0693109259, 0.1119788885, 0.1215456799, -0.0863881707, 0.1207777262, -0.0710789338, -0.0423439294, 0.1156712174, -0.0890495181, -0.0230279583, -0.0256240238, 0.0933808684, -0.1162650511, 0.0902885646, -0.0547852293, 0.0957002714, 0.0571488515, -0.0553062297, 0.0607280210, -0.0758097768, -0.0601527244, 0.0730636343, 0.0115481699, 0.1095393375, -0.0175509490, -0.0142342029, -0.0835235938, -0.0351917893, 0.0341953635, 0.0510532483, 0.0040528546, -0.0978453904, -0.1000147909, 0.0076792683, -0.0488274992, -0.1031117961, 0.0476362891, 0.0757182464, 0.1129855961, -0.1137624756, -0.0036997842, -0.0063743377, -0.1243759394, 0.1214061081, 0.1174000949, -0.0782045349, 0.0638033226, 0.0966456831, 0.0257448778, 0.0364760384, -0.0471229106, 0.1063365787, 0.0802985355, -0.1153425202, -0.1165447533, -0.0644161329, -0.0194627494, -0.0631098151, 0.1124380827, -0.0223950744, 0.0109433988, 0.0320778079, 0.0996898338, -0.0272691213, -0.0446702577, -0.0207446180, 0.0115353931, 0.0244005993, -0.0548427254, 0.0052827597, -0.0761118755, 0.0901597366, 0.0194164030, -0.0949217752, 0.0527345873, -0.1173659712, 0.0252216812, -0.1222664043, -0.0656613559, -0.0167793501, -0.0695626438, 0.0456794053, 0.0588039234, 0.0085905343, 0.0745206699, -0.0428138375, 0.0129361805, -0.0367506221, 0.0606578849, 0.0053323517, -0.0541175231, -0.1174040958, 0.0320896544, 0.0945171788, -0.1117803827, 0.1062802523, 0.1023122296, -0.0162122827, 0.1077567339, -0.0218381565, -0.0560698397, -0.0197273251, 0.1163409501, 0.0099232364, -0.0835269168, -0.0799836069, -0.0188311879, -0.1166199371, 0.1168496832, 0.0490482487, -0.0646722764, -0.1155200526, 0.0839664042, -0.0773747042, 0.0739083737, -0.0356443115, -0.1103493422, -0.1037009880, 0.0070539550, 0.1083305776, -0.0029633048, -0.1091958657, -0.0131126111, -0.1098781452, 0.0261518061, -0.0086625293, 0.0942942500, -0.0152034461, -0.1074090675, 0.0633680820, 0.0891146883, 0.0424684584, 0.0363231562, 0.0297153927, -0.0204659346, -0.0838298649, -0.1024909839, 0.0540249348, -0.0154684605, -0.0852241814, -0.1044856980, 0.0933078974, 0.0643614605, -0.0903944671, 0.0579933673, 0.1073398292, -0.1058883518, 0.1185746789, 0.0798737630, 0.0883968696, -0.0555265248, 0.0689668283, -0.1045931131, 0.1045250148, 0.0412489064, 0.1108977944, -0.0695735961, 0.0373432860, 0.0924092531, -0.1100976765, -0.0249502305, -0.0733474642, 0.0819932520, -0.0505016297, 0.0947748646, -0.0516721420, 0.0972877145, 0.1131480336, 0.0813688487, -0.0652532652, -0.0627101064, 0.0169127267, -0.0989035144, 0.0071335663, 0.0870518833, -0.1174329817, 0.0281532463, 0.0764632449, 0.0361112021, -0.0616433024, -0.0108660357, -0.0914764851, -0.0478379279, 0.0582270660, 0.0898455530, -0.0350577533, -0.0000299773, -0.0882641152, 0.0006722884, 0.0042015677, 0.0092180669, 0.1032339707, 0.0710218921, 0.0371393226, -0.0604707859, -0.0473781452, 0.0966698527, 0.0632775351, -0.0439998247, 0.0467965566, -0.0962341949, -0.0107061053, 0.0647151992, -0.1078912765, 0.0666175783, -0.0742364749, 0.1050390527, 0.0929521024, -0.0813462511, -0.0498237833, 0.0804171339, 0.0393806547, -0.0223860666, 0.0554138087, 0.0071374001, 0.0045420760, 0.0216245614, -0.0360570103, 0.0506716445, -0.0309172552, -0.0016159327, -0.0585105233, 0.0517847240, -0.0294045210, 0.0047593727, -0.0593307242, -0.0750019997, -0.1040631682, 0.0762558579, -0.0823396295, 0.0440322720, -0.1069606245, -0.0308502056, 0.0670750514, -0.0174206179, -0.0004058454, -0.0496102273, 0.0953657925, 0.1115902811, 0.0363589451, 0.0646009743, 0.0854351521, 0.0916300341, 0.0871390924, 0.0936439261, -0.1092133299, -0.0366695896, -0.0160784926, 0.0244598761, 0.0969524309, 0.0357086882, 0.0246977694, 0.0826707333, -0.0345950350, 0.0122218654, 0.0552272648, 0.1058767885, -0.0150737250, -0.1037513539, 0.0578498952, 0.0542965271, 0.0172256064, 0.0244015008, -0.0149449678, 0.0210157465, 0.0434670597, -0.0288098566, -0.0945956409, -0.1053058654, 0.0293192770, 0.1103210002, -0.0974862725, -0.0022520383, 0.0634834170, 0.0748726875, -0.1174776852, 0.0303088147, 0.1057206914, 0.0572970621, -0.0297580864, -0.0635872930, -0.0318247378, 0.0453132205, 0.0347543918, -0.0980405435, 0.0185420029, 0.0407431796, 0.0170951188, 0.0618689805, -0.0832931697, -0.1009621099, -0.0275560878, 0.0786239132, -0.0799737424, -0.0198422577, 0.0945211947, 0.1162892729, -0.0849039406, 0.0664952323, 0.0862173662, -0.0421075895, 0.0451646484, 0.0938802809, 0.1110012978, 0.0117991073, -0.1041260585, -0.0941899419, 0.0097621661, -0.0491524562, -0.1197447255, -0.0003911227, -0.0937069431, -0.0399522670, 0.0901811570, -0.0889930055, -0.1210471094, -0.1084716842, -0.0035011978, -0.0538722500, -0.0257977527, 0.0865006447, -0.0571254864, 0.1062892079, -0.1205225587, -0.0445859507, -0.0734762624, -0.1146389395, -0.0424477533, -0.1092127413, -0.0258329418, -0.0097301370, -0.0006571358, 0.0879136547, -0.0872884318, -0.1218367741, 0.0620112754, -0.0210335553, -0.0925450698, -0.0861651227, 0.0227891095, 0.0508088060, -0.0824546963, -0.1062506586, 0.0997895077, -0.1023759842, -0.1229579896, 0.0496463589, -0.0229086075, 0.1153123453, 0.0898960903, 0.0355201587, 0.1056061909, -0.1044543013, 0.0211234596, 0.0258386452, 0.1126613542, 0.1122018918, 0.0793034658, -0.0197238363, 0.0836714134, -0.0593342334, 0.0986899137, -0.0568577163, 0.1179906800, 0.0346786343, -0.0363822654, 0.1086482182, 0.0671706423, -0.0274652354, 0.0220412891, -0.0153112616, 0.1132537648, 0.0118577741, 0.1119818911, 0.0713423714, -0.0787352473, 0.0673787519, 0.0302645899, 0.0506693237, 0.1062376797, -0.0876931399, -0.0882621631, 0.0420408100, 0.0469223261, 0.1227384433, -0.0284469780, 0.0673107952, -0.0296344236, 0.0364043452, 0.0633211359, 0.0975536034, 0.0464816652, -0.0600761138, -0.0313988663, 0.0073797866, 0.0932689458, 0.0125322919, 0.0226959772, 0.0037577713, -0.0334055498, -0.0149351778, 0.0063140215, 0.0477566421, 0.0934840143, -0.0351317525, 0.0055522281, 0.0770086497, 0.0122097302, -0.1055266485, 0.0139308348, 0.1249539703, -0.0450275838, 0.0659376234, -0.1107355207, 0.0594615415, -0.1168368682, 0.0011891313, -0.0589652136, 0.0189409275, 0.0721822381, -0.0937508941, 0.0308454167, 0.0459478833, 0.1124101356, 0.0484603494, 0.0321356431, 0.0059660515, 0.0311839916, 0.0486545265, 0.0505794138, -0.0053199292, 0.0615235418, 0.0351263732, -0.0627667159, 0.1081901565, 0.0016827070, 0.0797882378, 0.1033557951, -0.0975415707, 0.0654337108, -0.0097580804, 0.0166076217, -0.0750002190, 0.0357328355, 0.1179455966, 0.0692541376, -0.0474104322, -0.0227792729, -0.0196111221, -0.0604420342, 0.1110738814, 0.0117463768, 0.0886412933, 0.0261219535, 0.1059172302, 0.0570702329, 0.0417570211, 0.0326233357, 0.0674764439, -0.0168528594, -0.0821951404, 0.0545155555, 0.0817406401, 0.0345869698, 0.0185576789, -0.1214611083, 0.0965575278, 0.0057624965, -0.1072975174, -0.0278442316, -0.1150669158, -0.0417340584, -0.0154221514, -0.0870568827, 0.0005380352, -0.1268134862, 0.0081885289, 0.0939639136, 0.1024885178, 0.0759991407, 0.0620266125, -0.0708755776, -0.0059756492, -0.1202066094, 0.0408460312, -0.0984949619, 0.0805174187, 0.0659610182, 0.0911948755, 0.0236026719, 0.0101036802, 0.0446410775, -0.0022477021, 0.0166958179, 0.1107098609, -0.1067056507, 0.0043777921, -0.0212206468, -0.0872908086, -0.0509311222, -0.1232975200, 0.0462076813, -0.0780622959, 0.0628010929, -0.0452089682, 0.0227665976, -0.0002727110, 0.0278576855, 0.1223495901, -0.0033479158, -0.1158264503, -0.0671038404, -0.0694544390, 0.0414166935, -0.0132729001, 0.0772707611, 0.0121674202, 0.0167320035, -0.0280189868, -0.0657303929, 0.0013108795, 0.0168115366, 0.0267235208, -0.0078909267, -0.0231098328, 0.0458874665, -0.0146601219, -0.0829730183, 0.0353090018, -0.0236532073, 0.0178209394, -0.0567027889, -0.0791195482, 0.0388135351, -0.1042037830, -0.1008124575, -0.0426000394, -0.0196524337, -0.0640990660, 0.0147354575, 0.0008819179, 0.0155173959, -0.0876178965, 0.1252750158, 0.0281137563, -0.0455838814, 0.0773027241, 0.0780620649, 0.1043995917, -0.0027908315, 0.0024000467, -0.0585088916, -0.1088055298, 0.0300694946, 0.1136526391, -0.0003658851, 0.1238885894, -0.0406699106, 0.1138047427, 0.0561531410, 0.1197381318, 0.0909580439, 0.0975805745, -0.0836441964, -0.0155729903, 0.0501556955, 0.0065521616, -0.0271133222, 0.0969592184, 0.0738098323, -0.1046419814, -0.0681960583, -0.0786054879, -0.0702635646, -0.0008663349, -0.0714816898, 0.0583711863, -0.0264349747, 0.0910620540, -0.0111822952, -0.0964729115, -0.0985053927, -0.0302711762, 0.1246733218, -0.0679278821, -0.0717975721, 0.0389336720, 0.0872512609, 0.0980661437, -0.0836967155, -0.0674799979, -0.0226739254, 0.0236140080, -0.0565041937, -0.0464089811, 0.1179972738, 0.0849806443, -0.0090241833, 0.1111170128, -0.0205167215, 0.1124405712, 0.0125770001, -0.0885883048, 0.0963024423, -0.0544587225, 0.0788640007, -0.1052564532, 0.1088446006, 0.0261695981, -0.0343670025, 0.1014039293, -0.1190403253, 0.0715120882, 0.0929339826, -0.1283313334, 0.0114776120, 0.0646025985, -0.0454960801, -0.0608591065, -0.0959971845, 0.1143601537, -0.0286358502, 0.0603008866, 0.0748443604, -0.0387912579, 0.1382109374, 0.1143155321, 0.1162805110, -0.0000424996, 0.0386114754, 0.1051244289, 0.0102553694, -0.0021224872, -0.1085337996, 0.0135864336, -0.0646655113, 0.0964655131, 0.1471489072, 0.0035811176, -0.1169447377, -0.0129501373, 0.0224894602, -0.0874211416, -0.0994526520, -0.1057096794, -0.0789421648, -0.0435354859, 0.0015018177, -0.0365817696, 0.0193590820, -0.0385747626, 0.0407269523, 0.1107617766, -0.1140202954, -0.0062169172, -0.0370117761, -0.0863095447, -0.0934862942, -0.0447099619, -0.0249972995, 0.0918648317, 0.0620389283, -0.1029670760, 0.1219285950, -0.0509969629, 0.0241613556, 0.0445278138, -0.0787352026, -0.1074506342, 0.0090377210, -0.0623514131, 0.0752637535, -0.0816534385, 0.0570122413, -0.0578562617, -0.0504629314, -0.0672728866, -0.1035883948, 0.1184657887, 0.1067317873, 0.0217085052, -0.0436146781, -0.0003125975, -0.0313198827, -0.0515744947, -0.0135041438, 0.1013440415, 0.0201710016, 0.0985107645, -0.0828644484, 0.1088432744, -0.0420813523, 0.0929003581, -0.0423790552, -0.0925606117, -0.1072997600, -0.0958158523, 0.0434926376, 0.0530894808, -0.1092758030, -0.0867394507, -0.0313242748, 0.0067644096, 0.1046372056, 0.0675983503, 0.1196516901, 0.0324528813, -0.0443180352, 0.1237417758, 0.0942106321, -0.0398660898, 0.0707060099, -0.0505257286, 0.1429569125, 0.0091330260, 0.0855895877, 0.0459951423, 0.0953740105, -0.0318171680, -0.1127285138, 0.0922686383, -0.0555245355, -0.0504593924, -0.0745607689, 0.0698860958, -0.1177418530, 0.0162823927, 0.0020717897, 0.0534564890, 0.0443875194, -0.1298019588, -0.0178414602, -0.0365122035, -0.0472913086, 0.1085889265, -0.1105530560, 0.0499650054, 0.0109552043, -0.0943506658, 0.0342197493, -0.0824592710, 0.0768094212, -0.0333166942, 0.1041125506, 0.0510098524, 0.0786200166, 0.0434997268, 0.0639778003, 0.0567720979, 0.1317380369, 0.0998536944, -0.0726267025, 0.0460971110, -0.0027151499, -0.0181979835, 0.0841284990, 0.0539670661, 0.0148060992, -0.0754245818, -0.0531243905, 0.0162855070, -0.0799142942, -0.0433379784, 0.0829937607, -0.0542406924, -0.0880577490, 0.1367657781, -0.0341203287, 0.0924250484, -0.1061792299, 0.0829951018, 0.0012337530, 0.0976648927, 0.0517457761, -0.0583262853, 0.0871191025, 0.0599807464, 0.0926404819, 0.0907010287, -0.0256630238, -0.0928017572, 0.1038743705, 0.0685692802, 0.1204338297, 0.0776973963, -0.0550943390, 0.1324931681, -0.1188437715, -0.0148878843, 0.0165710431, 0.0612413362, 0.0417679921, -0.0523161665, 0.0215702113, 0.0605047680, -0.0625797361, 0.0801031366, 0.1140207797, -0.0779633373, -0.0461629480, 0.1068652198, 0.0956843421, 0.0780501068, 0.0481513254, 0.0866880491, -0.0670483261, -0.0140996529, -0.0377064943, -0.0820963159, -0.0645829067, -0.0662434176, -0.0449160971, 0.1068118066, -0.0447525829, -0.1176400855, -0.0358316936, 0.1226796731, 0.0335550904, -0.1127223223, 0.0213820338, -0.1058402658, 0.0981726423, -0.0437850393, 0.0148616731, -0.0878987536, 0.1273308545, -0.0417240039, -0.1180206686, -0.0567276292, -0.0670536682, 0.0313798934, -0.1300823838, 0.0224465858, 0.0232009441, 0.0642184615, 0.0679803714, 0.0514454767, 0.0495842919, 0.0307605248, -0.0517800450, 0.0067348448, 0.0273232106, -0.0756514668, -0.0359217003, 0.0094063878, -0.0276194587, 0.1368450075, -0.0828074589, 0.0592914931, 0.0827076584, -0.0314489044, 0.0354709327, -0.0522154346, 0.0138699980, 0.0620215684, 0.0844357759, -0.0139657063, 0.0380546302, 0.1021730900, 0.1101267338, -0.0180803034, -0.0162498020, 0.0045905188, 0.1209804043, 0.0675153807, 0.1678742915, 0.0318534002, 0.0936171114, -0.0290934704, -0.1090597138, -0.1086315438, 0.0594792925, -0.0586844273, 0.0705956668, -0.0712029934, -0.0004969089, 0.0036204555, -0.0695680678, -0.0197582711, 0.0005370433, 0.1262086183, -0.0163735561, 0.0101519944, -0.0501286015, -0.0600880571, 0.0761373714, 0.0445095859, -0.0577382818, 0.1235801950, 0.0675123185, -0.1474649459, -0.0404653773, 0.0146606136, -0.0047914986, -0.0843935460, 0.1195164919, 0.0128494017, 0.0830486491, -0.0504442751, -0.0156878959, 0.0049514892, -0.1096258089, -0.0935139507, -0.1222085059, -0.0375065058, -0.1035914421, 0.0239371918, 0.0948985517, -0.0540368855, 0.0926131457, -0.0798558816, -0.0766477659, -0.0842118114, 0.0287013110, -0.0300427210, -0.0772655234, 0.0337778740, -0.0158984754, -0.0512623861, -0.0514373854, -0.0892527103, 0.0743857771, -0.0560941435, -0.0319235735, -0.0111568877, -0.0060858354, 0.1691605747, 0.0064985268, -0.0448544174, -0.0904296860, 0.0870332345, 0.0889167413, 0.1667869836, 0.1203758121, 0.0247968789, 0.0916389152, 0.0382105708, -0.0775434747, 0.0410049558, 0.0815853402, 0.0109808883, 0.0014146082, 0.0691017807, -0.0842144340, 0.0615408458, -0.0888437256, 0.0992998108, -0.0265412610, 0.0236821435, -0.0401580557, -0.0628203750, 0.1157919168, 0.0041927136, -0.0644417256, 0.0302304234, 0.0264577866, 0.0686971918, -0.0318502486, 0.0815476552, 0.0925526917, 0.0930370614, -0.0456787981, 0.0341211632, 0.0668117702, -0.0041583939, 0.0214294903, -0.0877329260, -0.0388926342, 0.0923091546, -0.0839163661, 0.0324940830, 0.0596388020, -0.1307863742, -0.0072155180, -0.0118778646, -0.0880463272, -0.0077935155, -0.0572294816, 0.0938693732, 0.0778029487, 0.0456572212, -0.0956397057, -0.1197925508, 0.0768242776, -0.1370780915, 0.0184313338, 0.0596366860, -0.0516135879, 0.0685229823, -0.0709647909, -0.0328519158, -0.0948737115, 0.0907516479, 0.0907646492, -0.0244236346, 0.1004617512, 0.0094721280, -0.0722840205, 0.1028564647, 0.0292700995, -0.0541090146, 0.0573323332, -0.0904137790, -0.0035156820, -0.0647047311, 0.1436801851, -0.0532315522, 0.0247261021, 0.0662778616, 0.0595335364, -0.0482389107, -0.0683758184, -0.0284837820, 0.0474923290, 0.0226031393, -0.0734025016, -0.0055045537, 0.0471763052, 0.0602494925, 0.0291349757, -0.0618732385, -0.0552186668, -0.0644449145, -0.0974360704, 0.1467684656, -0.1537458748, -0.0276091192, 0.0204460640, 0.0952710882, -0.0720003247, 0.0811239928, 0.0598298907, 0.0150456382, -0.0058687143, 0.0057580085, -0.0045935698, -0.0563979819, 0.0345708951, 0.0128886700, 0.0349340960, -0.0070477813, -0.1212232485, 0.0495779403, 0.1250015944, 0.0124295177, 0.0462934896, 0.0936237574, -0.0633267462, -0.0446597673, -0.1121201441, 0.0544288717, 0.0435209759, -0.1051182747, -0.0784180313, -0.0347622558, 0.0143402386, 0.0423331596, -0.0642535985, 0.0420928411, -0.0997176617, 0.1625016481, -0.1227883697, -0.0920310020, -0.0188833363, 0.0823664889, 0.1046999544, 0.0291580260, 0.1312502623, 0.0855487883, 0.1128213033, 0.1007797942, 0.1140329018, -0.1088654622, 0.0482155941, -0.0930392668, -0.1236619353, 0.0680579245, -0.0894089639, -0.0026313295, 0.0344334543, -0.1051817536, 0.0454520360, 0.0017464161, -0.0601540580, -0.0310659409, -0.0893882215, 0.0970722586, 0.1209159791, 0.0247990713, 0.0293563604, 0.0453484431, -0.0996859968, 0.0079753101, -0.0316896439, -0.1130886674, -0.1207746863, -0.0867508277, 0.0511695519, 0.0690084770, 0.0115641914, -0.0716918707, -0.0823286176, -0.0435286872, 0.0852504671, 0.0834677592, -0.0365325920, -0.0789729282, -0.1025336385, -0.1007173359, -0.0757481456, -0.0996747538, -0.0115443766, -0.0217593573, -0.1187278703, 0.0298532546, 0.0445137396, -0.0815820917, 0.1227207184, -0.0222284608, 0.0277694650, 0.0806998461, 0.0367681384, 0.1226609349, -0.1183554009, -0.1233997270, 0.1123464704, -0.0001486643, -0.0640601367, -0.0446514152, 0.0724991038, 0.0320410840, -0.0451563597, -0.0153746605, -0.0362845361, 0.0430013537, -0.0120105436, -0.0262205694, 0.0485577881, -0.0296187513, -0.0200442858, 0.0236364715, 0.0362090431, -0.0962873623, 0.0808450952, -0.0672677159, 0.0460379347, 0.0632252395, 0.0271754563, 0.1247244030, -0.0325941741, 0.0382752605, 0.0368789136, -0.1240662336, 0.0574447364, 0.0172402561, 0.0895940959, -0.0257618129, 0.1166840717, 0.0711820424, -0.0095156813, 0.1059202850, -0.0686084330, -0.0267837048, 0.1216489971, 0.1079279482, 0.0976926461, -0.1188385189, 0.0569587350, -0.0045749824, -0.0761809051, -0.0784670636, 0.0506614000, 0.0313244611, -0.0334697552, -0.0649497211, -0.1072960645, -0.0922755152, -0.0920107439, 0.0122252703, -0.0814389288, -0.0955258310, -0.0394111089, 0.1078348085, -0.0285118483, -0.0265394058, 0.0853167400, -0.0165448785, -0.0251022279, 0.0790565461, -0.1021719277, 0.0759206414, -0.1066572666, 0.0724258646, 0.0946719125, 0.0433455408, -0.0232091993, 0.0409886241, -0.0840026513, 0.0007614791, 0.0381176621, 0.0368874036, 0.0579902232, 0.0765780285, 0.0786391646, 0.0270316005, 0.1090014279, 0.0018445849, -0.0125561953, 0.0194837414, -0.0113311708, -0.0343183354, -0.0440852642, 0.0011851321, -0.0932269394, -0.1171482503, -0.1021713614, 0.0387462080, 0.1221542358, 0.0197109580, -0.0691583827, 0.1247781217, 0.0873983353, -0.1065751240, 0.0884112418, 0.0703548044, -0.0693546534, -0.0481091924, -0.0159741249, -0.0004150849, -0.0920949653, 0.1023436710, 0.0425753258, 0.0166005399, -0.0845082402, 0.0218302440, 0.0196579080, -0.0204616487, -0.1233564019, -0.0599991977, -0.0146392286, -0.0967770964, -0.0404814221, 0.0479926504, 0.1176752076, 0.0637443513, -0.0372233540, 0.1136382967, 0.0734852254, -0.0135420263, 0.0899159610, -0.0933787674, 0.0130270794, 0.0721129179, 0.1133884043, -0.1123433113, -0.0067444588, 0.0252245348, -0.0270225219, 0.0093989400, 0.0484475195, -0.1140192151, -0.0225129724, -0.0448498130, -0.0765699446, 0.0832965747, 0.0916143432, -0.1244907752, -0.0561084636, 0.0371558964, -0.0803717673, 0.1229848117, -0.1186532155, 0.0563683808, 0.0009779427, -0.0764133334, -0.1182926297, 0.1138856187, 0.0057278872, -0.1069946885, 0.0447619446, -0.0399424024, 0.0471098684, -0.1013383046, -0.0114129363, 0.0827899501, -0.1246774793, -0.0266352892, -0.1092615426, 0.0145578561, -0.0910036340, 0.1037808433, -0.0721377730, 0.0160837471, -0.0716221035, -0.0586262643, 0.0077807587, 0.0461050384, -0.0353880823, -0.0396296084, -0.1100205109, 0.0107783517, 0.0207284316, 0.0546468459, 0.0118404627, -0.0116391080, -0.0277244318, -0.0371767543, -0.0022013695, 0.0058575566, 0.0688373595, -0.0675419271, -0.1223931015, -0.1237471700, -0.0605268776, -0.0248283651, -0.1029190868, -0.0120224925, -0.1050399467, 0.0509494580, 0.0641026497, -0.0302926600, -0.0135683641, -0.0590515733, 0.0735294446, -0.0419290215, -0.0780606866, 0.0027649403, 0.0737630799, -0.0187019706, -0.0064731538, 0.1072416753, -0.0853831172, -0.0243839864, -0.0677224025, 0.1163333282, -0.0343138650, -0.0871967748, 0.1032736301, -0.0528689288, -0.0064642229, -0.0459867157, 0.0302085504, 0.0628853738, -0.1100598425, 0.0109102689, 0.1129420921, -0.1039089561, -0.0034963235, -0.0419714823, -0.0539456680, -0.0394949466, 0.0275421143, 0.0323828198, -0.1033231914, -0.0233213678, -0.0707904473, 0.0441867262, 0.0580869466, 0.0372794792, 0.0469434708, 0.0287409481, 0.0199597906, 0.1207818314, -0.0468510091, -0.0485226624, 0.0192829911, -0.0026403908, 0.0746976435, -0.0587166585, 0.1030976921, -0.0636917725, 0.0213096421, 0.0221652407, 0.0529220104, 0.0703356192, 0.0445658565, -0.0475771241, 0.1195181087, -0.0499155745, 0.0279943962, 0.1139154732, -0.0352167152, 0.0687758997, 0.0047675436, 0.0739852935, 0.0254692473, -0.0336788259, 0.1130450740, 0.0259283781, -0.0892921761, 0.0529868230, 0.0215729047, -0.0473681614, -0.1078209057, 0.0519923232, 0.1045881659, 0.0285448451, -0.1087670922, -0.0808701590, 0.1261505932, -0.1288468093, -0.1131134480, -0.0860574692, 0.0720052421, 0.1216419786, -0.0321681872, 0.1356593370, -0.0550040901, -0.0514896959, 0.1014705449, 0.0825018734, -0.0230596904, -0.0840896517, 0.0397238508, 0.0984425843, 0.0288010258, -0.0072783153, -0.1148409769, -0.0824369788, -0.0029118792, 0.0637065470, 0.0210921224, 0.0362819619, -0.0814549476, -0.0208378825, -0.0993276536, 0.0796637163, -0.0951736420, 0.0019905374, 0.0275368374, -0.0508775115, 0.0634456202, 0.0177441910, -0.0442342907, 0.0737776160, 0.0706596076, 0.0789186358, 0.0040967027, 0.0562297180, -0.0783372894, 0.0121608740, -0.0018819930, -0.0510855056, -0.0366530195, 0.1132808402, 0.0381587818, 0.0762448385, 0.0196745116, 0.0518870652, 0.0204430427, 0.0382206030, 0.0968698934, -0.0487911254, 0.0371753611, 0.0280556288, 0.1189786345, 0.0381414928, -0.0319332629, 0.0968410522, 0.0392728299, -0.0927979872, -0.0658945069, -0.0091558034, -0.0375909582, -0.0713630915, -0.1056373343, 0.0600283444, -0.0824618489, 0.0614577644, 0.0299877413, 0.0458984748, -0.0889705345, 0.0653255060, 0.1063612178, -0.1194262356, -0.1172210649, 0.0797344148, -0.0944237560, 0.0108099161, -0.1054981202, 0.1274754554, -0.0921766087, -0.0462777242, 0.0862815380, 0.0835494325, -0.1436851323, -0.0920765847, -0.0598372035, 0.0660705417, 0.1242627054, 0.0594278127, 0.0166580435, -0.0667709559, -0.0416917391, 0.1044322848, -0.0450813919, 0.1152925640, -0.0380266234, 0.0530727394, 0.0658111796, -0.1083979830, -0.1113998741, 0.0266125835, -0.0003935405, 0.0705410689, -0.0506523363, -0.0299772508, -0.0171015859, -0.0743676126, -0.0360976569, -0.0506872311, 0.1276960820, -0.0809381530, -0.0811930746, 0.0899158791, -0.0681292936, -0.0929361880, 0.1263152212, -0.0598355085, 0.0595286638, -0.0749750659, 0.1234419644, -0.0689103454, -0.0117082773, -0.0119618056, -0.0318479724, 0.0592430048, 0.0476370119, 0.0615302958, 0.0030750216, 0.0207629260, -0.0718278959, 0.0380517021, 0.0535652898, -0.0527648740, -0.0419558324, -0.0845911875, 0.0207998604, -0.0497683994, 0.1150323004, -0.0898224115, -0.1254049242, -0.0209379494, -0.0475899093, -0.0333090164, -0.0196741298, -0.0494135208, 0.0691585094, -0.0966359749, 0.0640498996, 0.0609521158, 0.0858297721, -0.1134432107, 0.0168767236, 0.0910747126, 0.1316700876, 0.1061323434, 0.1409822255, 0.0911526307, 0.0962759107, -0.0376375727, 0.0533946306, 0.0227171313, 0.0655871630, -0.0244145505, -0.0754901320, -0.0140436525, -0.0271212105, 0.1138086095, 0.0863809437, 0.1194497496, -0.1035307646, -0.0295177493, 0.0387445427, 0.0873889253, 0.0246207174, 0.0075213541, -0.0151954377, -0.0315815099, -0.0798355564, -0.0261947922, -0.0392369740, -0.0560406148, -0.0682190359, 0.1464597285, 0.1001974940, 0.1023578644, -0.0774239078, -0.0074388068, -0.1106496453, 0.0163232386, 0.0620950758, 0.1011718214, -0.0085317194, -0.0218189955, -0.0153863430, 0.0934212953, -0.0989847630, 0.0995668918, -0.0132396836, 0.1079295650, -0.0237046480, 0.0084497212, -0.0157045126, 0.0441120565, 0.0950826108, 0.0817537457, 0.0589671768, -0.0481574796, 0.0906580091, -0.0712618828, -0.0334176868, 0.0180723239, -0.0804985166, -0.1182752848, -0.0269099772, 0.0117431879, -0.0146905342, -0.0381829143, 0.1089896262, 0.0673520267, 0.0302263480, 0.0281294882, -0.0771160126, 0.0691068918, -0.0962055624, 0.0057353973, -0.0166422799, 0.0600092001, 0.0258885808, 0.0160355866, 0.0069080885, 0.1164855585, 0.1098087057, -0.0353166237, 0.0602756366, -0.0692465529, -0.0089632636, 0.1053332090, 0.0293116216, -0.1231750697, -0.0445193462, -0.0729399323, 0.1242640615, 0.0807695314, -0.0780365169, -0.0502599627, 0.1219949499, -0.0465227067, -0.0235615857, -0.0376835614, -0.0056280154, 0.0715065971, -0.0329235792, 0.0628049374, 0.0890785977, 0.0607913882, 0.0855160952, -0.0895960629, -0.0539542139, 0.0825624242, 0.0515577123, 0.0787148476, 0.0506412387, 0.0794442594, -0.1106327772, -0.0730732158, -0.1062106192, -0.0087564075, 0.0392486565, -0.0494960397, 0.1059716046, -0.1185647398, 0.0913469791, 0.1094159558, -0.1174034178, -0.0893477499, 0.1103268713, 0.0735378861, 0.0768225938, -0.0755833760, -0.0944962800, 0.0185279250, -0.1127904877, -0.0860070214, 0.0792190656, -0.0053751301, 0.0672048181, -0.0042871833, -0.0754950866, 0.0961831510, -0.0526987724, 0.0625789389, 0.0224900842, -0.0001797417, -0.0277842134, -0.0249989275, -0.0505021028, -0.0600156225, 0.0005665557, -0.0253308602, 0.0907698572, 0.0199412610, -0.0618809462, -0.0340872034, 0.0708549246, -0.0992141813, 0.0065750573, -0.0882684514, 0.0373007990, -0.1142317802, 0.1155111790, 0.0209243633, 0.0775625929, -0.0264880210, 0.0262773838, 0.1229258254, 0.1237847731, -0.0666768551, 0.0821907222, -0.0237073544, -0.0160654411, 0.0921446085, -0.0587563664, -0.0427093841, 0.0578539670, -0.0866090357, -0.0798623413, -0.0904152244, -0.0888747275, 0.0492206924, 0.0125056887, -0.1152287200, -0.0671554878, -0.0085016685, 0.0958235264, 0.0658516884, 0.0708279982, 0.0151039567, -0.0070095262, -0.0826677009, -0.0169467535, 0.0732753351, -0.0063945376, -0.0774560422, 0.0047284304, 0.0231758803, -0.0360957980, -0.0197313149, 0.0648708344, -0.0910683572, -0.0827000439, -0.0059015742, 0.0747557580, 0.0888217837, -0.0710865483, 0.1188326329, -0.0391939282, 0.0560422614, -0.0734227598, 0.0117906313, -0.0510392562, -0.0756423846, 0.0199832693, 0.0432322137, 0.0604314618, -0.1113599837, 0.0918445140, 0.0034569944, 0.0942663997, -0.1038452759, 0.0831143856, 0.0915430784, 0.0051885955, 0.0752299055, -0.0713624582, 0.0382175855, -0.0696614236, -0.0772465989, -0.1107453257, -0.0265592523, -0.1219813526, -0.0916832760, -0.0760103464, 0.1134266555, 0.0121307075, 0.0166246071, 0.0748151466, -0.0219582319, -0.0566365533, -0.0875616893, 0.0929451659, -0.0805130750, -0.0484888442, 0.0507617109, 0.0601821505, 0.0266309157, -0.0229818076, 0.0686437190, -0.0114929713, -0.1026651338, -0.0960195214, -0.0769998580, 0.0144816879, 0.0206270814, 0.0432056673, -0.0645894706, 0.0457031578, -0.0309168529, 0.0458899736, 0.0474244691, -0.1134483963, -0.0981677696, -0.0119407177, 0.0354431830, -0.0419328213, -0.0032765269, 0.0164582245, -0.0255603548, -0.0922920033, 0.0958849341, -0.0160113536, -0.0274994504, 0.0623170100, -0.0450683869, -0.1171737388, 0.0606010929, -0.0471762270, 0.0918863416, 0.0800029635, 0.0089225853, -0.0076800263, -0.0207664091, -0.0830986872, -0.1017660648, -0.1052427664, -0.1058976278, 0.0874075815, -0.0529152155, 0.1000640914, 0.0164645668, 0.0036850525, 0.0360414386, -0.0618649013, -0.0475849211, -0.0661277026, -0.0164181422, -0.0015798920, 0.0947274566, 0.0271815900, 0.1107037216, 0.0465358011, 0.0399612002, -0.1108905151, 0.0563798212, 0.0301989578, -0.1168483868, -0.1055118218, -0.0909265727, 0.0526365079, 0.0371866710, 0.1453620195, -0.0817752853, 0.0454243645, 0.0853175819, 0.0937193781, -0.0750878900, -0.0804741904, -0.1045839936, -0.0404391065, 0.1628330350, -0.0643914714, 0.1242492422, -0.0084245745, 0.0310273394, -0.0875813887, 0.0822527260, 0.0541419871, -0.0335934870, -0.1049202904, -0.0688736737, 0.1026560888, -0.0312282853, 0.0342029184, -0.1060129330, 0.1258817315, 0.0680704266, 0.1075468361, 0.0603259131, 0.0373264216, 0.1075211689, 0.0357976854, 0.0007341577, 0.0952223390, 0.0572826788, 0.0385664068, 0.0420527421, 0.0478281938, -0.0476420894, -0.0815130249, 0.1414018124, 0.1229081154, 0.1072394401, 0.1190880835, -0.0448168367, -0.0235848799, 0.0179970190, 0.0591654219, 0.0062112696, -0.0564136542, 0.1133671924, -0.0679953098, 0.0775909275, -0.0335821621, 0.0456128754, -0.0214055590, 0.0323444977, 0.1525647342, -0.0667956471, -0.0475255921, 0.1298147738, -0.0994015634, 0.0307644084, -0.0192780253, -0.0820053965, -0.0740054846, -0.0509340502, 0.0085976999, 0.1251526326, -0.0278756861, 0.0999675244, 0.0152899893, 0.1085344478, -0.0827717334, -0.0318919420, 0.1013315320, 0.1049629226, 0.0777953714, 0.0492797904, -0.0261001270, 0.0136162676, -0.0912202001, -0.0427064598, -0.0811761990, 0.0802022815, 0.0153766945, -0.0696853325, 0.0973330513, -0.0149859926, -0.0608952828, 0.1110195890, -0.0662509724, -0.0883728117, 0.1009613574, 0.1117449477, -0.0320732109, -0.0245384276, -0.0941859409, -0.0926687196, 0.1109127924, -0.0449140482, 0.0935283303, 0.0995144621, 0.1178947911, -0.0567374192, 0.1233655140, -0.0218597967, -0.0636250824, -0.0691630393, -0.0438456163, 0.0795124099, 0.0405063741, -0.0253460389, -0.0388606973, -0.0185092632, 0.0885591134, -0.0316650905, 0.0833506957, 0.1293760836, -0.0487996824, 0.0259644892, 0.0917736068, 0.1055618078, -0.0665763319, 0.0743094236, 0.1021959409, 0.0909494311, -0.1274760813, 0.0988648683, -0.1220415235, -0.1243590340, 0.1218017116, 0.0659276620, 0.1053114533, -0.1454072893, 0.0214274228, 0.0861475617, -0.0180771127, -0.0363344625, 0.0985913649, -0.0236833245, 0.1263065338, -0.0784347430, 0.0477913097, -0.0347764343, 0.0818215683, 0.0475053824, 0.0449253134, -0.0911810026, -0.1197616011, -0.0965087712, -0.1261484325, 0.1475457251, 0.0156896003, 0.0454678200, -0.0560650416, -0.0757141858, 0.0663479790, 0.1048464626, 0.0144104064, -0.0291282795, -0.0738700107, -0.1153593734, -0.0346429162, -0.0945660099, 0.0372392461, -0.1226434112, 0.1040505692, -0.0852084830, 0.0234242138, -0.0526286587, 0.0480912030, -0.0446122102, 0.0960143805, -0.0277054589, -0.1037591919, -0.0629861578, -0.0380185880, -0.0304776896, -0.0466245674, 0.0642607138, -0.0282431282, -0.0021307361, -0.0014458079, 0.0309446342, 0.0776880011, 0.0367113315, -0.0155674461, -0.0977095440, 0.0014359485, 0.0281272456, -0.0025626484, 0.0922383443, 0.0995728076, 0.0906772986, -0.0604523942, 0.1268652976, -0.1009168774, -0.0201058500, 0.0657062009, -0.0887238234, 0.0397682786, 0.0723757297, -0.0375691839, -0.0885538384, -0.0948965028, -0.0735663623, -0.0541413724, -0.0905979425, -0.0002764795, -0.0930363983, -0.0608270429, -0.0253876764, 0.0165926330, 0.0924857333, -0.0520105287, 0.0142969564, -0.0103996843, 0.1238964871, 0.0521614440, -0.0349053629, 0.0671304613, 0.1457995176, 0.0438754000, 0.1336422563, 0.0877960473, -0.0697961748, 0.0338112675, -0.0894725248, -0.0332936421, 0.0259299912, -0.0444485433, -0.1033049822, 0.0712683499, 0.0894189999, -0.0053273514, -0.0274599977, 0.0728966147, -0.0361448564, -0.0749124214, -0.0469801202, -0.0341123194, -0.0557789952, -0.0136862397, 0.1112249717, -0.1073279157, -0.0272757411, -0.1004858613, -0.0967771038, 0.1028560102, 0.0740941688, 0.0333044343, 0.1028592363, 0.0735859498, 0.0304776877, 0.0473470017, -0.0600717664, -0.0971814767, -0.0580772720, -0.0534594692, 0.0656157434, -0.1793082803, 0.1272013634, -0.0528580509, 0.0963659361, -0.0072429325, 0.1215745658, -0.0510285459, -0.0885887221, 0.0564552918, 0.1327383369, -0.0905042365, 0.0125152189, -0.1169215590, -0.0804638937, -0.0446247607, -0.0490493998, -0.1040563062, -0.0596300662, 0.0961239412, 0.0303669628, -0.0611562058, 0.0223241821, -0.0176415741, 0.0226733349, 0.0149148330, -0.0125056775, 0.0308852512, 0.1291357577, 0.0984593332, 0.1443113983, -0.0596530139, -0.0735026374, -0.1354471445, 0.1258700043, -0.0428829826, -0.0972562730, -0.0572204478, 0.0721211061, 0.0037083705, -0.0161499847, 0.1875958741, -0.0304279365, 0.0411096253, -0.0879305974, 0.0089166323, -0.0607765205, 0.0192255098, 0.1934132427, 0.0554001108, -0.0470120423, -0.0187110305, 0.0332178958, 0.0387720279, 0.0934908316, 0.0581227839, 0.0111550903, -0.0945175290, 0.1202691048, 0.0644881800, 0.0177637041, -0.0211429913, 0.0232680943, -0.0361524224, 0.0441241264, 0.0717390105, 0.1711672246, 0.0675781816, 0.0805417672, 0.0089368587, -0.0034819748, -0.0641805753, 0.0846718475, -0.0942735672, -0.1122894883, -0.0068972013, -0.0479915366, 0.0386505798, -0.0430061668, -0.0868305936, -0.1190557554, -0.1272431761, -0.1612566411, -0.1312418431, 0.0099651339, 0.1974222809, -0.0829379857, 0.0878040045, 0.0300993323, 0.0894815698, -0.0952840596, -0.0900222808, 0.0027358553, 0.0181754269, -0.0417522416, -0.1145092249, 0.0661665425, 0.0147383045, 0.0065086423, 0.0908465907, -0.0644277483, 0.0342411622, -0.0364155471, 0.0964675620, -0.1209919527, -0.1124298349, 0.0757159516, 0.1734358668, -0.0511420146, -0.0782443881, 0.1213613525, 0.0761829689, 0.0763648078, -0.1208490655, 0.0108258044, 0.1273453683, 0.0247528814, -0.1044645831, -0.0215882994, -0.0732661039, 0.0112371109, 0.0804554448, 0.1041480303, -0.0421809070, -0.0287354831, -0.0205184538, -0.0006074621, 0.0341048911, -0.0644341782, -0.0439295545, 0.1144117564, 0.0871032998, 0.0750410780, 0.1881464571, 0.0130642997, 0.1293104738, 0.0442100801, 0.0749061108, 0.0484673828, 0.1119579524, 0.0501446314, 0.0258088801, -0.0382770710, 0.1353898495, 0.0615765266, 0.0453891307, 0.0053477380, -0.0392111614, 0.0129124289, -0.0073367208, -0.0610141084, -0.0101664243, -0.1519871056, 0.0470550507, 0.0281531960, -0.0249172412, -0.0402017981, 0.0792228878, 0.1763735414, -0.1313501149, -0.0049450756, -0.0946232080, -0.1065899283, 0.1070233434, 0.1050305590, -0.1255273521, -0.0401747786, 0.1517674178, 0.0295174532, 0.1761580110, -0.0463553034, 0.0761165023, 0.0895691961, -0.1599728465, 0.0216731243, 0.1007698700, 0.0619485937, 0.0164971128, 0.0246299580, 0.0881827399, -0.0197576676, -0.1059532613, 0.0011806951, -0.0445418358, 0.0011349041, 0.1628847569, -0.0209629666, -0.0944098309, -0.1202529073, 0.0903515443, -0.1157692149, 0.1019429937, 0.0079931328, 0.0339450128, 0.0297911465, 0.0202967338, -0.0110626845, 0.0806809738, -0.0373298526, -0.0202488825, -0.0675894767, 0.0564155392, 0.0586891547, -0.0405804776, 0.0528969355, 0.0619163401, -0.0245685652, 0.0274630189, 0.0184732117, 0.0509036705, 0.0784485936, -0.0143527901, 0.0937181488, 0.0841720700, -0.0614236034, 0.0671939626, 0.0952673629, 0.0083053568, -0.0022778872, -0.0366391204, 0.0579505600, -0.0684634894, -0.0709864795, -0.0153098628, -0.0522101559, -0.0421981774, -0.0196185224, -0.0683703944, -0.1085037142, -0.0522557199, 0.0398157239, 0.1151329875, -0.0484954603, 0.0810860768, -0.0578963198, -0.0690579861, 0.1362047642, -0.0150029948, 0.1228279173, 0.0200292375, -0.0755806714, -0.0348900333, -0.0401591212, -0.0719182119, 0.0286365524, 0.0337063335, -0.0323686711, -0.0771376044, 0.0673408508, 0.1051080078, 0.0817003921, -0.0415392965, -0.0311202239, -0.0236669984, 0.0759549290, -0.0190056339, 0.1119429320, -0.0384026915, 0.0419001691, -0.1004980132, -0.1171120852, -0.0090788463, 0.0563360788, -0.0942746177, 0.0360050462, 0.1121790111, -0.0146331303, -0.0513867214, 0.0859036818, 0.0253577884, -0.1099563986, -0.1010516807, -0.0101772090, -0.0007137682, 0.0780554861, -0.0440213643, 0.0087475143, 0.0655433908, 0.0084151262, -0.0030581818, -0.0485100634, -0.0240754839, -0.0599821955, -0.0975119546, 0.0189023595, -0.0232401006, 0.0668031052, -0.0698973462, 0.1143465042, 0.0400796123, -0.0749770552, 0.0027179096, -0.0472575128, -0.0449883342, -0.0432738811, -0.0382183045, -0.0414643623, 0.0707136914, -0.1101773530, 0.0510771647, 0.1086929888, 0.0184089206, 0.1231564879, -0.0278224126, -0.0051955506, -0.0292784087, 0.0431005992, -0.0179789569, 0.0028488014, -0.0591369420, 0.0713547543, -0.0787672848, 0.1439121068, -0.1187095121, -0.0829391703, -0.0450424477, 0.0924527273, -0.0778059512, -0.0431811921, -0.0014617593, -0.0866316184, 0.0290662535, 0.0257736314, -0.0064910841, -0.1114728600, 0.0464900993, 0.0224137008, 0.0955283642, 0.1017003357, 0.0606804527, -0.1081362143, -0.0488017872, -0.1062727347, -0.1074804366, 0.0756277740, -0.0675424859, -0.0835734308, -0.0379264243, -0.0987690091, -0.0094178393, -0.0049390434, -0.0920546204, -0.0102118989, 0.1012812406, 0.0047589894, 0.0559633039, 0.0159343909, -0.0685008839, -0.0475228243, 0.1219996810, 0.0998200625, -0.0265709348, 0.0648283809, -0.0877138451, -0.1073672622, 0.0769654289, -0.1164206192, 0.0148655288, 0.1062447727, 0.1046437100, -0.0085491491, 0.0973316878, -0.0861465260, -0.0139967771, 0.1261801571, -0.0133031411, 0.0029207859, 0.1064550281, 0.0456375666, 0.0649853647, -0.0578441508, 0.1156336665, 0.0484003462, -0.0321582109, 0.0127592757, 0.0050940192, -0.0552668273, 0.0158742741, -0.1111706197, 0.1373559386, 0.0920786485, -0.1084985286, -0.0114088552, -0.0333936028, 0.0625704899, -0.0021326626, 0.0533348769, -0.0883053467, -0.1117316186, 0.0720481202, 0.0093782842, 0.0408888124, 0.0006801350, 0.0789327621, 0.0389296860, 0.1084672362, 0.0918245539, 0.0944861695, 0.0310006496, 0.1012061536, -0.1202948391, 0.0244158097, 0.1085108817, -0.0311842151, 0.0463280156, -0.0894516930, -0.0355633944, -0.0290114880, -0.0455408059, 0.0305115189, -0.0284561832, -0.0911757499, -0.0469777845, 0.0405315571, -0.0284507889, 0.0002567031, 0.0374817885, -0.0873526111, -0.0452089272, 0.0073030633, 0.1062977090, 0.0443880595, -0.0226867199, 0.0147511736, 0.0114440154, -0.0863259658, 0.1100027710, 0.0873237997, 0.1178761497, 0.1460261792, 0.1166532785, -0.0512303747, 0.1313778609, -0.0483197942, 0.0007533800, 0.0391853675, -0.0637623593, 0.0900278986, -0.0568090826, -0.0513889678, 0.0301010888, -0.1083140820, -0.0809190795, -0.1172450706, -0.0475741662, -0.0846063867, -0.0921147913, 0.0646651387, -0.0940010697, -0.0903126448, -0.0351260900, 0.0258399434, 0.0788879022, 0.0452180691, -0.0913169309, 0.0567779765, -0.1267912835, -0.0824989080, -0.1131916419, -0.0805997699, 0.0874768049, 0.1278263628, 0.0256644059, -0.1077422723, -0.0036392324, 0.0261873174, 0.0489050634, 0.1092644781, -0.1072111726, -0.1177448481, 0.0078742364, 0.0769673511, -0.0780257583, 0.0253080726, 0.0041670320, -0.0974132419, -0.0081867762, -0.0226645619, -0.0914605036, 0.0451584756, -0.1103873700, 0.1210194230, 0.1014038101, 0.0033611250, -0.0406465307, 0.1008829772, -0.1315264404, -0.0014067172, 0.0710719004, 0.0748707280, 0.0044245133, 0.0556415729, -0.0637531951, -0.1930555403, -0.0223855320, -0.1202661544, -0.0117059061, 0.0065757874, 0.1108872071, 0.0291871652, -0.0106660146, -0.0004322717, -0.0726843476, 0.1207189783, 0.0595839061, 0.0734495670, 0.0420030467, 0.0591736995, 0.0237452444, -0.0467870347, 0.1085642502, -0.0524544530, 0.1285123825, -0.0373264439, -0.1609067470, 0.1372849047, 0.0676568821, 0.0865551680, -0.1541113704, -0.1107454523, -0.0362614430, -0.0303635374, 0.0605465956, -0.0712641180, -0.0207913090, 0.0386854708, -0.1382123977, 0.0306185298, 0.0214438383, 0.1180955321, -0.0456032194, -0.1277080029, -0.0327671804, -0.0280779712, 0.0937133655, -0.0751182213, -0.1587442905, 0.0849278569, 0.0080981413, -0.0647227094, -0.0515125617, 0.0520452559, -0.1305005699, -0.0318107083, -0.1048978940, 0.1416771859, -0.1502361000, 0.1189874560, -0.0582479984, 0.0383152999, -0.0766735002, 0.0114603238, 0.1034468114, -0.0824752748, -0.0899765119, -0.1727346927, -0.0942774788, -0.1041673645, -0.1444814056, 0.1162821800, 0.0399639532, -0.1255102009, 0.0086653400, 0.0347429961, -0.0016897599, -0.1243519485, -0.0249623097, -0.0879717171, -0.0244324077, 0.0844627991, -0.0924819261, -0.0361654684, 0.0307125356, -0.1460739672, 0.0485304520, -0.0513413586, -0.0614774525, 0.0710656121, -0.0858848318, 0.0418672599, -0.0877666026, -0.0190973505, 0.1291825920, -0.0222003199, 0.0775927380, -0.0010624904, 0.1393722892, 0.1083512306, -0.1127593070, 0.0323998071, 0.1201834232, 0.0745641887, 0.1031466424, -0.0364770554, 0.0604315959, -0.0558310188, -0.0916690230, -0.0948224068, 0.0035614865, 0.0101963906, -0.0086509297, 0.0189152919, 0.1054087728, 0.0380348340, -0.0590356626, -0.0478430353, -0.0506405421, -0.0390534736, 0.0475193411, -0.0636062771, 0.0162708610, 0.0325904414, 0.0018549380, -0.0459172800, -0.0717718676, 0.0564797930, -0.0729952306, -0.0618596524, 0.0476567075, -0.0513763353, -0.0826987550, 0.0003994824, 0.1671505868, 0.0849997923, 0.0708929896, -0.0459383726, -0.0245216731, -0.0291710142, 0.0401763245, 0.0436563641, -0.0525016971, -0.0723618343, 0.1014138684, 0.0667439252, 0.0885317326, -0.0528142937, -0.1373398602, 0.0101166042, -0.0246304423, 0.1817315370, -0.0089240754, 0.0280571803, 0.0463505723, -0.1971183568, 0.0238300189, 0.0545077398, -0.0083781304, 0.1439346373, -0.0884359032, -0.0099210534, -0.0391358212, -0.0778484493, -0.0864156559, 0.0870462582, -0.0908324644, -0.0291586723, -0.0813593790, 0.0424843691, 0.1205840111, -0.0177559350, 0.0246992670, -0.0455741398, -0.1494399458, 0.0046755783, 0.1358523071, 0.0723228380, -0.0289139766, 0.0384421721, -0.0096973861, 0.1162383333, 0.0888358951, -0.0841304287, 0.2145822942, -0.0604068451, 0.0780777261, -0.0049017807, 0.0112352762, -0.0240099635, -0.0352077559, 0.0522756912, 0.1661661416, 0.0896894708, -0.0012487706, -0.1291765273, 0.0561153293, 0.0677997395, 0.0544317514, -0.0713276640, 0.0874956548, 0.1998437196, -0.1210099682, 0.0129287951, -0.0054322048, 0.0857422426, 0.0159802902, 0.0100367051, -0.0331595428, -0.0356610380, -0.0059402082, -0.0830771551, 0.0242064223, -0.0501438603, -0.0440350398, -0.0109877158, 0.0976758525, 0.1032999232, 0.0349626318, -0.0138502093, 0.0765500963, 0.1290779710, -0.1090275496, -0.0306630023, -0.0167163089, -0.0948572010, -0.0263991356, 0.0184425451, 0.0074834479, -0.0329082347, 0.1190846711, 0.0694960579, -0.0788295940, 0.0069123292, 0.0792765170, 0.1216446161, -0.0860732943, 0.0806810558, 0.1411624253, -0.0743878931, 0.1500321180, 0.0073284935, -0.0572913773, 0.0380839668, 0.0426782556, -0.0161335040, 0.1962697208, -0.0268445779, -0.0062850588, 0.0321952738, 0.0752748922, 0.1439899951, -0.0358171873, 0.0231984202, 0.0098828189, 0.0131245153, -0.1288572848, 0.0584223829, 0.1418324411, 0.0443601273, 0.0990129709, 0.0300365090, -0.0665098876, -0.0391517505, -0.0448113643, 0.0247801654, 0.1148064137, 0.1083857939, -0.0450144596, 0.0531272329, 0.0138477664, -0.0164442826, 0.0544301942, -0.0908957198, 0.0029406832, 0.0577876344, -0.1071774364, -0.0205251016, 0.0393988602, -0.0600131378, 0.0868946314, 0.1047101095, 0.0250387378, 0.0760393366, -0.0444267802, -0.0968240798, 0.0248391479, -0.0532934293, -0.0573900603, 0.0043521137, 0.0271410197, -0.0388194807, 0.1629783809, 0.1388940960, -0.0747847855, 0.1054708436, -0.0577637553, -0.0043597454, -0.0659626648, 0.0610807203, -0.0727801695, 0.0625796318, 0.0349517167, 0.0057786531, 0.1246134862, 0.0558368824, -0.0930154324, -0.0276503228, 0.0651479959, -0.0000881028, 0.0373952873, -0.0016236487, 0.0988429114, 0.1201175898, -0.0733321682, 0.0219052527, -0.0684960708, 0.0996519998, 0.0310980231, 0.0111695025, 0.0792174712, -0.0550140701, 0.0752679557, -0.0437563248, -0.0717899576, -0.1378077865, -0.0813050121, 0.0246453900, -0.0189687796, 0.1120462045, 0.1384861320, 0.0427977517, -0.0499421842, 0.0691083670, 0.1032978594, 0.0667759851, 0.0673344657, -0.0444997922, -0.0641828775, 0.0922882631, -0.0226291828, 0.1021510065, 0.0185052026, -0.0499550849, -0.0625063628, -0.0737254471, -0.0085743489, 0.0117688775, -0.0928795189, 0.0799888223, 0.1203462109, 0.0272729564, 0.1149990335, -0.1142753363, -0.0273371674, -0.0234836247, 0.1221025065, -0.0472001173, -0.0502207018, 0.0299245212, -0.0150722489, 0.0219570324, -0.0657736659, -0.0416264534, -0.0362049639, 0.0039279968, -0.0741818920, 0.0412871018, 0.0172276553, -0.0393671170, 0.1094750166, -0.0793711469, 0.1057308689, -0.0907896236, 0.1807159483, -0.0419790596, 0.1508180648, 0.1004208997, -0.0406490602, -0.1161009967, -0.0597727224, 0.0481317714, -0.0683589205, -0.0369230285, 0.1004512981, -0.0554666333, 0.0823664814, -0.0786310062, 0.0357552171, 0.0265200753, 0.0404018685, 0.0368094556, -0.0336420722, 0.0063731964, 0.1136514768, -0.0184379537, -0.0665371642, 0.0368144587, 0.1070519760, -0.0818810314, -0.0638624132, 0.1211097911, 0.1250862330, 0.0246418491, 0.0495552383, 0.1339591146, -0.0309819449, 0.0509441905, -0.0978564918, 0.1221256554, -0.0889976919, 0.0794681460, 0.0093545271, 0.0930122361, 0.0716132596, 0.1188486144, 0.0233648941, -0.0305425171, 0.0610724874, 0.1223993152, 0.1036421955, -0.0212803427, -0.0265902318, 0.0619795509, -0.1389622539, 0.0404808968, -0.0331995450, 0.1980198175, -0.0874746889, -0.0218044147, -0.0500587560, 0.0019119044, 0.0622537583, -0.0509925298, -0.1068467423, 0.0654550716, 0.0795097202, -0.0918928236, 0.1473793387, 0.0590071045, -0.0374046601, 0.0578025393, -0.0469202809, 0.0366726257, 0.0885725841, -0.0003452926, 0.0190626904, 0.1054132208, 0.0744341239, -0.0100710569, 0.0312154014, 0.0388591886, 0.0116842678, 0.1237822026, 0.0783632025, 0.0906474739, 0.0193696506, 0.0931228250, 0.0652463660, -0.0154934321, 0.0662655085, 0.0053130942, 0.0332226530, 0.1008925512, -0.0920828432, 0.0796893835, -0.0394428857, 0.1086413562, 0.0796959698, -0.0335245878, -0.0752174482, 0.0026835657, 0.1062565744, 0.1312993616, -0.0304648839, 0.1323442608, -0.0236333925, -0.0137443421, -0.1033668444, 0.0348980352, 0.1002679467, -0.0154833002, -0.0146539779, -0.0377908945, -0.1200263128, 0.0809154660, 0.0488318019, 0.1194155738, -0.0232026111, -0.0369418934, -0.0044855746, 0.0494452491, 0.0326430500, 0.1261053234, 0.0169966314, -0.0694872066, 0.0058591305, 0.1378718615, -0.0236092228, 0.0026537348, -0.0044247159, 0.0388975739, 0.0923079848, -0.0337645523, 0.0146582359, -0.0018934497, -0.0224761721, 0.0471773222, -0.0756608546, 0.0036444834, 0.1033257544, 0.0630019829, -0.1041975468, 0.0179787204, 0.1002333388, -0.0602273494, -0.0373070650, 0.0463073961, 0.1227253899, 0.0967084393, -0.0507621951, 0.0544105470, 0.0646269843, 0.0455494560, 0.0837453455, 0.0184999965, 0.1184198335, 0.0220139101, -0.0511729494, 0.0598328412, 0.0593519397, -0.1043279544, 0.0445463918, 0.0465239733, -0.0590114035, 0.0531493612, 0.0535597987, -0.1028269678, 0.0479109436, 0.0689195469, 0.1238277853, 0.0311267283, -0.0578356534, 0.0892105624, -0.0088078678, -0.0758871436, 0.0597271435, -0.0931829661, -0.0989259928, -0.0292363223, -0.0243970286, -0.0918886885, 0.0823353156, 0.1040725783, -0.0499237776, -0.1201645359, 0.0046190415, 0.0727070495, -0.0048533706, 0.0540800132, -0.1065638885, 0.0172009487, 0.0600118861, -0.0004268457, -0.0834681988, 0.0636934564, -0.0002826696, 0.0898784921, 0.0864019170, -0.0668126345, -0.0901898369, 0.0414297953, -0.0305383354, 0.0521016233, -0.0609078221, 0.0471109450, -0.0694195703, 0.0310764704, 0.0554555170, 0.0852690786, 0.0808510855, 0.0833445191, 0.0098842727, -0.0474277362, -0.0816411823, 0.0658140108, -0.0889572129, -0.0288505666, -0.0311467275, 0.0825419128, -0.0917183235, 0.0659027994, -0.0843701363, 0.0373797789, -0.0460970290, 0.0274234843, -0.0101664318, -0.0558257625, 0.0538714603, 0.0405770987, -0.0848594382, 0.0717589706, 0.0030380310, -0.0382807218, 0.0358237587, -0.0380624458, -0.0343549252, 0.0852243379, 0.1126096174, -0.0568406917, -0.0500753410, -0.0122681893, 0.0869068056, -0.0772480816, -0.0234448910, -0.1090752259, -0.0615457557, -0.0692842454, -0.0600025766, 0.0265827682, 0.0400927775, 0.0728506893, -0.1152607799, 0.1012623534, -0.0941797718, -0.0298829935, -0.0240280274, -0.1058622599, -0.0964613557, -0.1239209846, -0.1018473357, -0.0836325139, 0.0568467714, 0.0794141889, -0.0065881223, -0.0759154856, -0.0245318599, -0.0129171917, 0.1108494997, 0.1248065233, 0.0994588882, -0.0334512778, 0.0249889698, -0.1173329130, -0.0905724540, -0.0982618406, 0.0486989953, -0.0542997159, 0.1127744168, -0.1096346155, -0.0265441667, -0.0831742585, 0.0247420408, 0.0605160929, -0.0448276326, 0.1143969148, 0.1183097735, -0.0679315925, 0.1139553785, -0.0574396886, -0.0106680552, -0.0474830605, -0.0464419127, 0.1249469295, 0.1156729609, 0.1239015609, 0.0687964857, -0.0488437302, 0.1087695956, 0.1240265891, 0.0426722914, 0.0044178162, 0.0170276500, -0.0525748655, -0.0995143652, -0.0918102786, 0.0223924033, 0.1013237536, 0.0232016928, 0.0469731279, -0.0290850215, 0.0628640354, -0.0605495647, -0.0388453752, 0.0634081438, -0.0603742488, -0.1045245826, -0.0847350433, -0.1088100672, 0.0832824335, -0.1190803945, -0.0932228416, 0.0107674468, 0.1142380834, -0.0735290274, 0.1097392440, -0.0763718039, -0.0848926455, 0.0422404967, 0.0645106435, -0.0153677305, -0.0448847301, -0.0214275327, -0.0091590900, -0.0283671021, 0.0303215235, 0.1180157438, -0.1194838285, 0.0294472929, -0.0240370743, 0.1179941222, 0.0596507899, -0.0423152857, -0.0525760762, -0.0557114184, -0.0559504107, 0.0490436964, 0.1213838309, 0.0683434606, 0.0501581468, -0.0296747014, -0.0821625441, 0.0970162377, 0.0416698381, -0.0163968913, -0.0018173036, 0.0554446690, -0.0619721785, 0.0881218985, -0.0912440866, -0.0142143108, -0.0709483698, -0.0727581382, 0.0047727614, 0.0718788803, -0.0676698610, 0.1036071628, 0.0124472594, 0.0056835646, 0.0920011848, 0.1160719395, -0.0332295075, -0.0848593861, 0.0862032771, -0.0068544499, 0.0306347087, 0.0796750337, 0.0494583398, 0.0503801554, -0.0921421424, -0.0135783451, 0.0820365623, 0.0820229277, -0.1040134802, -0.1162132770, -0.0976922512, 0.0722219869, -0.0262014307, -0.0023422712, -0.1207336932, -0.0957871079, 0.0021349129, -0.0474618934, -0.0154416421, -0.0829373226, 0.0576098450, 0.0651245937, 0.0952935815, -0.0841493309, 0.0212911274, 0.0631369725, 0.0449776091, -0.1238375157, -0.0288823526, 0.0484341644, 0.0875858516, 0.0855284706, -0.0885462984, 0.1064190120, -0.0540739186, 0.1037025601, -0.1204371005, 0.1223567873, 0.1009471342, -0.0090282150, -0.1098210067, 0.0845310092, 0.0089583574, 0.0477643348, -0.0460609123, 0.0993812233, -0.0405264609, -0.0639504939, -0.0559461005, -0.0370064415, -0.0882608071, 0.0513664521, 0.0672877207, 0.0866331980, -0.0580739789, 0.0643023029, -0.0041188351, -0.0414679125, 0.0928549170, -0.0073909429, -0.0105609065, 0.0208117180, -0.0160734467, -0.0647555515, -0.0161928032, 0.0910978168, 0.0787013918, 0.0812004134, -0.1149589196, 0.0748171657, 0.0708104670, -0.0919684395, -0.1082671508, 0.0164637417, -0.0093747815, -0.0965683609, 0.0659822673, -0.0909277424, 0.0450828113, -0.1182679906, -0.1008266136, 0.0345552377, 0.1135127991, 0.1012058333, 0.0110452110, -0.0311861895, -0.0625631735, -0.0274265781, -0.0021227505, 0.0915216655, -0.0584777296, -0.0192152634, 0.0858521461, -0.1005641595, -0.0991759971, 0.0250418410, 0.0068412386, -0.0281985160, -0.0010095860, -0.0081962515, -0.0927642584, -0.0063602878, -0.0525494143, -0.1032859534, 0.0297370534, -0.0525450595, -0.0088189999, 0.0712969452, 0.0750915557, 0.0635338798, -0.0666693747, 0.0095454985, 0.0527743511, -0.0551612750, 0.0482680202, 0.0956535563, -0.0880596712, -0.0349931903, 0.0209179707, -0.0466485433, -0.0811288506, -0.0347660594, 0.0216109864, 0.0285058953, 0.0895900130, 0.0717616454, -0.0825007781, 0.0074162371, -0.1015200987, 0.0301974267, -0.1177852005, 0.0978865996, -0.1201311052, -0.0162324775, 0.0816792846, -0.0477885194, -0.0363248959, 0.1195064485, -0.0199907664, -0.0941159427, 0.1046810299, -0.0768697932, -0.0180341844, 0.0554418862, -0.0827225670, -0.0928669870, -0.1054968163, 0.0622637533, -0.0478671007, -0.0803311169, 0.0536192991, 0.1188759804, 0.0586666316, -0.0872999653, 0.1053875908, 0.0378916636, 0.1214625090, 0.0453770123, 0.1151098534, -0.0005354846, -0.0396344922, -0.0237838533, 0.0627034083, 0.0121185388, 0.1155737862, 0.0482924953, -0.0453558750, -0.0186322425, 0.1237741709, -0.0743078440, 0.0781420022, 0.0844071507, -0.0104902517, 0.0233370736, -0.0556329452, -0.1116788387, -0.0984024629, -0.0914997309, 0.0830654129, -0.0187691301, 0.0736796781, -0.0550125651, 0.0263221394, 0.0976667404, -0.0135083767, -0.1152213663, -0.0629124790, -0.0056823222, -0.0305094812, -0.0514437407, 0.1015554965, 0.0787183270, 0.1022237092, -0.1097929850, -0.0753552616, -0.0904138833, -0.0655085072, 0.0678024963, 0.0255977865, -0.0524409115, 0.1020910591, -0.0680438951, 0.0949927494, 0.0970612168, -0.1138365343, 0.0537965521, 0.0035632337, -0.1068020836, -0.0801222175, 0.0708143786, 0.0221236367, 0.0030887029, 0.0741394386, -0.0808109716, -0.1149057001, 0.0275985468, -0.1253452599, -0.0599152334, 0.1015237048, 0.0417487025, -0.1036558151, -0.0397015437, -0.1042969748, -0.1002704799, -0.0110769607, 0.0536438115, -0.0001870180, 0.1193718165, 0.0092756860, 0.0392250642, 0.0044090557, -0.0432841182, 0.0175596066, -0.0440795310, 0.0205090698, 0.1165992841, 0.0633468032, -0.0092409626, 0.0956816077, 0.0112079689, 0.0775967240, 0.1118659303, 0.0093165617, -0.1101199687, -0.1122749895, -0.0610561632, -0.1198276654, -0.0741973370, 0.0023991407, 0.0061665107, 0.1173899695, -0.0262205675, -0.0164886639, 0.1047756523, 0.1200233325, -0.0606992990, 0.0301546846, -0.0667457059, -0.0247452017, -0.0776199847, 0.0912364200, 0.0307061356, 0.0058505530, -0.0272757448, -0.0688240454, 0.1240213588, 0.0155192930, 0.0962526873, -0.0830347165, -0.0302615594, 0.0852951854, 0.0803027302, -0.0075304322, 0.0169884916, 0.0894424170, 0.0790850818, -0.1014119089, 0.0290780105, 0.0632171556, -0.0438514128, 0.0761756152, -0.1048301309, -0.0336364023, -0.0149622690, 0.0111715747, 0.0720281750, -0.0504468903, -0.1199192032, -0.1223491952, -0.0949171036, -0.1416738480, 0.1156338900, -0.1288362294, -0.0401416086, 0.0310127493, -0.1401264071, 0.0148866540, 0.0856557563, -0.0278896671, -0.0155330133, 0.1649879962, 0.0813775584, 0.0459894687, 0.0709788278, -0.1382550299, -0.1493428499, -0.0794228390, -0.0029341886, 0.0583619997, 0.1185566261, -0.1048417613, -0.0785803273, -0.1171090379, -0.0435522459, -0.0802946985, 0.0056906627, 0.0612414218, 0.0396857038, -0.0568932593, 0.0100007299, 0.1783686131, 0.1076470762, -0.0641421229, 0.0608460829, 0.0169889871, -0.0517392121, -0.0210446212, -0.0807793513, -0.0048069647, 0.0341609158, -0.0085100280, -0.0561312847, -0.0637843907, -0.0484281033, 0.0515573546, -0.1044689417, 0.0756680965, 0.0529684536, 0.1098703966, -0.1064142883, -0.0272138771, -0.1036777943, -0.0910515040, 0.0429738872, -0.0455652848, -0.0895666182, -0.0279376339, 0.0207221918, 0.0306754205, -0.0258392077, -0.0052287341, 0.0588206314, -0.0257456861, 0.1022804379, 0.0951194093, -0.0904414803, 0.0971762538, -0.1074399203, 0.1081223711, -0.1243780553, 0.1209193394, 0.0295324065, 0.0942843482, 0.0055244858, 0.0956701413, -0.0584991500, -0.0170058869, -0.0468233339, 0.0056441664, -0.1639711559, -0.1073683128, 0.1210082099, -0.1357184649, 0.0764843300, 0.0880221650, -0.0377443880, 0.0982558876, 0.0196478833, 0.0567569658, 0.0562197231, -0.0323853493, 0.0530485436, -0.0765551031, -0.0861003473, 0.0097871311, 0.0001567750, -0.0228205789, 0.0914340243, 0.0283087324, 0.0160087235, -0.0823550448, -0.0564509667, 0.1360863447, -0.1124373600, -0.0283324104, 0.0514849164, 0.1184360683, 0.1026176959, 0.0426007025, 0.0177740194, -0.0390615575, 0.1230510026, 0.1212498620, 0.0027213818, -0.1076328531, -0.0825198367, 0.0171070248, -0.0586361997, 0.0819389299, 0.0612983257, -0.1334303319, 0.0798592046, 0.0084286947, 0.0059193890, 0.0816635415, -0.0870540962, 0.1971753240, 0.1555489153, -0.0134411436, 0.0875213966, -0.0216794033, 0.0334639177, 0.1223683730, -0.0343220457, 0.1037860587, 0.0186249930, 0.0441675223, 0.0147415912, 0.0141507350, -0.0521551557, 0.0837857202, 0.0513127819, -0.0854129866, -0.0029204995, 0.0345059372, -0.0116141057, 0.0110482639, 0.0173310433, 0.0169510581, 0.1075202301, 0.0367347971, 0.0430455692, 0.0060271695, 0.0587689653, -0.0764216110, 0.0901815444, 0.0239183530, -0.1074034274, 0.0475852154, -0.1467157900, -0.0302554537, 0.0271486789, -0.0811377168, -0.0183445625, 0.0536258593, 0.1922747642, -0.0277711879, 0.0819423571, 0.1125105172, -0.0073636915, -0.0183197465, -0.1488189101, 0.0169983320, 0.0834793895, 0.1005318314, -0.0233834796, 0.0828898251, -0.1923258007, -0.0600444861, -0.0703945234, -0.1085634083, 0.1104712039, -0.1188721508, 0.0865378827, -0.0869294703, -0.0574380942, 0.1504671574, 0.0154813007, -0.0099944761, 0.0674558431, 0.0074944329, 0.0262906402, 0.0582954437, 0.0363329202, -0.0586414300, -0.1149458140, -0.1202073470, -0.0739778355, -0.0951369256, 0.1286219209, 0.1521693766, -0.0015182198, -0.0192768220, -0.0015852704, 0.1027602106, 0.0185479075, 0.0563022941, -0.0600870140, 0.0443982817, -0.0391270928, -0.1109961197, 0.0256766938, 0.0096045835, 0.0428323373, 0.0130101806, 0.0564301983, -0.0085550388, 0.0953500271, -0.0667542294, 0.0723995790, -0.0269132964, 0.0506991632, 0.0247187298, 0.0208784472, -0.0637941360, -0.1473722011, 0.0423763469, -0.1423195899, -0.0390968099, -0.0477211960, -0.0090375915, -0.0856454447, -0.0579509661, -0.0104439016, -0.0353892781, 0.0059552281, -0.1207820252, 0.0532441102, 0.0235768128, 0.0624089614, 0.0379627645, 0.0115734469, 0.0019187881, -0.0651111603, -0.0757577866, 0.0020130302, -0.0622003675, -0.0767402723, 0.0079157194, 0.0628810227, 0.0122387912, -0.0863216370, -0.0018149316, -0.1019545794, -0.1072359830, 0.0579153597, 0.0547032356, 0.0386768132, -0.1237188578, -0.0565821230, 0.0909325778, -0.0934306681, -0.0849670470, -0.0649762079, 0.0043434799, -0.0148839895, 0.0569567680, -0.0863985419, -0.0075428402, 0.0139807910, -0.0198294595, -0.0256284475, -0.0459191501, 0.1065617204, -0.0297693610, -0.0326310471, 0.0596823283, 0.0216845255, -0.1202403009, -0.0179959014, -0.0494138934, -0.0523250401, 0.0221486390, -0.0367023945, -0.0443201065, 0.0750192702, 0.1066063046, -0.0129699111, 0.0305594802, 0.0138812531, -0.1185482144, 0.0188627411, 0.1061398387, -0.0978766084, -0.0667823851, -0.0691967756, -0.0152216218, -0.0213697273, 0.0978995562, 0.0768883824, -0.0816633403, -0.0755333751, -0.0977995023, -0.0367641561, -0.0871242732, 0.0682138354, 0.0104659712, -0.1134277284, 0.0754219294, 0.0287636872, 0.0067368150, -0.0570836365, 0.0284380261, -0.0252280198, 0.0277625117, 0.0180372298, -0.0542967319, 0.0994563028, -0.0479171276, -0.0648121163, 0.0630637929, -0.0064414442, 0.0075598359, -0.1163677499, -0.1212031841, -0.0820534304, 0.1096786559, 0.0608023107, 0.0405823961, -0.0231248382, -0.1036009192, 0.0785563588, -0.1196277142, 0.0023440404, -0.0963286087, -0.0924704671, -0.0419574454, -0.0549554192, 0.1117027178, -0.1188448668, -0.0932552069, 0.1249306127, 0.0470448248, 0.0686540902, 0.0063497624, -0.0906201452, 0.0457209349, 0.0132091241, -0.0156719089, -0.0871383622, -0.0907595009, -0.0607492328, -0.1119020134, 0.0315965526, -0.0673566759, -0.0892542675, -0.0997304916, -0.0036791265, -0.0540960468, -0.0205342416, -0.1176765785, -0.0322435647, -0.0256496333, -0.0464425385, -0.1142775118, -0.1018809453, 0.0283021424, 0.0100261569, -0.0505803339, -0.1202925444, 0.0046049058, -0.0423009694, 0.1172196940, -0.0097162351, 0.1240355968, 0.0663524866, -0.0288580582, -0.0289893784, -0.1069012582, 0.0291239899, -0.0888108909, 0.1039679348, 0.0521403141, 0.0474695563, 0.0758039057, 0.0168227796, -0.1046048626, -0.0201742463, 0.0854521394, 0.0729629025, -0.0226663239, 0.0820309818, 0.0742444247, 0.0737401173, -0.0644266307, 0.0165835414, 0.0657280236, -0.0806492493, 0.0532696918, -0.1170863956, 0.1022181809, -0.0583029389, -0.0677267388, 0.0974402502, 0.0493176505, -0.1039196998, 0.0936592817, -0.0067765238, 0.0706510544, -0.0277825892, 0.0024926066, 0.0534206741, -0.1171504483, -0.0490222126, 0.0811316222, 0.1039841697, 0.1200198606, -0.0212482940, 0.0634010434, -0.1152405515, 0.0478412323, 0.0735432580, 0.0147462059, -0.0937276185, -0.0287220385, 0.0789522454, -0.0770190060, -0.0830289051, -0.0213725399, 0.0720622689, -0.0048673842, -0.0867325366, -0.0219921991, 0.1099325418, 0.0260686222, -0.0644695982, 0.0636279881, -0.0531105995, -0.1007077396, 0.0506208986, -0.0248517096, 0.0571953058, -0.0152699351, 0.0307997763, 0.0725756064, -0.0044813454, 0.1152012050, 0.0423871279, 0.0502063707, 0.0421696119, 0.0699502379, -0.0898129642, -0.0903754234, 0.1058653742, 0.0008767654, 0.0750610232, 0.0989640057, 0.1063523889, 0.0242474768, 0.1146300361, 0.0728610456, 0.0621126108, 0.0012850761, 0.0094432151, 0.0698982030, 0.0094876289, 0.0629588887, 0.0562861562, 0.1157462075, -0.0209622383, 0.0803999677, -0.0109333675, 0.0672991276, 0.1089440063, 0.1210609823, -0.0708719939, -0.0085500181, -0.0530957580, -0.1202026606, -0.0160163809, 0.0392097794, 0.0039262911, -0.0977349654, 0.0007185042, 0.0249268934, -0.0143553913, -0.0144716799, -0.0249774009, 0.0408428907, -0.0153919971, -0.0212229192, 0.0746157318, -0.0163853429, -0.0923866630, -0.0781081170, 0.1033989787, 0.0444203913, 0.0500128828, -0.1105700135, 0.0734619424, -0.0340472795, 0.0742729008, -0.0508065373, -0.0698260069, -0.0737795904, -0.0703277364, -0.1225369051, -0.0304356944, -0.0889702737, -0.0175837353, 0.0810404196, 0.0283425525, 0.0028203595, 0.0237049088, -0.0771558359, 0.1599239856, -0.0654662251, -0.0007206600, 0.0410474762, 0.1036880389, -0.0872446075, 0.0444323495, -0.1137866750, 0.1410127133, 0.0171209630, 0.1047011763, 0.0948409960, -0.0430882610, 0.1114317700, 0.0592898615, 0.0063552982, -0.0574738421, -0.0096507780, -0.0250529665, 0.1153177917, 0.1515125781, 0.0648396835, 0.0443877354, 0.1007663682, 0.0874087140, 0.0362509303, 0.0176598355, 0.0869567171, 0.1107406393, 0.0506438576, -0.0037703640, 0.0535391979, 0.1078514755, -0.0834459811, 0.0010830901, -0.0118662473, -0.0310616586, 0.0602195635, -0.0368919373, -0.0396293998, -0.0182166994, -0.0091668209, -0.0327093154, -0.1135566160, 0.0734341517, 0.0093952408, -0.0544340797, 0.0435507447, 0.0148315262, -0.0712454244, -0.1038774252, 0.0212971848, -0.0334075056, 0.1001275629, -0.1031307951, 0.0262136459, 0.0427226201, 0.0204127617, -0.1004930660, -0.0805565789, 0.0922446623, 0.0289496146, 0.0864453316, -0.1230348572, -0.0237608179, -0.0186221134, -0.0564368069, 0.1347527504, -0.0278202500, 0.0684248656, -0.0043603536, 0.0957374647, -0.0546174124, 0.0989075899, 0.0494228080, 0.0493846275, 0.0717315525, -0.1244823337, 0.0840320513, -0.1423342824, 0.1016769335, -0.0794550925, -0.0194697585, 0.0191203877, -0.0117727248, 0.0168602876, 0.0549621135, -0.1008251011, 0.0688448623, 0.0730728507, 0.0121291298, 0.0191899594, -0.1098704636, 0.0684782639, 0.0601813607, 0.0459210090, 0.1490324736, -0.0988906324, -0.0464699455, 0.0912491530, 0.0333022028, -0.0042276760, -0.0442209356, -0.0987656191, 0.0666217804, -0.0438386425, -0.1280944198, 0.0000121562, 0.0655315071, 0.0352186747, -0.0366531797, 0.0413254090, -0.0445126519, -0.0110748019, -0.0870023519, -0.0510523580, -0.0848142058, -0.1019927710, 0.1051754430, 0.0242703874, -0.0538987741, -0.1057139784, -0.0725333095, 0.0151919927, -0.0653720200, -0.1183780953, -0.0494285673, -0.1047173366, -0.0684878379, 0.0120062623, 0.0250286479, 0.0271817371, -0.1068672612, 0.1078936905, -0.0395146795, -0.0912801772, -0.0479706973, 0.0459330268, 0.0386095308, 0.0630885288, 0.0159458350, -0.0465840846, 0.0048260922, -0.0305997394, -0.1008704230, -0.0315809213, 0.0156407598, -0.1199148297, 0.1287679523, 0.0455852561, 0.0213883687, -0.0659892783, 0.1186490580, 0.1083440706, 0.1348811686, -0.0240277182, -0.0299181994, -0.0062969192, -0.0195849482, 0.1030306593, -0.0910927281, 0.0755106583, 0.1045716703, 0.0375210978, 0.0298234001, 0.0912929848, -0.0029757395, -0.0112695107, 0.0186357927, -0.0139771933, 0.0055463202, 0.0550292507, -0.0521940328, -0.0728119239, -0.0562202930, 0.0260789301, 0.0244018640, 0.0872225538, -0.1006738544, 0.1165781617, -0.1119985208, -0.0574714355, 0.0155134257, 0.0276552401, -0.1045274511, -0.1005009413, -0.1143309698, -0.1331651509, 0.0101310657, -0.0554288849, 0.0605041496, -0.0790433511, 0.0522910468, 0.1175947413, -0.1045164764, 0.1171914116, -0.0018528402, -0.0358852558, -0.0720194951, 0.0367312990, 0.0906366706, -0.0850735009, -0.0102937948, -0.0124653578, -0.1127626002, 0.0022697872, -0.1126139835, -0.1195795387, -0.0038057314, 0.0709843263, -0.0886488110, 0.0946136564, -0.0367709100, -0.1249490529, 0.0326744281, 0.0315940715, 0.0824245960, 0.1137721241, -0.0694872811, -0.0787715614, -0.1018506289, -0.0835521072, -0.0212219562, 0.0645634085, -0.0290943589, -0.0521214232, 0.0483158119, 0.0291161798, 0.0683333278, 0.0167057831, 0.1248897687, 0.0765349194, 0.0851150379, -0.0512560308, -0.0246638581, -0.1115856916, 0.0547011122, -0.0580645502, 0.0835471079, 0.1212239563, 0.0956115276, -0.0832928941, 0.1372811347, -0.0397418775, 0.0868030563, -0.0609183051, 0.1154583618, 0.0592683144, -0.1214181632, -0.0388174094, -0.1060318723, 0.0573881045, 0.0225966312, 0.0492630824, 0.0844259411, 0.1075334102, -0.0392914936, 0.0855792463, -0.0754942670, -0.1324172765, -0.0569315106, -0.0492278822, -0.1050641015, -0.1009948850, -0.0291654393, 0.0983553678, -0.1209534481, -0.1166256890, 0.0891054943, 0.0519855767, 0.0574889667, -0.0655870214, -0.0129865371, 0.0434682332, 0.0666343570, -0.0721975639, -0.0001208385, 0.0366462804, -0.0581513569, -0.0061669373, -0.0339652374, 0.1213251427, -0.1125289798, 0.0192104448, -0.1224834397, -0.1063532159, 0.0925228596, 0.0505259484, -0.0188592467, 0.0411847532, -0.0846078247, 0.0748430863, 0.0864531696, -0.0266776718, -0.1127261892, 0.0177880656, -0.0675061867, -0.0959702954, 0.1175462008, 0.0662777051, 0.0731524676, -0.0939951316, 0.0372341052, 0.0244424548, 0.1154949665, 0.0568729900, 0.0647347048, -0.1005728394, -0.1088921577, -0.0935676694, 0.0459168553, -0.0256723091, -0.0082715591, 0.0347455330, -0.1201572716, 0.1205422357, 0.0249084514, -0.0375114642, 0.1233250126, -0.0073310672, -0.0879418403, 0.0745338202, 0.0530463271, 0.0819620267, -0.1269650012, -0.1266450733, 0.0149772884, -0.0817417577, -0.0123237688, 0.0930671394, -0.0027113073, -0.0447790772, -0.0909149647, 0.0506296568, 0.0724784806, -0.0852673948, -0.0316096544, 0.0079085976, 0.0476171970, 0.0256909542, -0.0465488248, 0.0278438218, -0.0163091291, 0.0027270035, 0.1002003029, 0.0364793986, 0.0470937937, 0.0916256085, 0.1019088179, 0.0889552832, 0.0724062622, 0.0187671743, -0.0977053046, -0.0649644285, -0.0624414086, 0.0576203279, -0.1258567721, 0.0727576390, -0.0766670033, 0.0311255753, 0.0115986560, -0.0994756296, 0.0299773384, -0.0784180537, -0.0378584079, -0.1007469296, 0.0522457957, 0.1173065528, -0.1152191684, 0.1220429987, 0.0634157583, 0.0921353698, 0.0189037360, -0.0555696562, 0.0967252925, 0.0519553646, 0.1085344180, 0.0274817888, 0.0730806664, -0.1012904420, 0.0304730777, 0.0878049135, 0.1208606884, -0.0579171255, -0.0342257880, 0.0746285990, 0.0113534303, -0.0450403094, -0.0192349032, -0.0440560132, 0.0582818091, -0.0732037500, 0.0151579194, 0.0786860660, -0.0376577415, -0.0132986493, -0.0686171651, -0.1068254486, -0.0502532013, -0.0645066649, -0.0493782274, 0.0730195642, -0.0960219353, 0.1167146415, 0.1031854153, 0.1289985925, -0.0313947760, 0.0015954922, -0.0483360924, 0.0714321136, 0.1059784889, 0.0022285276, -0.0633863583, 0.0289787035, -0.0297169238, 0.0943260118, -0.0100801541, -0.1080057919, -0.1195910051, 0.0053582732, -0.0154482219, -0.0578477308, 0.0638184771, -0.0889528990, 0.1005231291, 0.0233144350, 0.0527410619, 0.0010548696, -0.0869856328, 0.0425438136, 0.0097067682, 0.0251920857, 0.0738989636, 0.0738657415, -0.0750319213, -0.1362139434, -0.0431910977, 0.0124422712, -0.0478266664, 0.1134467497, -0.0956108645, -0.0264684632, -0.0633921400, 0.1183565930, 0.0668711737, -0.0471342914, -0.0177281257, -0.0285876971, 0.1223563403, 0.0030806500, -0.1011557877, -0.0279740896, -0.1126133278, -0.0942776799, 0.1109127551, 0.0760820433, -0.1121786535, -0.0229300614, -0.0860997289, -0.0542306006, 0.0461632423, 0.0546180606, 0.0299398527, 0.0293544102, -0.1065907627, 0.0698537380, -0.0576492995, 0.0692864060, -0.0208748970, -0.0551240109, -0.0291660205, 0.0173550006, 0.0306425318, 0.0327902175, -0.0155092971, 0.1073592976, 0.0431727134, -0.1209910288, -0.1124523878, -0.0240696874, -0.1089283451, 0.1198863760, 0.0386905260, 0.0152576761, -0.0970240384, 0.0619615503, 0.0933936387, -0.0203120373, 0.0469373167, 0.0541455299, 0.0034368760, -0.0043069781, -0.0532469265, 0.0439663604, 0.0344781019, 0.0884192437, 0.0433566123, 0.1256141514, 0.0217694119, -0.0965501890, -0.0876625031, 0.0651463568, -0.0916498676, -0.1082855090, 0.0443679951, -0.0533220731, -0.0766823068, -0.0405600145, -0.0570086390, -0.0915179029, -0.0449439585, -0.0109630041, -0.0867075473, -0.1216919795, -0.1116541252, 0.0997380167, -0.0819816813, 0.0359934978, 0.1203994527, -0.0862018988, -0.1118009761, 0.0303811338, -0.0874639377, 0.0121026849, 0.0387576818, 0.0079260590, -0.0807777792, 0.1275188923, 0.0402880646, 0.0102069899, 0.0437179059, -0.0210670885, -0.0916675031, 0.0856369957, 0.0942855701, -0.0868922323, -0.0701878592, -0.1174982563, 0.1159333438, -0.0445609279, -0.0935510695, -0.0497983806, 0.1072033644, 0.0907986835, 0.0401541851, 0.0818392858, 0.1072323546, 0.0781731308, -0.1146669686, -0.0387713350, -0.0082722139, -0.0046660178, 0.0602104478, 0.0636471957, -0.0490838364, 0.1286059916, -0.1047657803, -0.0112783480, 0.0354497284, -0.1206915304, 0.0052479124, 0.0001399105, 0.0423443653, 0.0114174150, 0.1268603206, 0.1250140518, -0.0327251107, -0.0211000908, 0.0560704395, 0.0553789549, 0.0063366564, -0.0781536549, 0.1292340755, -0.0064297887, -0.0194770508, -0.0030403354, 0.1029367074, 0.0137179447, -0.0857071653, 0.0412566587, -0.0984720290, 0.0737599209, 0.0944501907, 0.1270411015, -0.0441967659, -0.0770593211, 0.0209977254, 0.0090924762, 0.1106173471, -0.1208693609, -0.1103510782, 0.0803909376, 0.0035250979, 0.1246228889, -0.0871583521, 0.1053392068, 0.0043200590, -0.0142917484, -0.0512501821, -0.1117927805, 0.1059531048, -0.0455393419, -0.0649795905, 0.0682719946, -0.0147924898, -0.0505988114, -0.0145720756, 0.0141841229, -0.0829305053, 0.1148190722, -0.0447109453, 0.0410987362, 0.0706489235, 0.0106491102, -0.0712280944, -0.0315561295, -0.0273098517, 0.0032726130, -0.0530387945, 0.1118832082, 0.0946995318, 0.0149901500, -0.1007275805, 0.0212321021, -0.0497508794, -0.0666226670, -0.0265855175, -0.0594607890, -0.0118816830, -0.0218773913, -0.0033378641, 0.1352775991, 0.0120616984, 0.0916831493, -0.0421027318, 0.0682048872, 0.1254360378, 0.1111180186, 0.0261058584, -0.0377792828, -0.0083066784, -0.0658861026, 0.0643542856, 0.0235172473, 0.1034187376, -0.0931125879, 0.1093834490, 0.0520539768, -0.0960043892, 0.0494212881, -0.0976528972, -0.0320889279, -0.1040465981, 0.0321177132, 0.0441361405, 0.0168890618, 0.0121765221, 0.0490884557, 0.0757702515, 0.0123426542, -0.0070047858, -0.0286769532, 0.0870198831, -0.0968403369, -0.0420548581, -0.0529087000, 0.0636776760, -0.0750514269, -0.0725863874, 0.0408492126, 0.0156648494, -0.0466387160, 0.0969232619, -0.0392020494, -0.1078337133, 0.0911336765, 0.0542536341, 0.1189578101, -0.0498524755, -0.1193665788, 0.0385471508, -0.1354465932, -0.0160190463, 0.0990024656, 0.0650851205, 0.0641493499, 0.0957170278, 0.0066154841, -0.0236301385, -0.0460154265, 0.0830969438, 0.0258976556, 0.0986844227, 0.0160760172, 0.0703768358, 0.0460741930, -0.0468803905, 0.0910504088, -0.1126905158, -0.1052083820, -0.0777864829, -0.0481129773, 0.0347809233, 0.0320994481, -0.0745361224, -0.0758161992, -0.1053525507, 0.0483377948, 0.0208761897, 0.1237706169, -0.0115542207, 0.0271433461, 0.0720438287, 0.0324140713, 0.0469044931, -0.0980587751, -0.0310495831, -0.0934084579, -0.0313674212, 0.0098258536, -0.0758753866, -0.0034184335, 0.0403421447, -0.0472596809, -0.0313363075, -0.0002822139, -0.0848477259, -0.0403525643, -0.0203866065, -0.0400107838, 0.0285844225, 0.0919503421, 0.0946220905, 0.0825189427, 0.0308762118, -0.0069994181, 0.0091346838, -0.0920643061, -0.0638236329, -0.0976927578, 0.0067716516, -0.0612534881, -0.1195394471, 0.0182696674, -0.0680385605, -0.0161171891, -0.0485497676, 0.0538153574, 0.1164604500, -0.0570169464, 0.0741311982, 0.1026131213, 0.0725120306, 0.0936219543, 0.0918097124, 0.0761611909, -0.0600979552, -0.0207514763, -0.0428596959, 0.0410426445, 0.1168231294, -0.1189614683, -0.0220496878, -0.0818827376, -0.0625150055, -0.0820004418, 0.0374398045, -0.0418289900, -0.0777611136, 0.0310190339, -0.0800368562, -0.0193593968, -0.0258627776, 0.0836266503, 0.0596233159, -0.0722291023, -0.0444701351, -0.0350125059, 0.0902672857, 0.0403061770, -0.0011126401, -0.1168755963, 0.0125364820, -0.0266907215, -0.0603719689, 0.0581995361, -0.0323625319, 0.1238722950, 0.0723501295, 0.0401838385, -0.0453710854, -0.0704322532, -0.0211101212, -0.0836841688, -0.1076829880, -0.0145143727, 0.1076308489, 0.0339123681, 0.0041635470, -0.1104736850, 0.0166886039, 0.0338206403, -0.0437630825, 0.0462760180, 0.0995151550, -0.0396364443, -0.0775237828, 0.0859944820, 0.0426843651, -0.0282957666, 0.0624339134, 0.0197896902, 0.0954447836, -0.0219773185, -0.0301942397, -0.0203840770, -0.0336388163, -0.0531750061, -0.0710039362, 0.0096119251, 0.0297729224, 0.0160703715, 0.0087145260, -0.1206507236, -0.1183285564, -0.0943120793, 0.0659802034, -0.0045043239, -0.0648893192, 0.0153361065, -0.0638680160, -0.1158099100, -0.1151046529, -0.0921253860, 0.0423491150, -0.0757354423, -0.0649388954, -0.0646659657, -0.0222456846, 0.1200720519, -0.0495101437, -0.0498140417, -0.0764406472, 0.0979013145, -0.1014740914, 0.0852152482, -0.0834596157, -0.1037658602, 0.1024200916, -0.1140559465, 0.0196061209, 0.0509739816, -0.0107618868, -0.1082434356, -0.0123082222, -0.0018571347, 0.0073802853, 0.0589463934, -0.1088082194, 0.0475594960, 0.0020317992, -0.0213896241, -0.1178161055, 0.0624426045, -0.0080520706, -0.1221943051, 0.0163539555, 0.0067766123, 0.0623611584, 0.0439128429, -0.0031919663, -0.0637655109, -0.0262282789, -0.0276154373, -0.1129219010, -0.0446566679, 0.0078611560, -0.1154102162, -0.0807123035, -0.0381406136, -0.0794166923, 0.0174782220, -0.0424648039, -0.1165117919, -0.0323451608, 0.1128133014, 0.0136639737, 0.0519119725, -0.0436385311, -0.0936722308, 0.1152581647, -0.0869412273, -0.0257938299, -0.0365006104, 0.0814248174, -0.0466060862, 0.0367705673, -0.0334544033, 0.0581478886, -0.0475402176, 0.0653015226, -0.1231226325, 0.1227116212, -0.0375453308, 0.1084400266, -0.0510609560, -0.0012640579, -0.0327727385, 0.0208986960, 0.0411630236, -0.0763194188, -0.1220005602, -0.0285756402, -0.1039015129, 0.0175469238, -0.0623352416, -0.1048440561, 0.0750407502, -0.1204850078, -0.0106724547, 0.0291593112, 0.0157618430, -0.0168444868, 0.0767793879, -0.0359958559, 0.0177983548, 0.0333482735, -0.0031810771, 0.0389876775, -0.0188186336, -0.0151676154, 0.0397540033, 0.0234052166, -0.0049172323, -0.0578127578, -0.0587124936, -0.0247821826, 0.0143684689, 0.1041343659, -0.0784299150, 0.0793772042, 0.0707118660, -0.0562208109, 0.0569769740, 0.0442664064, -0.1108043715, 0.1223745719, -0.0832762048, 0.0577186793, -0.0646967739, 0.0229395553, -0.0109935282, 0.1064197496, -0.1077381968, -0.0857552812, 0.0107991807, -0.0096630575, -0.0061677704, 0.1232562810, -0.1045731828, -0.0037000179, 0.0918763354, -0.0417100452, -0.0106556481, 0.0740463808, 0.0851819590, 0.0953761861, -0.0886293948, -0.0431983285, -0.0878464729, -0.0087608686, 0.0267859511, 0.1164470762, 0.0688622370, -0.1186437905, -0.0765976459, -0.0732196569, 0.0926839337, -0.0933519602, 0.0270713549, -0.1232442558, -0.0911715478, 0.0676951706, 0.0718054771, 0.0673183873, -0.0887711644, -0.0200869124, -0.0851741210, -0.0345157273, 0.0459529795, -0.1171893775, 0.0989952162, 0.0788008645, -0.0722622648, 0.0732874423, 0.0761066750, 0.0729667768, -0.1216049269, 0.0355692580, 0.0937041044, 0.0878294259, -0.0978657678, 0.0840703100, 0.0453107655, 0.0837467685, 0.0741736144, -0.1115135476, -0.0639535934, -0.0152979400, 0.0326788351, 0.1001252085, 0.1078098044, 0.0498118997, -0.0567726791, -0.0162839592, 0.0348922275, 0.1076900139, -0.0829308182, -0.0047641755, -0.0695789084, 0.1139604673, 0.0064212838, -0.0197841749, -0.0562676787, 0.0929251015, -0.0141132474, 0.0896893367, -0.1055443212, 0.0151404878, 0.0461856648, -0.0501429588, -0.0337108709, -0.0899157301, 0.0710320175, 0.1038032323, 0.0537193157, -0.0266366098, 0.0386150852, -0.0206768382, -0.0658855289, 0.0402287319, -0.1012244299, -0.0637646094, -0.0623997375, 0.0039795418, -0.0352709107, 0.0209089126, -0.0014491008, 0.0746091455, -0.1157304198, 0.1108960435, 0.0464430898, 0.0506960116, 0.1179964915, -0.0637255237, 0.0808041319, -0.0881278589, -0.1020319015, -0.0492154695, -0.1076178849, -0.0656351075, 0.0664599687, 0.1022486761, -0.0395589955, 0.0203276519, -0.0769086480, -0.0225732010, 0.0647200271, -0.0790774524, 0.1070815474, -0.0867028609, -0.0703677312, 0.0764721408, 0.0072085280, 0.0427780412, 0.0238967817, 0.0463923365, -0.0660994202, 0.0813942254, 0.0523925200, 0.0559066199, 0.0650261045, -0.0198858138, 0.0634060055, -0.0386502892, 0.0247454476, 0.0747411102, -0.0092550414, 0.0431468636, 0.0821244493, -0.0588166676, 0.0022798209, -0.0038748065, 0.0077280393, -0.0119183501, -0.0196770001, -0.0894145817, -0.0857516900, 0.0340032093, 0.0705914646, -0.0813459307, -0.0176846310, -0.0313442871, 0.0331527479, -0.0319130719, -0.0694461837, -0.0693797022, 0.0303612910, -0.0594835058, -0.0777476057, -0.1066086963, -0.0969412476, 0.0434029810, 0.0841353387, -0.0113317212, -0.0338998027, 0.1028221250, 0.0856477618, -0.0900157541, 0.1185408607, -0.0586598627, -0.0546997674, 0.0635303259, -0.0690435618, -0.0483007170, -0.1194343120, -0.0875370950, 0.0500898026, -0.0283228811, 0.0952587426, 0.0941424370, -0.0591702648, -0.1054973379, 0.1158175841, -0.0151021946, -0.0009854031, -0.1204271838, 0.0635734349, -0.0474159531, -0.0709987134, 0.1004737765, -0.1062149331, -0.0418156907, 0.0059954259, -0.1123576686, 0.0104373693, -0.0351660214, 0.0568954982, -0.0960709974, -0.0835305527, -0.0199766699, 0.0350049846, 0.0105670989, -0.0844905600, 0.0908806697, -0.0402548537, -0.0722972378, 0.0088511994, -0.0669916868, -0.0187345818, -0.0413549095, -0.0084231589, -0.0857244208, -0.0621308200, 0.0145929800, 0.0392525196, 0.0420932099, -0.0812026188, 0.1245457083, -0.0168408193, -0.1033010781, 0.1081852242, -0.0338991210, -0.0562544689, 0.0497862659, 0.0734225735, -0.0941447094, -0.1231678277, 0.0011262165, 0.0782632232, -0.0159185603, -0.0243583694, -0.0207895394, -0.0592582002, -0.0692991987, 0.1085571721, 0.0509975180, -0.0151781403, -0.0973155573, 0.0989111289, -0.0609724782, -0.0673243329, 0.0631076992, -0.0562823340, 0.0944484994, 0.0171999186, -0.0039882241, -0.0884625912, 0.0297045838, -0.0342753716, -0.1029847413, 0.1025878489, 0.0465104021, -0.0893707126, -0.1014672816, 0.0470190905, -0.0098444298, -0.0801769942, 0.0044511007, -0.0249162484, 0.0328077786, 0.0075714826, -0.0390513986, 0.0594309047, -0.0975640416, 0.0694215074, 0.0284051504, 0.0365858264, -0.1058264300, -0.0595096834, 0.1027477980, 0.0249628425, -0.1038365737, 0.0735471547, -0.0716136023, 0.0640531182, 0.0651483312, 0.0037323872, -0.0864455104, -0.0528580695, 0.0353420228, 0.0225801710, -0.1217731461, -0.0371005461, 0.0527222790, 0.1201335862, -0.1186105832, 0.0523014404, -0.1065825671, -0.0299236570, -0.0781952739, 0.0116866920, 0.0754218847, 0.0053311810, 0.0766991973, 0.0826762915, -0.1179013178, -0.0754182190, -0.0408763066, -0.0761051774, -0.0298124291, -0.0489916764, 0.1153873354, -0.0663944557, -0.0519828014, 0.1134141162, -0.0844198018, 0.0132409604, 0.1130101904, 0.0299979225, 0.0860002488, 0.0090761734, 0.0755598247, -0.0546791367, -0.0722277164, 0.0448474362, 0.0128745418, 0.1095392108, -0.0022006151, 0.0355321541, 0.1260022521, 0.0694914907, -0.0135367233, -0.0136485156, -0.0481138714, 0.0123649938, -0.0045044608, 0.0906049088, 0.1054088548, 0.0717457756, -0.0490624867, -0.0256950930, -0.0585970357, 0.0172356721, 0.0793597251, -0.0116707087, 0.0587302297, 0.0941536576, 0.1184177920, -0.1424517035, 0.1155773550, 0.1536101699, 0.0242190231, 0.0512719825, 0.0084582074, -0.1259405613, 0.2063007355, 0.1024501696, -0.0138772586, 0.1066466346, -0.1937238127, -0.0321550332, 0.0661614314, 0.0545178689, 0.1530629247, 0.0562238470, 0.0769626573, -0.0386891514, -0.0783200562, 0.0420181602, -0.0806949362, 0.1075718552, -0.0370335132, 0.0301385280, 0.0583550595, -0.0970497802, -0.0286671612, 0.0925989673, 0.0350757390, 0.0149970260, -0.0324925371, -0.0050520110, -0.0106906174, -0.0291905291, 0.0933407843, 0.0144412676, -0.0418331735, 0.0376466326, 0.0499989502, 0.0925938487, -0.0222319383, -0.0052706348, 0.0580978990, -0.0419448614, -0.1515949667, 0.0138633875, 0.2030953467, -0.1085626259, 0.0102232350, -0.1167964637, -0.0026735468, 0.1103511378, -0.1169345975, -0.0323369130, 0.0113688959, 0.0354925655, -0.0523261726, 0.2099593580, -0.1127062291, -0.0157684293, 0.0824582726, 0.0130066713, 0.1242184266, -0.0390425958, -0.0375409350, -0.0355703011, 0.0507980101, 0.0926450789, -0.0315686278, 0.0989407972, -0.0648757890, -0.0832098722, -0.1410028934, 0.0910852998, -0.1131061688, -0.0069683823, 0.0569198541, -0.0195692908, -0.0720574111, -0.0273219999, -0.0331380032, 0.0222556088, 0.0807018355, 0.0503720269, -0.0804587752, -0.0098839020, -0.1158436835, 0.0706166252, 0.0688503310, 0.0116580371, 0.0681462437, 0.1268173307, 0.1108103320, 0.1186723039, 0.1063943878, 0.0735911876, 0.0532912947, -0.0174840037, -0.0195294004, -0.0446416512, 0.0694308281, -0.0295998845, 0.0838098228, -0.1133911237, 0.1475871056, -0.0782832205, 0.0282023232, -0.1270869523, 0.0638959855, -0.0741998777, -0.0333959870, 0.0820283294, -0.0032550402, 0.1062875539, -0.1083378047, -0.1866806298, 0.0898464993, 0.0715822279, 0.1062081680, -0.1155911610, 0.0369047821, -0.0612023212, 0.0779797435, 0.0663741976, -0.0226813033, -0.0230917986, -0.0094096418, -0.0802387893, 0.0121681206, 0.1011338755, 0.1229603216, 0.0706440881, 0.0282859076, -0.0129891057, 0.0816273913, 0.0600119270, 0.0929694772, -0.1346698850, -0.0782644451, -0.1641999632, 0.1469007432, 0.0165496767, 0.0503539182, 0.0131839132, 0.0197567269, 0.0732082576, 0.0193855874, 0.0753989220, 0.0782622471, 0.0728041455, 0.0922311693, 0.1054864153, 0.0496619120, -0.0224726554, -0.1372549087, -0.1054502651, 0.1376430988, -0.0136999432, 0.0791551992, 0.1528324336, -0.0943473056, 0.1320510656, 0.0129597727, 0.0323382691, -0.0303731095, -0.0645248592, 0.1068340763, -0.1675978005, 0.0080689099, -0.1991885900, -0.0918307304, 0.0708368644, -0.1257697046, -0.0148296999, 0.0003435706, 0.1274299473, -0.0880640447, 0.0028557486, -0.0110770967, -0.0906235799, -0.0137056569, 0.0557036735, 0.0683066100, 0.1549057811, 0.0611842908, -0.0131835453, 0.1240986735, 0.1201101765, 0.0033819836, -0.0799035728, 0.0838044584, 0.0055002091, 0.1054790616, 0.0202509798, 0.0552430898, -0.1358796805, -0.1221643686, -0.0123393331, 0.0843088701, -0.0233819876, -0.0821485147, -0.1061816812, -0.0140790418, 0.0145200854, -0.0521833189, -0.0424917862, 0.0600333102, -0.0561108217, 0.0825612620, 0.1339930892, -0.0804372504, 0.1581509262, -0.0092233727, -0.0421867408, -0.0690878704, -0.0805033669, 0.1416127235, -0.0230761096, -0.1119639277, 0.0904597193, 0.0759256482, -0.0144861909, 0.0661903843, 0.1000811309, 0.0088167181, 0.0738305598, 0.0913979039, 0.0394185223, 0.0891500190, -0.0524216704, -0.1219712570, 0.0070144064, -0.0227770582, -0.0878085494, 0.1350216866, 0.0149073852, -0.0825591087, -0.0000754753, 0.0794183761, 0.1188393980, -0.0611394495, 0.0123107005, -0.0827637091, 0.0025975208, -0.1089133173, 0.0097555881, -0.0993556008, 0.0612775795, 0.0112403901, 0.0555714816, 0.0794637501, -0.1171759441, -0.1192570478, -0.0459956005, 0.0201145988, 0.0064877989, -0.1055773869, 0.0038523807, 0.0984126851, -0.0580340363, -0.0114405928, -0.0694255605, 0.0963010862, -0.0227081981, -0.0610743500, -0.0585996024, -0.0507431068, 0.0011025409, 0.1024084389, -0.0960344076, -0.0656467825, 0.0882877782, 0.0369462073, 0.0172657333, 0.0137645006, 0.0582179278, 0.0673146546, 0.0348876491, -0.0431799032, 0.1237589940, 0.0661521778, -0.0010527612, 0.0246560294, 0.0359133892, -0.1207751483, 0.0361288711, 0.0096924482, -0.0110281371, -0.0730854571, 0.0629284680, 0.0365146250, 0.0910629928, 0.0602668040, -0.0058965907, 0.0831506401, -0.0548026450, -0.1119576395, 0.1038850695, -0.0927697048, 0.0586639494, 0.0921830684, 0.0798724964, -0.0211533252, 0.0451054126, -0.0762866735, 0.0357722789, -0.0574495681, 0.0302103590, -0.0753570050, 0.1251968145, 0.0840044618, -0.0450034440, 0.0641943216, -0.1177654266, -0.0485729091, -0.0956773385, -0.0860943124, -0.0966959074, -0.0254611000, -0.0571253225, -0.0555312335, 0.0442626849, 0.0965767130, -0.1003901809, -0.0269183144, 0.0994583964, 0.0821509957, -0.0963219032, 0.0964446664, -0.0117357569, 0.0844390392, 0.0622144751, -0.0913233608, -0.1057598591, 0.0110356333, -0.0911359861, -0.0423409157, 0.0952017158, -0.0538726300, -0.1131120250, -0.0394303128, 0.0383154266, -0.0252382047, 0.0784777626, 0.0430600643, -0.1083085015, -0.0128103346, 0.0576098114, -0.0290072467, 0.0921483040, -0.0306854602, 0.0077061835, 0.0196489524, -0.0838176310, -0.0205496289, 0.0478115156, -0.1080724299, -0.0658253133, -0.1012749523, -0.1125297099, -0.0503930114, -0.0043902057, -0.0380694270, -0.0939149857, 0.0874840021, -0.0369259641, -0.0750979856, 0.1012439057, 0.0773928165, 0.0530928895, -0.0381646976, -0.0131160934, 0.0677516609, -0.0677781776, 0.0623604320, -0.0268238224, 0.0975550935, -0.0692269504, -0.1091344804, 0.0273727197, 0.1073989794, 0.0659434050, 0.0740653425, -0.0499688275, 0.0942191482, 0.0463223644, -0.0264038090, 0.0052801068, -0.0555181652, -0.0727277845, 0.0028161164, 0.0414123535, 0.1072779447, 0.0637717098, -0.0378533751, -0.0563628487, 0.0865635499, -0.0759841204, 0.0711849555, 0.0708643496, 0.0777352825, 0.0318014808, -0.1171294823, 0.0841251910, 0.0892012492, 0.0652340800, 0.0022903034, -0.1119012684, -0.0884428248, 0.0228005052, -0.1070567593, 0.0512775481, -0.0889221206, 0.0242260396, 0.0993148685, 0.0901412964, -0.0916111991, 0.0060831537, -0.0610309914, -0.0315848850, -0.0111004002, 0.0861817449, -0.0529083051, -0.0877171382, 0.1102941334, 0.0414133742, 0.0366530940, 0.0217494126, 0.0003324795, 0.0590782799, 0.0345873944, 0.0179405063, 0.0726159140, -0.1056768149, -0.0907165781, 0.0303565785, -0.0964820459, 0.0292406157, 0.0597535856, -0.0896471888, -0.0508809946, 0.0052369861, 0.1042065769, -0.0301103760, -0.0273466129, 0.0538745299, 0.0964748114, -0.0094572799, 0.1332355738, -0.1052055210, 0.1097466573, -0.0975444913, 0.0411013216, -0.0671173483, -0.0740900040, -0.0692204162, -0.0369312093, 0.1163511500, 0.1164040118, 0.0969742537, 0.0648208410, 0.0083084339, 0.1091230735, 0.0359202176, 0.0323848203, 0.0234700330, 0.1303794384, -0.0292520709, 0.0939045474, -0.0182674993, -0.0715779886, 0.1098061129, 0.1305396408, 0.0489076078, -0.0984494388, -0.0553327017, 0.0029003646, -0.0692614987, 0.0001495246, -0.0259136036, -0.0049517797, -0.0396789238, 0.0060937633, 0.1034695730, -0.0628816709, 0.1078572646, -0.0609026663, 0.0672643334, -0.0864260569, 0.1049050242, 0.0855757222, -0.0644338578, -0.0266258717, -0.0566926561, -0.0871065110, -0.1135288551, 0.0205566231, -0.0396946371, -0.0270416420, -0.0939426571, -0.0408122167, -0.0520534590, -0.0212143175, 0.1401408315, -0.0223795809, 0.0453011841, -0.0319025144, 0.0645180941, -0.1200737730, -0.0045306212, 0.0593415760, -0.0543254726, -0.0268543102, -0.0931811854, 0.0924706906, -0.0583724678, 0.0361741744, 0.1737536788, -0.1669167280, -0.0183238555, -0.0214633755, 0.0572777577, -0.0800362751, 0.1009973660, 0.0152536733, -0.0594454296, 0.0717176944, 0.0035563263, -0.0067458940, -0.0386198163, -0.0430496931, -0.0476283208, 0.1059277579, -0.0351041034, 0.0054214192, 0.0687206164, -0.0110979900, 0.0061862925, 0.0591473840, 0.1507330835, -0.1013766527, 0.0927243903, -0.0263184141, 0.0808629096, -0.0750587061, -0.0747871548, 0.1061787829, -0.0418834761, 0.0787693039, -0.0004950354, 0.0096295476, 0.0397077240, -0.0804911777, -0.0009325235, 0.0427885987, 0.0783931538, 0.0055116783, -0.1383781731, 0.0185306538, -0.0166712608, -0.0368130431, -0.0632196143, 0.0077266530, 0.0418544486, -0.0329370014, 0.0630188510, -0.0626161769, 0.1211822107, -0.1274377853, -0.0344256498, 0.0852509141, 0.1263631433, 0.0913543850, -0.1256826669, -0.0629195496, 0.0344305970, -0.0994576886, 0.1079541221, 0.0124458503, 0.1146175414, -0.0701895729, -0.0222741831, -0.0168263484, 0.0968522951, -0.2203586102, -0.0250826087, 0.1141548976, 0.0810708329, -0.0877849832, 0.1618155539, 0.1012109667, 0.0653650686, -0.0478906333, -0.0886854678, -0.0771440044, -0.0412154123, 0.0172368232, -0.0067045284, -0.0392878279, 0.0459889174, -0.0161438398, -0.0354410522, 0.0269762985, 0.0981584936, -0.0000570087, -0.0732225999, 0.1104316711, 0.0918487906, -0.0456495099, 0.0999321938, -0.0347741693, -0.0291080438, 0.0959084257, -0.0699260011, 0.0562822223, -0.0410238467, -0.0227106716, 0.0005691089, 0.0917730704, -0.0486332960, -0.0268127676, 0.1246564835, 0.1011220440, -0.0923442468, 0.0619849116, 0.0744676143, 0.1418770850, 0.0644433275, -0.0255254433, -0.1092072651, 0.0232573245, 0.1111703590, 0.0529148057, -0.0970744267, -0.0712110922, 0.0992779881, 0.0508239716, 0.0173616242, 0.0301095508, 0.0653624609, 0.0125870844, 0.0851452425, -0.0032411949, -0.0121841775, -0.1131922901, 0.0817500129, 0.0255473685, 0.0000974306, -0.0270454269, -0.0098673794, 0.1244497076, 0.0263119973, -0.0083014965, -0.0592985377, 0.1073082015, 0.1264045238, 0.0215527136, -0.0022512057, -0.0564024486, -0.1414957941, -0.0794350207, 0.0429229774, 0.0964662805, 0.0598093532, -0.0705792978, 0.0423834436, -0.0561603606, 0.0646295771, 0.1003948674, -0.0789815113, 0.0710804835, 0.0053733042, -0.0436431542, -0.0384093821, 0.0162194129, -0.0845598951, 0.0153915603, 0.0075880559, -0.0283225942, 0.0177539326, -0.0689560622, -0.0046739229, 0.1647030115, -0.0160188731, 0.0920104012, 0.0720285624, 0.0360216983, -0.0773493722, -0.0750250742, 0.0063086380, -0.0325119011, 0.0234232470, -0.0340960957, -0.1171505749, -0.0459274463, 0.0790110081, 0.0750080943, 0.0368620753, 0.0258044954, 0.0291529633, 0.0271417405, -0.0168842543, 0.1192058921, 0.0212471001, 0.0000786665, 0.0321540460, -0.1282607466, -0.2032935470, 0.0141672175, 0.0059176707, -0.1031181291, -0.0526612997, -0.0186061263, 0.0621181987, 0.1533187181, -0.0815096572, -0.0889481530, -0.0780440941, -0.0218901224, -0.0204419866, -0.0019145973, -0.1028980315, 0.0578544885, 0.0607695729, -0.0260325000, 0.1093197465, 0.0342996828, 0.0243275743, -0.0887427777, -0.0053235670, -0.0974156410, 0.0818252787, -0.0603897981, -0.0015179192, 0.1089019775, 0.1022613198, 0.0544588007, 0.0043688114, 0.0974633247, 0.0278017763, 0.1584437042, -0.0086367512, 0.0057125543, 0.0905384794, -0.0846370459, 0.0897158235, -0.0545085557, -0.0542120859, 0.0414999165, -0.1064146832, 0.0225179289, -0.1217350066, -0.0875084624, -0.0323727801, -0.0427879095, -0.0744976699, 0.0206989963, -0.0905113667, -0.0618806183, 0.0283217970, -0.0526802018, 0.0953460634, 0.0908599421, 0.1013438031, 0.0266322605, 0.1142817289, -0.0058500390, -0.0401630700, -0.0014145396, 0.0577449948, 0.0408351868, -0.0395622253, 0.0992161185, 0.1047599092, -0.0131991021, -0.0971632227, 0.0867319629, 0.1091839597, 0.0866248682, 0.0475021303, -0.0261812266, -0.0453150645, 0.0797031894, 0.1157564670, 0.0993541032, -0.0754567459, 0.0382523537, 0.0716680288, -0.0048416331, -0.0085831247, 0.0650759414, -0.0805058554, 0.0624501929, 0.0094924401, -0.0888714939, -0.0229280759, -0.1123596057, 0.1480940282, 0.0120761720, 0.0779892653, 0.0005311625, 0.0414058492, 0.1479437351, 0.0193647090, -0.0498258471, 0.0256937928, 0.0550754294, 0.1005980968, -0.0986417755, 0.0885664746, 0.0478187688, 0.0207555164, -0.0473979264, -0.0740246177, -0.0996594280, -0.0672298297, -0.0416395888, 0.1114737019, 0.0731777996, -0.0567202680, 0.0909803137, -0.0249689315, -0.1172616109, -0.0871945024, 0.0987583548, 0.1089937836, -0.0934079289, 0.0246015843, -0.0034916520, 0.1107944995, 0.0546227731, 0.0151022831, 0.0127408747, 0.0763218850, -0.0883672163, 0.0555452704, -0.0436366536, 0.0855080187, -0.0120139085, 0.0898418576, -0.1001224369, -0.1187219173, 0.1338371038, 0.0992344320, 0.0770873651, 0.0057873162, 0.0578893833, 0.1043426916, 0.0935507119, -0.0695541129, 0.1275063604, 0.0061680316, -0.0811231360, 0.0462701544, -0.0040988508, 0.0978602841, 0.0458134413, 0.0435142592, -0.0181294773, 0.1104067862, 0.1037410796, -0.0126390839, -0.0285519920, 0.0440376811, 0.0159516837, -0.0822734833, 0.1310134381, 0.0867509693, -0.0871273577, 0.1134168804, -0.0543607622, -0.0468453057, 0.0209884997, -0.0818691552, 0.0346347727, 0.0087209037, 0.0974938795, -0.1081956625, 0.0346008576, -0.1240247861, -0.0192576312, -0.0772388875, -0.0517579801, 0.0374611057, -0.1236426085, -0.1107906848, -0.1038151160, 0.0946841612, -0.0033660985, -0.1214078665, 0.0395845771, 0.0413236320, 0.0575536489, -0.0382237509, 0.0893816277, 0.1053816453, 0.1151129529, -0.0745085627, -0.0864281356, 0.0829464346, -0.0400578156, -0.0398675948, -0.0447684117, -0.0519513190, 0.0701513439, 0.0135470955, -0.0830108821, -0.0059429891, -0.0115299271, 0.0277456716, 0.0709756836, 0.0853174999, 0.1099583954, -0.0973059162, 0.0646794289, -0.0733117163, -0.0180242620, 0.0972388238, 0.1280568838, -0.0062134443, 0.0561798401, 0.0864230245, 0.0466104858, -0.0701997876, 0.0214475095, 0.0453006104, 0.0974606201, -0.0535840355, 0.0810562745, -0.1162350103, -0.0112246769, 0.0615283698, -0.1300524920, 0.0307379067, -0.0157292299, 0.0102734035, 0.1275227219, -0.0497253649, -0.0153253060, -0.0553752519, 0.0251773987, 0.1203184351, 0.0995457247, -0.0942252278, 0.1266453266, 0.1211936548, -0.0540530682, -0.0689054653, 0.0357077569, -0.0141094811, 0.0271583200, 0.0023002292, 0.0461525358, -0.0864254013, -0.0191847049, 0.0531643815, -0.0573155805, -0.0924221650, -0.0005768138, 0.1123256087, 0.0109693464, -0.0591493882, -0.1364043951, -0.0295920782, -0.0304815732, -0.0509520173, -0.1193943098, -0.1314606369, 0.0063847094, -0.0913897604, 0.0595499650, -0.1239197478, 0.0670733452, 0.0723681748, -0.0583442152, -0.0215828326, 0.0990673602, 