//Numpy array shape [256, 1024]
//Min -0.158373355865
//Max 0.148646742105
//Number of zeros 0

#ifndef W8_H_
#define W8_H_

#ifndef __SYNTHESIS__
model_default_t w8[262144];
#else
model_default_t w8[262144] = {0.0064377696, 0.0064206598, -0.0151540609, 0.0825990438, 0.0004191121, 0.0291457400, -0.0036300712, 0.0232656952, 0.0076616108, 0.0263130087, -0.0059961663, -0.0119352620, 0.0461276546, 0.0586132742, 0.0299155135, 0.0523803197, 0.0017336957, 0.0540591888, 0.0456646457, 0.0346817747, 0.0547198951, 0.0651737005, 0.0627772957, 0.0404551290, 0.0321743153, -0.0245468207, -0.0357934348, 0.0095651625, -0.0507434830, -0.0017010585, -0.0893420056, 0.0438561477, 0.0406150594, 0.0032889924, 0.0935152695, 0.0719807073, 0.0081373267, -0.0127203548, 0.0832766965, 0.0487862267, 0.0850775763, 0.0155959949, 0.0703350231, 0.0658719987, 0.0701764822, 0.0409014598, 0.0484068505, 0.0244155414, 0.0701209828, 0.0619140491, 0.0597040951, 0.0151929110, 0.0177630223, 0.0167390797, 0.0546759143, 0.0847276002, -0.0100516966, 0.0063387733, -0.0700300559, -0.0377882756, -0.0604673997, 0.0181204844, -0.0353295505, -0.0496065579, 0.0142400973, 0.0024333596, 0.0836437270, 0.0830947086, 0.0268032011, 0.0077345041, 0.0630978122, 0.1217421889, 0.0830068439, -0.0214809719, 0.0704796612, -0.0059204586, -0.0266477019, 0.0578256659, 0.0780766457, 0.0449991189, 0.0167443193, 0.0835674927, 0.0692154244, 0.0864067823, -0.0400334261, 0.0717111602, 0.0237090029, 0.0961705595, 0.0834202170, -0.0133805396, 0.0454029255, 0.0341871791, -0.0431733355, -0.0461400114, -0.0711697638, -0.0007568859, 0.0103358245, -0.0014526753, 0.0538399704, 0.0925277993, -0.0038856282, 0.0484968610, 0.0412560850, 0.0774614438, 0.0709576160, 0.0878954753, -0.0046096174, 0.0693774000, 0.0238322094, -0.0007634126, 0.0495048016, -0.0096107246, -0.0069619762, 0.0581785627, 0.0075595495, 0.0749281049, 0.0491906032, 0.0530237705, 0.0825910866, 0.0721156672, 0.0225795545, -0.0260374788, 0.0148064485, 0.0246453024, 0.0069869561, -0.0648916736, -0.0510714687, -0.0293650851, -0.0073950700, -0.0280281939, 0.0617064685, -0.0055462662, 0.0409115069, 0.0589607470, 0.0315803699, 0.0097366525, 0.0336244181, 0.0351517387, 0.0459201932, -0.0158008896, 0.0554133616, 0.0042414623, 0.0936052799, 0.0547638722, 0.0328021087, 0.0330919884, 0.0573755689, 0.0435370430, 0.0360970013, 0.0467342883, 0.0835883394, 0.0583132617, 0.0485953800, 0.0216369573, -0.0286932699, -0.0580900237, -0.0311574321, -0.1005457938, -0.0773326829, 0.0180966649, -0.0018861707, 0.0104141543, -0.0042089466, 0.0151650338, 0.0379733779, 0.0150603764, 0.0248093102, 0.1059502587, 0.0339579508, 0.0421967804, -0.0230542626, 0.0368027762, -0.0477388687, 0.0171143115, 0.0821020082, -0.0214234740, 0.0034173541, 0.0266470145, 0.0250999108, -0.0494368374, 0.0266508460, 0.0226457808, -0.0117285764, 0.1022773311, 0.0065665566, 0.0566872843, 0.0330187529, 0.0112991901, -0.0688169822, 0.0007803510, -0.0925602615, 0.0141665302, 0.0369094610, -0.0489127226, 0.0135274893, 0.0324908085, 0.0636293739, -0.0187735967, 0.0650085658, -0.0272115991, 0.0550575666, -0.0275249742, 0.0252447575, -0.0517405681, 0.0021749507, 0.0604812950, 0.0476721227, 0.0284714848, 0.0220579077, -0.0413675793, -0.0221485682, -0.0807067901, -0.0117573710, 0.0543923937, 0.0632857755, 0.0489565507, 0.0775595307, -0.0095403241, 0.0109309023, 0.0235536806, -0.0066253366, -0.0446824767, -0.0864506960, -0.0566100851, -0.0512958951, -0.0398854911, 0.0260441098, -0.0141480369, -0.0090166908, 0.0209661480, 0.0063077775, -0.0346534662, -0.0734625608, -0.0586153045, 0.0187902767, 0.0218211319, -0.0413781069, -0.0069074319, 0.0562413074, -0.0391531624, 0.0426757224, 0.0059764367, -0.0661795065, -0.1010751873, 0.0120738447, 0.0365913473, 0.0249683484, 0.0105248755, -0.0112477774, 0.0545945242, -0.0276815705, -0.0348296538, -0.0688926503, -0.0651009753, -0.0551365130, -0.0004517773, 0.0170706157, 0.0274377000, 0.0087837912, 0.0693508312, 0.0571820661, -0.0043336758, 0.0587861575, 0.0307140648, -0.0652832836, -0.0730452761, 0.0235220660, -0.0809178799, -0.0538758114, -0.0221131686, -0.0039251326, 0.0234900508, -0.0482255444, -0.0707627460, -0.0915887430, -0.0517615676, -0.0119517213, 0.0133444499, 0.0094851004, 0.0667052940, 0.0180791989, -0.0365772620, 0.0441630371, 0.0215272326, -0.0425700843, 0.0085721463, -0.0661198720, -0.1015214846, -0.0053015407, 0.0214246325, 0.0667231381, 0.0248250682, 0.0483666398, -0.0308311917, -0.0627908409, 0.0345803723, -0.0333879702, -0.0382448211, -0.0106283091, -0.0254742689, 0.0474421531, 0.0246227551, 0.0883533880, -0.0066049574, -0.0004763156, -0.0054616821, -0.0120093096, -0.0406012274, -0.0096656978, 0.0585453026, 0.0262375083, 0.0860386863, 0.0260429066, -0.0124089941, 0.0322378241, -0.0296131056, 0.0487454310, -0.0557723790, -0.0451944545, -0.1088172197, -0.0099209482, 0.0427801125, 0.0156794097, 0.0709134638, 0.0074980748, -0.0375812612, 0.0191779807, 0.0032051753, -0.0422420986, -0.0625984445, -0.0437374189, 0.0027373512, 0.0473487787, -0.0084232716, -0.0161882471, 0.0256555770, 0.0241892152, -0.0028190389, -0.0479505733, 0.0057898518, -0.0037012652, 0.0132087916, 0.0270908251, 0.0479490757, 0.0044295168, -0.0137325451, -0.0267780237, -0.0217610933, -0.0150854709, 0.0129147321, -0.0133448746, -0.0462948903, 0.0120091960, -0.0353418589, 0.0037355074, 0.0199076477, -0.0255919639, 0.0357158892, -0.0395496562, -0.0580635071, -0.0620037057, -0.0512550063, -0.0259697717, 0.0029459132, 0.0904055163, 0.0857067779, 0.0509183221, 0.0007749164, 0.0771985725, 0.0031469697, -0.0212326627, -0.0254844483, 0.0059526949, 0.0506588444, 0.0134230768, 0.0477587990, 0.0187266842, 0.0645134971, 0.0707326233, 0.0083530461, -0.0421450660, -0.0404881686, -0.0394702144, -0.0353797488, -0.0126973167, 0.0061837463, -0.0165527537, -0.0044619660, -0.0828434229, -0.0513090193, -0.0161643010, -0.0003781910, -0.0716324225, -0.0073135453, -0.0671086982, 0.0529820994, 0.0752521902, 0.0480255000, 0.0850343630, 0.0671824366, 0.0377709009, 0.0035896802, 0.0094731804, -0.0690292269, -0.0469012335, 0.0025719730, 0.0520688295, 0.0609650016, -0.0119955558, 0.0579009131, 0.0082490528, 0.0644973889, 0.0325115770, 0.0178334098, -0.0332901068, -0.0556863509, 0.0192315169, 0.0045488151, -0.0234086234, -0.0378470570, 0.0215005931, -0.0360790789, -0.0251592342, -0.0336374827, -0.0863506868, -0.0032838357, 0.0415588431, 0.0362858772, -0.0196847320, 0.0127998777, 0.0247251224, 0.0843527168, -0.0104757277, 0.0321141072, 0.0355691165, 0.0227655806, -0.0027263211, 0.0054292204, 0.0540381409, 0.0607043393, 0.0593208410, 0.0010446708, 0.0798864663, -0.0201798528, -0.0175564885, -0.0474982634, -0.0648199171, -0.0325746313, 0.0424322374, 0.0688640475, 0.0589239709, 0.0134227704, 0.0294638593, 0.0350047946, -0.0685306340, -0.0409945883, -0.0891179442, -0.0561288409, -0.0185903478, 0.0576993041, 0.0107638519, 0.0646578074, 0.0369329788, 0.0754078850, 0.0628136545, 0.0367311798, 0.0065942681, 0.0149154039, 0.0506047569, 0.0360151343, 0.0121013615, -0.0177343860, 0.0781467855, 0.0535927750, 0.0345950723, -0.0330122523, 0.0395245776, -0.0003545867, 0.0041385847, -0.0381233580, -0.0404746830, -0.0032522166, -0.0013629746, -0.0342383012, 0.0021038174, 0.0120773204, -0.0680560023, -0.0692082867, -0.0530618392, -0.0472833514, 0.0510459170, -0.0252669062, 0.0384225212, 0.0484557189, 0.0795270354, 0.0415203124, -0.0186519716, 0.0394264720, 0.0204161908, -0.0420566350, -0.0276839621, -0.0129718892, 0.0234573223, 0.1007442623, 0.0570315570, 0.0504050441, -0.0416370295, 0.0013995604, 0.0007420107, 0.0396030843, -0.0825153738, -0.0248947646, 0.0125157265, 0.0322343335, -0.0668716133, 0.0609162673, -0.0392730646, 0.0396031365, -0.0827509388, -0.0452818871, -0.0643486828, 0.0310614947, -0.0248847138, 0.0310018230, 0.0356278680, 0.0336768143, 0.0113795409, -0.0278437883, 0.0672886372, 0.0297068357, 0.0537368245, -0.0093868412, 0.0479331426, 0.0769576505, 0.0405483879, 0.0284255184, 0.0428755619, 0.0786272883, -0.0258151293, 0.0669592395, -0.0329803452, -0.0395882577, -0.0728276968, -0.0037132138, 0.0086629000, 0.0317680128, -0.0268658195, -0.0389023088, 0.0041015390, -0.0050438773, 0.0014610412, -0.0663949698, -0.0608362444, -0.0242682006, 0.0263390075, 0.0194003414, 0.0166487359, 0.0716649890, -0.0197059419, 0.0358892605, 0.0018608999, -0.0030270952, -0.0581953563, 0.0409286283, -0.0102646574, -0.0637080744, 0.0251795277, 0.0894354805, 0.0029553398, 0.0394141935, 0.0478783920, 0.0119807757, -0.0551119819, -0.0707774907, 0.0180714019, -0.0113595398, -0.0056573236, -0.0209713764, -0.0099974247, -0.0335111916, 0.0304882377, -0.0593828186, -0.0769864842, -0.0855651870, -0.1096246690, -0.0481944717, 0.0046987436, 0.0366077311, -0.0038067740, 0.0363034010, 0.0084214034, 0.0719818398, 0.0010913757, 0.0665404424, 0.0240373909, 0.0137850549, -0.0156175047, 0.0668827519, 0.0482236221, 0.0488074683, 0.0699899420, -0.0008206661, 0.0880082250, 0.0077987593, 0.0370756611, -0.0372107029, -0.0057535646, -0.0257224627, -0.0225497521, -0.0542069189, -0.0449972451, 0.0074055400, -0.0671295747, -0.0657792985, 0.0188844521, -0.0148042440, 0.0134280985, 0.0213048290, 0.0462692268, 0.0220609549, 0.0547570251, 0.0479478166, -0.0234938022, 0.0142522193, -0.0161816720, -0.0074073821, -0.0045784945, -0.0175812338, 0.0273756012, 0.0466218814, 0.0280719120, 0.0073364736, -0.0243287012, 0.0653804168, 0.0691305101, -0.0511702299, 0.0274865422, -0.0447104089, -0.0282129329, -0.0005071122, -0.0531370603, 0.0087923845, -0.0568737499, -0.0137762083, -0.0130963037, 0.0483260714, -0.0223433580, -0.0360047445, -0.0711677670, -0.0829106346, -0.0354664288, -0.0510422140, 0.0068351687, -0.0400630832, -0.0295558721, 0.0118274819, 0.0486876741, 0.0267900620, 0.0211757589, 0.0063269506, -0.0286750793, -0.0358229131, 0.0036578083, 0.0432572812, -0.0326483734, 0.0435070060, 0.0096714189, 0.0683874413, 0.0153983384, 0.0087245405, -0.0441051424, -0.0297305249, -0.0283476822, -0.0472296290, -0.0408840738, 0.0162166227, 0.0417629965, -0.0606935397, -0.0425050557, -0.1002140418, 0.0100697046, -0.0523645543, -0.0209870003, -0.0417063497, 0.0161837395, 0.0196895786, -0.0133334119, 0.0033252242, 0.0244129766, 0.0059350319, 0.0299868416, -0.0814107060, -0.0300926119, -0.0371938348, -0.0433767959, -0.0371825285, 0.0207700972, 0.1034411117, 0.0947705805, 0.0328271762, -0.0337357260, -0.0777540728, -0.1008752808, -0.1062988117, 0.0121388836, -0.0553345159, -0.0909149647, -0.0427337401, 0.0164129548, 0.0233025439, 0.0045322091, -0.0664554834, -0.0512355641, 0.0267905127, -0.0097972481, -0.0070235715, 0.0606962293, -0.0637969002, 0.0380729996, 0.0168335475, 0.0539640971, 0.0311422721, -0.0048074261, -0.0181195997, -0.0475377031, 0.0163077582, -0.0950564519, -0.0303850230, -0.0466812029, 0.0978370383, 0.0298282597, 0.0480465554, -0.0774401203, -0.0718170777, -0.0285659656, -0.0757714510, -0.0948945284, -0.0769017190, -0.0475906655, 0.0066582486, -0.0745636821, -0.0818325132, 0.0177245606, -0.0539478995, 0.0023233648, -0.0352370478, -0.0088616433, -0.0750455111, 0.0470674522, 0.0004962480, -0.0487362817, -0.0246089716, -0.0000073831, -0.0352010243, 0.0184252691, -0.0332643762, -0.0284022056, -0.0638015717, -0.0593642779, -0.0071183573, -0.0090268319, 0.0362928323, 0.0253744666, 0.0033661250, -0.0061223852, -0.0352203101, -0.1002445146, -0.0303829424, -0.0604533665, -0.0516472235, -0.0874724388, -0.0374751650, 0.0466308333, -0.0346362293, -0.0659407899, -0.0424651578, -0.0852850750, -0.0042153816, -0.0283592530, -0.0397614464, -0.0139451977, -0.0617038384, -0.0132093923, -0.0265890900, 0.0120979045, 0.0277851094, -0.0304292869, -0.0143315792, -0.0522479936, -0.0757912248, -0.0614530109, 0.0036746785, 0.0121061597, 0.0694671795, 0.0403174907, 0.0349215381, 0.0468844548, 0.0492563508, -0.0227700863, -0.0873716548, -0.0342698805, -0.0087423669, -0.0157167632, -0.0617887750, -0.0255437549, -0.0437109135, -0.0267994553, -0.0092692599, -0.0686014146, 0.0282539502, 0.0325934738, 0.0028987359, -0.0390808247, -0.0116368029, 0.0091391029, 0.0086568128, 0.0001755898, -0.0163137447, -0.0203849934, 0.0142532839, -0.0587526299, -0.0184783135, -0.1091711447, -0.0566168651, 0.0395772420, 0.0748634636, -0.0033727651, 0.0802114531, 0.0046688006, 0.0474821851, 0.0397522412, -0.0288322549, -0.0071667833, -0.0338846184, -0.0661170483, 0.0041936305, 0.0637061372, -0.0686913878, 0.0194276199, 0.0236171074, -0.0353277735, 0.0456332527, -0.0412005261, 0.0083001852, -0.0477912128, -0.0120797381, -0.0260443874, 0.0831613168, -0.0141291916, 0.0122701535, -0.0145739280, -0.0927853808, -0.0666560829, -0.1223065034, -0.0160513166, -0.0433738939, -0.0100773703, 0.1135774925, 0.1103266925, 0.0499722958, 0.0118585406, 0.0141751394, -0.0333037190, 0.0370607078, -0.0003711054, -0.0046299417, -0.0201584399, 0.0051702452, -0.0453110896, 0.0660021156, 0.0268664882, -0.0447913520, -0.0608533733, -0.0158610214, -0.0175176486, 0.0443649516, 0.0749900714, 0.0633381605, 0.0117331957, 0.0398963727, 0.0565602034, 0.0248974245, -0.0810417756, -0.0899065286, -0.0877211392, -0.1223959997, -0.0685304031, -0.0505822115, 0.0038791224, 0.0116854664, 0.0361611247, 0.0787648261, 0.0517163649, 0.0248387568, 0.0876569822, 0.0092699965, -0.0822429657, -0.0468990877, 0.0115429275, 0.0494542979, 0.0067374832, -0.0407679453, 0.0292426869, 0.0361301005, 0.0395099632, 0.0237030648, -0.0091058249, 0.0580661930, -0.0122118508, 0.0604535900, -0.0180165246, -0.0117992368, 0.0241433680, 0.0138344895, -0.0347448103, -0.1005251557, -0.1059622988, -0.0207417030, -0.0414961427, -0.0010312250, -0.0682011694, 0.0446954519, -0.0134687163, 0.0630335808, 0.0085695246, -0.0244464315, 0.0097336499, -0.0374485254, 0.0220222678, -0.0310359038, -0.0152745396, -0.0468689874, -0.0404801108, -0.0267014503, 0.0001331556, -0.0358381756, -0.0154845575, 0.0024449211, 0.0317271724, 0.0598782189, 0.0062918607, -0.0270448159, 0.0230956990, 0.0030068606, -0.0241924673, -0.0184050892, -0.1002290174, -0.0841623545, -0.0300582685, -0.1094496325, -0.0555847660, -0.0573703721, -0.0791142061, -0.0595210455, -0.0191123616, 0.0538447313, 0.0140026528, 0.0049341950, 0.0781779438, -0.0002212319, -0.0429045744, 0.0206008311, -0.0039883992, -0.0447124727, 0.0124139339, -0.0552366674, -0.0077241734, 0.0421312638, 0.0102181220, 0.0020745660, -0.0051640528, 0.0474769734, 0.0194767993, -0.0515846536, -0.0074355868, -0.0004738303, -0.0442163497, -0.0533131361, 0.0016727344, -0.0211564582, -0.0437077172, -0.0672796518, -0.0145072695, -0.0292691272, -0.0004940839, -0.0539608039, 0.0211177822, -0.0038506044, 0.0610536300, -0.0221976899, 0.0342864804, 0.0281680487, 0.0192015581, 0.0437666699, -0.0358914137, 0.0183678232, 0.0094721699, -0.0033118795, 0.0473036580, 0.0623922385, 0.0276893694, -0.0482168458, 0.0407043509, 0.0135647608, -0.0256045312, -0.0510318168, -0.0455471426, 0.0352823697, -0.0576163530, -0.0876197219, -0.0256096832, 0.0207764283, -0.0974587798, -0.1022683233, -0.0494769998, -0.0209705718, -0.0508850440, -0.0517917834, -0.0852402300, 0.0264586154, -0.0470868014, -0.0134489657, -0.0772970691, -0.0587411299, 0.0293024722, 0.0558566414, 0.0673198998, -0.0607029535, 0.0209413823, 0.0207612347, 0.0370266251, 0.0398735404, 0.0007313333, 0.0775950029, 0.0014642139, 0.0180585161, 0.0860394388, 0.0160101354, 0.0772435814, 0.0281157624, 0.0272948556, 0.0581580251, 0.0160884261, 0.0681117922, 0.0528065413, 0.0350190289, -0.0226385519, -0.0266014095, -0.0356872827, 0.0292923078, 0.0118251704, -0.0595906638, -0.0344755091, -0.0471131876, 0.0514546447, 0.0272679348, 0.0167070739, 0.0204320550, 0.0406479537, 0.0080708712, 0.0075864075, -0.0044677244, 0.0406062379, 0.0067557725, -0.0073276698, 0.0519422293, 0.0676487014, 0.0152365798, -0.0269973520, 0.0558156632, 0.0126428511, 0.0688428655, -0.0200895760, -0.0074815517, -0.0307102650, 0.0844725519, -0.0168065000, -0.0331773087, 0.0080706831, 0.0430619754, 0.0459360480, 0.0459263436, 0.0443756692, 0.0484189466, 0.0342576168, -0.0323049203, 0.0243370719, 0.0344456173, 0.0704443604, -0.0279476326, -0.0529284291, 0.0158492792, 0.0222424231, -0.0058789575, 0.0383951850, 0.0820100009, 0.0562793314, -0.0121469097, -0.0224906225, 0.0420196056, 0.0199653506, 0.0125223771, -0.0098570846, 0.0787622258, 0.0419930331, 0.0343777202, -0.0163961891, -0.0126943430, -0.0152077526, -0.0072012013, 0.0522799753, 0.0528782494, -0.0435065851, -0.0307349078, -0.0488752425, 0.0341284201, -0.0210300274, 0.0465044640, 0.0417668223, -0.0490012802, 0.0519067906, 0.0407408774, 0.0259491820, 0.0602720231, -0.0773624927, -0.0433835685, 0.0331270918, 0.0293910932, 0.0438138768, -0.0356953442, 0.0041531068, 0.0405919701, 0.0132752517, -0.0331091210, 0.0298206862, -0.0221852083, 0.0240731575, 0.0074020457, 0.0412178524, -0.0080332989, -0.0512987487, 0.0492071770, -0.0348187983, -0.0735199451, -0.0186213069, -0.0455963388, -0.0150478752, -0.0137889860, 0.0489072353, 0.0642499551, -0.0123471925, 0.0332578197, 0.0650271550, -0.0262881070, 0.0454223640, 0.0239037294, -0.0236998498, -0.0557323359, -0.0281270575, 0.0786401033, 0.0148575045, 0.0246851183, 0.0706150755, 0.0090187723, -0.0491859987, 0.0136432685, -0.0423858799, 0.0400435627, 0.0310810860, 0.0373685397, -0.0181934256, -0.0246319864, -0.0008926719, -0.0188948140, 0.0374312066, 0.0284897760, -0.0373159237, 0.0000897830, 0.0376439504, 0.0050843712, 0.0069095651, -0.0262794383, 0.0236959290, 0.0364486426, -0.0380019881, 0.0665833652, -0.0454570130, 0.0177654624, -0.0593519323, 0.0026876405, 0.0240833275, -0.0152420914, 0.0218849443, 0.0014935376, 0.0487910435, 0.0850383788, 0.0222674720, 0.0112379072, 0.0388327278, -0.0079432121, -0.0327871591, 0.0519192033, -0.0480170660, -0.0624085180, -0.0032528879, 0.0311302301, -0.0402419120, 0.0331212655, -0.0489149876, -0.0269456897, 0.0205501337, 0.0288930833, -0.0144131174, 0.0408529863, 0.0042990628, 0.0286132190, 0.0372713692, 0.0685636178, 0.0367242098, -0.0164599549, -0.0615274906, -0.0281572212, 0.0386627838, -0.0397774242, -0.0074523599, -0.0411676317, -0.0144094378, 0.0770834163, 0.0322868675, -0.0025504283, 0.0184701961, 0.0096453307, 0.0420095176, -0.0226696003, -0.0235278197, -0.0487346612, -0.0520989113, 0.0295807850, -0.0644609034, 0.0246042386, -0.0768634006, -0.0148778148, -0.0006550369, 0.0524431281, 0.0107657062, 0.0310514495, 0.0226129908, 0.0788941160, -0.0111013968, -0.0071021272, -0.0420348495, -0.0218565837, -0.0136195170, 0.0202823188, -0.0750550777, -0.0676240996, 0.0068195732, 0.0658860877, 0.0450564213, -0.0348692946, 0.0625822097, 0.0375978537, -0.0365756340, -0.0250818394, -0.0016834461, 0.0267273337, 0.0486870147, 0.0024927414, 0.0017962991, -0.0426674373, -0.0985047743, -0.0054499400, -0.0361731611, -0.0661565214, -0.0538911745, -0.0395223685, -0.0287022833, 0.0586509369, 0.0543937273, 0.0133236926, -0.0104448507, 0.0180504676, -0.0780612081, 0.0302957632, -0.0001354706, -0.0649685115, -0.0170578100, 0.0000247604, -0.0067202793, -0.0215839576, -0.0024196513, 0.0298715513, 0.0097619938, -0.0005853647, 0.0289442614, -0.0051125898, 0.0366750732, -0.0353075080, -0.0083343927, -0.0223816708, -0.0560983680, -0.0833710581, -0.0596404187, -0.0652016476, -0.0577467345, -0.0691766143, -0.0078173717, -0.0034061577, -0.0416255258, 0.0461581349, 0.0186148733, 0.0458664596, 0.0023894480, -0.0214501731, -0.0171632674, -0.0430222414, -0.0556582101, -0.0254517701, -0.0241660308, -0.0374373943, 0.0237767305, -0.0151816802, 0.0901338980, 0.0575265624, 0.0610965826, -0.0475749448, 0.0234037805, -0.0470808968, 0.0257773288, 0.0413304009, -0.0572213829, -0.0186447483, -0.0034149948, -0.0008840795, -0.0453316905, -0.0999151841, -0.0442351587, -0.0309752598, -0.0031776708, -0.0242735501, 0.0043551391, 0.0303338934, 0.0272472445, 0.0421014875, 0.0364819728, -0.0447686538, 0.0578601249, 0.0331384353, -0.0323269106, -0.0676286370, -0.0231421907, -0.0396967679, 0.0524324216, -0.0448665321, 0.0350811556, 0.0504553504, 0.0671224743, 0.0374629088, 0.0318483114, -0.0046117976, 0.0402226783, -0.0423899442, -0.0116259903, -0.0240860321, 0.0058892611, -0.0503568873, 0.0064605256, -0.0232860204, -0.0299857426, -0.0915104747, -0.0931677073, -0.0226521753, 0.0289173517, 0.0278642755, 0.0801709443, -0.0236414876, 0.0041796314, 0.0326023884, 0.0488788299, 0.0370076783, -0.0193941034, -0.0036281797, -0.0280130729, -0.0597510897, 0.0282256771, -0.0231857467, 0.0190320481, 0.0900946110, -0.0048662750, -0.0427939668, -0.0598920919, -0.0484506004, 0.0551181920, 0.0232945681, -0.0552769303, -0.0457466654, -0.0684447959, 0.0067743985, -0.0094183581, -0.0036944009, -0.0377769955, -0.0681665838, -0.0817762017, -0.0505073555, 0.0186532494, 0.0064967475, 0.0636850446, -0.0395793729, 0.0431347042, -0.0160635374, -0.0148714315, -0.0219840445, -0.0498017892, -0.0564473048, -0.0057916786, -0.0566776358, -0.0089740669, 0.0825726762, 0.0838199556, 0.0354251973, -0.0022381144, 0.0097141173, -0.0322827138, 0.0202015787, 0.0101637729, -0.0010806350, -0.0072948849, 0.0280297287, -0.0651721284, -0.0661435798, -0.0359630659, 0.0070784166, -0.0514631420, -0.0837422609, -0.0130016170, -0.0954635292, -0.0293609556, -0.0162766557, -0.0100921309, 0.0560666919, 0.0135633489, 0.0139060421, -0.0014585400, -0.0141678741, 0.0214604381, -0.0280849114, 0.0090753576, -0.0159717184, -0.0076772934, -0.0115877716, 0.0902489871, 0.0410868898, 0.0671795011, 0.0693288967, 0.0142461332, -0.0012859711, -0.0276849102, -0.0075642522, 0.0275998004, 0.0470801629, -0.0038777327, -0.0273309704, 0.0072993059, -0.0065254150, -0.0833681896, -0.0257974267, 0.0334033333, -0.0252530556, -0.0085383579, -0.0124306455, -0.0440669097, 0.0584187806, 0.0862411708, -0.0311068483, -0.0465032198, -0.0821477398, 0.0031470214, -0.0656950772, -0.0136630740, 0.0155656310, 0.0217056815, 0.0935825035, -0.0029405579, 0.0361479372, -0.0273137670, -0.0481206998, 0.0295830891, 0.0092592919, 0.0434226431, -0.0065947897, -0.0497867428, -0.0533364713, 0.0368183032, 0.0011071339, 0.0378818475, -0.0690615401, -0.0363212824, -0.0097769266, -0.0353668928, -0.0827607363, -0.0911236182, -0.0026354687, 0.0029482222, 0.0031339719, 0.0772265345, -0.0061831158, -0.0502230003, 0.0118054030, 0.0273082107, -0.0639472231, -0.0439026728, 0.0264773481, 0.0649893805, -0.0149250478, -0.0332512669, 0.0135183968, -0.0058138189, 0.0658595264, -0.0531918854, 0.0421745665, 0.0145450560, -0.0635132566, 0.0047021545, 0.0065562576, 0.0256958604, 0.0417275801, -0.0136563592, 0.0304891057, -0.0722822249, 0.0042532762, 0.0302608851, -0.1044663936, -0.0841810852, 0.0256438740, 0.0571651720, 0.0001527432, 0.0210311245, 0.0430535004, -0.0370356478, -0.0768155679, -0.0699741021, -0.0633742884, -0.0017156631, -0.0591904186, 0.0170699060, 0.0107858470, 0.0591862164, 0.0761705637, 0.0570361391, 0.0359043665, 0.0646940544, -0.0200948901, 0.0358479023, -0.0055832462, 0.0378203243, -0.0402299948, -0.0051743034, 0.0648775399, -0.0113682728, 0.0156739634, -0.0397046283, 0.0100519154, -0.0000118144, 0.0049916371, 0.0298512187, -0.0165518429, 0.0177584533, 0.0634100139, 0.0025439512, 0.0359989740, 0.0253034607, -0.0828612819, -0.0559307002, -0.0265612528, -0.0058133979, -0.0298125893, 0.0679220334, 0.0161710195, 0.0573333837, -0.0340396687, 0.0844825208, -0.0284207612, 0.0088896882, 0.0022515152, -0.0309302174, -0.0515793748, -0.0354256853, -0.0080570914, -0.0549310818, -0.0563053228, -0.0480550192, -0.0419893935, -0.0639556572, 0.0121395504, -0.0593688339, -0.0126794651, -0.0607469082, -0.0285942126, 0.0196873266, 0.0502836369, 0.0646300465, -0.0303679239, 0.0058783344, -0.0515859909, -0.0764110237, 0.0008661522, -0.0160795357, -0.0089277169, -0.0367424153, 0.0747417361, 0.0396252051, 0.0496795438, 0.0700830370, 0.0244230777, 0.0570515878, 0.0024971424, 0.0229408834, -0.0778161883, -0.0905170441, -0.0809184238, -0.0523167960, 0.0245492123, 0.0373471789, 0.0639897883, 0.0197577234, 0.0196487941, -0.0782421380, -0.0193869080, -0.0321216956, -0.0485763401, 0.0506431684, -0.0002507706, 0.0179110952, 0.0497867689, -0.0015473558, -0.0432581156, -0.0855540708, -0.0867646411, -0.0014748740, -0.0197859313, -0.0044401409, 0.0376927778, 0.0982807055, 0.0752393082, -0.0135748610, 0.0375054590, 0.0391966552, -0.0128819980, -0.0330250561, -0.0680837184, -0.0712012425, 0.0480913408, 0.0295887347, 0.0001854644, 0.0321814865, -0.0164765641, -0.0365952924, 0.0200934578, -0.0306685083, -0.1101705879, 0.0247160140, -0.0193882100, -0.0509443544, -0.0671803057, 0.0084663397, -0.0434292778, 0.0063158581, 0.0233585779, -0.0890289396, -0.0447349921, -0.0127499988, 0.0120332101, -0.0053431042, -0.0167571139, -0.0064298077, 0.0624248795, 0.0026766036, 0.0566677712, -0.0138591425, -0.0305912830, -0.0551628694, -0.0931963250, -0.0213492382, -0.0366282500, 0.0186747350, -0.0406539105, 0.0460745543, -0.0603294112, -0.0341926180, 0.0262776986, -0.0676007867, 0.0324593633, 0.0234249551, -0.0767881274, -0.0370339938, 0.0479081608, -0.0274624173, 0.0451947600, -0.0107185133, -0.0111051835, -0.0282578543, -0.1052946597, 0.0460565798, -0.0396926329, 0.0355753079, 0.0177540258, 0.0993641019, 0.0218014065, 0.0707569048, 0.0049287430, 0.0613275394, 0.0234073512, -0.0374293812, -0.0656127483, -0.0862988010, 0.0257351436, 0.0147597380, 0.0101087876, 0.0447020195, -0.0407343507, -0.0386159420, -0.0963722989, 0.0126913749, 0.0221485607, -0.0375529416, -0.0404315963, -0.0661032721, 0.0648492873, 0.0489217900, 0.0615952872, -0.0035274180, -0.0714061707, -0.0895071924, -0.0439042002, -0.0361565314, 0.0263807401, 0.0495698936, -0.0039505991, -0.0034995733, 0.0014797007, 0.1101431698, 0.0603005849, 0.0317981057, 0.0088908756, -0.0777270496, -0.0023382059, -0.0766017735, -0.0422359817, -0.0376228690, -0.0088989092, 0.0023789594, -0.0105115231, 0.0280187503, -0.0247909892, -0.0447609574, -0.0108639533, -0.0590668321, 0.0364126973, 0.0384367779, 0.0397736169, -0.0047842655, 0.0428949855, -0.0426339507, -0.0708017573, -0.0024808981, -0.0609683469, -0.0141449319, 0.0116108414, -0.0061725830, 0.0199844372, -0.0166829117, 0.0522666164, 0.0572370589, 0.0346926190, -0.0060816784, -0.0073262001, -0.0311350487, -0.0339967571, -0.0865158215, -0.0523142777, -0.0017452043, 0.0028696011, -0.0362442136, 0.0193749536, -0.0336116813, 0.0079681184, -0.0025475770, -0.0292102452, -0.0670844615, -0.0107855396, -0.0143441921, 0.0095161321, 0.0046791774, -0.0106890369, -0.0530281775, -0.0287540387, 0.0182442330, -0.0546457693, 0.0269019026, -0.0441497341, 0.0021909932, -0.0326428786, 0.0125789763, 0.0705878660, 0.0193504728, 0.0223208107, -0.0356630124, -0.0646235943, -0.0491434224, -0.0183305014, 0.0150492555, -0.0502317809, 0.0690131560, 0.0560148843, 0.0286213104, -0.0225156937, 0.0206250381, 0.0292092375, -0.0388480872, -0.0573990047, 0.0087499637, -0.0360813029, 0.0495018512, 0.0019727137, 0.0752257034, 0.0385140255, 0.0038056402, -0.0446934365, 0.0248099174, 0.0090071633, -0.0009556328, 0.0701912120, -0.0287503153, 0.0470970310, 0.0996637717, 0.0861905441, 0.0741686597, 0.0986995399, 0.0444798134, 0.0080309808, -0.0512600280, -0.0360281765, 0.0273617078, 0.0347957015, 0.0459531248, -0.0363703519, 0.0621240810, -0.0063694720, -0.0073622339, 0.0081487298, 0.0357185341, -0.0328905731, -0.0752656981, -0.0194394682, 0.0653978586, 0.0353081785, 0.0278389975, 0.0412770174, -0.0281890929, 0.0785166323, 0.0349553674, -0.0572572686, 0.0201204158, 0.0404224396, 0.0095447665, 0.0666022822, 0.0548531488, 0.0173808988, 0.0990740284, 0.0203811005, -0.0019946403, 0.0397943892, 0.0083588259, -0.0595404319, -0.0314328671, 0.0375319831, 0.0188321173, 0.0945480317, 0.0196338873, -0.0502662174, -0.0222730599, -0.0307024308, -0.0248350278, -0.0694846883, -0.0434762500, 0.0235238206, -0.0115684113, 0.0637476519, 0.0337801501, -0.0123967845, 0.0183960330, 0.0317349359, -0.0524845831, -0.0029237992, 0.0408883952, -0.0251560900, -0.0247576740, 0.0245867781, 0.0172095131, 0.0726990476, 0.0087686908, 0.0326079205, 0.0155311031, -0.0558587797, 0.0201987196, -0.0697559342, -0.0590036251, -0.0335224830, 0.0399449505, -0.0171509702, 0.0050070914, -0.0350117572, 0.0302428901, 0.0381519645, -0.0513524637, 0.0467540435, -0.0528926440, 0.0455077998, 0.0189074557, 0.0232518781, -0.0082262065, -0.0392643511, -0.0144354692, 0.0139369834, 0.0688251108, -0.0546584241, 0.0425575376, -0.0064520375, 0.0509159081, -0.0447987691, 0.0086647077, 0.0699260309, 0.0279265009, -0.0546189621, -0.0082020564, -0.0545129180, 0.0339091122, -0.0449658819, 0.0192258898, 0.0205302294, 0.0257251952, -0.0034763592, 0.0616573095, 0.0155056119, -0.0301221646, -0.0667053461, -0.0598880760, -0.0390020385, -0.0342187546, 0.0148341451, 0.0601190813, -0.0063179694, 0.0420170724, -0.0289683100, -0.0083603011, 0.0668817312, 0.0020690067, 0.0042227251, 0.0473934896, -0.0477084853, 0.0761472806, -0.0169753153, 0.0859639645, 0.0023008578, 0.0096383188, 0.0812958851, -0.0215131976, 0.0433981977, 0.0282160919, 0.0049088215, 0.0345144086, 0.0648378208, -0.0123923281, 0.0101774316, -0.0061020968, 0.0009813845, -0.0386143476, 0.0125462376, 0.0603346899, -0.0497319140, -0.0080940025, -0.0356694460, 0.0614449382, 0.0659630299, 0.0825818405, 0.0748509690, -0.0189774539, 0.0139513630, 0.0267217942, 0.0154310847, -0.0202663578, -0.0253024120, 0.0174513478, -0.0522739068, 0.0216962732, -0.0030804551, 0.0407000631, -0.0321083777, 0.0547939837, 0.0214121900, 0.0052311402, -0.0249183550, 0.0942692161, 0.0345794372, 0.0431723446, 0.0594447926, 0.0223791972, -0.0504080094, -0.0209963769, 0.0794312134, 0.0356791615, 0.0377529748, 0.0685257614, 0.0384556763, 0.0456039235, 0.0955825597, -0.0086898888, 0.0944127068, 0.0154743865, -0.0469763018, 0.0089975074, -0.0131970821, 0.0546255670, 0.0538567714, 0.0356705524, -0.0393082090, 0.0263551120, 0.0648434162, 0.0112977671, -0.0204789713, -0.0089190006, -0.0053593167, -0.0009115203, 0.0722770840, 0.0363008417, 0.0175258964, 0.0710535571, 0.0335921645, 0.0603406690, -0.0004909778, 0.0368012749, 0.0437643789, 0.0484628081, 0.0595445521, 0.0497224070, -0.0084859682, 0.0960102826, 0.0153525332, 0.0512268841, -0.0395679325, -0.0171658788, 0.0402312316, 0.0196779687, -0.0458477661, 0.0415044352, -0.0452947095, -0.0034980690, 0.0682875738, -0.0561898127, 0.0226613078, -0.0001415886, 0.0304582901, 0.0368413553, 0.0250756554, -0.0017721514, -0.0029305003, 0.0084236097, 0.0120740030, -0.0276691169, -0.0306667853, -0.0208589081, -0.0542091504, 0.0409010053, 0.0685776323, -0.0188561939, 0.0281070638, 0.0154875852, 0.0078960620, 0.0144573441, 0.0471619256, -0.0085309567, -0.0067591076, -0.0261138622, -0.0680079162, 0.0669004470, -0.0455024727, -0.0100270240, 0.0207614861, 0.0379847102, -0.0114119537, -0.0353361517, 0.0239924882, 0.0053487406, 0.0314507075, -0.0060501043, 0.0066058980, -0.0244631618, 0.0576951019, -0.0225215834, 0.0735896230, 0.0753369182, 0.0471732430, 0.0645336434, 0.0292744767, -0.0311637092, -0.0220523700, -0.0564025939, 0.0016684944, -0.0242707543, 0.0658083335, 0.0128842266, 0.0480247475, -0.0504937582, -0.0208084453, 0.0280777477, 0.0410925820, -0.0422534272, 0.0148407202, 0.0379873030, -0.0487596951, 0.0399933010, -0.0043849070, 0.0812594444, -0.0321053416, 0.0065820557, 0.0483246408, 0.0591407903, -0.0226015225, 0.0104920613, 0.0336395055, -0.0427264571, 0.0122057116, -0.0177177582, -0.0060701361, 0.0290686246, -0.0220811814, 0.0683179349, 0.0152481552, 0.0156124579, 0.0806494132, 0.0318684801, 0.0013878361, 0.0730746537, 0.0956436694, -0.0051876791, -0.0070708459, 0.0036102589, -0.0331747346, -0.0037665060, -0.0520595983, 0.0704783872, 0.0520788096, 0.0269871298, 0.0369903520, 0.0292141289, -0.0241975691, 0.0068240613, -0.0464862138, -0.0479303300, -0.0327243991, -0.0582956746, -0.0445600264, 0.0412373170, -0.0294775069, 0.0752332062, 0.0675409734, -0.0106444973, 0.0171767324, 0.0524103232, 0.0529577322, 0.0406306162, 0.0488857627, 0.0146020921, -0.0057572909, -0.0012290090, 0.0209107343, -0.0224248730, -0.0043552211, -0.0513818786, -0.0409538224, -0.0286052953, -0.0148480013, -0.0284256302, -0.0471423343, -0.0161448773, -0.0348772854, 0.0566110536, 0.0247426014, 0.0136025129, -0.0600005649, 0.0276091807, 0.0183016080, -0.0240905304, 0.0316307396, 0.0075002550, 0.0040731970, 0.0400677919, 0.0309264213, 0.0494441055, 0.0129440799, 0.0348902531, -0.0117835011, 0.0099354088, 0.0247983430, 0.0071799210, 0.0588734224, 0.0742738545, 0.0848281235, 0.0368996970, 0.0444119535, -0.0154672833, 0.0083117941, 0.0133562842, 0.0021531847, -0.0244664792, 0.0675169677, -0.0033748569, -0.0180704203, -0.0330111310, 0.0285481736, 0.0043616630, -0.0283449981, -0.0158046689, 0.0306208525, -0.0390688293, 0.0407664999, -0.0126426285, 0.0078389030, 0.0013138002, 0.0470845848, -0.0257035084, -0.0146163981, 0.0377917811, -0.0261772014, -0.0386197753, 0.0265603922, 0.0167986061, -0.0178643372, 0.0441755392, 0.0036543109, -0.0149342436, -0.0697173104, -0.0244269148, -0.0672091469, 0.0154489595, -0.0732680038, -0.0598655008, 0.0000450650, 0.0049940525, 0.0271559879, 0.0304071680, 0.0341572873, 0.0517725497, 0.0071711591, -0.0267459396, -0.0271144230, 0.0133216307, -0.0088278539, -0.0310469400, 0.0508679375, -0.0123244002, -0.0039700461, -0.0214863289, -0.0192871504, 0.0440889597, 0.0162505880, 0.0193287320, 0.0178131275, -0.0107848607, -0.0197695661, -0.0151971113, -0.0293409061, -0.0090683047, -0.0379460119, -0.0023819585, -0.0626978874, -0.0541061684, -0.0419098996, 0.0226556901, 0.0235612169, -0.0154949781, -0.0242383592, -0.0291176774, -0.0254018120, -0.0364929065, -0.0063581276, -0.0656495318, -0.0454826877, -0.0083723767, -0.0278885402, 0.0331175663, 0.0165417790, 0.0573135726, 0.0280228630, -0.0532580167, -0.0421894975, -0.0248742495, 0.0126951514, 0.0301491730, 0.0465497710, 0.0048504858, -0.0280634519, 0.0781265423, 0.0072043268, -0.0404136293, 0.0280853827, -0.0264883898, -0.0567459464, 0.0227417573, 0.0142791392, 0.0015921575, -0.0269661080, 0.0213282295, 0.0286746174, 0.0153954476, -0.0300739110, -0.0397675261, -0.0416027270, 0.0573388822, 0.0471512862, -0.0307002328, 0.0508634076, 0.0420281813, 0.0809787810, 0.0120260185, -0.0186870620, 0.0239430722, 0.0773056075, 0.0116104316, 0.0310651176, -0.0111890435, -0.0413659066, 0.0214009490, -0.0145926401, -0.0118188802, 0.0104090730, -0.0203779563, -0.0474328920, 0.0386473238, 0.0156147452, 0.0488741137, -0.0581091717, -0.0619402081, -0.0461779274, 0.0500717275, -0.0270090774, -0.0015258696, 0.0240426306, 0.0047461493, -0.0283158049, -0.0454021432, -0.0049820449, -0.0789451376, 0.0179244112, -0.0415859520, 0.0661332905, 0.0194663610, 0.0594934374, 0.0397010930, -0.0175483581, -0.0216002576, -0.0006056984, 0.0161879286, -0.0411941558, -0.0610334873, 0.0681702271, -0.0100576123, 0.0100759817, -0.0597809404, 0.0396655425, -0.0177160967, -0.0390446670, -0.0231488235, 0.0008307979, 0.0123320315, -0.0465810485, -0.0264920685, 0.0359613337, 0.0505342372, 0.0399706438, 0.0095370114, 0.0187349953, -0.0097322995, 0.0411421619, 0.0067406064, 0.0324234143, 0.0428582914, 0.0722703561, 0.0411409140, 0.0878976882, -0.0230643786, -0.0242456924, -0.0686233044, 0.0022776958, 0.0040085814, -0.0485220179, -0.0288006421, 0.0152440397, 0.0603625290, 0.0382453129, 0.0200386718, 0.0496126525, -0.0397004150, -0.0184365008, -0.0361489989, -0.0073160743, 0.0448707975, -0.0011331991, -0.0174212996, 0.0166557450, -0.0301208179, 0.0930558294, 0.0368718244, 0.0195460338, -0.0005152943, -0.0197669473, 0.0334152430, 0.0185918678, 0.0462227687, 0.0899214223, 0.0228994638, -0.0304892864, 0.0164345745, 0.0355839692, -0.0590051077, 0.0048970217, 0.0204106756, 0.0168111138, 0.0079293931, -0.0169998258, -0.0467529409, 0.0522696711, -0.0651984736, -0.0305447802, 0.0261034612, -0.0226006657, -0.0243864898, -0.0582985729, 0.0295718368, -0.0250293631, -0.0217520390, 0.0043487577, 0.0295074265, 0.0549849793, 0.0440145470, 0.0027954080, 0.0242708456, 0.0481692590, -0.0009628421, 0.0052129664, 0.0557935759, 0.0709290728, 0.0782235339, 0.0669534877, 0.0609763861, 0.0242733080, 0.0576564111, -0.0458056033, -0.0356043540, 0.0460248590, -0.0129408371, -0.0588984676, 0.0297323857, 0.0665999353, 0.0543457419, 0.0446753837, 0.0465595499, -0.0324270464, -0.0250661690, -0.0299101137, 0.0467067212, -0.0217291079, 0.0112243919, 0.0110170841, 0.0805164948, 0.0818529949, 0.0922605097, -0.0383096077, 0.0318979062, -0.0594957471, 0.0015007484, 0.0578848980, -0.0277600456, -0.0027580776, 0.0452556387, 0.0021095469, 0.0264518652, -0.0651592612, -0.0098087844, 0.0404848196, 0.0277221967, 0.0077142864, -0.0035754009, -0.0246789381, 0.0566807985, -0.0259664357, -0.0191953499, 0.0507380478, 0.0101198647, -0.0724921077, -0.0492020063, -0.0559276380, -0.0706156865, -0.0083441809, 0.0326302201, 0.0536471494, 0.0551928878, -0.0233469140, -0.0165640265, 0.0490724891, -0.0243507382, 0.0264686402, -0.0791218728, 0.0365263782, 0.0252321996, -0.0146206608, 0.0930145532, 0.0731922761, -0.0118057169, 0.0324950144, -0.0676686838, -0.0116297817, -0.0411751345, 0.0215236936, 0.0069863540, -0.0498357080, 0.0481194183, 0.0840826407, 0.0325422548, -0.0664913356, -0.0393840335, -0.0501388460, -0.0183372907, -0.0453471765, -0.0009718462, -0.0813219920, -0.0644479096, 0.0636811405, -0.0004012630, -0.0034958962, -0.0274635330, -0.0104822386, 0.0237500519, -0.0145384856, -0.0514882803, -0.0244553555, -0.0153384944, -0.0202344060, 0.0442059375, 0.0430782996, 0.0597910099, -0.0043455781, -0.0217527822, -0.0442358740, 0.0243151877, -0.0063251238, -0.0206784625, 0.0236019585, -0.0114698634, -0.0059913220, -0.0292321499, 0.0334289931, -0.0659806579, 0.0472376160, -0.0275319070, 0.0281379204, -0.0661360994, 0.0334364101, 0.0157909859, -0.0075123641, 0.0764059573, 0.0138851097, -0.0108335894, 0.0672971979, -0.0111726159, 0.0363661647, -0.0424224287, 0.0200284794, -0.0324652754, -0.0254960470, -0.0096949162, 0.0003058456, -0.0410687588, 0.0174155943, -0.0305655561, 0.0043659774, -0.0633402765, -0.0309906974, -0.0743405521, -0.0207045805, 0.0100333542, 0.0278634019, -0.0085276496, 0.0055771386, 0.0112970900, -0.0250412337, -0.0630374104, -0.0405262783, -0.0231008325, 0.0407287329, -0.0294172447, -0.0538270511, 0.0093881767, 0.0216908175, 0.0702875033, -0.0354126804, -0.0162329841, -0.0250529665, -0.0124604702, -0.0252667032, 0.0285819862, -0.0140468748, -0.0047959331, 0.0593218543, -0.0173911974, -0.0149204088, 0.0309611261, -0.0816998705, -0.0355388261, -0.0162450261, 0.0303898081, 0.0182781350, -0.0488445647, 0.0026111864, 0.0252612308, -0.0439376831, -0.0446259305, 0.0133664077, -0.0501913354, 0.0034766293, -0.0300827548, -0.0457793623, 0.0501552187, 0.0175058432, -0.0220789202, 0.0177992880, -0.0222107992, -0.0055162823, 0.0130175585, -0.0040504644, -0.0495392047, 0.0284370556, -0.0419243164, -0.0420348085, 0.0675497949, 0.0372458734, 0.0361800455, -0.0077554840, 0.0569046848, -0.0297455043, -0.0363653228, -0.0152167343, -0.0540833585, 0.0073896167, -0.0233067572, 0.0513045974, -0.0688742250, -0.0673507527, 0.0223871488, 0.0246563163, -0.0027347542, -0.0044609536, 0.0417055339, -0.0219312161, -0.0027684737, -0.0349819846, 0.0185427051, -0.0573347583, -0.0198658425, 0.0962986797, 0.0381901972, 0.0369021557, -0.0341607332, 0.0053978632, 0.0148304924, 0.0531112775, 0.0517299362, -0.0114970459, 0.0618801862, 0.0572187938, 0.0288135447, -0.0073280577, -0.0296200570, -0.0106551759, 0.0465275683, -0.0136320656, -0.0687981248, 0.0164693110, -0.0113679878, -0.0493636690, 0.0354544558, 0.0313938595, -0.0482047163, -0.0488632135, -0.0221682154, 0.0150397895, 0.0002382359, -0.0010440677, -0.0367935635, 0.0241559315, 0.0010852551, 0.0374484248, 0.0428737961, -0.0283456333, 0.0524551570, 0.0484795235, 0.0464234725, 0.0459081642, 0.0410131663, 0.0758852586, 0.0202999301, 0.0211446155, 0.0034468360, 0.0409396663, -0.0619539693, -0.0110146282, -0.0233134441, 0.0124165742, -0.0419632755, -0.0222958457, 0.0411037132, -0.0484328754, 0.0543952696, -0.0304480735, -0.0066864584, 0.0290406849, 0.0477971248, -0.0220609698, -0.0382763371, 0.0107958065, 0.0044160495, 0.0450775623, 0.0376260541, -0.0109417215, 0.0599013902, 0.0484584495, 0.0148939835, -0.0312070977, -0.0777241960, 0.0481796190, 0.0271637831, -0.0352238230, -0.0189012848, 0.0331308208, 0.0311531611, 0.0589881055, -0.0292824171, 0.0192477349, 0.0372307748, 0.0287639089, 0.0544619523, -0.0182807893, -0.0034701757, 0.0143530136, -0.0184124000, 0.0575278290, 0.0018591293, 0.0370823927, 0.0331372693, -0.0027746323, -0.0187151395, -0.0483132787, -0.0693083480, 0.0035658479, 0.0299543962, 0.0477276668, 0.0097141238, 0.0042777713, -0.0169942640, -0.0592468344, -0.0073176604, -0.0406915732, -0.0178894941, 0.0148118651, 0.0353501290, 0.0221581161, 0.0815479383, -0.0237727966, 0.0179781541, -0.0494293161, -0.0171580333, 0.0139460377, 0.0029896195, -0.0155079439, 0.0377585962, -0.0653624609, -0.0531467348, 0.0144285541, 0.0300069042, 0.0209810194, 0.0118796360, -0.0766800568, -0.0461792946, -0.0643137023, -0.0240286514, -0.0411091335, -0.0220028423, 0.0662031472, 0.0679301471, 0.0623091906, 0.0152515192, -0.0994699672, -0.0776346028, 0.0452257358, -0.0094679240, 0.0258091092, 0.0551408529, 0.0922003910, 0.0847158283, -0.0207675248, -0.0274363402, 0.0434730127, 0.0221818667, 0.0026725149, 0.0206290875, 0.0344991907, -0.0347483717, -0.0273487139, -0.0068475748, -0.0336782224, 0.0141879339, -0.0049313214, -0.0006305279, -0.0753662065, -0.0378190316, -0.0112948036, -0.0871797875, 0.0002036913, 0.0403282642, 0.0365233123, -0.0172811057, -0.0229755249, -0.0860750303, -0.0267127566, -0.0607224330, -0.0247096606, -0.0083569931, 0.0064429822, 0.0160214137, 0.0766448304, 0.0324214064, -0.0242878105, 0.0132937143, -0.0323117077, -0.0069314372, 0.0073401956, 0.0177739188, 0.0425124392, -0.0407772325, 0.0044178073, -0.0720520392, -0.0342065915, -0.0092726629, -0.0096931020, -0.0373444445, -0.0691727474, -0.0819330364, -0.0738057792, -0.0692785680, 0.0023896431, 0.0509784445, 0.0283814427, 0.0218709018, 0.0212221220, 0.0078556687, -0.0899573863, -0.0143378926, -0.0764842406, 0.0687752441, 0.0559205003, 0.0804416835, 0.0968336165, 0.0447969474, -0.0313030072, -0.0472390130, -0.0474421605, -0.0137579711, -0.0500789993, 0.0609245226, -0.0325297043, 0.0162631478, -0.0716972053, -0.0604031049, 0.0312595926, -0.0113099152, -0.0701031834, -0.0732609332, -0.0750835538, 0.0245219059, -0.0272365864, -0.0013964523, -0.0424069390, -0.0446683243, -0.0089492509, -0.0283295810, -0.0564303063, -0.0394085608, -0.0524499081, 0.0260016825, -0.0575940534, -0.0260415748, 0.0190014523, -0.0000584037, 0.0364343077, -0.0554762483, 0.0226180013, -0.0049149469, 0.0532619469, -0.0079211816, 0.0431046486, -0.0078367228, 0.0032664735, -0.0593992881, -0.0660078824, 0.0152622592, -0.0432258695, 0.0188083518, -0.0181256179, -0.0669396594, 0.0206576884, -0.0667978898, 0.0308905076, -0.0361378267, -0.0343101248, 0.0323158279, -0.0043712012, 0.0301658511, -0.0734476373, -0.0466378666, -0.0071661393, 0.0092062699, -0.0170622002, 0.0432643034, -0.0291325692, 0.0432170480, -0.0126472460, 0.0248101577, -0.0661627501, -0.0457205176, -0.0498392656, -0.0217679180, 0.0136089213, 0.0087556327, -0.0553678349, -0.0407318510, -0.0402394459, -0.0446687788, -0.0685998350, -0.0391185321, -0.0015469329, -0.0234654155, 0.0135998977, -0.0483296514, -0.0166742690, 0.0070121977, -0.0518845879, 0.0105603840, -0.0627166703, -0.0033070690, -0.0781972781, -0.0015061920, -0.0682096705, 0.0201547164, 0.0417170189, 0.0177300740, 0.0742253363, 0.0231227186, -0.0180966891, 0.0404303521, -0.0157934967, -0.0317598097, 0.0403381847, -0.0115003111, 0.0193961505, -0.0135699064, -0.0472985469, -0.0697166622, 0.0154165467, -0.0697176605, -0.0024106409, -0.0210937150, 0.0347429924, -0.0758602992, -0.0372245535, -0.0487951376, 0.0519455671, 0.0663306862, 0.0089768339, 0.0046815462, 0.0283140298, -0.0457658470, -0.0191661958, 0.0266728532, -0.0147802355, 0.0489170104, 0.0348907709, -0.0121303350, -0.0084861079, 0.0912812054, 0.0473109744, 0.0165280793, 0.0226051752, -0.0195424464, 0.0075265267, -0.0039976393, 0.0548818856, 0.0645748824, 0.0835056677, 0.0001546102, -0.0540797189, -0.0477887504, 0.0271530114, 0.0352356136, 0.0333143733, 0.0595521554, 0.0147323944, 0.0455491319, 0.0495161079, -0.0286620837, 0.0566854477, 0.0206536632, 0.0097155208, 0.0113578448, 0.0569543988, -0.0519771501, 0.0749313906, -0.0048564542, 0.0096321106, 0.0788537040, 0.0416120365, 0.0375727080, 0.0106151393, -0.0286326278, 0.0208983012, -0.0059575438, 0.0304710772, 0.0151849827, 0.0509009846, -0.0744634718, 0.0223754700, 0.0029809836, 0.0012721579, 0.0399106704, -0.0485222861, -0.0292914752, 0.0691448003, -0.0031125494, 0.0098071210, 0.0345421918, 0.0475767329, 0.0181816071, -0.0120303230, -0.0208807439, 0.0164126419, 0.0619754978, 0.0169390626, 0.0305258092, 0.0327302627, 0.0487851165, 0.0716462359, 0.0921537578, 0.0186036713, 0.0210658591, -0.0184312630, 0.0796949118, -0.0111911912, -0.0629442632, 0.0259424075, 0.0390716121, 0.0330266245, -0.0309782848, 0.0398637988, 0.0199628398, 0.0134247998, 0.0106125697, -0.0435272977, 0.0226711817, -0.0300944094, 0.0431388617, -0.0082544377, 0.0523587540, 0.0220120698, -0.0333031006, -0.0132007450, 0.0634631813, 0.0604222119, -0.0381872207, 0.0615989752, -0.0242542271, -0.0100231646, -0.0579892881, -0.0615634434, 0.0150427800, 0.0474753492, -0.0397852473, -0.0367145240, 0.0627610013, -0.0405091569, -0.0537354760, -0.0284818485, 0.0234724805, -0.0421633571, 0.0268041901, 0.0541021302, -0.0258323289, -0.0551990978, -0.0244903099, -0.0203543268, -0.0395141393, 0.0304647405, -0.0138453599, -0.0269695241, -0.0168048218, 0.0065871803, -0.0107010482, 0.0094909770, 0.0394333154, 0.0370022468, 0.0254973173, 0.0098431073, 0.0598414540, -0.0531741269, -0.0193194505, 0.0249289349, 0.0581263080, 0.0640011504, 0.0263093226, 0.0038862794, 0.0191447884, -0.0240146872, -0.0011952400, -0.0105235269, -0.0417123400, 0.0158113725, 0.0482524596, -0.0189561266, -0.0076533984, -0.0172073711, -0.0269074328, -0.0796545520, -0.0132882763, 0.0042030141, -0.0275300071, 0.0408960693, -0.0476868451, -0.0513345599, -0.0080057764, -0.0456466265, -0.0116490964, -0.0421598069, 0.0315229855, -0.0027868419, -0.0325985365, 0.0015888744, -0.0101915849, -0.0011754043, 0.0184126385, 0.0602887236, -0.0423427895, -0.0532914065, 0.0175800323, 0.0198514704, 0.0410195664, -0.0459220484, 0.0099145742, -0.0472457744, -0.0452139676, -0.0297216550, -0.0123066753, -0.0788613781, -0.0520713441, -0.0276160259, 0.0337501094, -0.0314695574, -0.0144183785, -0.0239309724, 0.0119225048, 0.0058128461, -0.0347094014, 0.0702883974, 0.0253060888, -0.0562330037, -0.0275678281, 0.0061896797, 0.0153297447, -0.0558864437, -0.0667075738, -0.0527390912, -0.0480325744, 0.0355883203, 0.0467283092, -0.0209569298, 0.0214770101, -0.0608582012, -0.0034677109, 0.0258385688, 0.0138581516, -0.0620038100, 0.0694438592, -0.0283313002, -0.0659471154, -0.0137913311, 0.0380206816, -0.0201103259, -0.0265472829, 0.0282646772, -0.0876040086, 0.0066785556, -0.0348787419, 0.0723688081, 0.0425861813, -0.0108671151, 0.0764036998, 0.0418031812, 0.0524473414, 0.0307519268, -0.0554318726, 0.0107505638, -0.0022673435, -0.0487554632, -0.0452515110, 0.0364259146, 0.0410317741, -0.0221501160, 0.0462156907, -0.0796393603, -0.0608399548, -0.0068715019, 0.0107711041, 0.0215306617, 0.0457603708, -0.0191711988, 0.0422910638, -0.0686211586, -0.0578981787, 0.0065259524, -0.0082681216, -0.0852514654, -0.0458150767, 0.0223170500, -0.0129079148, 0.0530226082, -0.0263321549, 0.0221731886, 0.0471866019, -0.0368203595, -0.0049560093, -0.0522455759, 0.0161237307, -0.0321842991, -0.0703199431, 0.0171124954, 0.0349858478, -0.0301384442, -0.0049274224, 0.0481354967, 0.0122912275, -0.0542849489, 0.0113731213, 0.0255964287, 0.0215871911, 0.0516157970, 0.0269422010, -0.0208567586, 0.0509628206, -0.0539046563, -0.0457586795, -0.0391158797, 0.0113939028, -0.0814626664, -0.0704193786, 0.0484010540, -0.0196614433, 0.0117506171, 0.0688584819, -0.0139872935, 0.0334349945, 0.0084830094, -0.0027330655, 0.0434652306, -0.0770268515, -0.0409461595, -0.0717850477, -0.0291642249, 0.0024777672, -0.0321009494, -0.0139463218, 0.0374349616, 0.0008673958, -0.0759665370, -0.0228479709, 0.0249722116, 0.0705383942, 0.0660376996, -0.0011981007, 0.0394223295, 0.0444305837, 0.0430698171, -0.0368371867, -0.0222028811, 0.0244843513, -0.0377509370, -0.0644962043, -0.0482889973, 0.0258428529, -0.0155375637, 0.0569527224, 0.0118353805, 0.0412906185, -0.0514401123, 0.0074841045, 0.0017426333, 0.0058355303, -0.0146733997, 0.0207453016, -0.0109591074, 0.0141419824, -0.0351076871, 0.0719686523, 0.0441786535, -0.0479833558, 0.0489418618, -0.0161751620, -0.0077977437, 0.0129327122, 0.0092024254, -0.0471645519, 0.0633006915, -0.0785818547, -0.0217877254, 0.0076200170, 0.0241082571, -0.0500594899, -0.0700299069, -0.0236831717, -0.0590885766, -0.0354585350, 0.0727381036, 0.0419691093, 0.0045366944, 0.0462141410, -0.0423897170, -0.0471715033, 0.0163592845, -0.0493043438, -0.0254510622, -0.0070983926, 0.0229611676, -0.0495089255, -0.0173170865, -0.0167843644, 0.0545223169, 0.0453948155, -0.0122226756, 0.0456456468, 0.0454202369, 0.0483436696, 0.0498890057, 0.1022601873, 0.0068425070, -0.0338384807, 0.0152856624, -0.0210767556, -0.0047170329, 0.0239995290, 0.0224506333, -0.0673930198, -0.0545052253, -0.0352262259, 0.0179975368, -0.0095062172, 0.0389124267, -0.0272365734, 0.0283281673, -0.0556897521, -0.0040424033, -0.0118895685, -0.0228258930, 0.0450419076, -0.0739263147, -0.0217187926, 0.0209874026, 0.0107678259, 0.0154026542, -0.0237372555, -0.0059689060, -0.0204729177, 0.0058464687, 0.0776342750, 0.0068312567, 0.0377659276, 0.0283235293, -0.0445631109, 0.0176608264, 0.0249386076, 0.0135025783, 0.0021019590, -0.0307015795, 0.0018307460, -0.0149566419, 0.0523564145, 0.0231998004, -0.0000812712, 0.0444634855, 0.0041214805, -0.0167708453, -0.0172002185, 0.0406870916, -0.0645427257, 0.0135711990, -0.0455944762, -0.0322841480, -0.0051413081, 0.0224938560, 0.0736891776, -0.0442779958, 0.0093725957, 0.0580919795, -0.0060196640, -0.0423684604, 0.0167541411, -0.0279236548, 0.0809808522, 0.0617419593, 0.0172389317, 0.0540228784, 0.0239852052, -0.0344701558, -0.0268237777, -0.0158955865, 0.0295425169, -0.0858942643, 0.0565478802, -0.0128241722, 0.0661913604, 0.0758078396, 0.0239816420, -0.0484728590, -0.0395656303, -0.0638122857, -0.0513427556, 0.0323665291, -0.0423380062, 0.0304660164, 0.0274260584, 0.0524052866, 0.0574068986, 0.0004560122, 0.0337627232, 0.0106567703, -0.0646960363, 0.0730481595, 0.0617985353, -0.0404539816, 0.0038091966, -0.0516620502, 0.0400065482, 0.0309318416, -0.0498724654, -0.0097979857, -0.0431999490, -0.0323860683, -0.0314584896, -0.0169629641, -0.0308473632, -0.0024535686, 0.0579543822, -0.0528384149, -0.0114166401, -0.0129295830, 0.0137229320, -0.0021493847, 0.0473427065, 0.0030039912, -0.0223981757, -0.0004793098, -0.0328488573, 0.0344367325, 0.0061921468, -0.0401538759, 0.0086854203, 0.0092231864, 0.0366878361, 0.0184194744, 0.0695325434, -0.0088605685, -0.0191942323, -0.0542158037, -0.0605105199, -0.0609867498, 0.0044407612, -0.0387099460, 0.0345540792, -0.0706464350, -0.0459656902, 0.0162435696, -0.0192991477, 0.0582359806, 0.0520057976, -0.0280392841, -0.0389368199, -0.0542897694, -0.0727435425, -0.0594387241, 0.0194435865, -0.0515693128, -0.0611582361, 0.0495922230, -0.0101854922, 0.0766342878, 0.0132628866, -0.0333567671, 0.0283100754, -0.0276516564, -0.0157285389, 0.0175642390, 0.0007832795, 0.0329668522, 0.0670119375, 0.0068773478, 0.0097038010, 0.0205254052, -0.0198236480, -0.0015048594, -0.0326243266, -0.0471057110, -0.0649203584, 0.0318218991, 0.0118293250, -0.0544855073, 0.0741221458, -0.0194846597, -0.0570699945, -0.0306417793, 0.0001693560, 0.0167752728, 0.0402879156, -0.0211957544, 0.0028797071, 0.0243135523, 0.0651035309, 0.1048403680, 0.0618847497, 0.0046449150, -0.0425223149, -0.0040310659, 0.0391252972, -0.0277244300, -0.0298717655, 0.0445990153, 0.0328416564, -0.0062826946, 0.0109808519, 0.0419389457, 0.0147503614, 0.0040422059, -0.0737413839, -0.0934379697, -0.0639986619, 0.0376717634, -0.0253333580, -0.0378232487, -0.0070655011, -0.0108921034, -0.0562917292, -0.0343400761, -0.0434137173, -0.0449938364, -0.0229782686, -0.0023914224, -0.0530416630, -0.0010217193, -0.0219474584, 0.0629273355, 0.0570365526, 0.0833387226, 0.0479893982, 0.0289549474, 0.0401365571, -0.0390817150, 0.0147616034, -0.0370467864, -0.0080057904, 0.0171967410, -0.0680797920, -0.0262697656, -0.0292963143, -0.0062545617, -0.0165483542, -0.0164552443, -0.0418644808, -0.0829758644, 0.0401557609, -0.0274775270, 0.0572218746, 0.0062626097, 0.0246409830, -0.0353564918, -0.0298540257, -0.0306279957, 0.0384875461, 0.0662481859, 0.0589367673, 0.0161205661, -0.0157403313, 0.0697191730, 0.0617428832, 0.0415621847, -0.0408531651, -0.0515867025, -0.0307551473, -0.0207302663, 0.0428880379, 0.0106273917, -0.0304452442, 0.0327880792, -0.0134514412, -0.0685032755, -0.0149819693, 0.0387272090, -0.0044357628, -0.0588645525, 0.0388077348, -0.0723627284, -0.0325398594, 0.0030455345, -0.0616086833, -0.0131949261, -0.0764046013, -0.0201020222, 0.0227337126, 0.0482779965, -0.0435673632, 0.0160854403, -0.0427571908, 0.0151304118, 0.0525055006, 0.0847146362, 0.1091483086, 0.0648901537, 0.0569274649, -0.0429298468, -0.0345456786, -0.0128001356, 0.0456722714, 0.0174350403, 0.0367909484, 0.0155454529, 0.0382515490, 0.0547790937, 0.0120236510, -0.0691209137, 0.0175242200, -0.0587027073, -0.0407127067, 0.0300656483, 0.0634551495, -0.0156499054, -0.0364530273, -0.0437505729, 0.0007064356, -0.0200336967, -0.0113356989, 0.0123769334, 0.0335907787, -0.0665702820, 0.0153133608, -0.0435653366, 0.0712009147, 0.0495774187, 0.0555485226, 0.0183517244, -0.0524538048, -0.0654132366, -0.0358422399, 0.0484458767, 0.0243938267, -0.0157829002, 0.0228652637, -0.0010514702, 0.0083662644, -0.0239052270, 0.0129626971, 0.0435220599, -0.0046363375, -0.0580020174, -0.0904604271, -0.0687696859, -0.0205305405, 0.0622179657, -0.0698825568, -0.0450161807, -0.0536300056, 0.0362252481, 0.0020488547, -0.0209195465, 0.0259210430, 0.0547685623, -0.0168816037, 0.0183769707, 0.0562958010, 0.0981759652, 0.0942110494, 0.0155687304, 0.0575962700, -0.0166210886, 0.0412955545, 0.0090771206, -0.0347305723, -0.0382506885, -0.0397861153, -0.0518198311, -0.0172062274, -0.0246026590, -0.0619468726, 0.0367075354, 0.0329275429, 0.0339564756, -0.0597184859, -0.0289109517, -0.0228721928, -0.0207881127, 0.0230474044, -0.0355340727, -0.0836108103, -0.0365291834, -0.0689475387, -0.0448410511, -0.0485492125, 0.0143736964, -0.0676219761, 0.0191169586, 0.0234629214, 0.0512210876, 0.0632711276, -0.0149146421, -0.0239083264, -0.0774208233, 0.0274514239, -0.0470062308, 0.0246681068, 0.0393698141, 0.0702423006, 0.0397341326, 0.0372025743, -0.0013591598, -0.0487532206, -0.0174197033, -0.0270091444, -0.0443708934, -0.0240348391, 0.0461205021, 0.0227800962, -0.0161269512, 0.0052785361, -0.0652250499, -0.0725905299, -0.0605160780, -0.0610596687, -0.0194053203, 0.0039143190, 0.0380918421, -0.0097642289, -0.0529499911, 0.0296469033, 0.0027615963, -0.0422626920, -0.0267445426, -0.0611075424, -0.0263863020, 0.0251927655, -0.0521047264, -0.0161071755, -0.0130833862, -0.0043194010, -0.0009861597, -0.0098023862, 0.0557172857, -0.0339770019, 0.0461780839, -0.0501436740, -0.0672104582, -0.0456294976, 0.0031965217, 0.0000818824, 0.0090626469, 0.0127628772, -0.0850567669, -0.0128666013, -0.0099301217, -0.0062700324, -0.0039544650, -0.0588117093, -0.0538921542, -0.0820128992, 0.0229379665, 0.0704813376, 0.0398796313, -0.0165160540, 0.0521625504, -0.0352841392, 0.0356781036, -0.0739063546, -0.0129870968, 0.0175419319, 0.0332931355, 0.0048827776, -0.0035524121, -0.0191388950, -0.0268630907, 0.0313723646, 0.0357525051, -0.0117417164, -0.0048368098, 0.0144268358, -0.0779458657, 0.0540762357, -0.0009615227, -0.0219510663, -0.0076127970, 0.0314172693, 0.0163671300, 0.0356704965, -0.0140727563, 0.0204482414, -0.0509814657, -0.0243680142, -0.0302429534, -0.0387689248, 0.0023838335, -0.0255263355, 0.0355977975, 0.0415302590, -0.0386395007, -0.0131625291, -0.0236714967, 0.0386294015, 0.0250528194, -0.0021356959, -0.0617424995, -0.0471047722, 0.0298537072, 0.0519883484, -0.0022351944, -0.0701300204, 0.0556714125, -0.0057609905, -0.0106675513, -0.0119199976, -0.0052815457, -0.0054840618, 0.0008012094, -0.0420098715, 0.0020879759, 0.0645354912, 0.0382777750, 0.0315811969, -0.0107950037, -0.0604656860, 0.0191044193, -0.0203347802, 0.0635135993, 0.0573135391, -0.0128684267, -0.0584809221, -0.0777011812, 0.0241157766, 0.0303492770, -0.0038505183, -0.0487713590, 0.0047082375, -0.0396846384, 0.0297050569, 0.0052433303, 0.0178617388, -0.0294592157, -0.0231415313, 0.0563669316, 0.0068219192, 0.0426407941, -0.0556015074, -0.0403051600, -0.0170731097, -0.0370435789, -0.0087238923, 0.0578356422, 0.0155575834, -0.0112516945, 0.0809834599, 0.0644162595, -0.0434544571, -0.0152309956, 0.0009089146, -0.0322059169, -0.0400702134, -0.0772417635, -0.0442338064, 0.0247642193, -0.0407257415, 0.0089978632, 0.0081570735, 0.0608289987, -0.0541456342, -0.0210329406, -0.0053554326, -0.0325477161, 0.0128978901, 0.0339665897, 0.0001997476, 0.0235197190, 0.0583899282, 0.0157060847, 0.0444226302, 0.0310743693, 0.0216506626, 0.0230961498, 0.0310649555, 0.0350211076, 0.0049034846, 0.0008942702, -0.0141329048, 0.0542528331, -0.0474115759, 0.0084401732, -0.0387545042, -0.0261748768, 0.0101939021, -0.0400515608, -0.0292896368, 0.0277068093, -0.0472426228, 0.0389521532, -0.0197619721, 0.0615511388, 0.0669448227, 0.0340276882, 0.0086946990, 0.0735703558, 0.0503409654, 0.0474472716, 0.0341616012, 0.0283702556, -0.0112138949, -0.0334706046, 0.0832484886, -0.0067461454, 0.0325123705, 0.0386482589, 0.0083819479, 0.0661347881, 0.0725510642, 0.0718235001, 0.0104168393, 0.0384544693, 0.0387640074, 0.0082274070, 0.0394067764, -0.0376160964, 0.0384671912, 0.0427253507, -0.0554288737, -0.0840643942, -0.0081082089, -0.0164646469, -0.0325149782, -0.0028582646, 0.0374392532, -0.0139752124, 0.0005211538, 0.0358518511, 0.0320427082, 0.0804236233, -0.0148257520, 0.0183906928, -0.0493954122, 0.0478113294, 0.0598491728, -0.0457186662, 0.0360554382, -0.0062219910, -0.0113270637, 0.0035886590, 0.0111845685, 0.0323719047, 0.0568350144, -0.0323008224, -0.0578976460, 0.0225605983, 0.0119976262, -0.0642804801, -0.0745888203, -0.0039168559, 0.0039848816, 0.0139225125, -0.0558086596, 0.0382794365, 0.0193896051, -0.0142676951, 0.0357443132, -0.0390103348, 0.0469983444, 0.0434953757, 0.0370883010, 0.0372255817, 0.0876040608, 0.0532396734, -0.0192243569, 0.0884668455, 0.0151807098, 0.0257322080, -0.0334328078, 0.0360670611, 0.0123756137, 0.0085051255, -0.0024488473, -0.0304767713, 0.0277368240, 0.0224409699, 0.0196744390, -0.0135753658, -0.0241197683, -0.0456958003, -0.0311494786, -0.0400457382, -0.0525079891, -0.0265929885, 0.0068356199, -0.0463160574, -0.0438099764, 0.0330561996, 0.0165756103, 0.0617584288, 0.0422870703, 0.0048424266, 0.0216742456, -0.0217892379, -0.0148204528, -0.0123488344, 0.0314727724, 0.0311848111, 0.0769703686, 0.0073384522, 0.0497540683, 0.0636047572, -0.0129624205, 0.0493927188, 0.0808372870, 0.0010364484, 0.0110377558, 0.0600514784, 0.0737815201, -0.0278272964, -0.0409005508, -0.0679786056, -0.0402975269, -0.0574880876, -0.0705211014, -0.0494402200, 0.0163423605, 0.0260467436, -0.0033241929, -0.0176422503, 0.0629231408, 0.0586472265, 0.0243222378, 0.0696755573, 0.0488108583, 0.0146260830, -0.0239635240, -0.0294571202, 0.0813744962, 0.0598280467, -0.0068923966, 0.0477830768, 0.0216096416, -0.0024741152, 0.0310499892, 0.0306608751, -0.0020549323, 0.0619460605, -0.0124493754, -0.0290429685, -0.0518438220, -0.0358850509, 0.0442464314, -0.0055275494, -0.0129932594, -0.0262805857, -0.0467458926, 0.0166950077, -0.0168126840, 0.0211041011, -0.0816968232, 0.0239806417, -0.0385835953, -0.0485152304, 0.0418436155, -0.0576347634, 0.0311817788, -0.0404010564, -0.0669527277, -0.0405900143, -0.0112740472, 0.0455967933, -0.0358976759, 0.0161987711, 0.0604929924, 0.0083677722, -0.0125603853, -0.0415190943, -0.0515331961, -0.0337806046, -0.0129198814, -0.0219679996, -0.0583391748, -0.0437786207, 0.0091932770, -0.0522523299, 0.0039646016, -0.0420282446, 0.0615533069, 0.0077537163, 0.0674716309, 0.0103735551, -0.0060422113, 0.0636713728, -0.0372662023, 0.0352174379, -0.0404375419, -0.0284089465, 0.0053985151, 0.0029894051, 0.0179684497, -0.0352340788, 0.0622735545, -0.0248733312, -0.0551768467, 0.0605865344, 0.0309025776, -0.0405050702, -0.0101961242, -0.0578787439, -0.0523533113, 0.0009593284, 0.0513062626, 0.0570309721, 0.0170211978, -0.0234418716, -0.0599008426, 0.0257059429, 0.0653455406, 0.0672492906, 0.0233537480, -0.0541555472, -0.0443601608, -0.0660725236, 0.0043549184, 0.0675736964, -0.0486010984, -0.0097993314, 0.0050275857, -0.0160292424, 0.0662863702, 0.0129035376, 0.0200566072, 0.0349564962, 0.0420308299, -0.0424352065, 0.0594452396, 0.0622744858, 0.0200588275, 0.0006430137, 0.0264106244, 0.0602130517, -0.0314547047, -0.0569408126, 0.0535204746, -0.0100187939, -0.0212587696, 0.0471044108, 0.0599656291, -0.0488075279, 0.0162519775, 0.0180864502, 0.0034305742, 0.0534662157, -0.0639211684, 0.0653033257, 0.0043015825, 0.0328625850, -0.0194084216, -0.0077363132, 0.0623496734, -0.0610086992, 0.0009338218, 0.0172201432, 0.0538566820, 0.0289566498, -0.0522516780, 0.0653088838, -0.0038155371, -0.0244257953, -0.0148653388, 0.0478431955, -0.0636760592, 0.0023797592, 0.0663923994, 0.0246035624, -0.0044512535, -0.0105972178, 0.0391080938, 0.0115780784, -0.0581551716, 0.0238262489, -0.0517101064, 0.0115496693, 0.0689263940, -0.0261486378, -0.0589985736, 0.0403691754, -0.0571311414, 0.0364255309, 0.0350036994, -0.0359975919, 0.0137618463, 0.0430478044, -0.0401653349, -0.0213819258, -0.0580068119, 0.0220499542, -0.0378947631, -0.0294041783, -0.0611452237, -0.0353511870, -0.0077259634, -0.0536909178, 0.0341598466, -0.0650575534, -0.0529864356, -0.0155522395, 0.0249058660, -0.0246360619, -0.0469100587, -0.0385812521, 0.0441392884, -0.0523935035, 0.0126102064, 0.0652873740, -0.0237254724, 0.0338701680, 0.0034115482, -0.0669868067, 0.0435635522, 0.0234635975, 0.0214034393, -0.0346615091, 0.0002172427, 0.0065761227, 0.0354768075, 0.0614278130, 0.0418612771, 0.0041756779, 0.0543148890, -0.0299481004, 0.0117919017, 0.0168502200, 0.0262584854, -0.0135496389, -0.0541863516, 0.0631131232, 0.0110268015, -0.0059543713, -0.0188298002, -0.0510898754, -0.0689561442, -0.0335347839, 0.0615601316, -0.0671253204, -0.0166869313, 0.0136713488, 0.0250147786, -0.0028964279, -0.0004004685, -0.0285343938, 0.0493931621, 0.0600310676, 0.0106482143, -0.0054385471, -0.0320558809, 0.0154921291, 0.0246368889, -0.0328260139, -0.0619203635, -0.0301644430, 0.0601772256, 0.0110054333, -0.0078866705, -0.0084866257, 0.0157800484, -0.0618201569, 0.0246188752, 0.0624926016, 0.0670109987, -0.0548188053, -0.0300237741, -0.0345547907, 0.0653881505, -0.0164312944, -0.0536315925, 0.0308137741, -0.0480589345, -0.0296267029, 0.0620893501, 0.0327038877, 0.0452657826, 0.0159301516, 0.0179575365, -0.0382005461, -0.0565026663, -0.0610426962, 0.0137432152, -0.0066966549, 0.0548291132, -0.0457263365, -0.0652847812, 0.0091347517, 0.0037217564, -0.0441071428, -0.0409398302, -0.0062930016, -0.0600038394, -0.0472001024, -0.0149806086, -0.0658456013, -0.0321778134, 0.0036660326, 0.0662645176, -0.0461115614, 0.0317479447, 0.0060088709, 0.0311218482, 0.0476829223, 0.0330780111, -0.0572036281, 0.0613168553, 0.0024111806, 0.0372826383, -0.0608006194, 0.0126521764, -0.0393103473, 0.0242921263, -0.0570159145, 0.0466764420, 0.0536062494, -0.0520419665, -0.0244393963, 0.0109502012, -0.0667487979, 0.0605051629, -0.0679800361, -0.0566736944, -0.0273231342, -0.0492523685, -0.0480208062, 0.0546386912, 0.0117754098, 0.0348569378, 0.0566798896, 0.0107637756, -0.0596161783, 0.0496382378, -0.0042103715, 0.0480021276, -0.0072567007, 0.0635675937, -0.0284753703, -0.0021205964, -0.0444548987, -0.0054762713, 0.0002861052, 0.0019992427, -0.0076100840, 0.0481042266, 0.0627572313, 0.0578220524, -0.0005170655, 0.0007310755, -0.0157117974, 0.0342521779, 0.0121389553, -0.0423605368, 0.0463064834, -0.0217425954, 0.0004527113, 0.0522974767, -0.0300165638, 0.0662030280, 0.0231937207, 0.0024702726, 0.0105371857, -0.0592442788, 0.0539481752, -0.0611822829, 0.0038758484, -0.0037701200, 0.0367864855, -0.0562342517, 0.0399507061, 0.0037531746, 0.0546861887, -0.0167118143, -0.0648294985, -0.0410155244, -0.0183015056, -0.0025485225, 0.0141988937, 0.0480988733, 0.0194340646, 0.0423096307, -0.0153472247, 0.0057976767, -0.0202716235, -0.0079859663, -0.0007120201, -0.0336769260, -0.0468954705, 0.0100720916, 0.0621913895, 0.0574277043, 0.0423486196, 0.0631526560, 0.0299231298, -0.0168082342, -0.0414859541, -0.0212093275, 0.0107771624, -0.0200301725, -0.0646621063, 0.0067794444, -0.0001296670, -0.0545027666, -0.0018073550, 0.0656592250, 0.0041788672, -0.0262983125, 0.0509901494, -0.0034769494, 0.0590387359, -0.0682116970, -0.0234643184, -0.0020482030, -0.0120725026, -0.0174996965, 0.0431609899, 0.0460172705, 0.0369620249, -0.0657545701, 0.0136924023, -0.0012118989, -0.0246748719, -0.0671427324, 0.0153180035, -0.0537388921, -0.0219127070, -0.0138881337, -0.0303973053, 0.0023087484, -0.0068261838, -0.0302811004, -0.0588373318, 0.0617422648, 0.0575402193, -0.0411694758, -0.0266331546, -0.0009518702, -0.0136874253, -0.0390153900, 0.0581542477, -0.0254043397, 0.0402481779, 0.0562421195, 0.0509229787, -0.0220318325, 0.0511160046, 0.0371055566, 0.0632728934, 0.0535166897, 0.0420947336, -0.0165080782, -0.0334220044, 0.0561946370, -0.0518081598, -0.0492438897, -0.0504744835, -0.0573650636, -0.0085447887, 0.0460302085, 0.0109144561, 0.0336050503, -0.0023198309, 0.0621954799, 0.0102338083, 0.0073285373, 0.0641129315, 0.0103712166, 0.0083895680, 0.0645769686, -0.0003287344, 0.0138297863, 0.0601776652, 0.0389041118, 0.0097144255, 0.0021799849, 0.0558827557, -0.0547932684, -0.0164672509, 0.0257829688, -0.0513938107, 0.0560827479, 0.0452733450, 0.0301915817, -0.0098947780, 0.0611598417, -0.0584837683, 0.0590375327, 0.0452831350, 0.0283693857, -0.0017587764, -0.0268284697, -0.0173068475, 0.0006612607, 0.0239467006, -0.0420814231, 0.0092462944, 0.0207421500, 0.0484234616, 0.0662285909, 0.0154089462, 0.0035055191, -0.0183287542, -0.0667585582, 0.0393478945, 0.0659353212, 0.0637507513, -0.0171884932, 0.0028750284, -0.0245827567, 0.0616139770, -0.0361525267, -0.0396594703, 0.0157200284, 0.0290900245, -0.0055015031, 0.0557138585, -0.0542340688, -0.0116084367, 0.0145260282, -0.0468655303, 0.0593316592, -0.0473238342, -0.0162760150, -0.0536801815, 0.0593647920, 0.0489593931, 0.0620916486, 0.0458630472, -0.0321175680, 0.0387765318, 0.0432021655, 0.0562183298, 0.0046315910, 0.0441517048, 0.0599174947, 0.0038130882, -0.0196249504, 0.0461419001, -0.0384074934, 0.0624647103, -0.0189197119, 0.0515645295, 0.0241119135, 0.0564744361, 0.0225765184, -0.0484387912, -0.0448978767, 0.0532314777, 0.0415256806, -0.0544405356, 0.0407505408, 0.0296890922, 0.0457347259, -0.0304327197, -0.0580294468, 0.0620882511, -0.0257730037, 0.0010085343, -0.0630175620, -0.0073208958, 0.0223680586, -0.0077184439, -0.0225398634, -0.0106564201, -0.0116818324, 0.0124906264, 0.0155843953, -0.0243840031, 0.0111076385, -0.0075540361, 0.0242264923, -0.0265026055, 0.0616576150, -0.0190291088, 0.0580548309, -0.0522010066, -0.0191257764, 0.0649229512, -0.0207280740, 0.0540395156, -0.0649894178, -0.0442887992, -0.0475891009, -0.0552090146, 0.0200802106, 0.0337187015, 0.0197415296, -0.0177658536, -0.0103801982, -0.0397511125, 0.0062404699, -0.0422576591, 0.0462582298, -0.0411845520, 0.0249117110, 0.0264798291, -0.0530703515, 0.0460793562, -0.0618704781, -0.0136013543, 0.0069160801, 0.0208767503, 0.0254238099, -0.0505628996, -0.0569025129, -0.0448555201, 0.0367517099, -0.0674921200, 0.0050491104, -0.0208562966, 0.0610656105, 0.0127833840, 0.0272415578, -0.0511933491, 0.0544596091, -0.0542717092, 0.0425233841, 0.0298372973, -0.0277423598, -0.0046242219, -0.0276754685, 0.0293901339, -0.0425937660, -0.0336807929, -0.0172906220, 0.0017561016, -0.0105963163, -0.0012616982, 0.0491424873, 0.0432596393, -0.0180854220, 0.0401953049, 0.0042287898, -0.0085232472, -0.0099374140, -0.0505909696, 0.0465337262, -0.0291272141, 0.0017262365, 0.0356956162, -0.0040657218, 0.0061698146, 0.0538969226, 0.0501158834, -0.0431294404, -0.0404837504, 0.0587475300, -0.0355217382, -0.0472282395, -0.0075412318, -0.0588365234, 0.0494722016, -0.0143997697, -0.0530356802, 0.0050958949, -0.0116747264, -0.0574613772, 0.0071301730, 0.0101794591, 0.0294743627, -0.0237308387, 0.0043083085, -0.0287839640, -0.0586863905, 0.0027047594, 0.0165444575, -0.0437433645, -0.0418126881, -0.0633873567, 0.0136503177, 0.0292744003, -0.0301629622, 0.0172043797, 0.0365328044, 0.0514609851, 0.0366448835, 0.0317581333, -0.0066104154, -0.0327031463, -0.0434936024, -0.0107986610, -0.0658686385, 0.0013797011, -0.0282745808, 0.0157260504, -0.0406662151, 0.0061271586, 0.0577407591, 0.0418327488, 0.0366432182, -0.0149625381, 0.0592035018, 0.0150748743, 0.0663900673, -0.0310995225, -0.0452354588, -0.0334304124, -0.0146137504, 0.0043925545, 0.0489994809, 0.0182503685, -0.0328811258, -0.0601713471, 0.0622796007, -0.0046187039, -0.0121461246, -0.0562216565, -0.0286026765, 0.0104398066, -0.0033589231, 0.0146610988, -0.0006188785, 0.0664631352, 0.0682019740, -0.0472428799, -0.0520757623, -0.0592073835, 0.0658488572, 0.0369463004, -0.0489443019, 0.0161032677, 0.0332064405, 0.0422089063, 0.0287293214, -0.0482813567, -0.0048064305, -0.0367736630, 0.0557802394, 0.0113120023, 0.0084122429, -0.0588564537, 0.0670855567, 0.0591787770, 0.0031467462, 0.0606937446, -0.0104933940, 0.0205677506, 0.0640735924, -0.0178197250, 0.0514384918, -0.0101921661, 0.0316984802, 0.0067005185, -0.0517948531, 0.0504130237, 0.0442568101, -0.0440635085, 0.0479409359, -0.0233841166, 0.0456807464, 0.0603336357, 0.0361866951, 0.0475730747, -0.0606547780, 0.0066857114, -0.0153660253, -0.0597081594, 0.0644881725, 0.0449309610, -0.0016940353, -0.0136025175, -0.0034446644, 0.0489982627, -0.0108392574, -0.0622996800, -0.0679314062, 0.0386906825, 0.0050447318, 0.0344199538, 0.0588354729, -0.0232987907, -0.0289174058, -0.0442720875, -0.0360664912, 0.0227563381, -0.0169828609, 0.0525527783, -0.0009248618, -0.0514330342, -0.0271619353, 0.0233046822, -0.0551588051, -0.0085888067, -0.0453525037, -0.0219505727, -0.0054145511, -0.0495741554, -0.0599735081, -0.0580432527, -0.0578623451, 0.0045269481, -0.0058703166, 0.0169264972, -0.0268788002, -0.0101706330, 0.0074008089, 0.0031843483, 0.0309879743, 0.0658071712, 0.0506298393, -0.0114820348, -0.0001891425, -0.0582625307, 0.0453529507, 0.0040981099, -0.0254111066, -0.0168702230, -0.0314438306, 0.0036606989, 0.0086886818, 0.0561602227, -0.0283588842, 0.0262534656, -0.0248581562, -0.0085907774, 0.0199381839, -0.0344454609, 0.0448027104, -0.0429793037, -0.0018258576, -0.0403664969, -0.0374795683, -0.0460903794, -0.0319248252, -0.0528293177, -0.0646658689, -0.0551528223, 0.0288914926, 0.0480800308, 0.0075748935, -0.0392121524, 0.0345382802, 0.0401810370, 0.0501787663, 0.0254638009, -0.0502182320, 0.0050991243, 0.0525124334, -0.0102940025, 0.0060607423, 0.0499170572, -0.0622807182, 0.0032515067, -0.0362896174, 0.0608751141, -0.0108741000, 0.0520570874, 0.0211799666, -0.0480910540, 0.0587425791, 0.0061603296, 0.0141267926, 0.0579865091, -0.0477219597, -0.0323263146, 0.0455063321, 0.0192079060, -0.0357280076, 0.0448754653, 0.0103112543, 0.0132969934, -0.0113876425, -0.0476991497, -0.0639121756, -0.0266200360, -0.0395642966, -0.0373651423, -0.0630142242, -0.0143902563, -0.0379881635, 0.0270702876, 0.0140292086, -0.0082742944, 0.0315119177, -0.0178118702, -0.0347916298, -0.0176829640, -0.0670380667, 0.0639066324, 0.0227660611, -0.0195421223, 0.0443784930, -0.0394340754, -0.0638782233, 0.0144455833, 0.0024111771, -0.0246457104, 0.0299957134, -0.0105802072, -0.0204846133, -0.0330911763, 0.0435871929, 0.0599881411, -0.0255888049, -0.0061547528, 0.0507433228, -0.0617617145, -0.0486319847, -0.0445724092, 0.0384669006, -0.0124049056, -0.0060243490, -0.0278363097, 0.0508579500, 0.0623440295, -0.0380347855, -0.0250688680, -0.0127882613, -0.0465582311, 0.0480189100, 0.0094650630, 0.0422701761, -0.0346008167, 0.0509217903, 0.0011019721, 0.0394064039, -0.0134589812, -0.0338643901, -0.0608731173, 0.0633127838, 0.0274368320, -0.0656388253, -0.0228858367, 0.0367116034, -0.0305029452, -0.0517102107, 0.0286191981, 0.0624537133, 0.0371355638, -0.0142726973, 0.0079380050, 0.0278088357, -0.0066283075, -0.0681442693, 0.0310335997, -0.0477141216, -0.0525862202, -0.0338072665, -0.0536807142, -0.0437304638, -0.0129854269, 0.0650673732, -0.0276826471, 0.0640996248, 0.0219438411, -0.0259627774, -0.0477737412, -0.0332592502, 0.0006015046, -0.0349850431, -0.0499742217, 0.0043015876, 0.0055577373, -0.0176861323, 0.0397343673, -0.0653074160, 0.0128601035, 0.0683347955, -0.0200662278, -0.0409604795, -0.0664284602, -0.0329994597, -0.0095074279, 0.0372942537, -0.0140179247, 0.0401836373, 0.0086146602, 0.0240808893, 0.0449189767, -0.0495360680, 0.0435508490, 0.0657775328, -0.0253644660, 0.0231868941, 0.0314041041, -0.0057130218, 0.0080149090, -0.0430837534, -0.0352797210, 0.0181688201, 0.0060093072, 0.0445083939, 0.0530729033, 0.0676267222, 0.0023592603, -0.0055153728, 0.0308301039, -0.0558456220, -0.0094968425, -0.0124244634, -0.0280560590, 0.0149140200, -0.0241297111, 0.0478795357, -0.0154279862, 0.0629775226, -0.0545863695, 0.0030298147, -0.0260148551, 0.0312882215, -0.0175122507, 0.0300806724, -0.0051624826, -0.0339393429, -0.0198296662, -0.0473489761, 0.0354774073, 0.0299588703, 0.0174865089, 0.0304270182, 0.0405690037, 0.0039462689, -0.0668834373, 0.0529505461, 0.0626727268, -0.0592486858, 0.0161034241, 0.0211953484, -0.0020812491, -0.0381396040, 0.0164507814, 0.0436660461, -0.0630566031, -0.0272662155, -0.0418629013, -0.0541683249, -0.0225488804, 0.0599329658, 0.0264279805, -0.0443196595, 0.0420084856, 0.0362796150, 0.0415731147, -0.0417579822, 0.0624755137, -0.0636636838, 0.0668917224, -0.0621374026, 0.0661464706, -0.0585471168, 0.0240551271, 0.0218503755, 0.0281024575, -0.0250220206, 0.0025811931, 0.0600330122, -0.0111120883, -0.0315417498, -0.0504601076, -0.0287856739, 0.0146645764, 0.0477749258, -0.0493154675, -0.0604016148, 0.0373209901, 0.0441377200, 0.0119592287, -0.0060861730, 0.0451167300, -0.0245425999, -0.0152548319, -0.0343657844, 0.0331066959, -0.0165342037, -0.0623985231, -0.0474592596, -0.0502442159, 0.0596627221, 0.0285726711, 0.0562792905, 0.0645364672, -0.0425107963, -0.0210292041, -0.0292869695, -0.0022410401, -0.0488617010, 0.0281630829, 0.0634813383, 0.0584925190, 0.0555686280, -0.0584364347, 0.0014797577, 0.0351543166, 0.0474653654, 0.0507466942, 0.0130852358, -0.0047790930, -0.0236739460, 0.0191702712, -0.0333747901, -0.0477871038, 0.0270961598, 0.0251655504, -0.0550921224, 0.0417341851, 0.0547898933, 0.0588925816, -0.0677671358, -0.0171735436, 0.0081315767, -0.0495923311, -0.0171903092, -0.0481931865, 0.0126846982, -0.0103506725, 0.0021228818, 0.0059111482, -0.0273142364, 0.0257585179, 0.0343709588, -0.0051551471, -0.0271592420, -0.0196636077, -0.0191738885, 0.0229826607, -0.0235155839, -0.0605331399, -0.0131720202, 0.0259503238, -0.0680722296, -0.0121938707, -0.0064825001, -0.0438309200, 0.0306702666, 0.0265323818, -0.0510692038, 0.0531831980, -0.0066924868, 0.0502931252, -0.0061652302, 0.0196769331, 0.0295182932, 0.0053576170, 0.0155900773, 0.0186508782, -0.0406252146, -0.0533893257, -0.0260942020, 0.0567471161, -0.0453406312, 0.0576319769, 0.0199268200, 0.0642114729, 0.0090213837, -0.0625506565, -0.0091687301, -0.0240744688, -0.0198921468, 0.0625286028, -0.0366183892, 0.0291759036, 0.0213091914, 0.0479414985, 0.0520347543, -0.0341201983, 0.0056388574, 0.0549146198, -0.0347704515, -0.0265727360, -0.0320904776, -0.0375463255, -0.0354323983, 0.0616909564, 0.0540886782, -0.0180990547, 0.0437920280, 0.0331846811, -0.0037006456, 0.0665301606, 0.0338194892, -0.0373712853, 0.0631900728, -0.0537513383, -0.0473192297, -0.0074758818, 0.0012070460, 0.0668035150, -0.0077181417, 0.0552630201, -0.0492743962, 0.0256641842, 0.0270314198, -0.0003436478, 0.0625891313, 0.0501438938, 0.0106321927, 0.0395591222, -0.0665896907, -0.0475932807, -0.0285017081, 0.0461767577, -0.0382336900, -0.0244571511, -0.0542620085, -0.0662989393, -0.0153948106, -0.0610644594, -0.0550724566, 0.0667310804, 0.0634011626, 0.0365479216, 0.0326666310, 0.0651518777, -0.0449493043, -0.0299288034, -0.0200757962, 0.0313156322, -0.0591753870, -0.0008921731, -0.0416130349, 0.0271460991, -0.0149780288, 0.0689901486, 0.0249417759, -0.0544917583, -0.0286750216, -0.0218841936, 0.0585004576, -0.0120996395, -0.0679177865, -0.0261897631, -0.0623104423, 0.0571939275, -0.0625350997, -0.0095397299, -0.0615289845, -0.0528381206, 0.0019264403, -0.0208166819, 0.0190575607, 0.0237044245, -0.0637193620, -0.0097706709, -0.0293203909, 0.0638924912, -0.0079672011, -0.0389085487, -0.0388137773, 0.0075573809, 0.0266227741, 0.0094745103, -0.0480460674, -0.0470579229, -0.0512087084, 0.0528665073, 0.0634544715, -0.0067301067, 0.0250686817, -0.0103731602, -0.0553345308, 0.0127259009, -0.0420557298, -0.0108286059, 0.0512096025, 0.0218370613, 0.0018578338, -0.0521489680, -0.0672511160, 0.0368344449, 0.0446463227, -0.0336500034, -0.0277741123, 0.0290830750, -0.0346336365, 0.0396572128, 0.0253962930, 0.0015164097, -0.0214697402, -0.0615502410, 0.0253579114, -0.0126652606, -0.0239236038, 0.0626290962, 0.0458030887, -0.0650238618, -0.0528680980, 0.0029248325, 0.0282519720, -0.0317015126, -0.0297311842, -0.0490120761, -0.0262865555, -0.0515519343, 0.0218150094, -0.0521698296, 0.0332159959, 0.0603783503, 0.0514445640, 0.0460233651, 0.0316217802, -0.0448651277, -0.0624983422, -0.0150467632, -0.0523837507, 0.0530431010, 0.0047327350, 0.0216688663, -0.0344549343, -0.0553453900, -0.0480516031, 0.0515052378, -0.0562337339, -0.0582364425, 0.0326274820, 0.0541956984, 0.0670077205, -0.0190486554, 0.0033818679, -0.0405386128, -0.0268731900, -0.0179871060, -0.0589911006, -0.0420987532, 0.0575696081, -0.0359059460, 0.0441725180, 0.0105963117, 0.0282941386, -0.0265968479, -0.0643092915, -0.0547498390, 0.0391780213, -0.0261059310, 0.0413026586, -0.0213973187, -0.0222690068, 0.0106674628, 0.0250505842, -0.0039579449, 0.0584802665, -0.0500244312, 0.0533833876, -0.0438831858, 0.0389968567, -0.0052109584, 0.0504195094, -0.0602392219, 0.0333628915, 0.0529740751, 0.0002779778, -0.0389926136, 0.0656410828, -0.0564824939, -0.0579014346, -0.0664756224, -0.0215137713, 0.0647012442, 0.0630624592, -0.0508962981, 0.0594527535, 0.0432023630, -0.0513940603, -0.0271033663, 0.0022643222, -0.0381000601, -0.0243664943, 0.0180226490, -0.0284099225, 0.0255448464, 0.0474367104, -0.0537774004, 0.0144180655, 0.0573297553, 0.0338154174, -0.0420693271, -0.0271912683, 0.0443797484, -0.0502381623, 0.0289082248, 0.0618209802, 0.0611421205, 0.0475148559, 0.0044032973, 0.0105055152, -0.0075059873, 0.0265647639, 0.0270100441, -0.0011268063, 0.0024633028, -0.0645049885, -0.0462975018, -0.0148785990, 0.0572507828, -0.0518648475, -0.0017617024, -0.0092389956, -0.0618398450, 0.0075720684, 0.0114085199, -0.0078401882, 0.0361414924, 0.0176286902, -0.0345375910, 0.0272408482, -0.0643985942, 0.0233152360, 0.0442907996, 0.0170678776, 0.0341733545, 0.0131907258, -0.0666668564, -0.0143270586, -0.0057456577, 0.0358966812, -0.0034061552, -0.0106111635, 0.0077493107, -0.0170970801, -0.0159206316, 0.0640594140, -0.0262336731, -0.0338837728, 0.0096875252, -0.0130190840, -0.0339515544, -0.0369196162, -0.0613856427, 0.0276620146, 0.0007258449, -0.0228748210, 0.0575112104, -0.0555427298, -0.0028941492, -0.0432523750, 0.0145653915, -0.0423467793, -0.0033031425, -0.0018001554, -0.0612850562, 0.0468371771, 0.0212394167, 0.0363752246, 0.0188963413, 0.0493736565, 0.0208739750, 0.0437282734, -0.0063901609, -0.0343092866, -0.0570156425, 0.0254490674, -0.0536426865, 0.0124130752, -0.0053034863, -0.0437166058, 0.0399272032, 0.0293817297, -0.0583140031, -0.0631804392, -0.0402261131, 0.0612760931, -0.0670586079, -0.0162183568, 0.0680740774, 0.0240951683, -0.0105691468, 0.0408009179, 0.0648122132, -0.0546733737, -0.0073166532, 0.0346833728, 0.0546512045, 0.0033918326, -0.0522214845, -0.0178160667, 0.0126819825, -0.0179961156, 0.0204162616, -0.0336702578, 0.0409513600, 0.0341812186, -0.0006655370, -0.0403962918, -0.0461658165, 0.0516953617, 0.0001605628, 0.0508974530, -0.0534033626, 0.0186221935, 0.0540579595, -0.0562108569, 0.0043206681, 0.0552451909, 0.0240666717, 0.0298741478, 0.0688696727, -0.0145126488, -0.0414149910, -0.0180148464, -0.0390387438, 0.0268091094, -0.0526478328, -0.0658972040, -0.0247567501, -0.0645190999, -0.0500584282, -0.0454903767, 0.0467218868, 0.0557946973, 0.0425590090, 0.0258977450, 0.0214147400, 0.0158586036, -0.0297316052, -0.0234618820, 0.0135215893, 0.0452521853, -0.0304757934, -0.0478331894, 0.0630676225, 0.0350649655, 0.0401903838, -0.0183306187, -0.0461594984, 0.0310747568, -0.0613794997, 0.0341867916, -0.0429889150, 0.0570160523, -0.0254705939, -0.0151644414, -0.0574305020, 0.0001736294, -0.0588722005, -0.0455553643, 0.0239134934, 0.0533485711, -0.0556689277, -0.0316549130, -0.0042499816, -0.0287582260, 0.0303289425, 0.0544059686, 0.0341118984, -0.0143196899, 0.0340596512, -0.0455534197, -0.0339016356, 0.0129339434, 0.0288166627, 0.0568102412, -0.0518737286, -0.0003626827, -0.0619862080, -0.0004596168, 0.0636589229, -0.0572998710, -0.0078833653, -0.0450887382, 0.0328540653, 0.0478510633, -0.0363377482, 0.0647119880, 0.0431206003, -0.0639754161, 0.0627397969, -0.0377784818, -0.0346438698, -0.0219362192, 0.0437868126, -0.0254330710, -0.0619481802, -0.0481216200, -0.0482177027, -0.0033670317, -0.0057179006, -0.0178582110, 0.0053529274, -0.0503717363, -0.0480535813, 0.0662900880, -0.0617545582, 0.0585408993, 0.0608842634, 0.0330663882, -0.0437634923, -0.0304723270, 0.0176335014, -0.0497012362, 0.0689649433, -0.0585168451, -0.0199132282, 0.0364331901, 0.0520617515, -0.0574266724, -0.0426198877, 0.0571691766, -0.0620308444, -0.0350239649, 0.0664541349, -0.0566750504, -0.0141578307, -0.0258099977, -0.0575992018, 0.0400870331, 0.0616591573, -0.0374983586, -0.0075411964, -0.0206910241, -0.0593928024, -0.0026740364, -0.0271207523, -0.0615072437, -0.0142177967, -0.0372866616, 0.0024644053, -0.0411588065, 0.0508713387, -0.0264425259, 0.0454642735, -0.0177066252, -0.0361999087, -0.0602603778, -0.0306676347, -0.0444468670, 0.0296395048, 0.0203627758, -0.0051685977, 0.0498616248, 0.0096114427, 0.0091593927, -0.0515076071, -0.0215451252, -0.0661262348, 0.0101813357, 0.0044858921, 0.0507633537, 0.0229245070, 0.0058568404, -0.0649881139, 0.0383851528, 0.0283099432, 0.0681691766, -0.0090054050, 0.0568811931, -0.0550267324, 0.0654618591, -0.0054553603, -0.0118130175, 0.0403937213, -0.0125424182, -0.0275576040, -0.0205267146, -0.0222185943, -0.0288300589, 0.0576681606, 0.0547539555, -0.0069980742, 0.0470290035, -0.0020994782, -0.0512007289, 0.0153528359, 0.0023278829, 0.0209445283, -0.0251419134, -0.0606906414, 0.0439446792, 0.0512383841, 0.0675603300, -0.0379848480, 0.0042900760, 0.0541471131, 0.0559611581, -0.0473452508, 0.0094332639, -0.0576724298, 0.0574507639, -0.0571234860, 0.0383376144, 0.0204679575, 0.0611973181, -0.0255882833, 0.0515435860, 0.0004761515, 0.0682412460, 0.0679878891, 0.0602354519, -0.0151168536, 0.0269340687, -0.0172030330, 0.0105315186, 0.0049008769, -0.0113583542, -0.0453774668, -0.0463008806, 0.0047889999, -0.0355756879, -0.0099175759, -0.0106464364, 0.0410268195, 0.0621715337, -0.0516104810, 0.0644447654, -0.0570359118, -0.0243590176, 0.0520832688, 0.0058866125, -0.0083543910, -0.0550015420, -0.0385575667, -0.0559210032, -0.0505092740, 0.0322410874, 0.0393448099, 0.0283194557, -0.0131106554, 0.0368570574, 0.0011085428, 0.0397467799, 0.0036236045, -0.0089492910, 0.0523729399, -0.0092172073, -0.0376795381, 0.0340774395, -0.0057968339, -0.0053177592, 0.0672104508, 0.0147407493, 0.0645668209, -0.0663538203, 0.0656774789, -0.0440355688, -0.0563560054, -0.0574156903, -0.0529344119, 0.0394667573, 0.0239492822, -0.0359696820, -0.0145441862, -0.0418588668, -0.0406242199, 0.0116865803, 0.0379042923, 0.0269385912, 0.0664517954, 0.0453708209, 0.0530955009, 0.0196950473, -0.0517484285, -0.0576695427, -0.0089205075, 0.0289771128, -0.0016065373, 0.0275750197, -0.0671250075, -0.0222428069, 0.0417869091, -0.0078442441, 0.0235225055, 0.0502867214, -0.0075058150, 0.0317804702, -0.0040285238, -0.0522139519, 0.0499437824, -0.0336487889, 0.0032864281, -0.0490603596, 0.0163641628, 0.0240347069, -0.0129510369, -0.0547585450, 0.0263891872, -0.0125598144, 0.0096633574, 0.0430937223, -0.0074870796, 0.0185518675, 0.0613685548, 0.0078797694, -0.0012892156, -0.0639494359, -0.0110895233, 0.0611299686, -0.0648214594, -0.0473148637, -0.0229739100, 0.0444077775, -0.0225321408, -0.0025046922, -0.0602003187, 0.0224805046, -0.0466198884, -0.0205726251, 0.0383782052, -0.0166024342, -0.0525360480, 0.0233946554, -0.0122415284, -0.0132169118, 0.0362543389, 0.0307912622, -0.0350799859, -0.0215405114, 0.0182386898, -0.0369941071, -0.0610931143, -0.0453911126, 0.0480303466, -0.0650995225, 0.0246976130, 0.0321895294, -0.0275858436, -0.0399247371, 0.0155088399, 0.0286711268, -0.0030423480, -0.0345241874, 0.0028204999, -0.0489870682, -0.0058305487, -0.0137502318, 0.0051809214, -0.0170448050, 0.0140935332, -0.0645040199, -0.0307972971, -0.0615486465, 0.0017252670, -0.0247154590, -0.0450439863, -0.0100257928, -0.0191021673, -0.0109842420, -0.0302796178, 0.0519058555, 0.0574715249, -0.0097853253, -0.0690145344, -0.0365395918, 0.0231320169, 0.0528873950, -0.0509760976, 0.0131454766, -0.0431785546, -0.0076859766, -0.0356030315, 0.0282583851, -0.0109282443, 0.0561935604, 0.0447147526, -0.0248601884, -0.0573008843, -0.0143625718, 0.0392732248, -0.0421567000, 0.0511227474, 0.0254470594, 0.0095997117, -0.0093564605, 0.0475935861, 0.0022772523, -0.0029528034, 0.0493632555, 0.0054327766, 0.0507242344, 0.0223658327, -0.0187238157, -0.0006329253, 0.0218016692, 0.0270250309, 0.0116897104, -0.0465935878, 0.0653817505, 0.0472500883, -0.0206326116, -0.0455470905, 0.0594452359, -0.0547948480, 0.0120577095, -0.0469111428, 0.0071656872, 0.0080766249, -0.0116681084, -0.0108760661, -0.0138977980, -0.0435583368, 0.0411170237, 0.0622854047, -0.0081094038, 0.0496159121, 0.0391810499, -0.0195498392, 0.0335312039, 0.0573168881, 0.0541637130, 0.0581784546, 0.0212980025, 0.0571998097, 0.0191058349, 0.0013635198, 0.0197891239, -0.0391107090, -0.0139908474, 0.0595002323, -0.0282579400, 0.0649952590, -0.0392321460, 0.0623176061, -0.0486337021, -0.0570639931, 0.0535239540, -0.0097980229, -0.0511726476, 0.0482323915, 0.0130594820, -0.0401430689, 0.0031169457, -0.0505863763, 0.0153092882, 0.0581280813, -0.0138582392, 0.0478773229, -0.0177009478, -0.0172530673, -0.0454281233, 0.0584739931, 0.0433410555, -0.0431067199, -0.0337908901, -0.0410892777, 0.0091764713, 0.0445794947, -0.0467445627, -0.0356093533, -0.0639679208, 0.0244599544, 0.0249688085, 0.0195305962, 0.0119143510, -0.0074355151, 0.0062373392, -0.0268542133, -0.0122721763, 0.0174632929, 0.0078827599, -0.0476849191, -0.0064512575, 0.0374603830, -0.0251571685, -0.0490874723, -0.0052327630, -0.0051712473, -0.0061735064, 0.0015798791, 0.0553191230, 0.0655525178, -0.0492115989, -0.0129727041, 0.0478817746, 0.0477412120, -0.0468868241, -0.0574590303, 0.0212588646, -0.0336308144, 0.0646585226, -0.0246700030, -0.0574687682, 0.0628808141, 0.0089536477, 0.0490534715, 0.0543322638, 0.0194080751, 0.0652536750, -0.0532665700, -0.0283444170, -0.0438322462, 0.0257396530, 0.0661514997, -0.0206335671, 0.0439731590, 0.0644315928, 0.0295647476, 0.0233931746, -0.0116059938, -0.0507211238, -0.0400163978, 0.0342804901, -0.0139835998, -0.0552920066, 0.0161665212, 0.0285359845, -0.0157910585, 0.0400302373, 0.0208743885, 0.0501217693, 0.0569800064, -0.0559349135, 0.0217909832, -0.0100267483, 0.0664948151, 0.0680872798, 0.0163395721, -0.0355551690, 0.0390227512, 0.0077249487, -0.0023902643, 0.0115562044, 0.0603424050, 0.0638125688, -0.0329345651, -0.0086418912, 0.0287845433, -0.0041117612, -0.0421697982, -0.0364633873, -0.0094955489, -0.0327748805, 0.0046951259, -0.0562251806, 0.0552709252, 0.0031830124, 0.0639115274, 0.0439340435, 0.0494545065, 0.0489618517, -0.0218328983, -0.0586463287, -0.0151769733, -0.0543344989, -0.0335504711, -0.0417208783, -0.0620058514, -0.0547059141, 0.0690477565, 0.0012381156, -0.0485954806, -0.0503561571, 0.0052374601, -0.0444975942, 0.0214215908, 0.0271448530, -0.0138309896, -0.0282335598, 0.0210000705, -0.0054974635, -0.0682206377, 0.0216931570, -0.0185528677, 0.0249250103, -0.0608756430, -0.0146057233, -0.0416282415, 0.0192884635, 0.0623943768, -0.0239221305, 0.0507632233, -0.0440729968, -0.0494052172, 0.0328124352, -0.0389696620, -0.0177366920, -0.0247646105, -0.0635251254, 0.0236637816, 0.0296211150, -0.0024169136, 0.0475626029, 0.0559152439, 0.0413759388, -0.0478983410, 0.0575379618, -0.0215055756, -0.0619572103, 0.0155873578, 0.0653153881, 0.0354212448, 0.0444238447, 0.0600876994, 0.0580131672, 0.0442080088, -0.0271058511, 0.0279447846, -0.0678989589, -0.0400619693, 0.0461392961, -0.0371235348, -0.0618944801, -0.0043689827, 0.0130985081, 0.0422941782, 0.0216570273, -0.0404615179, 0.0349808037, -0.0669339076, -0.0121404221, -0.0690789968, 0.0044317981, -0.0643495172, 0.0466306880, -0.0674717203, -0.0077774548, 0.0241088364, 0.0001838918, -0.0286514107, 0.0274095405, -0.0324754417, -0.0292215198, -0.0615312159, -0.0007344016, 0.0320882201, -0.0257114712, -0.0384873599, -0.0365121178, 0.0576240383, 0.0212236103, 0.0273277070, -0.0459260978, 0.0177957807, 0.0304273609, 0.0248934329, -0.0396984667, 0.0691544861, 0.0545239300, -0.0000718915, 0.0803120211, 0.0436455719, 0.0268703885, 0.0253148172, 0.0028380610, 0.0380993262, 0.0114301136, -0.0130767180, 0.0110807857, 0.0526427068, 0.0461914055, 0.0332374237, 0.0338040739, 0.1012570709, 0.0553827994, -0.0180531237, 0.0601190142, 0.1004606262, -0.0427574068, 0.0052626859, 0.0657257661, -0.0006225471, 0.0397844836, -0.0202515181, -0.1076858118, -0.0582717732, -0.0464095399, 0.0259500351, 0.0028481826, -0.0376952216, -0.0042582173, 0.0099667497, 0.0394508131, 0.0627949387, 0.0527750030, 0.0441612042, 0.0741803050, 0.0066353763, -0.0212592483, -0.0163193084, 0.0297138542, -0.0067307935, -0.0554097854, -0.0139140198, 0.0325395204, 0.0597564280, 0.0147202136, -0.0007743703, 0.0654834658, 0.0364059322, -0.0271191262, 0.0221250281, 0.0499844328, 0.0714175850, 0.0846717283, -0.0751377493, -0.1098127589, -0.1080750078, 0.0242166575, -0.0181831159, 0.0047706752, 0.0356526896, 0.0618554093, -0.0228201877, 0.0705677643, -0.0218047425, 0.0115147494, 0.0377839804, 0.0023931591, 0.0412349254, -0.0135903442, -0.0048795552, 0.0368380025, -0.0246923473, 0.0152466232, 0.0226693414, 0.0140448250, 0.0311245453, 0.0560063757, 0.0459276512, -0.0427835621, 0.0790464133, 0.0035078058, -0.0154077224, 0.0123468079, 0.0057078823, 0.0551531278, -0.1081016287, -0.0826120228, -0.0878349245, -0.0729777664, -0.0263191368, -0.0117794415, -0.0115747666, 0.0109241437, -0.0189211536, 0.0321212821, 0.0227652676, -0.0157332662, -0.0347512551, 0.0240212437, -0.0456627533, 0.0164239090, 0.0348175541, 0.0305425283, -0.0071869269, -0.0146223074, -0.0406396315, -0.0565770455, -0.0328139141, -0.0288953967, 0.0272268876, 0.0200129002, 0.0479296744, 0.0371383242, -0.0328251608, 0.0857397169, 0.0812021047, 0.0556255430, -0.0359851383, -0.0901877433, -0.0182984956, -0.0947974920, -0.0048062168, -0.0430989601, 0.0216720719, -0.0412718877, 0.0256321281, -0.0555460081, 0.0480860807, 0.0474713966, -0.0059512025, 0.0126794335, 0.0401547290, -0.0790042356, 0.0258030910, -0.0006707189, -0.0299657397, -0.0140181175, 0.0047399742, -0.0258463360, -0.0446361564, -0.0028251717, -0.0443847068, 0.0326493606, 0.0330097452, 0.0294829011, 0.0744706914, 0.0094492100, -0.0138430046, -0.0127220033, -0.0380065069, -0.0657035932, -0.0446498916, -0.0057221567, -0.0314263143, -0.0201013107, -0.0423927419, 0.0319047906, -0.0255755018, -0.0409084521, -0.0282547455, -0.0488582104, 0.0111292331, 0.0546847731, -0.0149864331, -0.0035287798, -0.0562209561, -0.0409280621, -0.0465854630, -0.0300540831, -0.0035929484, -0.0362202115, -0.0444958210, 0.0323083512, 0.0552544072, -0.0433437824, -0.0238187555, 0.0379386321, -0.0393116511, -0.0507905930, -0.0596136041, 0.0404854231, 0.0081285462, -0.0297950543, -0.0617775582, -0.0491431728, 0.0241001472, 0.0163067263, -0.0419760011, -0.0383147597, -0.0900461599, 0.0195885170, -0.0146637149, -0.0111217313, -0.0121781575, 0.0117085101, 0.0438818112, 0.0338931754, -0.0494654812, -0.0369183049, -0.0303777121, -0.0023208007, -0.0149785019, 0.0309289042, 0.0282398630, 0.0036762499, -0.0310858693, 0.0474289991, 0.0522858389, 0.0049772486, -0.0112370551, -0.0451378003, -0.0635244101, 0.0405128933, -0.0289763827, -0.0754706115, -0.0157327205, -0.0272052530, 0.0585196577, 0.0321000591, 0.0339482762, -0.0943830386, 0.0239776131, -0.0584198907, -0.0656455234, -0.0026829985, 0.0465300493, -0.0156293567, 0.0444324873, 0.0530230440, 0.0539405011, 0.0120947165, -0.0260098279, -0.0558587983, 0.0327110328, -0.0341983922, -0.0480595604, 0.0134638380, 0.0143275354, -0.0269390587, 0.0181437265, -0.0400191955, -0.0705005825, -0.0819283649, -0.0527045764, -0.0169874281, 0.0038002459, -0.0147757670, -0.0122617055, -0.0500039980, 0.0320400409, 0.0155714648, -0.0063895951, -0.0482906513, -0.0145346876, -0.0161769446, -0.0253954716, -0.0085680671, 0.0689600334, 0.0523209721, 0.0382870995, 0.0167922881, -0.0282403007, 0.0381082781, 0.0054367408, 0.0691921487, 0.0306164883, -0.0023249316, -0.0192979556, -0.0063597085, -0.0823297128, -0.0145706534, -0.0165171940, -0.0593349077, -0.0161819533, -0.0806003511, -0.0722674578, 0.0706522763, -0.0612804443, -0.0596845299, -0.0368809216, -0.0614194199, 0.0721143559, -0.0277188085, -0.0257832613, 0.0055915453, -0.0198032297, -0.0127332788, -0.0427831635, 0.0030433475, -0.0186809488, 0.0332429186, 0.0309551414, 0.0021185139, 0.0265043620, 0.0373160131, -0.0305510387, 0.0031009070, 0.0056296638, 0.0245315786, -0.0294941869, -0.0544650592, -0.0793566108, -0.0447773784, 0.0240036752, -0.0142902797, -0.0740529597, -0.0500759333, -0.0450514816, 0.0092350524, -0.0858422443, -0.0582793169, 0.0376491398, -0.0132874912, 0.0940193757, 0.0372406468, 0.0091851447, -0.0447175466, -0.0260162298, -0.0147154331, 0.0014692516, 0.0280314721, -0.0025716871, 0.0857939720, 0.0421279855, 0.0196303483, -0.0474908054, 0.0238974504, 0.0604584962, -0.0409322791, 0.0402941704, -0.0325482637, -0.0523390211, 0.0080146622, -0.0208911598, 0.0250167288, -0.0041840044, -0.0120813278, 0.0132525768, 0.0215526968, -0.0001196043, -0.0067482786, -0.0473651886, -0.0478284396, -0.0816962346, 0.0337001123, 0.0592457056, -0.0603108220, 0.0218382981, -0.0340061188, -0.0466978028, -0.0102901058, -0.0564531796, -0.0390418284, 0.0566698536, 0.0561492704, 0.0739778355, -0.0057889041, -0.0386445671, -0.0123723578, 0.0131642995, -0.0087470822, -0.0345692262, -0.0198482499, 0.0286638122, -0.0972158983, 0.0231074654, -0.0502108186, 0.0258577485, 0.0082111638, 0.0554687791, -0.0092411526, -0.0039439425, 0.0031774454, -0.0074609970, -0.0455124974, 0.0406234227, -0.0471296869, -0.0801129863, -0.0764629468, 0.0257662646, -0.0960068703, -0.0120529644, -0.0458602197, 0.0205833483, -0.0224078149, 0.0161337629, 0.0373971276, 0.0106057720, 0.0423000976, 0.0516317785, -0.0104270549, 0.0380234644, 0.0240050945, -0.0090255188, 0.0524951480, 0.0148839271, -0.0361078829, -0.0301657114, -0.0004514862, -0.0335516669, 0.0309350789, 0.0391793437, -0.0347349271, 0.0214032456, 0.0411611125, 0.0087474091, -0.0723921880, -0.0255180467, -0.0021606360, 0.0618425310, 0.0224831644, -0.0088135749, -0.0803670809, -0.0078630028, -0.0767174661, -0.0168533754, 0.0174051393, 0.0264548492, 0.0851568282, 0.0847327411, 0.0535698198, -0.0445216149, -0.0413022414, -0.0037752034, -0.0177291799, -0.0200226456, 0.0233127512, -0.0552820563, -0.0193712972, -0.0321215391, 0.0384583883, 0.0408049412, -0.0069678836, 0.0491888076, -0.0163019802, 0.0325616673, -0.0183099005, -0.0564814098, -0.0736751705, -0.0620972998, -0.0303195100, -0.0234986264, -0.0368318148, -0.0348259732, -0.0515949838, -0.0665063038, -0.0449090376, 0.0269000456, -0.0459884442, -0.0000371751, 0.0040896297, 0.0309108216, 0.0105842110, 0.0332107358, 0.0086471969, -0.0368821286, 0.0186206214, 0.0604594983, 0.0106399832, 0.0401564613, -0.0005123051, -0.0652826354, -0.0269475114, 0.0119036576, 0.0580647402, -0.0152601991, -0.0563020259, 0.0011226842, -0.0173712932, 0.0025807761, 0.0079241339, -0.0247332603, 0.0194105506, -0.0655092523, -0.0327944830, -0.0220165271, -0.0236649830, 0.0119190719, -0.0763653070, -0.0509231612, 0.0232016351, 0.0608626492, 0.0803053901, 0.0158000700, 0.0547103174, 0.0444743000, -0.0372224003, 0.0237812512, -0.0126627497, -0.0021887794, 0.0591936782, -0.0009570856, -0.0270794351, 0.0255910698, 0.0078169620, 0.0587678403, 0.0712767392, -0.0208737049, -0.0425558574, -0.0002195038, 0.0426114202, -0.0248170458, 0.0155078592, -0.0397796258, 0.0271144044, 0.0087973755, 0.0056572785, 0.0048232484, -0.0208386518, -0.0262255166, -0.0299581606, -0.0450714901, -0.0470823534, 0.0409258567, 0.0210203938, 0.0095905550, 0.0041058096, 0.0612689033, -0.0374746621, -0.0307361428, 0.0640155524, -0.0112118218, 0.1097654551, 0.0354981422, -0.0232409425, -0.0357077718, -0.0605047531, 0.0629905537, 0.0885214731, 0.0080605764, -0.0084658749, -0.0545072295, -0.0151803484, -0.0372305028, 0.0039891042, -0.0461903848, -0.0007795425, -0.0043962426, -0.0120976837, -0.0846936107, 0.0157027151, -0.0437817909, -0.0990816504, -0.0401077457, -0.0356092714, 0.0177538972, 0.0864756629, 0.0122558065, 0.0049194517, -0.0504467450, -0.0392214172, 0.0071607395, -0.0161235668, 0.0310319513, 0.0875209495, 0.0483319275, 0.0038450714, -0.0493087322, 0.0393119752, 0.0092452429, 0.0135056563, 0.0590480715, 0.0427814089, -0.0306854080, -0.0118424939, -0.0049363831, -0.0323316157, 0.0354384482, 0.0051683723, -0.0049145757, 0.0194736887, -0.0119561562, 0.0104087740, -0.0567063838, -0.0444074757, -0.0714586601, 0.0389057808, 0.0441168956, 0.0760774538, 0.0035986383, 0.0118455747, 0.0056893490, -0.0628118739, 0.0346964933, 0.0712020844, 0.0486192405, 0.0407635644, -0.0312830694, 0.0514368117, -0.0123815229, 0.0594340116, 0.0232240856, -0.0378947183, 0.0613362268, 0.0310418010, 0.0176907349, 0.0126367873, -0.0086458717, -0.0383509994, -0.0146399755, -0.0615478531, 0.0378289632, 0.0493230633, 0.0299871750, -0.0767941102, -0.0031535896, -0.0452652872, -0.0639700294, -0.0121915033, 0.0854286700, 0.0766941011, -0.0028100207, 0.0313093215, -0.0038793080, -0.0343939736, 0.0250226650, 0.0469233468, 0.1275767982, 0.1156884059, 0.0556416176, 0.0214137100, -0.0076119453, 0.0342333131, 0.0682204664, 0.0720615909, 0.0573148690, -0.0022012433, 0.0092541743, 0.0173050407, -0.0294921491, -0.0463551357, -0.0794948861, -0.0391088761, -0.0389292948, 0.0311757866, -0.0818231255, -0.1244525239, -0.0803789124, -0.0848881975, -0.0075895404, -0.0215293709, 0.0754550472, 0.1134032011, 0.0003721753, -0.0514382496, -0.0381700322, -0.0703695938, 0.0125284456, 0.0056771268, 0.0590542331, 0.0401016288, 0.0469140485, -0.0322799385, 0.0096839601, 0.0482505225, 0.0457981192, 0.0273884982, -0.0344072394, 0.0291208960, -0.0129261687, 0.0221099034, -0.0715800226, -0.0617141239, -0.0865402073, -0.0704231635, -0.0785165429, 0.0072910436, -0.0973862186, -0.0253613144, -0.0468887314, -0.0961448923, -0.0505232923, 0.0344701819, 0.0536127090, 0.0414672941, 0.0395727344, 0.0535260029, -0.0553909764, -0.0543361902, -0.0537426732, -0.0044109374, 0.0184886307, 0.0306442957, 0.0513684079, 0.0169784930, -0.0144467857, 0.1042807996, 0.0564968921, 0.1057861075, 0.0273967292, 0.0434378274, 0.0241951980, 0.0522783026, -0.0191414841, -0.0441418961, -0.0249385387, -0.0859370679, 0.0104922112, -0.0372186676, -0.0471794605, 0.0014905201, -0.0323005989, -0.0223536771, -0.0454470664, 0.0818431675, 0.0049893199, 0.0696028471, 0.0016791536, 0.0391559713, -0.0369968265, 0.0571518019, 0.0527116545, 0.0712472424, 0.0777941123, 0.1057109609, 0.0243790690, 0.0005132008, -0.0497437157, -0.0158604216, 0.0695686564, 0.0089071095, 0.0046332618, 0.0607703216, 0.0001763470, 0.0138287442, -0.0462530218, -0.0576734394, -0.0703577325, 